Model[0]
[array([[-0.11546178,  0.30360553,  0.12518577, ...,  0.11900976,
         0.3465662 ,  0.20603506],
       [ 0.08406683,  0.35385826, -0.08272418, ..., -0.11749523,
         0.00231186, -0.10244819],
       [ 0.3673617 ,  0.18625551, -0.11046467, ...,  0.2003948 ,
        -0.01144867, -0.0530586 ],
       ...,
       [ 0.18543135, -0.0378725 ,  0.13326584, ...,  0.3173922 ,
        -0.15192258, -0.01805295],
       [ 0.28320372, -0.09159917, -0.03531569, ..., -0.02752597,
         0.0580027 ,  0.0518068 ],
       [ 0.1464891 , -0.12370045, -0.24053642, ..., -0.23265515,
         0.4150095 ,  0.20893317]], dtype=float32), array([ 0.26790726,  0.17111103,  0.25092456, -0.00707392,  0.22488908,
        0.5597191 ,  0.        ,  0.24206673,  0.24680208, -0.01477946,
        0.15546997,  0.32875085,  0.16094354,  0.33386844,  0.21508926,
        0.2691791 ], dtype=float32), array([[-4.54177745e-02, -9.98172760e-01, -1.05635273e+00,
        -1.21868506e-01, -9.97486711e-02, -3.57184827e-01,
         1.72891960e-01,  2.34800279e-02,  3.17240879e-02,
        -6.09107688e-02,  1.49489433e-01, -2.31220588e-01,
        -1.29948765e-01,  1.11826576e-01,  1.46303311e-01,
         9.07418728e-02],
       [-2.31058568e-01, -2.34865006e-02,  3.38166431e-02,
        -2.15281159e-01,  1.02182589e-01,  6.47925287e-02,
        -7.32008368e-02, -6.01859018e-02, -2.38449853e-02,
        -7.79254213e-02,  4.91028652e-02, -1.95421949e-01,
        -3.79815847e-01,  4.28446976e-04, -2.37834513e-01,
        -5.01370668e-01],
       [-1.34718820e-01, -9.83054787e-02,  6.29498810e-02,
        -7.79312477e-02, -2.19680190e-01,  3.31744850e-02,
        -3.83543640e-01, -2.81658053e-01,  7.61026563e-03,
        -2.18715239e-02,  1.69571862e-02,  4.32595983e-02,
        -2.66457945e-01, -4.86932307e-01,  5.85879236e-02,
        -7.09236562e-02],
       [ 3.16037200e-02, -5.29426821e-02, -2.84790080e-02,
         1.79003924e-02,  2.15096269e-02,  2.69848690e-03,
         2.87060849e-02, -4.92333584e-02,  4.19904701e-02,
        -4.13286835e-02, -7.80901639e-03,  4.06951346e-02,
        -4.82759885e-02, -6.36678655e-03,  2.93729156e-02,
         1.14241866e-02],
       [ 3.06699704e-02,  2.45837700e-02,  3.45723964e-02,
        -3.46395522e-02, -2.56629765e-01, -1.12361580e-01,
        -1.92873433e-01, -2.45891616e-01, -3.27008456e-01,
         3.85275148e-02, -1.16574839e-01, -1.66651651e-01,
        -2.26577699e-01, -2.62646794e-01, -2.44973656e-02,
         1.97367743e-02],
       [-6.15375221e-01,  3.48540172e-02, -2.93003917e-01,
        -1.43579274e-01, -2.06012741e-01, -5.71764708e-01,
        -2.69502252e-01,  2.68919906e-03,  1.14748470e-01,
        -5.96177340e-01, -7.59504020e-01,  7.12277666e-02,
         1.36174262e-01,  1.00727290e-01, -3.11371177e-01,
         1.67755589e-01],
       [-8.30519199e-03, -4.00559530e-02,  2.12860368e-02,
        -2.65024789e-02, -1.56027563e-02, -1.55990720e-02,
         2.22840160e-03,  1.73729695e-02, -3.32598463e-02,
         2.74469592e-02,  1.52420662e-02, -8.58713314e-03,
        -3.25179845e-02, -2.05687433e-03,  3.05655040e-02,
         3.66352499e-04],
       [ 6.34833127e-02,  1.24340840e-02, -2.46605165e-02,
        -2.31835339e-02, -2.00052544e-01,  5.32588884e-02,
        -9.81090069e-02, -1.34274706e-01, -4.87465352e-01,
         8.08769092e-02, -9.41805243e-02, -2.66530752e-01,
        -9.59698707e-02, -1.50713205e-01, -4.57911342e-02,
        -3.60478431e-01],
       [-1.26101822e-01, -1.23170301e-01,  1.63706485e-02,
        -2.04409733e-01,  7.13405833e-02, -5.63501455e-02,
        -5.12908623e-02,  2.89185923e-02, -4.45468538e-02,
        -2.46080905e-01, -2.32971400e-01,  3.46821919e-02,
        -1.03997692e-01, -2.61281550e-01, -2.71264851e-01,
        -1.53605297e-01],
       [ 2.33880747e-02, -1.09916544e-02,  1.87253170e-02,
         1.63843893e-02,  3.09558585e-02,  1.15981326e-02,
         1.12750651e-02,  8.90687667e-03,  1.77349057e-02,
        -2.64858268e-02, -3.86235230e-02, -4.37482214e-03,
        -2.72211712e-02, -3.14237997e-02, -3.33410800e-02,
         8.90241563e-03],
       [-1.87838197e-01, -2.45063558e-01, -8.69866759e-02,
         3.34231891e-02, -1.73018724e-01,  7.20376745e-02,
        -6.15294315e-02,  4.40172926e-02, -9.61992145e-02,
        -1.10482141e-01, -2.56116152e-01, -1.01959638e-01,
         1.41081233e-02, -1.55266881e-01, -1.46833599e-01,
        -2.21527964e-01],
       [-6.19135201e-02,  3.17258425e-02, -2.08223984e-02,
        -3.68086547e-01,  6.67918250e-02, -2.08227023e-01,
         7.37020001e-02, -4.34029371e-01, -2.71523297e-01,
        -7.57770389e-02,  1.61720701e-02, -2.91162450e-02,
         6.33284450e-02, -8.68317932e-02, -2.53347665e-01,
        -2.43012801e-01],
       [ 4.22979295e-02, -8.91613401e-03, -3.46204787e-02,
         8.05344805e-02, -1.25246942e-01,  4.96187806e-03,
        -1.17117025e-01, -1.19100064e-01, -1.39843121e-01,
        -4.55923900e-02, -2.29065090e-01, -3.16570401e-01,
        -3.68528843e-01, -2.05830470e-01,  3.66000249e-03,
        -1.64445832e-01],
       [-3.09531659e-01, -2.96886802e-01, -2.53820360e-01,
        -3.45070250e-02, -3.58126551e-01,  4.50153537e-02,
        -3.85349005e-01,  7.10025430e-02,  5.09625375e-02,
        -3.04619968e-01, -1.45785704e-01,  3.64589393e-02,
        -5.04898615e-02, -1.23246811e-01, -1.33899838e-01,
        -5.41423028e-03],
       [-1.09349012e-01,  6.41722083e-02, -1.48139810e-02,
        -7.63665959e-02, -1.55891720e-02, -6.74779862e-02,
         1.30047314e-02, -3.16440970e-01, -2.35869065e-01,
        -6.79270774e-02, -2.07568303e-01, -1.04505263e-01,
         6.14346191e-03, -2.50527672e-02, -2.59404540e-01,
        -3.39486450e-01],
       [-7.66388252e-02,  6.89605018e-03,  7.85283297e-02,
        -5.67046367e-02,  1.03784003e-03, -1.23269208e-01,
        -9.18344706e-02, -1.64127007e-01, -2.13029087e-01,
        -1.33561134e-01, -3.11036527e-01, -2.87131947e-02,
        -5.62819168e-02, -1.33100122e-01, -2.73428172e-01,
        -1.80297300e-01]], dtype=float32), array([-0.04568449, -0.03010183, -0.00764595, -0.03376282, -0.0329696 ,
       -0.0721013 , -0.15979359, -0.03633256, -0.22123699, -0.18668342,
       -0.06847241, -0.00998814, -0.03349738, -0.1401863 , -0.17339018,
       -0.05345614], dtype=float32)]

Model[1]
[array([[-0.5388222 ,  0.7574696 ,  0.4630322 , ...,  0.43697542,
         0.7662499 ,  0.26864788],
       [ 0.41330346,  0.87091684, -0.07351912, ...,  0.00629704,
         0.44027188, -0.39494193],
       [ 0.803818  ,  0.50695443, -0.3755988 , ...,  0.6967636 ,
        -0.09220352, -0.25513747],
       ...,
       [ 0.4376374 , -0.26516366,  0.31111062, ...,  0.5202792 ,
        -0.2847393 , -0.08948709],
       [ 0.3834386 , -0.04007359,  0.23501839, ..., -0.281506  ,
         0.05977349,  0.21548599],
       [ 0.40573686, -0.8462213 , -0.80328137, ..., -0.84061605,
         0.9908047 ,  0.35026768]], dtype=float32), array([ 0.19627382,  0.26205796,  0.45549294, -0.03159454,  0.45459402,
        1.0377785 , -0.02969118,  0.1459877 ,  0.71540445,  0.58767796,
        0.16844468,  0.55012685,  0.38709396,  0.74954116,  0.26780397,
        0.88208336], dtype=float32), array([[ 2.54173782e-02, -1.73386955e+00, -2.62055326e+00,
        -4.88702983e-01, -3.04188669e-01, -1.03570569e+00,
         4.82158601e-01,  2.45786145e-01,  1.53631836e-01,
        -1.45196229e-01,  3.60749900e-01, -7.51356363e-01,
        -1.37772799e-01,  3.88093829e-01,  3.62470090e-01,
         4.27753955e-01],
       [-1.11399591e+00,  1.51112050e-01, -1.96699560e-01,
        -8.12591672e-01,  7.04531431e-01,  3.58607054e-01,
        -2.12927982e-01,  1.28347948e-01,  1.30044162e-01,
         9.96137038e-02,  4.11650509e-01, -6.83301985e-02,
        -2.11179852e+00,  3.21334958e-01, -5.33609390e-01,
        -1.53702831e+00],
       [-3.06037098e-01, -1.97456673e-01,  1.00437917e-01,
        -1.76520899e-01,  8.49657208e-02,  3.30316812e-01,
        -1.60570300e+00, -1.29516566e+00,  2.39515468e-01,
         1.35588229e-01,  3.17935318e-01,  5.84378660e-01,
        -7.33424306e-01, -1.27409351e+00,  3.03638130e-01,
        -2.28571501e-02],
       [ 3.10510453e-02, -5.30760624e-02, -2.87500210e-02,
         1.79003924e-02,  2.85328627e-02,  2.56549823e-03,
         1.94684584e-02, -4.92340587e-02,  4.19738814e-02,
        -4.13296968e-02, -7.90441595e-03,  4.06836644e-02,
        -4.82759885e-02, -6.37265388e-03,  2.93729156e-02,
         1.14241866e-02],
       [ 1.52900040e-01,  2.06902161e-01,  9.56265405e-02,
         8.92177522e-02, -2.00757933e+00, -7.96234250e-01,
        -5.12670696e-01, -9.38908756e-01, -1.46059239e+00,
         2.85981983e-01, -5.76896407e-02,  2.46740267e-01,
        -8.24819386e-01, -6.22266591e-01,  1.15216248e-01,
         5.27231455e-01],
       [-1.95898807e+00,  5.84068120e-01, -7.56612897e-01,
        -9.78882909e-02, -1.80032000e-01, -1.83742726e+00,
        -7.25334108e-01,  6.18264563e-02,  2.45636404e-01,
        -1.94852054e+00, -1.29723668e+00,  1.94948047e-01,
         3.36088628e-01,  4.50165361e-01, -4.87918258e-01,
         4.75203812e-01],
       [-3.64903659e-02, -1.05166612e-02, -8.41997564e-03,
        -5.16986363e-02, -3.26974429e-02, -4.30134200e-02,
        -1.88577957e-02,  1.73729695e-02, -3.32598463e-02,
        -2.24487460e-03,  1.02973292e-02, -1.99173484e-02,
        -4.79260907e-02, -6.83702715e-03,  2.89334767e-02,
         3.23094573e-04],
       [ 2.41246954e-01,  1.65344998e-01, -5.35611510e-02,
         2.66815387e-02, -1.01765776e+00,  2.33679175e-01,
         9.25174952e-02,  2.86386490e-01, -1.82760262e+00,
         2.87756801e-01, -1.37983084e-01, -7.77538717e-01,
         3.29536974e-01, -1.73433591e-03,  1.02915153e-01,
        -7.53421903e-01],
       [ 5.72281659e-01, -7.57058084e-01,  3.43694896e-01,
        -1.08162844e+00,  3.32117796e-01,  9.55380723e-02,
        -2.10484639e-02,  4.08410937e-01,  3.06773279e-02,
        -1.66121554e+00, -5.29692508e-02,  4.56674457e-01,
        -2.10167155e-01, -1.54373574e+00, -1.86324143e+00,
        -1.70558929e-01],
       [ 7.98385382e-01, -1.30725908e+00,  9.13356781e-01,
         3.58460903e-01,  8.20683777e-01, -6.44571304e-01,
        -7.83521056e-01,  2.30516847e-02, -2.59827346e-01,
        -1.12355053e+00, -8.20042014e-01,  4.58496958e-01,
        -1.72203624e+00, -1.39015484e+00, -1.16178833e-01,
         3.45343202e-01],
       [-1.25641441e+00, -1.23643112e+00,  4.42772776e-01,
         3.39245319e-01, -6.79823041e-01,  3.13986152e-01,
         3.93273413e-01,  4.40261990e-01, -3.96735847e-01,
         7.49954134e-02, -1.19971514e+00, -1.39524043e-01,
         5.87894559e-01, -1.47035897e+00,  4.21912502e-03,
        -1.46930110e+00],
       [ 4.59877066e-02,  1.70624390e-01, -3.37268971e-02,
        -2.36453533e+00,  5.81826866e-02, -6.92788363e-01,
         2.38611385e-01, -1.49286342e+00, -3.59077632e-01,
        -2.39040684e-02,  3.37220699e-01,  8.86934847e-02,
         3.62078369e-01,  6.63115233e-02, -6.52166545e-01,
        -4.05575395e-01],
       [ 2.94746131e-01,  2.49187022e-01, -1.07609160e-01,
         3.56293589e-01,  3.80466953e-02,  2.30590954e-01,
        -7.70160034e-02,  2.70992983e-03, -9.61214378e-02,
        -4.19920087e-02, -1.01706600e+00, -2.04140759e+00,
        -7.39566803e-01, -5.18775105e-01,  2.84767300e-01,
         1.69655010e-01],
       [-8.90941441e-01, -8.93872321e-01, -1.22248602e+00,
        -8.71291384e-02, -1.20564055e+00,  4.21161711e-01,
        -1.77899802e+00,  2.33493984e-01,  2.15534016e-01,
        -1.68472278e+00,  2.45586768e-01,  4.03928518e-01,
        -4.72981744e-02,  1.86613619e-01, -1.07504368e-01,
         1.07316524e-01],
       [-4.63790655e-01,  3.00046802e-01, -5.27117550e-02,
         5.93735993e-01,  8.82885084e-02,  4.77557331e-02,
         1.37020424e-01, -1.58329535e+00, -7.04839945e-01,
         2.10960209e-01, -7.22947180e-01, -1.37621164e-01,
         4.09726262e-01,  2.58315951e-01, -1.64860845e+00,
        -1.44761777e+00],
       [ 1.58215165e-01, -5.04355729e-02,  5.13264179e-01,
         6.80963635e-01,  1.01428755e-01, -1.25901270e+00,
        -2.26855814e-01, -6.72920108e-01, -1.47403669e+00,
        -5.18157482e-01, -1.30360639e+00,  3.63240063e-01,
         1.74622625e-01, -7.73115933e-01, -1.81181133e+00,
         4.00730744e-02]], dtype=float32), array([ 0.06363281,  0.04317107, -0.12641849,  0.01053875,  0.12569655,
       -0.21250875, -0.34912798,  0.17708549, -0.5633074 , -0.3914266 ,
        0.04535823,  0.21358854,  0.03009076, -0.07322056, -0.26510563,
        0.10033789], dtype=float32)]

Model[2]
[array([[-0.7686492 ,  0.7834662 ,  0.41738436, ...,  0.38296437,
         0.68354297,  0.22008453],
       [ 0.64274704,  0.9442603 , -0.13948378, ..., -0.08465921,
         0.50813663, -0.48320004],
       [ 0.99168   ,  0.41490832, -0.4875079 , ...,  0.7195429 ,
         0.02984618, -0.3072283 ],
       ...,
       [ 0.6171888 , -0.1294492 ,  0.30454347, ...,  0.49044764,
        -0.2666316 , -0.18216777],
       [ 0.41440848,  0.11831374,  0.15945873, ..., -0.58862174,
         0.31773883,  0.41753116],
       [ 0.01121186, -1.0021241 , -0.91230994, ..., -1.1608869 ,
         1.1068898 ,  0.40238824]], dtype=float32), array([ 0.05128463,  0.19368207,  0.41044793, -0.03159454,  0.6014002 ,
        1.1353524 , -0.02969118,  0.01945448,  0.77901167,  0.7141851 ,
        0.21329014,  0.47722164,  0.2754877 ,  0.82779205,  0.26711485,
        1.0159497 ], dtype=float32), array([[ 6.86329082e-02, -2.29908872e+00, -2.54594994e+00,
        -4.16689515e-01, -3.19652975e-01, -1.31248522e+00,
         5.34229577e-01,  1.79756805e-01,  1.55784294e-01,
        -2.24514708e-01,  4.07077402e-01, -8.97582650e-01,
        -2.05269262e-01,  4.78647649e-01,  3.58472317e-01,
         4.87371862e-01],
       [-1.31846344e+00,  1.45034656e-01, -2.56173909e-01,
        -9.34112787e-01,  7.66452551e-01,  3.67194355e-01,
        -1.49582267e-01,  1.59731075e-01,  9.32624340e-02,
         5.65570965e-02,  5.86756945e-01, -2.05480516e-01,
        -2.16682506e+00,  4.22152996e-01, -4.16045904e-01,
        -1.69290340e+00],
       [-3.31533998e-01, -2.11814612e-01,  1.03883468e-01,
        -2.87342995e-01,  7.38271624e-02,  3.75505835e-01,
        -1.83815086e+00, -1.55943179e+00,  3.34980547e-01,
         8.06481093e-02,  3.46587002e-01,  7.50691712e-01,
        -6.93621397e-01, -1.31968856e+00,  4.12203848e-01,
        -1.21663295e-01],
       [ 3.10510453e-02, -5.30760624e-02, -2.87500210e-02,
         1.79003924e-02,  2.85328627e-02,  2.56549823e-03,
         1.94684584e-02, -4.92340587e-02,  4.19738814e-02,
        -4.13296968e-02, -7.90441595e-03,  4.06836644e-02,
        -4.82759885e-02, -6.37265388e-03,  2.93729156e-02,
         1.14241866e-02],
       [ 1.79305777e-01,  3.99799109e-01, -2.62925830e-02,
         6.21105582e-02, -2.44624639e+00, -1.13888085e+00,
        -7.59655356e-01, -9.88542914e-01, -2.14058089e+00,
         3.54478538e-01, -1.50375590e-01,  3.90639246e-01,
        -9.57298815e-01, -7.96932220e-01,  8.26676786e-02,
         6.50159895e-01],
       [-2.53558922e+00,  8.19126010e-01, -1.00335717e+00,
        -7.46929199e-02, -6.82986826e-02, -2.08870697e+00,
        -9.46552992e-01,  9.01769008e-03,  2.46489853e-01,
        -2.87108111e+00, -1.67518413e+00,  1.83745801e-01,
         3.75191987e-01,  5.14642954e-01, -5.45484245e-01,
         6.02812707e-01],
       [-3.64903659e-02, -1.05166612e-02, -8.41997564e-03,
        -5.16986363e-02, -3.26974429e-02, -4.30134200e-02,
        -1.88577957e-02,  1.73729695e-02, -3.32598463e-02,
        -2.24487460e-03,  1.02973292e-02, -1.99173484e-02,
        -4.79260907e-02, -6.83702715e-03,  2.89334767e-02,
         3.23094573e-04],
       [ 3.49290192e-01,  2.45300248e-01, -8.54069069e-02,
        -3.07972240e-03, -1.41785944e+00,  1.27682462e-01,
        -1.15973977e-02,  4.51292366e-01, -2.17363858e+00,
         3.50892484e-01, -4.78477962e-02, -8.44577372e-01,
         3.78689945e-01,  8.50699171e-02,  5.44907749e-02,
        -9.11960244e-01],
       [ 9.78478134e-01, -8.17573309e-01,  2.77365535e-01,
        -1.22651577e+00,  2.88522571e-01,  2.10904479e-01,
        -2.65083369e-02,  5.51433980e-01,  6.64002746e-02,
        -1.93595326e+00, -8.10103342e-02,  4.61922854e-01,
        -2.91681617e-01, -1.86242640e+00, -2.30667114e+00,
        -1.81983292e-01],
       [ 9.37536597e-01, -1.57151628e+00,  1.00698078e+00,
         4.04453158e-01,  1.14976537e+00, -9.00936544e-01,
        -1.28233552e+00,  1.56963374e-02, -6.36324763e-01,
        -1.58228886e+00, -1.41259432e+00,  2.50307918e-01,
        -1.89091659e+00, -1.58784318e+00,  6.94444180e-02,
         3.73000830e-01],
       [-1.57330167e+00, -1.38372982e+00,  5.91561913e-01,
         4.52979505e-01, -6.98484898e-01,  3.00655752e-01,
         4.52245235e-01,  4.50741261e-01, -2.92722970e-01,
         8.56309012e-03, -1.15986526e+00, -1.74897358e-01,
         6.90672755e-01, -1.68218136e+00,  8.95851851e-02,
        -2.16034603e+00],
       [ 1.75872505e-01,  2.07064778e-01, -4.47270572e-02,
        -3.04005599e+00, -4.99547049e-02, -8.87637317e-01,
         2.46236026e-01, -1.51600099e+00, -1.07577451e-01,
        -2.72613876e-02,  4.23939675e-01,  2.31526848e-02,
         3.95696282e-01,  8.56163874e-02, -7.04289436e-01,
        -4.69421625e-01],
       [ 3.96881551e-01,  3.92063022e-01, -2.08915845e-01,
         3.80644590e-01,  1.11393347e-01,  2.51810253e-01,
        -1.55550465e-01, -5.33157922e-02, -1.16152517e-01,
        -6.94852322e-02, -1.15605903e+00, -2.09793735e+00,
        -8.35297525e-01, -4.86196518e-01,  2.81077385e-01,
         1.93485662e-01],
       [-7.95316398e-01, -9.77803290e-01, -1.65104818e+00,
        -9.70334634e-02, -1.61341214e+00,  6.37568533e-01,
        -2.07613468e+00,  1.66810393e-01,  2.40690172e-01,
        -1.93491280e+00,  2.36370608e-01,  4.69474226e-01,
         7.12114945e-02,  2.24637672e-01, -2.08775606e-02,
         6.87459856e-02],
       [-4.99873221e-01,  3.69839758e-01, -6.66087046e-02,
         8.26011181e-01,  1.13970093e-01,  1.00772031e-01,
         1.04311667e-01, -1.74438417e+00, -7.47876823e-01,
         3.68996799e-01, -6.61611319e-01, -2.37677738e-01,
         5.18344998e-01,  3.84029269e-01, -1.97612512e+00,
        -1.58416927e+00],
       [ 1.05082721e-01,  8.18372965e-02,  5.21919429e-01,
         9.48950410e-01,  2.60917693e-01, -1.64746487e+00,
        -2.79810667e-01, -8.58559310e-01, -2.00307703e+00,
        -1.05864239e+00, -1.98838711e+00,  3.71250987e-01,
         1.46258309e-01, -1.24759710e+00, -2.04050136e+00,
         2.76161641e-01]], dtype=float32), array([ 0.10015615,  0.06361208, -0.21868108, -0.0091907 ,  0.14252545,
       -0.35697818, -0.5771569 ,  0.20677039, -0.72034436, -0.56844383,
       -0.01297265,  0.19783762,  0.03075878, -0.10991651, -0.3644991 ,
        0.10529283], dtype=float32)]

Model[3]
[array([[-0.76839834,  0.49177477,  0.21635732, ...,  0.24968524,
         0.6814749 ,  0.01276664],
       [ 1.0082397 ,  0.85493475, -0.21373476, ...,  0.01132863,
         0.7612107 , -0.47350517],
       [ 0.98805887,  0.5739124 , -0.7176645 , ...,  0.9840895 ,
         0.05701189, -0.2629595 ],
       ...,
       [ 0.9171903 , -0.3012835 ,  0.04433244, ...,  0.55008626,
        -0.34660268, -0.19919273],
       [ 0.54208493,  0.08971947,  0.10304095, ..., -0.39293724,
         0.5186162 ,  0.44347087],
       [-0.25464177, -1.144617  , -1.0576471 , ..., -1.0371034 ,
         1.0082105 ,  0.49587196]], dtype=float32), array([-0.01037857,  0.10703519,  0.2690944 , -0.03159454,  0.7335726 ,
        1.2823589 , -0.02969118, -0.10948794,  0.9298458 ,  0.8564064 ,
        0.15547484,  0.32762408,  0.19320048,  0.89943415,  0.13734435,
        1.1064323 ], dtype=float32), array([[ 4.14845608e-02, -2.34322381e+00, -2.86250758e+00,
        -4.43134755e-01, -2.74117917e-01, -1.45773220e+00,
         5.13506711e-01,  1.23043299e-01,  2.32663348e-01,
        -1.88346073e-01,  3.89636129e-01, -9.68595147e-01,
        -2.78119087e-01,  5.26887536e-01,  3.10370028e-01,
         6.27470315e-01],
       [-1.43903911e+00,  1.61508799e-01, -1.66519091e-01,
        -9.53241348e-01,  8.33504796e-01,  4.41012472e-01,
        -1.52457505e-01,  3.10575545e-01,  9.11686942e-02,
         2.18198031e-01,  6.36841059e-01, -2.54332989e-01,
        -2.19545889e+00,  4.83276695e-01, -4.30705726e-01,
        -1.68505514e+00],
       [-3.23750585e-01, -4.37729299e-01,  2.46624574e-01,
        -3.36534202e-01,  7.62061775e-02,  3.12298059e-01,
        -1.94085932e+00, -1.70989966e+00,  3.78681630e-01,
         1.37579352e-01,  4.03768450e-01,  7.40991294e-01,
        -5.97515941e-01, -1.30553877e+00,  5.12295127e-01,
        -2.52273977e-01],
       [ 3.10510453e-02, -5.30760624e-02, -2.87500210e-02,
         1.79003924e-02,  2.85328627e-02,  2.56549823e-03,
         1.94684584e-02, -4.92340587e-02,  4.19738814e-02,
        -4.13296968e-02, -7.90441595e-03,  4.06836644e-02,
        -4.82759885e-02, -6.37265388e-03,  2.93729156e-02,
         1.14241866e-02],
       [ 2.24440008e-01,  3.96043032e-01,  5.14969863e-02,
        -3.05616353e-02, -2.98533010e+00, -1.20185041e+00,
        -1.04262412e+00, -7.54688799e-01, -2.32233572e+00,
         4.17235106e-01, -3.04191530e-01,  5.49037457e-01,
        -1.14095867e+00, -9.59471822e-01, -1.50929326e-02,
         7.76890278e-01],
       [-3.05029964e+00,  8.80886972e-01, -1.11213577e+00,
        -1.99833345e-02, -2.96444446e-02, -1.83588779e+00,
        -1.05689168e+00,  1.36264369e-01,  2.98208535e-01,
        -3.25671530e+00, -2.27500606e+00,  2.31730118e-01,
         5.16867936e-01,  5.72641015e-01, -7.10478425e-01,
         6.46797121e-01],
       [-3.64903659e-02, -1.05166612e-02, -8.41997564e-03,
        -5.16986363e-02, -3.26974429e-02, -4.30134200e-02,
        -1.88577957e-02,  1.73729695e-02, -3.32598463e-02,
        -2.24487460e-03,  1.02973292e-02, -1.99173484e-02,
        -4.79260907e-02, -6.83702715e-03,  2.89334767e-02,
         3.23094573e-04],
       [ 5.07367432e-01,  2.87676185e-01,  1.12970350e-02,
        -1.78391233e-01, -1.51681519e+00,  1.92972869e-01,
        -2.81178862e-01,  4.68226254e-01, -2.24652386e+00,
         2.91084975e-01, -1.61154211e-01, -1.02062094e+00,
         5.09114981e-01,  1.27795026e-01,  3.20668556e-02,
        -9.86290634e-01],
       [ 1.29577029e+00, -8.94979417e-01,  1.72641575e-01,
        -1.57345343e+00,  3.38770486e-02,  4.20029968e-01,
         2.84372836e-01,  6.89284682e-01,  1.53872594e-01,
        -2.20048189e+00,  8.68691877e-02,  4.37098086e-01,
        -2.47073948e-01, -2.55584550e+00, -2.83910823e+00,
        -1.52993828e-01],
       [ 1.05622697e+00, -2.15090322e+00,  9.74716127e-01,
         4.29799795e-01,  1.17990363e+00, -1.47805715e+00,
        -1.38451207e+00,  3.02318871e-01, -9.03319240e-01,
        -1.57303607e+00, -1.81965685e+00,  6.25646591e-01,
        -2.07942295e+00, -1.41190279e+00, -4.74396385e-02,
         4.38642532e-01],
       [-1.66134036e+00, -1.65993249e+00,  7.16376305e-01,
         3.36821139e-01, -6.15238070e-01,  2.40768060e-01,
         5.60933113e-01,  4.19128299e-01, -2.26630434e-01,
        -5.01544774e-03, -1.13262498e+00, -1.91955432e-01,
         5.82388937e-01, -1.72628558e+00,  2.65760452e-01,
        -2.20749569e+00],
       [ 2.30886579e-01,  2.29489729e-01,  8.82198438e-02,
        -3.48768973e+00, -1.50385529e-01, -9.13245201e-01,
         3.11489373e-01, -1.77172959e+00, -4.68060970e-02,
        -1.01087028e-02,  3.61424893e-01, -1.82586193e-01,
         5.95574379e-01,  7.95612261e-02, -9.27775621e-01,
        -4.54693466e-01],
       [ 4.53226089e-01,  4.13838655e-01, -2.50329405e-01,
         2.76189923e-01,  1.50680035e-01,  3.56813788e-01,
        -1.05756305e-01, -8.29633027e-02,  5.25868572e-02,
        -2.04909846e-01, -1.34878945e+00, -2.33186078e+00,
        -7.22081602e-01, -5.42914748e-01,  2.42863595e-01,
         4.16686386e-01],
       [-7.13340580e-01, -1.31305480e+00, -1.88366425e+00,
        -5.53269498e-02, -2.01904178e+00,  8.10500324e-01,
        -2.15701699e+00,  1.02158271e-01,  2.16337174e-01,
        -2.21457911e+00,  1.86895952e-01,  4.74023730e-01,
         1.60939604e-01,  3.36342871e-01, -8.92549604e-02,
        -2.33737137e-02],
       [-6.39413595e-01,  2.20067769e-01, -4.18210365e-02,
         9.77159619e-01,  1.31244436e-01,  2.04444334e-01,
         2.34168638e-02, -2.09501815e+00, -1.01697493e+00,
         3.50846738e-01, -1.05216217e+00, -4.22204107e-01,
         5.91431022e-01,  5.51026106e-01, -2.26288724e+00,
        -1.43613482e+00],
       [-5.51511012e-02, -1.81218147e-01,  5.12383580e-01,
         1.20959401e+00,  2.03303099e-01, -1.85751033e+00,
        -1.40381515e-01, -1.19070864e+00, -2.63893819e+00,
        -1.09488177e+00, -2.99292827e+00,  4.34111476e-01,
        -1.73961401e-01, -1.41058755e+00, -2.42525005e+00,
         4.61185902e-01]], dtype=float32), array([ 0.12928817,  0.02031728, -0.25228423, -0.10135379,  0.11930479,
       -0.363816  , -0.72102517,  0.28230697, -0.8387717 , -0.69486046,
       -0.159764  ,  0.1782548 ,  0.0521049 , -0.15029214, -0.5254316 ,
        0.21149823], dtype=float32)]

Model[4]
[array([[-1.1556293 ,  0.21673429,  0.28433108, ...,  0.3566061 ,
         0.8852413 , -0.16168894],
       [ 1.4115318 ,  0.71019405, -0.11168264, ...,  0.2970377 ,
         1.0020863 , -0.46186095],
       [ 0.93321484,  0.79898375, -0.37150127, ...,  1.4938875 ,
        -0.03893274, -0.40433022],
       ...,
       [ 0.7115969 , -0.24237928, -0.20735179, ...,  0.7937782 ,
        -0.02713003, -0.27857795],
       [ 0.7468903 , -0.33369592, -0.00975186, ..., -0.46778154,
         0.6308832 ,  0.23875438],
       [-0.10146662, -1.2386935 , -1.0207187 , ..., -1.2747631 ,
         0.73060185,  0.41007084]], dtype=float32), array([-0.14273599, -0.17730084,  0.19606225, -0.03159454,  0.70646656,
        1.3827059 , -0.02969118, -0.10276239,  1.0947567 ,  0.9567165 ,
       -0.0432382 ,  0.3041213 , -0.01760463,  0.8796628 ,  0.19247139,
        1.2369086 ], dtype=float32), array([[-1.4794581e-01, -2.5498159e+00, -3.0556972e+00, -3.7426576e-01,
        -1.7190623e-01, -1.5370213e+00,  6.2761766e-01,  2.7206510e-02,
         6.7480788e-02, -2.4300997e-01,  3.4967396e-01, -8.5988694e-01,
        -3.4099028e-01,  5.1447868e-01,  4.4845963e-01,  5.7684916e-01],
       [-1.5967615e+00,  2.3075311e-01, -1.3503221e-01, -7.9352587e-01,
         9.1696548e-01,  2.9539666e-01, -2.1547827e-01,  2.4832012e-01,
        -1.7035694e-01,  1.3792913e-01,  8.7869060e-01, -2.4595822e-01,
        -2.3208976e+00,  4.5783296e-01, -4.9559140e-01, -1.9877666e+00],
       [-6.1404306e-02, -1.8632029e-01,  8.7053508e-02, -1.0804226e-01,
        -1.6066781e-01,  3.6104238e-01, -2.2502837e+00, -1.7124764e+00,
         4.8692617e-01,  4.8129968e-02,  4.9935499e-01,  6.0532981e-01,
        -4.1324654e-01, -1.9466915e+00,  5.9306514e-01, -4.1091385e-01],
       [ 3.1051045e-02, -5.3076062e-02, -2.8750021e-02,  1.7900392e-02,
         2.8532863e-02,  2.5654982e-03,  1.9468458e-02, -4.9234059e-02,
         4.1973881e-02, -4.1329697e-02, -7.9044160e-03,  4.0683664e-02,
        -4.8275989e-02, -6.3726539e-03,  2.9372916e-02,  1.1424187e-02],
       [ 2.1837832e-01,  4.4596419e-01, -3.1703570e-01, -2.1659425e-01,
        -3.0994992e+00, -1.1657569e+00, -7.2433466e-01, -5.7001168e-01,
        -2.5490890e+00,  3.9140892e-01, -3.1633908e-01,  9.0388608e-01,
        -1.3225896e+00, -1.2911087e+00,  9.6689396e-02,  9.0576422e-01],
       [-3.2847183e+00,  1.0522593e+00, -9.1930896e-01,  1.7921296e-01,
        -2.8478077e-01, -1.7936857e+00, -1.0111539e+00,  1.8786092e-01,
         2.0615461e-01, -3.6027765e+00, -2.8055077e+00,  3.1114945e-01,
         4.6471971e-01,  4.3169513e-01, -6.9819570e-01,  6.0516435e-01],
       [-3.6490366e-02, -1.0516661e-02, -8.4199756e-03, -5.1698636e-02,
        -3.2697443e-02, -4.3013420e-02, -1.8857796e-02,  1.7372970e-02,
        -3.3259846e-02, -2.2448746e-03,  1.0297329e-02, -1.9917348e-02,
        -4.7926091e-02, -6.8370271e-03,  2.8933477e-02,  3.2309457e-04],
       [ 5.7647955e-01,  2.3666830e-01, -2.3838879e-01, -4.4707048e-01,
        -1.6968522e+00,  1.5851642e-01, -2.0769839e-01,  7.4818665e-01,
        -2.5020282e+00,  3.2987848e-01, -9.6092589e-02, -6.5717447e-01,
         1.7106090e-01,  2.6820710e-01,  1.4064051e-01, -1.1508483e+00],
       [ 1.2971512e+00, -6.1894053e-01,  1.7807297e-01, -1.6983503e+00,
         1.4515962e-01,  8.2830071e-02,  1.3906857e-01,  8.0710566e-01,
         5.1775217e-02, -2.4603672e+00, -3.2487668e-02,  6.3827276e-01,
        -2.9112205e-01, -2.7050779e+00, -3.3049767e+00, -3.0767098e-01],
       [ 1.2637920e+00, -2.3730416e+00,  1.1410322e+00,  1.9734104e-01,
         1.4497524e+00, -1.8991990e+00, -1.6037341e+00,  4.7232816e-01,
        -1.2476668e+00, -1.6433738e+00, -2.6726272e+00,  6.3749880e-01,
        -2.4283891e+00, -1.4314935e+00,  5.9767220e-02,  2.4992399e-01],
       [-1.9667937e+00, -1.3471930e+00,  7.4380416e-01,  2.5629708e-01,
        -6.9651437e-01,  2.1819750e-02,  7.4209970e-01,  3.7609246e-01,
        -2.9987276e-01, -9.8657385e-02, -1.1827968e+00, -1.9963242e-01,
         4.2301330e-01, -1.6547341e+00,  4.9589789e-01, -2.1924593e+00],
       [ 2.2593093e-01,  3.6275223e-01,  7.3049344e-02, -3.7328942e+00,
        -2.4036518e-01, -8.8863051e-01,  4.2484444e-01, -2.1375351e+00,
         3.4666840e-02, -3.0194229e-01,  3.5960189e-01, -1.6293867e-01,
         6.9899702e-01,  1.0469924e-01, -8.5070771e-01, -3.9043629e-01],
       [ 3.4196743e-01,  4.7042501e-01, -3.6078891e-01,  2.8387687e-01,
         2.5895306e-01,  4.4179392e-01, -3.9341446e-02,  5.9680706e-03,
        -1.2267027e-01, -3.6311531e-01, -1.1039163e+00, -2.5117536e+00,
        -9.3937850e-01, -9.7780997e-01,  3.6357486e-01,  4.3841538e-01],
       [-8.0191028e-01, -1.6111819e+00, -1.9978347e+00,  3.2227764e-01,
        -2.4403481e+00,  7.6466060e-01, -3.1649678e+00,  1.4417091e-01,
         2.9098889e-01, -2.7499268e+00,  5.9983446e-03,  5.4764605e-01,
         5.4808967e-02,  4.1797271e-01, -3.3119211e-01, -2.0029142e-01],
       [-6.2285858e-01, -2.0895400e-03, -8.3210878e-02,  1.1206133e+00,
         3.4653001e-02,  4.6689624e-01, -1.4290707e-01, -2.2211139e+00,
        -1.1069660e+00,  4.0898475e-01, -1.2975435e+00, -3.1319958e-01,
         4.8920733e-01,  7.0436811e-01, -2.4081602e+00, -1.5320784e+00],
       [ 5.1147196e-02, -4.8105401e-01,  5.3663081e-01,  1.2112737e+00,
         4.2589051e-01, -2.5020914e+00, -4.3322310e-02, -1.2537366e+00,
        -2.7943692e+00, -1.4491863e+00, -4.1500030e+00,  6.0807008e-01,
        -2.4686538e-01, -1.7351986e+00, -2.7041636e+00,  5.8646768e-01]],
      dtype=float32), array([ 0.12530911,  0.05405121, -0.37029713, -0.05345085,  0.09086166,
       -0.4968595 , -0.79019433,  0.3607336 , -1.14574   , -1.0002438 ,
       -0.19284521,  0.39257765, -0.01937226, -0.23992953, -0.55764717,
        0.17417563], dtype=float32)]

Model[5]
[array([[-1.5194812 ,  0.0892717 ,  0.5267914 , ...,  0.29835212,
         0.3054957 , -0.05480223],
       [ 1.0452942 ,  0.9797236 ,  0.06578473, ...,  0.2922339 ,
         0.42769787, -0.58799815],
       [ 0.63586   ,  0.4334454 , -0.49029267, ...,  1.4599844 ,
        -0.05833553, -0.5272738 ],
       ...,
       [ 0.7650895 , -0.78227323,  0.7689348 , ...,  0.8079523 ,
        -0.51227427, -0.28530884],
       [ 0.8659362 , -0.37917688, -0.02736074, ..., -0.19780539,
         0.5151397 ,  0.03878034],
       [-0.5076775 , -1.0325698 , -0.6420008 , ..., -0.9554615 ,
         1.1264322 ,  0.63937086]], dtype=float32), array([-0.35515204, -0.5279473 , -0.01234227, -0.03159454,  0.7814317 ,
        1.3646224 , -0.02969118, -0.3495494 ,  0.9683061 ,  1.0297648 ,
        0.02351791,  0.19858593, -0.20478806,  0.82316613,  0.0174471 ,
        1.3987274 ], dtype=float32), array([[-4.26547974e-01, -2.99727893e+00, -3.18889356e+00,
        -4.28976595e-01, -1.14388347e-01, -1.57590044e+00,
         5.34578085e-01,  1.28478602e-01, -1.99026182e-01,
        -1.47403345e-01,  3.06661993e-01, -9.80194151e-01,
        -2.24944085e-01,  4.67226744e-01,  1.36732101e-01,
         5.72297275e-01],
       [-1.39864528e+00,  1.81553468e-01, -3.39566320e-01,
        -7.99206793e-01,  6.49197817e-01,  1.01116598e-02,
        -1.45669207e-01,  6.30731225e-01, -3.08144569e-01,
         1.06419981e-01,  8.22231889e-01, -4.30441111e-01,
        -2.44210577e+00,  2.77217120e-01, -4.50928003e-01,
        -1.82413328e+00],
       [-9.86220315e-02, -6.03212655e-01, -1.59515977e-01,
        -3.10082912e-01, -8.76989514e-02,  5.79719365e-01,
        -2.22933030e+00, -1.76305032e+00,  3.48814934e-01,
         2.33771235e-01,  4.94006723e-01,  5.02388239e-01,
        -5.65295219e-01, -1.83884418e+00,  4.52412099e-01,
        -4.80948746e-01],
       [ 3.10510453e-02, -5.30760624e-02, -2.87500210e-02,
         1.79003924e-02,  2.85328627e-02,  2.56549823e-03,
         1.94684584e-02, -4.92340587e-02,  4.19738814e-02,
        -4.13296968e-02, -7.90441595e-03,  4.06836644e-02,
        -4.82759885e-02, -6.37265388e-03,  2.93729156e-02,
         1.14241866e-02],
       [ 9.10581648e-02,  4.20597792e-01, -3.81812394e-01,
        -9.61398110e-02, -3.21535707e+00, -1.76326585e+00,
        -1.51465619e+00, -5.55048883e-01, -2.51814365e+00,
         4.64046448e-01, -2.48581663e-01,  6.83907807e-01,
        -9.91846681e-01, -1.13014042e+00, -3.77022684e-01,
         1.19997537e+00],
       [-3.25068998e+00,  9.09242451e-01, -5.78662992e-01,
        -1.30329773e-01, -1.38111576e-01, -1.86697531e+00,
        -1.13603735e+00,  4.08020049e-01,  3.29685658e-01,
        -3.65269184e+00, -3.24314427e+00,  2.19032973e-01,
         5.82151651e-01,  6.44007564e-01, -7.52124250e-01,
         5.69816649e-01],
       [-3.64903659e-02, -1.05166612e-02, -8.41997564e-03,
        -5.16986363e-02, -3.26974429e-02, -4.30134200e-02,
        -1.88577957e-02,  1.73729695e-02, -3.32598463e-02,
        -2.24487460e-03,  1.02973292e-02, -1.99173484e-02,
        -4.79260907e-02, -6.83702715e-03,  2.89334767e-02,
         3.23094573e-04],
       [ 7.00023830e-01, -8.88579264e-02, -2.71968275e-01,
        -3.88463765e-01, -1.52771139e+00,  5.96685670e-02,
        -6.71075165e-01,  7.74324656e-01, -2.47207379e+00,
         2.54786372e-01, -6.33425964e-03, -9.12228346e-01,
         8.72595534e-02,  3.24405938e-01, -2.85412908e-01,
        -1.70031071e+00],
       [ 1.25473809e+00, -1.20298600e+00,  2.13846296e-01,
        -1.85597718e+00,  3.20202038e-02,  3.33513290e-01,
         2.86250591e-01,  1.11180925e+00,  1.75109044e-01,
        -2.41862297e+00, -3.80745143e-01,  4.35005009e-01,
        -1.46394581e-01, -2.73058629e+00, -3.55661941e+00,
        -3.02232116e-01],
       [ 1.09827912e+00, -2.84097409e+00,  8.60959828e-01,
         2.65649796e-01,  1.34899795e+00, -2.28352928e+00,
        -2.12955785e+00,  2.00277567e-01, -1.95969653e+00,
        -1.89305270e+00, -3.01380992e+00,  4.07117575e-01,
        -2.95161080e+00, -1.73001516e+00, -1.05682187e-01,
         5.62010705e-01],
       [-2.16554165e+00, -9.06950533e-01,  6.05038404e-01,
         2.09074780e-01, -5.92727125e-01, -4.19448540e-02,
         5.46855390e-01,  4.39402372e-01, -2.55223423e-01,
        -1.11974292e-01, -1.27651286e+00,  1.89525690e-02,
         4.93998617e-01, -2.23070002e+00,  3.52397978e-01,
        -2.20568991e+00],
       [ 7.24160522e-02,  1.72852516e-01,  1.85726613e-01,
        -4.28576899e+00, -3.00189734e-01, -1.00349045e+00,
         3.51922631e-01, -2.24539232e+00,  9.10800248e-02,
        -9.92996171e-02,  2.64349401e-01, -4.68037099e-01,
         6.83236182e-01,  2.19351754e-01, -1.06820488e+00,
        -3.28979611e-01],
       [ 3.55834007e-01,  4.04966086e-01, -2.30930567e-01,
         1.14667257e-02,  8.18906501e-02,  4.96784568e-01,
         1.42512128e-01, -2.39851177e-02,  1.20490994e-02,
        -2.45857716e-01, -1.16344512e+00, -2.34160614e+00,
        -9.48728621e-01, -1.01929212e+00,  3.50443959e-01,
         1.14456341e-01],
       [-8.30261409e-01, -2.21094632e+00, -2.01435447e+00,
         3.24723035e-01, -2.71088362e+00,  7.25866973e-01,
        -3.72820020e+00,  2.41482690e-01,  1.27335459e-01,
        -3.09363651e+00, -1.84443578e-01,  6.02985978e-01,
         5.56908874e-03,  6.00838542e-01, -4.75993156e-01,
        -2.76061237e-01],
       [-4.10840690e-01, -1.94145128e-01, -5.39509058e-01,
         8.80215406e-01, -4.76561189e-02,  2.95502335e-01,
        -1.05951786e-01, -2.10815096e+00, -1.12019312e+00,
         4.14685339e-01, -1.24962687e+00, -3.69698614e-01,
         4.38647391e-03,  9.16292310e-01, -2.50864124e+00,
        -1.52935863e+00],
       [-2.73829758e-01, -5.44217467e-01,  2.57127166e-01,
         8.98362458e-01,  2.64427215e-01, -3.11310458e+00,
        -7.77697146e-01, -1.52661324e+00, -4.13481188e+00,
        -2.25328755e+00, -4.77237177e+00,  1.70175657e-01,
        -3.00139096e-02, -1.58031237e+00, -3.94302464e+00,
         2.34995231e-01]], dtype=float32), array([ 0.06112938, -0.14632823, -0.50272983, -0.11224492, -0.02057311,
       -0.7057312 , -1.0244856 ,  0.56930804, -1.5902061 , -1.1124626 ,
       -0.29993084,  0.3830222 ,  0.11459416, -0.25765   , -0.78309834,
        0.33724517], dtype=float32)]

Model[6]
[array([[-1.514026  , -0.02855509,  0.37875113, ...,  0.2972531 ,
         0.49680582,  0.25369295],
       [ 0.7582192 ,  0.5779612 , -0.28767955, ...,  0.2289613 ,
         0.61636156, -0.74876934],
       [ 0.4981148 ,  0.8498896 , -0.37414935, ...,  1.4070834 ,
        -0.01411765, -0.53741765],
       ...,
       [ 1.2960368 , -0.6737993 ,  0.17003794, ...,  0.70860237,
        -0.5167326 , -0.04085764],
       [ 0.730355  , -0.19577722, -0.29564956, ...,  0.39753607,
         0.44386795,  0.36435658],
       [-0.33997017, -0.7826365 , -0.80236816, ..., -1.012246  ,
         1.0789356 ,  0.6501166 ]], dtype=float32), array([-0.64895755, -0.7708794 , -0.44557393, -0.03159454,  0.6987965 ,
        1.3288898 , -0.02969118, -0.3682153 ,  0.8096925 ,  0.8522029 ,
       -0.17143804, -0.04361391, -0.64076316,  0.63093764, -0.04455642,
        1.3114548 ], dtype=float32), array([[-3.75358999e-01, -3.25050473e+00, -2.99355388e+00,
        -3.55952412e-01, -1.16006024e-01, -1.86542237e+00,
         2.66725302e-01, -2.38087490e-01, -3.59958112e-02,
        -1.44665822e-01,  1.20918527e-01, -9.02452350e-01,
        -2.69885331e-01,  7.37801671e-01, -3.87237244e-03,
         1.50837362e-01],
       [-1.72955668e+00,  3.10623288e-01, -2.22503677e-01,
        -6.98626220e-01,  3.18010569e-01, -3.18036675e-02,
        -5.10097086e-01,  1.55608794e-02, -3.70501965e-01,
        -1.16453782e-01,  6.18457258e-01, -5.28845549e-01,
        -2.65630746e+00,  2.49950245e-01, -5.35296619e-01,
        -1.94030881e+00],
       [-1.99820071e-01, -5.78464091e-01, -2.36923993e-01,
        -2.21830830e-01, -1.92509323e-01,  2.91506620e-03,
        -2.22732878e+00, -1.86579573e+00,  3.25446039e-01,
        -2.78581847e-02,  1.54846132e-01,  2.62601614e-01,
        -2.05767110e-01, -1.95860076e+00,  4.93610203e-01,
        -3.42405111e-01],
       [ 3.10510453e-02, -5.30760624e-02, -2.87500210e-02,
         1.79003924e-02,  2.85328627e-02,  2.56549823e-03,
         1.94684584e-02, -4.92340587e-02,  4.19738814e-02,
        -4.13296968e-02, -7.90441595e-03,  4.06836644e-02,
        -4.82759885e-02, -6.37265388e-03,  2.93729156e-02,
         1.14241866e-02],
       [ 5.20404987e-02, -4.87545058e-02, -2.17342511e-01,
         4.80603687e-02, -3.69418240e+00, -2.19784641e+00,
        -1.60550702e+00, -1.24490492e-01, -3.21696520e+00,
         3.03354830e-01, -1.55333102e-01,  6.50674850e-02,
        -1.14692307e+00, -1.88696659e+00, -3.75428796e-01,
         1.07341814e+00],
       [-3.42232275e+00,  7.35492885e-01, -2.36050740e-01,
        -1.04184069e-01, -1.27233177e-01, -2.30947089e+00,
        -1.69060123e+00,  3.94611061e-01,  6.56095147e-01,
        -4.66751528e+00, -3.41709495e+00,  2.04939600e-02,
         7.03240931e-02,  6.73715353e-01, -1.00845873e+00,
         3.54159296e-01],
       [-3.64903659e-02, -1.05166612e-02, -8.41997564e-03,
        -5.16986363e-02, -3.26974429e-02, -4.30134200e-02,
        -1.88577957e-02,  1.73729695e-02, -3.32598463e-02,
        -2.24487460e-03,  1.02973292e-02, -1.99173484e-02,
        -4.79260907e-02, -6.83702715e-03,  2.89334767e-02,
         3.23094573e-04],
       [ 4.00561303e-01, -1.50317758e-01, -4.45493996e-01,
        -3.75707626e-01, -1.76445818e+00,  2.33440205e-01,
        -6.04608953e-01,  3.97143751e-01, -3.82009268e+00,
         1.67494953e-01, -2.31203601e-01, -9.35846150e-01,
         1.21538118e-01, -9.08882022e-02, -1.22564062e-01,
        -2.17639375e+00],
       [ 1.11080205e+00, -1.33239496e+00, -4.66755390e-01,
        -2.16924238e+00,  4.33910191e-02,  6.37984693e-01,
        -1.70627981e-02,  1.03999197e+00,  4.80037034e-01,
        -2.09084916e+00, -3.03189784e-01,  4.40448225e-01,
         1.41468540e-01, -3.04669213e+00, -4.51920223e+00,
        -3.14592689e-01],
       [ 4.23531771e-01, -3.11824846e+00,  7.18961835e-01,
        -1.03826366e-01,  1.17187512e+00, -2.26855993e+00,
        -2.36957765e+00, -3.44709903e-01, -2.78012443e+00,
        -2.52235842e+00, -2.91529012e+00,  4.95312959e-01,
        -3.42501211e+00, -2.12961793e+00,  4.54399921e-02,
         3.19046378e-02],
       [-1.88716245e+00, -1.13496983e+00,  3.79751772e-01,
         1.89064130e-01, -7.83619344e-01,  1.47264509e-03,
         7.97455966e-01, -3.08930665e-01, -2.36808062e-01,
        -3.80597115e-01, -1.27714300e+00, -4.03558701e-01,
         7.02330410e-01, -2.24489570e+00,  4.41495299e-01,
        -2.32608962e+00],
       [-1.38027102e-01,  4.66033705e-02,  1.79086670e-01,
        -4.14326525e+00, -2.25493461e-01, -1.42653346e+00,
         5.65962136e-01, -2.77295589e+00,  1.58057585e-02,
         1.68748468e-01, -6.20899163e-02, -2.78645933e-01,
         3.84662628e-01,  2.53112614e-01, -1.21043825e+00,
        -3.47301126e-01],
       [ 3.65942568e-01,  2.99508572e-01, -2.62448967e-01,
         1.76884294e-01,  4.06866148e-03,  3.90740901e-01,
         1.61116242e-01, -3.57057124e-01,  1.14276037e-01,
        -2.55975425e-01, -1.05154788e+00, -1.87952030e+00,
        -1.05089068e+00, -1.29671383e+00, -1.15264155e-01,
        -2.12134942e-01],
       [-1.16245258e+00, -2.86787748e+00, -2.74181271e+00,
         2.18858823e-01, -2.68521357e+00,  5.52050650e-01,
        -4.52652121e+00,  1.40732795e-01, -2.16703489e-01,
        -3.30419111e+00, -2.00769827e-01,  6.40313104e-02,
        -3.32113922e-01,  6.23571277e-01, -9.90420759e-01,
        -1.29049480e-01],
       [-1.73710942e-01, -2.41693184e-01, -5.34026921e-01,
         6.70555472e-01,  2.57707685e-02,  3.04094583e-01,
         1.83828548e-01, -2.42253065e+00, -1.58508551e+00,
         4.37692087e-03, -1.79324698e+00, -1.01424366e-01,
        -5.34453809e-01,  8.05552483e-01, -2.43360806e+00,
        -2.26077414e+00],
       [-1.01129927e-01, -6.84792280e-01,  7.25251734e-01,
         1.01012993e+00,  2.37963706e-01, -3.47407436e+00,
        -1.04283237e+00, -1.40167058e+00, -4.34213209e+00,
        -2.63649845e+00, -5.25013304e+00,  4.41512167e-01,
        -2.75646299e-01, -2.12789416e+00, -4.14768648e+00,
         1.63176790e-01]], dtype=float32), array([-0.02723235, -0.3677708 , -0.5444678 ,  0.02306158, -0.0072279 ,
       -0.79679185, -0.9607229 ,  0.15540443, -1.959055  , -1.3444381 ,
       -0.5827907 ,  0.56917286,  0.0385732 , -0.30270687, -0.8770194 ,
        0.25370076], dtype=float32)]

Model[7]
[array([[-1.076046  , -0.05138208, -0.12098151, ...,  0.38224688,
         0.5927768 ,  0.12258401],
       [ 1.0251414 ,  0.51488256,  0.20674048, ...,  0.27530345,
         0.5280005 , -0.7442955 ],
       [ 0.5268237 ,  0.8240026 , -0.5374728 , ...,  1.1005342 ,
         0.363669  , -0.7426453 ],
       ...,
       [ 1.0359752 , -0.75721216,  0.2832982 , ...,  0.72446316,
        -0.58217806,  0.20822415],
       [ 0.5324227 , -0.7809804 , -0.07975849, ...,  0.44852653,
         0.8088956 , -0.01957834],
       [-0.24385986, -0.95387304, -0.6793201 , ..., -1.3697648 ,
         0.71473664,  0.5610693 ]], dtype=float32), array([-0.82569444, -1.0373564 , -0.5669748 , -0.03159454,  0.53838843,
        1.2177831 , -0.02969118, -0.7151271 ,  0.49296105,  0.6401193 ,
       -0.2977276 , -0.23506263, -0.9437581 ,  0.48207003, -0.22775581,
        1.2986418 ], dtype=float32), array([[-3.4683746e-01, -3.2656577e+00, -4.0642962e+00, -4.0458629e-01,
        -1.2019808e-01, -1.7570864e+00,  3.0773064e-01,  2.1504000e-02,
        -2.2547534e-01,  9.8579362e-02, -4.7499117e-01, -4.9133733e-01,
        -3.3606982e-01,  1.0234144e-01, -1.4983240e-01,  2.1463998e-01],
       [-1.6843803e+00, -8.0866078e-03, -3.3423501e-01, -5.5736083e-01,
         6.8982178e-01, -6.4495869e-02, -7.4914330e-01,  8.5385079e-03,
        -1.0129751e-01, -1.8908212e-01,  8.5797203e-01, -8.0509263e-01,
        -2.9469545e+00,  5.4685339e-02, -8.4401274e-01, -2.4457483e+00],
       [-1.7857945e-01, -1.1243775e+00, -2.8185415e-01, -3.8706231e-01,
        -5.8489418e-01, -1.5300754e-01, -2.1193748e+00, -1.7346832e+00,
         4.0891358e-01,  1.9545542e-01,  2.5531060e-01,  3.8658947e-01,
        -7.7641177e-01, -1.9420542e+00,  3.3360633e-01, -5.7666653e-01],
       [ 3.1051045e-02, -5.3076062e-02, -2.8750021e-02,  1.7900392e-02,
         2.8532863e-02,  2.5654982e-03,  1.9468458e-02, -4.9234059e-02,
         4.1973881e-02, -4.1329697e-02, -7.9044160e-03,  4.0683664e-02,
        -4.8275989e-02, -6.3726539e-03,  2.9372916e-02,  1.1424187e-02],
       [-4.8700908e-01,  2.6849404e-01, -3.1378415e-01, -4.1447046e-01,
        -4.6658092e+00, -2.3022692e+00, -1.7923334e+00, -8.0691159e-01,
        -3.9774139e+00, -1.0136859e-01, -1.3389800e-01, -1.7059916e-01,
        -1.3395133e+00, -2.0233541e+00, -5.2939969e-01,  1.2181110e+00],
       [-4.4870324e+00,  2.3167846e-01, -2.4140911e-01, -2.9119182e-01,
        -3.2818577e-01, -2.2326782e+00, -2.0093899e+00,  5.7374024e-01,
         3.8953900e-01, -5.1498871e+00, -3.9938855e+00,  6.6242460e-04,
         2.7959254e-01,  9.3480498e-01, -1.4342179e+00,  3.2639909e-01],
       [-3.6490366e-02, -1.0516661e-02, -8.4199756e-03, -5.1698636e-02,
        -3.2697443e-02, -4.3013420e-02, -1.8857796e-02,  1.7372970e-02,
        -3.3259846e-02, -2.2448746e-03,  1.0297329e-02, -1.9917348e-02,
        -4.7926091e-02, -6.8370271e-03,  2.8933477e-02,  3.2309457e-04],
       [ 6.0230517e-01, -4.6369430e-01, -5.8556026e-01, -2.4535462e-01,
        -1.9909778e+00, -7.3873494e-03, -1.1074662e+00,  1.6235128e-01,
        -3.5787764e+00,  1.8834464e-01,  1.9263984e-01, -1.1382471e+00,
        -1.9855323e-01,  5.7569131e-02, -3.2161313e-01, -2.5793829e+00],
       [ 8.5687840e-01, -1.9241693e+00, -1.2622293e+00, -2.5121117e+00,
        -2.0469753e-01,  3.1227955e-01, -2.5634725e-02,  7.1164310e-01,
         6.1267281e-01, -3.0372353e+00, -4.4075230e-01,  2.0985384e-01,
         2.0376390e-01, -3.0371411e+00, -4.5983071e+00, -1.2592864e-01],
       [ 3.3941951e-01, -3.3953083e+00,  7.9398227e-01, -3.1895590e-01,
         9.1762727e-01, -2.3108571e+00, -2.5632353e+00, -5.2325201e-01,
        -3.0480969e+00, -2.5345485e+00, -3.0176122e+00,  5.4807937e-01,
        -3.4346414e+00, -2.3342702e+00,  6.2962342e-03, -3.9643502e-01],
       [-2.3877671e+00, -8.1067616e-01,  2.3926979e-01, -5.1204312e-01,
        -7.1891034e-01, -5.8282934e-02,  8.6656028e-01,  1.5717794e-01,
        -4.2054585e-01, -6.5588504e-01, -1.0172583e+00, -5.7406461e-01,
         5.0380987e-01, -3.3870339e+00,  1.6357905e-01, -2.1945281e+00],
       [-2.5733885e-01,  2.3955625e-01,  2.2702451e-01, -4.7937379e+00,
        -7.2495723e-01, -1.3654157e+00,  1.6435103e-01, -3.2041519e+00,
        -2.7669865e-01,  3.8886208e-02,  6.1626164e-03, -5.0510657e-01,
         2.0647398e-01,  3.4277581e-02, -1.3252074e+00, -4.2199099e-01],
       [-2.1734111e-01,  3.1068000e-01, -4.2391258e-01,  1.4640370e-01,
        -1.1550525e-01,  2.7666974e-01,  1.6206251e-01, -3.3773214e-01,
        -8.4844358e-02, -2.4887778e-01, -6.9077450e-01, -2.1938894e+00,
        -1.6362438e+00, -1.0438443e+00,  2.5863627e-01, -9.3691222e-02],
       [-2.1371524e+00, -4.0067577e+00, -3.2767386e+00,  4.7222668e-01,
        -2.5269861e+00,  9.7074991e-01, -5.0211730e+00, -1.6923124e-01,
         1.8865818e-01, -4.3465538e+00, -1.2080725e+00, -8.4149681e-02,
        -4.2891443e-01,  1.0998752e-01, -2.1676307e+00, -4.8192593e-01],
       [-5.6027614e-02, -5.8525777e-01, -5.8137435e-01,  3.6004525e-01,
        -5.6659915e-02,  3.7457100e-01,  1.9268496e-01, -2.9335566e+00,
        -2.2141635e+00, -2.7499214e-02, -2.3929026e+00,  6.5684825e-02,
        -1.9171390e-01,  5.2292991e-01, -2.9285123e+00, -2.8954480e+00],
       [-1.0849189e+00, -9.7181535e-01,  1.1925837e+00,  7.3749149e-01,
         3.5688200e-03, -3.7235420e+00, -1.8099813e+00, -2.0186455e+00,
        -5.3319917e+00, -3.2365236e+00, -6.1851664e+00, -1.1858776e-01,
        -1.2735235e-02, -2.4777055e+00, -5.2166839e+00,  6.2163734e-01]],
      dtype=float32), array([-0.13704382, -0.44679666, -0.50688726, -0.38080406, -0.4223082 ,
       -0.82595   , -1.2077844 ,  0.14630088, -2.23114   , -1.3532325 ,
       -0.3412337 ,  0.79237896, -0.21587491, -0.6066418 , -1.012798  ,
        0.17507787], dtype=float32)]

Model[8]
[array([[-1.2976286 ,  0.26716322,  0.16088998, ..., -0.16044594,
         0.18132545, -0.25611848],
       [ 0.52931046,  0.32756838,  0.00936736, ...,  0.13000032,
         0.4846933 , -0.76035863],
       [ 0.5488875 ,  0.56731695, -0.77217877, ...,  0.84173447,
         0.12023592, -0.7601836 ],
       ...,
       [ 0.7904341 , -0.9253466 ,  0.19183227, ...,  0.9101319 ,
        -0.4974574 ,  0.14433882],
       [ 0.16276167, -0.5122952 , -0.17731385, ...,  0.2539223 ,
         0.4788137 ,  0.02565861],
       [ 0.16839828, -0.9541309 , -0.96647936, ..., -1.1173015 ,
         0.7955142 ,  0.33785298]], dtype=float32), array([-1.1391877 , -1.3196985 , -0.8319302 , -0.03159454,  0.3989159 ,
        0.96357405, -0.02969118, -0.95864576,  0.41854924,  0.6401193 ,
       -0.49824595, -0.37481108, -1.2115524 ,  0.19755913, -0.3121423 ,
        1.1072197 ], dtype=float32), array([[-2.40006730e-01, -2.98612070e+00, -4.52809381e+00,
        -6.45520747e-01, -4.63038445e-01, -1.45510387e+00,
         8.63794088e-02,  1.12674497e-01,  2.22576827e-01,
        -7.06637502e-02, -9.11069289e-02, -4.84869599e-01,
        -5.67414820e-01,  2.84297943e-01,  9.85957012e-02,
         8.16976726e-02],
       [-2.19188428e+00, -5.55853605e-01, -5.76549709e-01,
        -1.57572126e+00,  8.84779811e-01, -2.87698090e-01,
        -1.93548036e+00, -3.43138993e-01, -1.21483672e+00,
         2.24251762e-01,  6.39752090e-01, -1.80272150e+00,
        -3.14068007e+00,  6.96291849e-02, -5.27053118e-01,
        -3.43485951e+00],
       [ 9.63321775e-02, -1.22310543e+00, -6.31529272e-01,
        -4.96097296e-01, -1.76552474e+00, -3.57579708e-01,
        -3.46417809e+00, -1.48995209e+00, -4.43886444e-02,
        -3.03105146e-01,  1.61918446e-01, -2.95996338e-01,
        -7.87010372e-01, -2.41221452e+00,  3.50804269e-01,
        -3.63942415e-01],
       [ 3.10510453e-02, -5.30760624e-02, -2.87500210e-02,
         1.79003924e-02,  2.85328627e-02,  2.56549823e-03,
         1.94684584e-02, -4.92340587e-02,  4.19738814e-02,
        -4.13296968e-02, -7.90441595e-03,  4.06836644e-02,
        -4.82759885e-02, -6.37265388e-03,  2.93729156e-02,
         1.14241866e-02],
       [-1.07986248e+00, -4.60313678e-01, -1.21673393e+00,
        -3.33857715e-01, -6.06367254e+00, -4.20840502e+00,
        -2.90662169e+00, -1.23800385e+00, -5.54396009e+00,
        -1.33898556e+00,  4.98718083e-01, -2.25127429e-01,
        -1.55617046e+00, -2.82957721e+00, -1.47602832e+00,
         1.31683612e+00],
       [-4.83236217e+00,  3.06230307e-01, -3.35507870e-01,
        -3.78478676e-01, -5.55738986e-01, -1.99875879e+00,
        -2.17644596e+00,  3.11563793e-03,  3.00258487e-01,
        -5.91680813e+00, -6.05492306e+00,  8.68944228e-02,
         1.48938313e-01,  2.55182385e-01, -1.45973563e+00,
         5.35955012e-01],
       [-3.64903659e-02, -1.05166612e-02, -8.41997564e-03,
        -5.16986363e-02, -3.26974429e-02, -4.30134200e-02,
        -1.88577957e-02,  1.73729695e-02, -3.32598463e-02,
        -2.24487460e-03,  1.02973292e-02, -1.99173484e-02,
        -4.79260907e-02, -6.83702715e-03,  2.89334767e-02,
         3.23094573e-04],
       [ 6.44401968e-01, -2.75026351e-01, -1.33076692e+00,
        -1.05871093e+00, -3.17536664e+00, -3.18982333e-01,
        -1.48482513e+00,  3.91504824e-01, -4.64344501e+00,
         3.13103974e-01, -3.70497376e-01, -1.61266768e+00,
        -6.34207010e-01,  2.57619083e-01, -4.80854034e-01,
        -2.90345645e+00],
       [ 2.70716369e-01, -2.52573109e+00, -1.90877676e+00,
        -3.02659035e+00, -8.36059153e-01,  3.75623852e-01,
        -2.64520824e-01,  7.39300907e-01,  7.83853829e-01,
        -4.51112747e+00, -4.74451542e-01,  1.43255487e-01,
        -1.49316669e-01, -3.97100639e+00, -6.26422024e+00,
        -3.34629834e-01],
       [ 3.39419514e-01, -3.39530826e+00,  7.93982267e-01,
        -3.18955898e-01,  9.17627275e-01, -2.31085706e+00,
        -2.56323528e+00, -5.23252010e-01, -3.04809690e+00,
        -2.53454852e+00, -3.01761222e+00,  5.48079371e-01,
        -3.43464136e+00, -2.33427024e+00,  6.29623421e-03,
        -3.96435022e-01],
       [-3.59083319e+00, -1.85735404e+00,  5.21099567e-01,
         1.77577257e-01, -4.54061687e-01, -6.20496452e-01,
         3.81247938e-01,  9.43307355e-02, -7.67451346e-01,
        -2.20716667e+00, -1.41933656e+00, -6.58823013e-01,
         2.47734949e-01, -3.83995557e+00, -1.98998943e-01,
        -3.19464493e+00],
       [-4.63450700e-01,  1.32387206e-01,  1.53833151e-01,
        -5.57007599e+00, -3.43492925e-01, -1.57691610e+00,
         1.81217462e-01, -3.68145585e+00, -4.05188888e-01,
        -2.01104566e-01,  4.64372560e-02, -3.74702960e-01,
         1.92881450e-02, -4.64083076e-01, -2.03891730e+00,
        -3.23511332e-01],
       [-2.14400485e-01, -4.36239323e-04, -2.69529462e-01,
         1.01450764e-01, -2.60616988e-01,  1.31279260e-01,
         2.22129840e-02, -3.92930716e-01, -5.30081689e-02,
        -1.89111814e-01, -9.26460624e-01, -1.87600982e+00,
        -1.36341381e+00, -1.20492566e+00,  1.51578113e-01,
        -4.54752713e-01],
       [-2.98870945e+00, -5.25959015e+00, -3.69502926e+00,
         1.51592836e-01, -3.68771601e+00,  4.50913042e-01,
        -6.18884802e+00, -3.50765407e-01,  4.67031777e-01,
        -4.92390394e+00, -2.15462351e+00, -2.08027884e-01,
        -5.09993553e-01, -1.73590064e-01, -2.30313945e+00,
        -4.54241693e-01],
       [-7.06635833e-01, -3.52371663e-01, -2.28401110e-01,
        -8.73584151e-02, -2.60266274e-01,  1.98679436e-02,
        -1.62561968e-01, -3.45266604e+00, -2.29867983e+00,
         1.12932965e-01, -3.51130342e+00, -3.70730102e-01,
        -2.21835807e-01,  4.02823657e-01, -4.30857801e+00,
        -4.31083155e+00],
       [-8.15254331e-01, -1.07507598e+00,  5.24242580e-01,
         7.56081462e-01,  2.03118503e-01, -4.10227442e+00,
        -2.89608693e+00, -2.42959476e+00, -5.84008646e+00,
        -4.30609846e+00, -7.38203955e+00, -2.48061657e-01,
        -1.33662391e+00, -3.01701331e+00, -5.96061039e+00,
        -4.75914508e-01]], dtype=float32), array([-0.6687359 , -0.6647542 , -0.7080304 , -0.71499276, -0.5461825 ,
       -1.1089281 , -1.6310033 , -0.08688007, -2.300854  , -1.426685  ,
       -0.30971643,  0.5644457 , -0.13198902, -0.49558774, -1.1223632 ,
       -0.5390813 ], dtype=float32)]

Model[9]
[array([[-9.61361587e-01, -1.33600682e-01, -1.85775280e-01, ...,
        -2.30494589e-01,  1.11790396e-01, -1.55691400e-01],
       [ 3.03573817e-01,  3.42997789e-01, -1.93433568e-01, ...,
        -3.02563429e-01,  3.59774828e-01, -1.11363888e+00],
       [ 8.55244935e-01,  5.62329888e-01, -8.38426888e-01, ...,
         5.86987674e-01,  7.61178583e-02, -5.23087025e-01],
       ...,
       [ 2.98911422e-01, -1.03885591e+00, -2.70320743e-01, ...,
         6.13828003e-01, -2.29439750e-01,  1.32218376e-01],
       [ 1.03321694e-01, -6.21750891e-01, -5.23963128e-04, ...,
         2.93747753e-01,  7.10599720e-01,  1.59851253e-01],
       [-1.21173389e-01, -1.04847682e+00, -9.13537025e-01, ...,
        -1.37209880e+00,  7.88965225e-01,  2.40117222e-01]], dtype=float32), array([-1.3270477 , -1.5133518 , -1.0474474 , -0.03159454,  0.3603305 ,
        0.6967743 , -0.02969118, -1.2446913 ,  0.18411207,  0.6401193 ,
       -0.6081833 , -0.5213589 , -1.4573641 , -0.01250013, -0.6088496 ,
        1.1097293 ], dtype=float32), array([[-3.14455748e-01, -3.73224926e+00, -6.34728813e+00,
        -9.31428671e-01, -8.98734093e-01, -2.00765443e+00,
         2.03514799e-01, -7.98743516e-02, -5.11283912e-02,
        -7.80632913e-01, -2.83713520e-01, -9.55787718e-01,
        -4.81978774e-01,  3.01807653e-02, -1.16922915e-01,
         1.58079520e-01],
       [-3.19330001e+00, -1.45784914e+00, -1.25077379e+00,
        -1.74232590e+00,  1.14277506e+00, -1.10646570e+00,
        -2.37076259e+00, -5.67864716e-01, -1.91086948e+00,
        -8.29694867e-01,  8.01696599e-01, -2.27728057e+00,
        -3.73383260e+00, -6.62793875e-01, -1.48399317e+00,
        -3.79161525e+00],
       [-2.46257693e-01, -2.87796974e+00, -1.13274038e+00,
        -8.57134521e-01, -2.46850824e+00, -5.74427009e-01,
        -4.42122078e+00, -2.09671402e+00, -7.70808607e-02,
        -3.08529764e-01,  4.17975098e-01, -6.38869286e-01,
        -9.00260925e-01, -4.19747210e+00, -2.84815766e-02,
        -2.12475583e-01],
       [ 3.10510453e-02, -5.30760624e-02, -2.87500210e-02,
         1.79003924e-02,  2.85328627e-02,  2.56549823e-03,
         1.94684584e-02, -4.92340587e-02,  4.19738814e-02,
        -4.13296968e-02, -7.90441595e-03,  4.06836644e-02,
        -4.82759885e-02, -6.37265388e-03,  2.93729156e-02,
         1.14241866e-02],
       [-9.66986239e-01, -7.19672978e-01, -1.40847671e+00,
        -6.32878721e-01, -6.11836910e+00, -4.47168589e+00,
        -2.97814107e+00, -1.52705920e+00, -5.67506170e+00,
        -1.47820091e+00,  3.13151866e-01, -2.29400948e-01,
        -1.97062635e+00, -3.04888344e+00, -1.65918124e+00,
         1.30181503e+00],
       [-4.97336340e+00,  4.89280283e-01, -9.14386690e-01,
        -6.82097137e-01, -1.69732857e+00, -2.91638684e+00,
        -3.09406114e+00, -7.88958609e-01,  3.65807831e-01,
        -6.69088745e+00, -6.47150469e+00, -5.98097742e-01,
         4.10747826e-01,  3.35733682e-01, -1.89216709e+00,
        -7.12874055e-01],
       [-3.64903659e-02, -1.05166612e-02, -8.41997564e-03,
        -5.16986363e-02, -3.26974429e-02, -4.30134200e-02,
        -1.88577957e-02,  1.73729695e-02, -3.32598463e-02,
        -2.24487460e-03,  1.02973292e-02, -1.99173484e-02,
        -4.79260907e-02, -6.83702715e-03,  2.89334767e-02,
         3.23094573e-04],
       [ 8.62261713e-01, -9.56724167e-01, -1.81974947e+00,
        -1.61413717e+00, -4.17943048e+00, -8.10678244e-01,
        -1.99116051e+00, -3.57230842e-01, -5.45344162e+00,
        -6.53145313e-01, -1.12509206e-01, -1.90875983e+00,
        -1.14823222e+00, -3.60627621e-01, -1.21344638e+00,
        -3.68551874e+00],
       [-5.62621616e-02, -3.60019660e+00, -2.38333511e+00,
        -4.55689001e+00, -1.47834277e+00, -5.01626015e-01,
        -1.28553677e+00,  5.22380710e-01,  7.44768739e-01,
        -6.21952343e+00, -1.31754327e+00, -3.40993583e-01,
        -8.53357553e-01, -3.67335653e+00, -7.19656515e+00,
        -2.56672531e-01],
       [ 3.39419514e-01, -3.39530826e+00,  7.93982267e-01,
        -3.18955898e-01,  9.17627275e-01, -2.31085706e+00,
        -2.56323528e+00, -5.23252010e-01, -3.04809690e+00,
        -2.53454852e+00, -3.01761222e+00,  5.48079371e-01,
        -3.43464136e+00, -2.33427024e+00,  6.29623421e-03,
        -3.96435022e-01],
       [-4.74925280e+00, -2.08169961e+00,  4.70453314e-02,
        -5.75070493e-02, -1.48934114e+00, -1.06790519e+00,
        -3.45471531e-01,  6.38658285e-01, -1.51228368e+00,
        -2.21534586e+00, -1.47775650e+00, -1.84553242e+00,
         2.54696101e-01, -4.44569731e+00, -6.77784681e-02,
        -4.88872099e+00],
       [-3.08198512e-01, -2.40921751e-01, -6.32962165e-03,
        -7.02860832e+00, -5.76894343e-01, -1.86197364e+00,
         1.68220922e-01, -3.80834794e+00, -2.81175226e-01,
        -8.00716639e-01, -4.72848088e-01, -4.12751794e-01,
        -1.75010398e-01, -1.01479268e+00, -2.47161651e+00,
        -1.07771404e-01],
       [-1.71023995e-01, -8.28044042e-02, -5.99230409e-01,
        -2.60477245e-01, -2.69643903e-01, -6.81366539e-03,
        -2.89955676e-01, -6.51817858e-01, -2.49410599e-01,
        -2.16407645e-02, -1.25468910e+00, -2.01875877e+00,
        -1.80070257e+00, -6.28696024e-01,  1.32162005e-01,
        -7.23989487e-01],
       [-4.41032505e+00, -6.71204329e+00, -4.97644043e+00,
         2.49736458e-01, -4.38040161e+00,  5.29239714e-01,
        -6.60095215e+00, -6.67422593e-01,  8.32854211e-01,
        -5.84718037e+00, -1.93338847e+00, -8.99981558e-02,
        -6.10550702e-01, -1.01279593e+00, -2.68944788e+00,
        -1.59455109e+00],
       [-2.83416414e+00, -2.33693987e-01, -9.55046475e-01,
        -2.30538487e-01,  2.92457677e-02, -5.84338844e-01,
         5.23523137e-04, -3.62216187e+00, -2.91293526e+00,
        -6.25657588e-02, -3.65887499e+00, -6.72509551e-01,
        -1.08830309e+00,  9.94807065e-01, -6.40994787e+00,
        -5.21572399e+00],
       [-1.54583704e+00, -1.85448873e+00,  5.01963556e-01,
         9.57640171e-01,  1.30679220e-01, -4.92957306e+00,
        -3.73827529e+00, -2.78547192e+00, -6.08875751e+00,
        -4.62568903e+00, -7.90842915e+00, -1.83374465e-01,
        -2.62616396e+00, -3.81738853e+00, -6.48667192e+00,
        -1.48850453e+00]], dtype=float32), array([-1.7040672 , -1.410198  , -0.98418456, -1.3643211 , -1.1448439 ,
       -1.5084648 , -2.0239806 , -0.72725874, -2.4730535 , -1.7760837 ,
       -0.7890878 , -0.11524031, -0.5875574 , -1.1571791 , -1.9176598 ,
       -1.5470427 ], 