Model[0]
[array([[ 3.16706389e-01, -2.42425036e-02, -1.27284974e-02,
         1.50093570e-01,  2.83904672e-01,  3.88856292e-01,
         9.25430357e-02,  4.87910919e-02,  1.20469816e-01,
         2.71789134e-02],
       [ 1.11946002e-01,  2.68387515e-03,  5.05094742e-03,
        -5.51855937e-02,  9.16156452e-03, -1.48907844e-02,
        -1.08056240e-01, -1.44573063e-01,  8.77802372e-02,
        -9.06403586e-02],
       [-2.42438525e-01, -6.09718869e-03,  4.46254667e-03,
         7.40510598e-03,  1.86666429e-01,  2.56898910e-01,
         1.91155728e-02, -1.29550219e-01,  1.84957638e-01,
         1.66678384e-01],
       [-5.35684042e-02,  1.53472768e-02, -4.11163941e-02,
         1.82975501e-01,  1.52560383e-01,  2.01192990e-01,
         1.39089212e-01,  7.60923102e-02,  1.35645747e-01,
         3.00986379e-01],
       [-3.34081769e-01, -5.69113083e-02,  2.11511478e-02,
        -4.28681262e-02,  1.70372099e-01,  2.48588294e-01,
         9.56472829e-02, -1.29201233e-01,  2.34318554e-01,
         2.36844704e-01],
       [-5.71501404e-02,  7.39275850e-03,  4.17068526e-02,
        -3.34171765e-02, -1.61291324e-02,  1.53084964e-01,
         6.61176965e-02, -5.67528643e-02,  1.80317387e-01,
        -3.26182991e-02],
       [ 3.08686763e-01, -1.26168411e-02, -5.51117733e-02,
         2.84637436e-02,  2.41666749e-01,  4.14600730e-01,
         1.55154064e-01,  1.18389770e-01,  3.28536667e-02,
         1.96239594e-02],
       [ 8.02107826e-02, -2.03326102e-02, -2.53675710e-02,
         1.05965352e-02,  1.56462088e-01,  1.79215938e-01,
        -1.97511554e-01,  1.32485479e-01,  3.33514065e-01,
        -1.47247419e-01],
       [ 8.34290236e-02,  3.47759947e-02, -8.87351297e-03,
         3.75042796e-01,  9.04770419e-02,  2.21911654e-01,
         2.59885579e-01, -8.02059993e-02,  2.93962300e-01,
         2.83761710e-01],
       [-1.77609995e-02,  2.88508832e-04, -1.78216118e-02,
         3.61406416e-01, -3.64231288e-01,  4.85036038e-02,
         6.55378103e-02,  2.92109311e-01, -7.53987879e-02,
         2.67903954e-01],
       [-9.01001319e-02,  4.13179062e-02, -1.68479923e-02,
         3.11191261e-01, -3.59903336e-01,  1.01075657e-01,
         1.93223376e-02,  2.68187821e-01, -1.71237484e-01,
         3.28163385e-01],
       [-4.53871459e-01, -1.81678683e-03, -2.79297829e-02,
         1.73771694e-01, -4.06904966e-01,  1.33718494e-02,
        -1.19507872e-01, -8.17694813e-02, -1.42049238e-01,
         1.00803897e-01],
       [ 4.60855216e-02, -3.15005668e-02, -5.95155265e-03,
         1.52816787e-01,  1.11594111e-01,  1.10098071e-01,
         2.39324495e-01, -2.58309543e-01,  2.97593046e-02,
         3.17535073e-01],
       [-2.13809703e-02,  2.25742842e-04, -4.06967364e-02,
        -1.24657668e-01,  2.04219088e-01,  2.79410243e-01,
         6.68928623e-02,  6.60077557e-02,  2.26187646e-01,
        -6.35071024e-02],
       [ 9.36252475e-02, -3.41047347e-02,  2.12660208e-02,
         4.70593534e-02,  3.29198241e-01,  1.46668153e-02,
         3.53965536e-03,  2.68379807e-01,  4.47480351e-01,
         1.42856864e-02],
       [ 2.92551279e-01,  1.43273193e-02, -8.90491623e-03,
         2.92821765e-01, -3.94827165e-02, -1.81169823e-01,
         2.25610286e-02,  4.87843663e-01,  1.85929000e-01,
         7.05118924e-02],
       [ 1.47842944e-01, -4.17173021e-02,  3.25291194e-02,
         3.26920807e-01,  9.18368399e-02,  4.38097894e-01,
         2.56030649e-01, -3.70559841e-02, -1.16005994e-01,
         2.41183534e-01],
       [ 8.90419707e-02, -8.19699839e-03,  4.32914011e-02,
         3.65460187e-01, -2.19165370e-01,  1.80603459e-01,
        -8.82736221e-03,  2.11350828e-01, -1.46570399e-01,
         3.39377105e-01],
       [ 1.50931180e-01, -3.42416652e-02,  1.79978944e-02,
         3.88125598e-01,  3.86320464e-02,  3.67161214e-01,
         1.23179100e-01, -1.17364042e-01, -1.67737260e-01,
         3.03271383e-01],
       [ 7.71286618e-03,  2.78156735e-02, -4.48780246e-02,
        -6.58715963e-02,  8.91658366e-02, -1.02266692e-01,
         2.07134351e-01,  1.82786837e-01, -7.90398475e-03,
        -7.51159713e-02],
       [ 4.37810309e-02, -1.71054900e-02,  1.65892690e-02,
        -2.02816889e-01,  2.96290964e-01,  1.47790581e-01,
         6.20740987e-02,  1.88697442e-01,  2.36839011e-01,
        -4.70109545e-02],
       [ 1.19880708e-02,  5.80835436e-03,  3.18269841e-02,
         3.06149703e-02,  2.71245927e-01,  9.57902819e-02,
        -4.14185748e-02,  2.87221432e-01,  4.70637411e-01,
         3.34794223e-02],
       [ 8.49336609e-02,  2.57452037e-02,  3.37036178e-02,
         1.30629361e-01, -3.38726521e-01, -3.92130613e-01,
        -5.04301488e-02,  2.04043865e-01,  2.66490906e-01,
        -1.58794284e-01],
       [-1.88896537e-01,  1.00865215e-03, -3.99954095e-02,
         3.15113604e-01,  1.32059008e-01,  3.58848482e-01,
         2.23348904e-02, -2.57856529e-02,  6.62415847e-02,
         2.52787054e-01],
       [ 3.74973744e-01, -4.14581299e-02,  2.29227562e-02,
         3.61259133e-01,  3.42102647e-02,  4.36021268e-01,
         2.98666775e-01,  2.47546136e-01, -1.23948202e-01,
         3.88721555e-01],
       [-1.03204399e-01,  2.42932122e-02, -1.51199698e-02,
        -1.47671700e-01,  5.31862751e-02,  3.30604881e-01,
        -1.45451175e-02, -1.15692161e-01, -2.77107447e-01,
        -5.55077847e-03],
       [ 4.27332474e-03,  1.99589580e-02, -2.26264354e-02,
        -9.14584622e-02, -2.68589199e-01, -2.65617937e-01,
         2.31144220e-01,  1.02940381e-01,  3.34000625e-02,
        -3.50669809e-02],
       [-3.08445580e-02,  3.02769858e-02, -1.60011448e-04,
        -1.21923968e-01,  2.20603839e-01,  1.24250397e-01,
        -6.83387741e-02,  3.22410852e-01,  4.09909070e-01,
         4.50014994e-02],
       [-6.36281865e-03, -5.28092645e-02, -2.10146904e-02,
        -1.33109018e-01,  3.78472418e-01,  8.37217867e-02,
        -1.94070429e-01,  2.11533114e-01,  3.23988140e-01,
        -1.50135718e-02],
       [ 1.40190572e-01, -2.87030209e-02,  3.90083864e-02,
         1.48873836e-01, -6.87660724e-02, -2.38860920e-01,
        -8.37980583e-02,  4.26492423e-01,  2.54785687e-01,
        -8.71251747e-02],
       [-1.60078093e-01,  1.76101662e-02,  1.06438622e-02,
        -1.13024361e-01, -1.63693160e-01,  1.80949092e-01,
        -4.25639093e-01,  2.23195508e-01,  5.27633131e-02,
        -3.22193466e-02],
       [ 2.69902438e-01, -4.16866541e-02,  4.39194613e-04,
         3.89627397e-01,  1.92330211e-01,  5.33371508e-01,
         2.78498679e-01,  4.05667573e-01, -3.93817350e-02,
         3.52960974e-01],
       [-3.79529130e-03, -2.41678692e-02,  4.99900095e-02,
        -3.09338212e-01, -4.47098576e-02,  3.46449405e-01,
        -6.73582926e-02,  1.33161843e-01, -5.70853017e-02,
        -2.46379375e-02],
       [-5.71805537e-02, -4.95777503e-02, -2.54110117e-02,
        -8.30684379e-02, -1.58184052e-01, -1.96592361e-01,
        -1.73469007e-01,  4.85582769e-01,  2.88062185e-01,
        -1.62868932e-01],
       [-1.18626691e-01, -5.65757975e-02, -4.08222564e-02,
        -3.31277937e-01,  2.92417765e-01,  1.01703852e-01,
        -1.80342227e-01,  2.90908724e-01,  2.66382873e-01,
        -1.23161618e-02],
       [-5.56978248e-02, -1.17318919e-02,  1.81429833e-03,
         7.33171627e-02,  3.68651450e-01,  8.78145769e-02,
        -5.03891446e-02,  2.15522364e-01,  3.51977676e-01,
         1.39249479e-02],
       [ 1.20430045e-01, -2.21017692e-02,  1.78284030e-02,
         1.46343797e-01, -3.34547967e-01, -4.41807508e-01,
        -7.71575943e-02,  2.78095454e-01,  2.25856781e-01,
        -2.28531048e-01],
       [-6.35210201e-02,  2.10347492e-02,  3.82705107e-02,
         1.33788392e-01, -2.20766827e-01,  1.92624018e-01,
         2.16633439e-01, -3.29043865e-01,  4.81060818e-02,
         1.81729704e-01],
       [ 4.05600101e-01, -3.50118726e-02, -1.14611331e-02,
         2.87977040e-01,  2.97141615e-02,  3.10434431e-01,
         1.33623362e-01,  1.56411722e-01, -2.26616308e-01,
         2.46990085e-01],
       [-1.32730082e-01,  2.89513413e-02,  2.11278466e-03,
         4.26827282e-01, -1.06903970e-01,  3.34366351e-01,
         1.76649332e-01, -1.33775055e-01,  3.30149144e-01,
         3.24587435e-01],
       [-5.17504849e-02,  2.63597816e-02, -2.82189663e-04,
         6.17669104e-03, -3.12223017e-01, -1.50919572e-01,
         2.32085481e-01,  4.01599735e-01,  1.73344702e-01,
        -6.78865686e-02],
       [-2.15550244e-01,  4.97512426e-03, -3.08804866e-02,
        -1.99600399e-01,  3.32392603e-01, -4.84939776e-02,
         6.51786402e-02,  2.76990794e-02,  2.12265372e-01,
         2.78682094e-02],
       [ 5.32181151e-02,  3.05687375e-02, -1.64418835e-02,
        -4.75565828e-02,  4.28584397e-01,  9.85001326e-02,
         9.58935916e-02,  1.24271855e-01,  2.93757766e-01,
        -3.04531008e-02],
       [ 1.14615329e-01,  3.48612666e-02, -5.58636035e-04,
        -3.81531492e-02, -1.52600035e-01, -3.40857476e-01,
         6.44309372e-02, -2.56583005e-01,  1.51854277e-01,
        -3.08926582e-01],
       [ 2.91661099e-02, -2.73987139e-03, -4.27071936e-02,
         1.71661153e-01, -3.70528214e-02,  2.52513975e-01,
         2.14238286e-01, -2.37780228e-01, -3.24250489e-01,
         9.79195610e-02],
       [ 3.12287539e-01,  2.54265014e-02, -2.49225516e-02,
         4.27711010e-01, -9.00857598e-02,  3.41292083e-01,
         1.65030047e-01,  1.77281335e-01,  7.75400549e-02,
         4.80745792e-01],
       [-1.17176380e-02,  3.70729007e-02, -1.51955262e-02,
         1.60795838e-01, -1.86389014e-01,  9.72390324e-02,
        -5.95379584e-02, -3.23621966e-02, -9.55104306e-02,
         3.19073610e-02],
       [-1.35752007e-01, -5.36125414e-02, -3.17412242e-02,
         1.31889969e-01, -7.91271478e-02, -7.01957121e-02,
         2.53938675e-01, -1.31580457e-01,  2.99427241e-01,
         4.76858355e-02],
       [-1.97907418e-01, -5.84430527e-04,  1.96625963e-02,
        -2.55856067e-01,  3.21377873e-01, -3.11989766e-02,
        -1.62270647e-02,  5.79028130e-02,  2.05792665e-01,
         5.92091121e-02],
       [ 3.38993281e-01,  2.89893672e-02, -2.15369221e-02,
        -2.36244515e-01,  3.82563233e-01,  1.71433836e-01,
        -6.14122935e-02,  1.61292762e-01,  7.67891780e-02,
        -3.30431044e-01],
       [ 1.51758566e-01,  1.09391250e-02,  3.65499519e-02,
         2.07048997e-01,  2.36522213e-01, -8.98113251e-02,
         2.68496603e-01, -1.99700743e-01,  1.20942488e-01,
         3.73545215e-02],
       [-1.99296862e-01,  2.12306939e-02,  1.09244473e-02,
         1.94135457e-01, -2.48634025e-01, -1.93833366e-01,
        -5.12916036e-03, -2.80716568e-01,  1.51695624e-01,
        -6.10209927e-02],
       [ 2.37770006e-01, -1.63841695e-02, -5.59236505e-05,
         3.81948680e-01, -6.13285601e-02,  1.06327146e-01,
         1.43585339e-01,  6.93131760e-02,  1.02678701e-01,
         2.42129922e-01],
       [-1.35905847e-01,  2.19413154e-02, -5.48990816e-02,
         2.12904036e-01, -2.77315259e-01, -2.01360688e-01,
         1.99812073e-02, -2.96509236e-01,  1.93415627e-01,
        -5.35561442e-02],
       [ 5.65330945e-02,  3.31940018e-02, -5.30653372e-02,
         1.98424026e-01,  1.92880481e-01, -6.73363060e-02,
         1.41478658e-01, -8.29711482e-02,  2.41009936e-01,
         6.80283010e-02],
       [ 1.68788269e-01, -3.90178002e-02, -3.90670411e-02,
        -9.94723141e-02,  3.47483665e-01,  8.94589350e-02,
         1.30813150e-02, -3.06994654e-02,  9.73283425e-02,
        -2.96257138e-01],
       [ 4.42607850e-01,  2.66950531e-03, -4.59382422e-02,
         3.67059335e-02,  3.55195642e-01,  1.70443073e-01,
         9.17069763e-02,  3.36396456e-01, -7.15512410e-02,
        -2.07399473e-01],
       [ 4.51344192e-01, -1.92236137e-02,  2.65596528e-02,
         6.91749156e-02, -1.06558390e-01, -2.77304918e-01,
         3.73289585e-02,  2.07714230e-01, -1.67532355e-01,
        -4.26036566e-02],
       [ 6.51411712e-02, -5.07932939e-02, -5.62208556e-02,
         3.10136706e-01,  3.95404063e-02, -1.44824153e-02,
         1.55417874e-01,  1.08080551e-01,  1.70718171e-02,
         3.73094380e-01],
       [ 2.25409225e-01, -3.07782758e-02,  5.44986036e-03,
         3.73660028e-01,  1.50457233e-01,  1.43531501e-01,
         3.02962929e-01, -4.51003090e-02,  1.98676467e-01,
         3.81584376e-01],
       [-2.56574973e-02,  3.23151760e-02,  1.12727226e-03,
         3.10334206e-01,  1.43622220e-01, -5.76165020e-02,
         1.62891865e-01, -1.14478104e-01,  4.28331047e-02,
         3.24927479e-01],
       [ 4.51030582e-01,  5.27711445e-03,  3.44362371e-02,
         2.25358099e-01,  2.31512878e-02, -1.83434576e-01,
         1.69466630e-01,  1.80072173e-01, -1.93932712e-01,
         1.01597331e-01],
       [ 4.81697559e-01,  7.10936962e-03, -2.26666089e-02,
         4.82742526e-02,  2.42647082e-01,  3.04985214e-02,
         8.41813758e-02,  1.96096063e-01, -4.02128063e-02,
        -2.36479580e-01]], dtype=float32), array([ 0.3039353 , -0.01242031, -0.00930039,  0.3636144 ,  0.31032184,
        0.36764762,  0.28403443,  0.24698524,  0.22907808,  0.31864792],
      dtype=float32), array([[-9.6419863e-03, -1.4283200e-01, -1.2129144e-01, -3.3818513e-01,
        -2.0474926e-01, -1.8134412e-01, -4.6535924e-02, -3.3037740e-01,
        -2.3018131e-01, -4.1796066e-02, -1.3854000e-01, -3.9247427e-02,
        -4.9067486e-02, -3.2556891e-02, -2.8685960e-01, -1.5297821e-02],
       [-1.7768607e-02, -6.2487904e-02,  1.2562009e-02, -4.8267646e-03,
        -3.1562675e-02,  1.6952938e-03, -6.1329314e-03, -4.1374076e-02,
         1.5520155e-02, -8.3497316e-03, -1.4495479e-02,  3.2651808e-02,
         2.9846923e-02,  1.2377277e-02, -2.3273457e-02,  3.3516694e-02],
       [ 3.6265906e-02,  2.4276834e-02, -2.0324459e-02, -3.9983612e-02,
         4.6356237e-03,  1.1002188e-02, -3.6372181e-02, -3.4578077e-02,
         1.2252365e-02, -1.5896589e-02, -1.5565484e-02,  3.4208722e-02,
         2.6205111e-02, -4.9473725e-02, -6.3449154e-03, -4.0220685e-02],
       [-1.3718771e-02, -3.1948403e-01, -3.6207804e-01, -1.9899985e-01,
        -3.3768538e-01, -1.9855793e-01, -1.8950725e-01, -5.0096907e-02,
         1.6541613e-02, -1.4934418e-01, -6.8938471e-02, -8.1746280e-02,
        -2.5493342e-02, -1.8864982e-01, -6.0809400e-02,  1.2163908e-02],
       [-1.0381639e-01,  2.4519252e-02, -6.9731474e-02,  7.2609871e-03,
        -4.6716128e-02, -1.0202197e-02, -1.2810035e-01, -1.3731244e-01,
        -3.4076038e-01, -9.2194565e-02, -3.2915851e-01, -1.9384611e-01,
        -1.6150925e-01, -7.8568406e-02, -2.1584919e-01, -4.2560968e-01],
       [-3.6499247e-01, -6.1796922e-02, -4.8430938e-02, -1.9562511e-01,
        -4.2163175e-02, -8.8004708e-02, -1.3220690e-01, -1.0454608e-01,
         4.0485200e-02, -3.0474237e-01, -2.4629527e-01, -1.8885780e-02,
        -7.2283581e-02, -6.9083594e-02, -2.8645971e-01, -1.9952172e-01],
       [-1.6167501e-01, -2.3292661e-01, -1.3528877e-01, -1.8305959e-01,
        -3.1419423e-01, -9.4928324e-02, -2.2775319e-01, -7.3597945e-02,
        -1.3309130e-01, -1.1710019e-01, -9.0678722e-02, -1.3382345e-01,
        -5.3444605e-02,  5.2455445e-05, -6.2059589e-02, -1.3722381e-01],
       [-1.4724518e-01, -4.2967077e-02, -6.6759102e-02, -2.1681854e-01,
         1.1893485e-02, -2.9495037e-01, -2.2712111e-02, -2.9081765e-01,
        -1.9950160e-01, -1.5661655e-02, -1.4336757e-01, -2.4378757e-01,
        -2.0840040e-01, -2.1228960e-01, -2.8059391e-02, -6.1927596e-03],
       [-8.0215193e-02, -1.4751771e-01, -1.0149741e-01, -4.8592150e-02,
        -1.0727735e-01, -1.8670317e-02, -3.7111387e-02, -1.0723633e-01,
        -1.8233703e-01, -6.7934543e-02,  1.3379017e-02, -3.3037594e-01,
        -3.7876141e-01, -2.5425342e-01, -4.5583382e-02, -4.1097009e-01],
       [-2.8195721e-01, -3.2197782e-01, -2.8661087e-01, -5.8022649e-03,
        -2.5327969e-01, -1.8550631e-01, -2.7284548e-01, -7.4161395e-02,
         4.0122867e-02, -2.2658183e-01, -1.8021473e-01, -4.4480223e-02,
        -1.5537973e-01, -1.5293209e-01, -9.2216410e-02, -5.4773386e-03]],
      dtype=float32), array([-0.10873616, -0.10348409, -0.11262706, -0.08197298, -0.1008647 ,
       -0.18959895, -0.20918015, -0.03256513, -0.19365887, -0.22037642,
       -0.08628996, -0.04313787, -0.03413763, -0.11763705, -0.17375113,
       -0.02151828], dtype=float32)]

Model[1]
[array([[ 7.79206216e-01,  5.47730505e-01,  5.46674669e-01,
        -8.49509537e-02,  4.72588152e-01,  9.67294514e-01,
         2.70426333e-01, -5.12131155e-01, -2.33709350e-01,
        -6.91534653e-02],
       [ 1.27656072e-01,  6.75345808e-02,  1.00165975e+00,
        -2.76849210e-01, -4.08533692e-01,  1.50858134e-01,
         1.17544815e-01, -5.97953200e-01,  6.93724990e-01,
        -1.48999497e-01],
       [-8.56230497e-01, -5.80066025e-01,  6.54727876e-01,
         1.36271551e-01,  4.41508234e-01,  7.94725239e-01,
        -3.87663543e-01, -2.39102155e-01,  6.25285149e-01,
         9.21436191e-01],
       [-4.55646038e-01, -7.10396767e-01,  6.11321151e-01,
         3.45711768e-01,  2.93747067e-01,  5.69721997e-01,
        -3.19374382e-01,  2.53943354e-01,  3.23730469e-01,
         1.16546953e+00],
       [-1.01266336e+00, -2.70131260e-01,  5.26160598e-01,
        -1.24380901e-01,  5.62345326e-01,  7.29149461e-01,
        -3.11406076e-01, -3.91547859e-01,  7.37586737e-01,
         1.05070651e+00],
       [-3.16704988e-01, -4.42213938e-02,  6.34074986e-01,
        -2.53061235e-01, -2.86134392e-01,  6.03792608e-01,
         4.37068433e-01, -3.76790076e-01,  1.04839265e+00,
         1.82559282e-01],
       [ 8.39119971e-01,  7.78190434e-01,  1.27694607e-01,
        -6.25031590e-01,  2.74888277e-01,  1.02132523e+00,
         3.30578536e-01, -1.04122460e-01, -3.32746841e-02,
        -2.33448893e-01],
       [ 2.58925557e-01,  4.24967676e-01,  7.46782839e-01,
        -3.05323396e-02, -1.70970371e-03,  6.59021378e-01,
        -2.55155802e-01, -4.44293171e-02,  7.86764681e-01,
        -3.59378189e-01],
       [ 3.54057401e-02,  7.15166748e-01, -7.42717922e-01,
         1.20490074e+00, -4.72460911e-02,  4.96853054e-01,
         6.54637218e-01, -4.61622179e-01,  9.13903296e-01,
        -7.91032147e-03],
       [-2.48156875e-01, -4.03289795e-01,  6.48044825e-01,
         9.74763215e-01, -8.61479580e-01,  7.44651854e-02,
        -3.65232117e-02,  1.18180513e+00, -1.76338077e-01,
         9.40154314e-01],
       [-3.03727597e-01, -3.88427556e-01,  5.99390507e-01,
         1.22359061e+00, -1.08919740e+00,  4.12748829e-02,
         4.32908505e-01,  9.45773363e-01,  8.14601630e-02,
         9.37237740e-01],
       [-1.02318096e+00, -2.79698819e-01,  8.15887034e-01,
         9.52378273e-01, -7.19487667e-01,  3.57544720e-01,
         7.13283479e-01,  1.03815049e-01, -3.82491015e-02,
         2.85566419e-01],
       [ 2.95879781e-01,  1.05288172e+00, -4.10808235e-01,
        -3.04456562e-01,  7.09544003e-01,  1.39580682e-01,
         5.66264689e-01, -4.50794846e-01, -2.23277673e-01,
         6.58724725e-01],
       [-1.13915339e-01, -1.46132978e-02,  2.25657642e-01,
        -4.85730797e-01,  1.05253182e-01,  1.02102435e+00,
         6.24063671e-01, -3.20529163e-01,  9.98441100e-01,
        -3.79365772e-01],
       [-9.30829868e-02,  6.56242251e-01,  9.18180496e-02,
        -3.67710786e-03,  4.91922379e-01,  2.09284648e-01,
        -3.09371918e-01,  4.99822348e-01,  6.69792056e-01,
         2.31049404e-01],
       [ 1.55087698e+00, -5.02813458e-01,  6.30799711e-01,
         1.01338494e+00,  6.64534420e-02, -8.00052583e-01,
        -7.21376956e-01,  1.87435353e+00,  6.32029250e-02,
        -4.24539864e-01],
       [ 2.95724660e-01,  9.42460358e-01, -6.83665752e-01,
         5.03818393e-01, -4.48205620e-01,  1.76209259e+00,
         1.19906163e+00, -2.43937418e-01, -2.59519368e-01,
        -3.23427171e-02],
       [ 2.90509701e-01, -7.85866529e-02,  5.63026071e-01,
         5.62352538e-01, -6.02058947e-01,  6.54110193e-01,
         1.67994320e-01,  7.46210098e-01, -3.41997035e-02,
         6.88081026e-01],
       [ 5.77482522e-01,  4.69780952e-01, -1.06889315e-01,
         9.95910108e-01,  4.64159966e-01,  1.17999160e+00,
        -2.65239388e-01, -2.82709420e-01, -6.18675351e-01,
         5.48958063e-01],
       [ 6.09755218e-01,  1.06816046e-01,  2.06271172e-01,
        -7.48877823e-01,  8.28045905e-01, -4.96641189e-01,
         3.53178501e-01,  1.34468031e+00, -5.07352650e-01,
        -1.38295010e-01],
       [ 5.47598638e-02,  7.11373627e-01, -8.81274715e-02,
        -8.99762869e-01,  5.37630439e-01,  3.50431174e-01,
         1.79395288e-01,  6.16329610e-01,  4.95156556e-01,
         1.81165993e-01],
       [-7.78550893e-05,  6.56780541e-01,  2.84341931e-01,
         9.82571915e-02,  6.31050825e-01,  2.07386285e-01,
        -3.92445326e-01,  5.98610222e-01,  4.55184937e-01,
         3.11415523e-01],
       [ 5.93530118e-01, -2.42369384e-01,  2.37382233e-01,
         1.20830047e+00, -5.81497133e-01, -7.60131478e-01,
         6.21494837e-03,  7.67154574e-01,  8.45568836e-01,
        -7.22039163e-01],
       [-3.94742191e-02, -2.60208249e-01,  4.34883863e-01,
         5.64488769e-01,  1.24408627e+00,  3.94656777e-01,
        -5.37176609e-01,  9.49906930e-02, -3.95389646e-01,
         2.65911013e-01],
       [ 7.56690145e-01,  9.32945907e-01, -8.79937470e-01,
         8.20656240e-01, -5.85631967e-01,  1.87703228e+00,
         9.97859955e-01,  3.36614102e-01, -2.80771106e-01,
         3.76165330e-01],
       [ 6.60749018e-01, -4.42717344e-01,  1.38227069e+00,
        -6.84575319e-01,  1.04756546e+00,  3.21087599e-01,
        -4.26188558e-01,  4.71678302e-02, -1.32683635e+00,
        -4.02726322e-01],
       [ 1.08471178e-01,  3.75428826e-01, -1.51616767e-01,
        -6.20946348e-01, -7.51013815e-01, -7.67211974e-01,
         1.65778291e+00,  7.50274122e-01,  1.89031571e-01,
         1.06306620e-01],
       [-1.99931741e-01,  6.20528460e-01, -2.37749264e-01,
        -6.34816289e-01,  3.26459646e-01,  2.75069833e-01,
        -3.69016469e-01,  9.44076061e-01,  8.73796463e-01,
         2.42804691e-01],
       [-1.88120767e-01,  3.64313096e-01,  4.72954735e-02,
        -2.07890719e-01,  9.17995334e-01, -2.47235019e-02,
        -4.82987136e-01,  5.13771236e-01,  4.78938371e-01,
         1.11979634e-01],
       [ 1.99355558e-01, -2.94329692e-02,  4.41431552e-01,
         7.31036127e-01, -2.66497016e-01, -5.30439079e-01,
        -4.65843171e-01,  9.03451264e-01,  7.60323226e-01,
         1.93326905e-01],
       [-4.37662870e-01, -3.70748550e-01,  7.21316993e-01,
         2.10758582e-01, -1.02390301e+00,  1.16292322e+00,
        -9.73104835e-01,  5.02268434e-01,  8.39231610e-01,
         3.84209245e-01],
       [ 5.77213347e-01, -7.90629208e-01,  5.11948586e-01,
         1.00777173e+00,  6.53533280e-01,  9.39882338e-01,
        -2.10684642e-01,  1.10828388e+00, -6.37666881e-01,
         7.93411732e-01],
       [-2.88494319e-01,  2.61860359e-02,  1.87027737e-01,
        -5.97371578e-01, -1.27569032e+00,  1.67778730e+00,
         4.50737566e-01,  2.67616123e-01,  6.61365032e-01,
         2.35295981e-01],
       [-4.01332706e-01,  1.56410057e-02, -3.15993488e-01,
         8.75401348e-02, -7.28925824e-01, -2.78658420e-01,
        -1.89768225e-01,  1.45566547e+00,  1.54617882e+00,
         1.36071637e-01],
       [-4.02142316e-01,  6.77695334e-01, -4.75067675e-01,
        -1.01587260e+00,  8.29703927e-01,  2.84092985e-02,
        -3.95234615e-01,  1.03004801e+00,  7.50545502e-01,
         1.72868773e-01],
       [-3.36681128e-01, -1.61362477e-02,  1.71679392e-01,
         5.45224786e-01,  9.33354378e-01,  6.02797419e-02,
        -6.92008212e-02,  3.39067549e-01,  7.73371577e-01,
         1.94345117e-01],
       [ 7.07879007e-01, -2.44891480e-01, -1.31312218e-02,
         1.18706262e+00, -6.22379959e-01, -9.28529799e-01,
         1.19071547e-02,  1.03038096e+00,  1.13580728e+00,
        -7.89671481e-01],
       [ 5.72944462e-01, -3.95809636e-02,  9.32264149e-01,
         1.05291223e-02, -5.63670337e-01,  8.38793039e-01,
         9.20146883e-01, -5.51796377e-01, -3.58825535e-01,
         5.10157526e-01],
       [ 1.48657358e+00, -2.27868766e-01, -1.86052367e-01,
         7.28075981e-01, -1.98796466e-01,  5.76212823e-01,
        -2.89926864e-02,  4.95818466e-01, -5.78582942e-01,
         9.78590697e-02],
       [-1.05080515e-01, -3.38591546e-01,  1.74646541e-01,
         1.29405415e+00, -4.24000174e-01,  1.15453219e+00,
         5.54873884e-01, -3.62504333e-01,  9.47549641e-01,
         3.92275900e-01],
       [-5.54221757e-02,  9.98724878e-01, -9.70870614e-01,
        -1.31799698e-01, -1.23906350e+00, -4.48686853e-02,
         1.71589363e+00,  1.29807687e+00,  1.15545475e+00,
        -2.72552878e-01],
       [-4.02874827e-01,  1.12843311e+00, -7.05412507e-01,
        -1.03903735e+00,  1.24158823e+00, -2.17690751e-01,
         4.04463410e-01,  5.78306913e-01,  3.06611896e-01,
        -4.42716964e-02],
       [-2.59269655e-01,  5.14659472e-02, -6.17361590e-02,
        -1.15844049e-01,  9.74252939e-01,  1.01668932e-01,
         1.39902115e-01,  9.40752700e-02,  4.10073608e-01,
         2.06152782e-01],
       [ 6.43002212e-01, -1.57692567e-01,  6.33881509e-01,
         2.17863396e-01, -3.55321139e-01, -7.33873606e-01,
         2.70768642e-01, -5.94308555e-01,  7.07078576e-01,
        -1.00080013e+00],
       [ 3.10896605e-01, -6.05287254e-01,  2.22851068e-01,
         2.46872500e-01,  8.59718025e-01,  9.18370128e-01,
         9.33493376e-01,  3.13748479e-01, -7.21585572e-01,
        -9.79908854e-02],
       [ 9.28151250e-01,  1.01451898e+00,  2.98785299e-01,
         5.56422830e-01, -5.34158170e-01,  9.02095020e-01,
        -5.20941079e-01,  1.72376454e-01, -1.55106142e-01,
         1.21049249e+00],
       [ 3.42260867e-01, -8.93527091e-01,  6.31702840e-02,
         1.20709562e+00, -1.44977614e-01,  8.20524096e-01,
        -3.10031563e-01,  7.58081853e-01,  4.31235969e-01,
        -7.77384162e-01],
       [-6.73177838e-01,  2.41612956e-01, -4.21378225e-01,
         5.52646339e-01, -5.40838018e-02, -7.15129599e-02,
         1.57564211e+00, -4.29633111e-01,  1.55466068e+00,
        -2.91144013e-01],
       [-3.35444719e-01,  1.28255737e+00, -9.64495718e-01,
        -9.36902285e-01,  1.15193903e+00, -2.98744053e-01,
         3.02381814e-01,  5.27639210e-01,  3.36738139e-01,
         9.59698707e-02],
       [ 3.97292644e-01,  1.81491494e-01,  6.95946515e-01,
        -7.69183755e-01,  7.45549738e-01,  2.30099946e-01,
         2.71645814e-01, -2.64160842e-01,  2.39228100e-01,
        -7.27185011e-01],
       [ 2.59222418e-01, -7.36260176e-01, -5.90464287e-02,
         8.85016382e-01,  1.51114476e+00, -5.73891819e-01,
         6.36218667e-01, -1.07366472e-01,  1.77968845e-01,
        -3.02777678e-01],
       [-5.43055773e-01,  5.84789395e-01,  9.55172837e-01,
         7.00649798e-01, -3.01912606e-01, -3.69187295e-01,
         7.70445883e-01, -5.94950438e-01,  6.93516135e-01,
        -3.58830333e-01],
       [ 3.97792161e-01,  1.04861343e+00,  8.39424491e-01,
         5.87927818e-01, -5.64708173e-01, -2.10811824e-01,
         2.71703422e-01, -3.87614965e-01,  8.89703855e-02,
         4.23130661e-01],
       [-4.63699907e-01,  5.31286716e-01,  1.07680285e+00,
         7.47564197e-01, -5.40249467e-01, -2.49112949e-01,
         9.02071595e-01, -6.99720979e-01,  8.65540385e-01,
        -4.59184498e-01],
       [-2.19359156e-03, -5.09586334e-01, -4.10920918e-01,
         1.22815681e+00,  1.63180995e+00, -6.49494767e-01,
         7.03150332e-02, -1.24548428e-01,  7.56862700e-01,
        -4.18961912e-01],
       [ 5.02192795e-01,  8.46630573e-01,  4.20696020e-01,
        -4.10936207e-01,  9.12614942e-01,  3.68480906e-02,
         7.05953419e-01, -2.56735772e-01, -1.75384149e-01,
        -9.81574297e-01],
       [ 9.01557982e-01, -5.06480753e-01,  2.15343565e-01,
         7.21708611e-02,  9.71928358e-01,  3.33556414e-01,
         5.29582560e-01,  9.22288597e-01, -5.43987155e-01,
        -6.05582058e-01],
       [ 1.54689109e+00, -5.33786714e-01,  6.31711960e-01,
         1.73144311e-01, -4.73217219e-02, -9.75264490e-01,
         2.33787924e-01,  7.68222570e-01, -3.95062566e-01,
        -3.34485799e-01],
       [-1.04442768e-01, -3.08182221e-02, -1.62843063e-01,
         5.70965767e-01,  4.75533932e-01, -5.94572365e-01,
         7.91366339e-01,  6.25230789e-01, -3.44904512e-01,
         1.06962037e+00],
       [ 1.26281500e-01,  9.40420747e-01,  2.11836517e-01,
         2.88711280e-01,  3.12021613e-01, -1.25948101e-01,
         5.26397526e-01, -5.27004004e-01, -9.96591821e-02,
         1.41105163e+00],
       [-3.99992615e-01,  1.16803870e-01,  4.66168553e-01,
         3.25130463e-01,  9.24673617e-01, -4.94652599e-01,
         6.64148152e-01, -1.47135437e-01,  7.24696070e-02,
         9.07820225e-01],
       [ 1.40358472e+00,  1.99233264e-01,  2.79065460e-01,
        -5.29109649e-02,  3.97775084e-01, -8.70521307e-01,
         1.26468825e+00,  5.39302468e-01, -8.87232840e-01,
         1.73571318e-01],
       [ 1.87086070e+00, -3.87705147e-01, -1.82903036e-01,
         3.48825514e-01,  9.30384040e-01, -1.66535333e-01,
         7.86402047e-01,  1.23099411e+00, -5.00298619e-01,
        -1.49308646e+00]], dtype=float32), array([ 0.6317862 ,  0.45268714,  0.18972741,  0.74756575,  0.779682  ,
        0.88506603,  0.4446718 ,  0.49950936, -0.09398834,  0.8662194 ],
      dtype=float32), array([[ 0.31264246,  0.26823804, -0.17855169, -2.0129776 , -1.0789846 ,
        -0.8960567 ,  0.27716103, -1.5924823 , -0.9062281 ,  0.0034148 ,
        -0.08875937,  0.09841888,  0.21503966,  0.2303851 , -1.8365386 ,
         0.27997515],
       [-0.7464516 , -0.44803482,  0.5933399 ,  0.39325687, -0.90271103,
         0.4388599 , -2.1208644 , -2.4345274 , -0.4600164 ,  0.5102023 ,
         0.54326385,  1.1176348 , -1.2381134 , -1.7745478 , -0.04991797,
        -0.8156646 ],
       [ 0.7812436 ,  0.16090535, -1.8762053 , -1.7101357 ,  0.65886277,
         0.40251577,  0.06256673, -0.6903006 ,  0.8398142 , -0.8363477 ,
         0.26407552, -1.2749621 , -1.7333534 ,  0.74156624, -0.10478747,
         0.23255485],
       [ 0.71313274, -1.7963883 , -1.7724683 , -0.72104543, -1.8923852 ,
        -0.8662102 ,  0.22599299,  0.43652916,  0.07701963, -0.77316517,
        -0.18236957, -0.19063501,  0.50287145, -1.2483486 ,  0.33756316,
         0.30226383],
       [ 0.08589157,  0.57044476, -0.24745473,  0.55306035, -0.28104877,
         0.21215929, -0.16654973,  0.19721366, -1.9237465 ,  0.04623714,
        -2.1618636 , -0.51524097,  0.35248265,  0.0682198 , -0.643751  ,
        -1.4302291 ],
       [-2.1138391 , -0.26068455,  0.36983508, -0.68396384,  0.48634142,
        -0.06729989, -0.09844043, -0.0533625 ,  0.4586068 , -2.142376  ,
        -0.33142582,  0.14122888,  0.27024612, -0.10794753, -2.4243894 ,
        -0.83336407],
       [-0.40806758, -1.1312321 ,  0.48708475, -0.7584334 , -1.8161137 ,
        -0.01110288, -1.639867  ,  0.30892873, -0.07323808,  0.40298164,
         0.15506804, -0.3791911 ,  0.35621244,  0.6220258 ,  0.24629033,
        -0.17491789],
       [-0.48735115,  0.37645835, -0.12597893, -0.03911788,  0.04295015,
        -1.9980193 ,  0.32710192, -1.2078025 , -1.2672747 ,  0.26622164,
        -0.2603138 , -1.3158058 , -0.04370541, -0.6249929 ,  0.44409367,
         0.8217359 ],
       [-0.18625624, -0.6349028 ,  0.04617253, -0.03649383,  0.18549265,
         0.20598632,  0.34805372,  0.37568346, -0.21979031,  0.22464308,
         0.4507551 , -1.2292657 , -1.4186895 , -0.8257556 ,  0.16911365,
        -1.320948  ],
       [-1.509219  , -1.4338013 , -1.6692283 ,  0.6510042 ,  0.37010503,
        -0.73600835, -1.4565353 ,  0.2958447 ,  0.05131522, -2.0630367 ,
        -0.8872203 ,  0.37662953, -1.1171582 , -0.02454564, -0.06895412,
         0.4921734 ]], dtype=float32), array([ 0.07486934,  0.01818047, -0.10131969,  0.1210486 , -0.02496924,
       -0.37254754, -0.288737  ,  0.23379137, -0.5668933 , -0.45920333,
       -0.0761659 ,  0.06259913,  0.10755253, -0.18829459, -0.3118743 ,
        0.2165966 ], dtype=float32)]

Model[2]
[array([[ 0.7799432 ,  0.51561964,  0.52522504, -0.23120648,  0.44760343,
         1.0732939 ,  0.16085829, -0.7852133 , -0.34156495, -0.3753363 ],
       [-0.01073173,  0.02387067,  1.27212   , -0.3267664 , -0.47150627,
         0.20441042,  0.03877214, -0.7936141 ,  0.73401767, -0.17837931],
       [-1.1321057 , -0.5919751 ,  0.7980782 ,  0.13299102,  0.6015453 ,
         0.88810307, -0.5130997 , -0.4114696 ,  0.53514254,  1.1532297 ],
       [-0.8456339 , -0.6613655 ,  0.5145947 ,  0.21915525,  0.39130118,
         0.6018286 , -0.47803226,  0.18043724,  0.4747688 ,  1.4275745 ],
       [-1.2472088 , -0.2743505 ,  0.5432829 , -0.26069158,  0.46235058,
         0.6963179 , -0.5117325 , -0.4994273 ,  0.8869305 ,  1.134927  ],
       [-0.35859   , -0.182145  ,  0.55505145, -0.3281035 , -0.32170272,
         0.65107065,  0.47662842, -0.48342058,  1.4235986 ,  0.22042266],
       [ 0.87397337,  0.4713248 ,  0.2497855 , -0.7398297 ,  0.27363056,
         1.1981783 ,  0.07420576, -0.11341629, -0.18996061, -0.26278841],
       [ 0.40241393,  0.33532393,  0.7972497 , -0.11450162,  0.01457778,
         0.67678463, -0.51986367, -0.02432007,  0.6039793 , -0.5481894 ],
       [ 0.14247265,  0.52100456, -1.0531338 ,  1.4112538 , -0.00940147,
         0.37300953,  0.49424472, -0.5407359 ,  0.8614938 , -0.2897854 ],
       [-0.3649435 , -0.37942496,  0.8411069 ,  0.8385316 , -1.2149396 ,
        -0.01163077,  0.21457946,  1.070923  ,  0.03737645,  0.8385435 ],
       [-0.62176657, -0.36645305,  0.6113975 ,  1.0111703 , -1.3172519 ,
        -0.14146605,  0.63084614,  1.05041   , -0.03664437,  1.0976053 ],
       [-1.0067286 , -0.02095913,  0.5390812 ,  1.1143736 , -0.7894777 ,
         0.41410765,  0.6379565 ,  0.15215541, -0.30405557,  0.31791416],
       [ 0.22174165,  0.98209697, -0.56247216, -0.541019  ,  0.70427746,
         0.09646504,  0.45388785, -0.43445083, -0.0731572 ,  0.71506083],
       [-0.09854613, -0.07425795,  0.4330898 , -0.7001649 , -0.08856019,
         1.2571104 ,  0.4556051 , -0.29433054,  1.1249743 , -0.37943923],
       [-0.2849417 ,  0.7197826 ,  0.14070903, -0.1902213 ,  0.5623515 ,
         0.06441469, -0.42629993,  0.4485816 ,  0.6489257 ,  0.11510644],
       [ 1.2536184 , -0.43649912,  0.7592225 ,  0.81905735, -0.11832713,
        -1.0452996 , -0.86124176,  1.6471426 , -0.07037941, -0.27978393],
       [ 0.3659467 ,  0.8537832 , -0.77930707,  0.7411704 , -0.43239716,
         1.7050607 ,  1.0189887 , -0.4108658 , -0.32230914, -0.16429713],
       [ 0.20755103,  0.01250447,  0.57417   ,  0.18015628, -0.5098437 ,
         0.5273262 ,  0.01521656,  0.850967  ,  0.02793747,  0.8531249 ],
       [ 0.4859027 ,  0.5019026 , -0.11133295,  0.8941171 ,  0.51419276,
         1.2822645 ,  0.06866255, -0.37511003, -0.6690015 ,  0.5547504 ],
       [ 0.6879228 ,  0.3117538 ,  0.5806843 , -0.9737377 ,  0.7223758 ,
        -0.17303051,  0.3000318 ,  1.240729  , -0.5501384 , -0.17628093],
       [ 0.00600138,  0.66263807, -0.12086123, -1.1515929 ,  0.36613744,
         0.52268535,  0.07477573,  0.7882715 ,  0.61228436,  0.11242385],
       [-0.09556028,  0.58482116,  0.4504289 ,  0.09263661,  0.5975739 ,
         0.17934614, -0.7888335 ,  0.6510157 ,  0.38162366,  0.36043942],
       [ 0.7908427 , -0.34169358,  0.36505467,  1.472707  , -0.7103472 ,
        -0.7702157 ,  0.03641729,  0.6340062 ,  0.84999764, -0.76706016],
       [ 0.07742641, -0.43318605,  0.76868635,  0.55474746,  1.2907073 ,
         0.38229895, -0.6299732 ,  0.13529961, -0.7827249 ,  0.01976874],
       [ 0.8354045 ,  0.82786226, -0.8755004 ,  0.68518513, -0.66625595,
         1.7632102 ,  1.2145493 ,  0.22535996, -0.4966508 ,  0.3828922 ],
       [ 0.48933563, -0.24256869,  1.2635415 , -0.66227674,  0.8410366 ,
         0.45222905, -0.35176313,  0.14189415, -1.5035983 , -0.05879314],
       [ 0.15311225,  0.34728453, -0.14174393, -0.75820357, -0.595355  ,
        -0.7733947 ,  1.8152417 ,  0.6716535 ,  0.2832039 ,  0.14760186],
       [-0.3995572 ,  0.5210428 , -0.15844947, -0.75718665,  0.29690173,
         0.4342336 , -0.7901884 ,  1.0087894 ,  0.8241724 ,  0.12799738],
       [-0.2625433 ,  0.20372534,  0.18530677, -0.13602993,  1.2330306 ,
        -0.13723667, -0.6395241 ,  0.57931054,  0.367454  , -0.0045211 ],
       [ 0.0935133 , -0.13201539,  0.47984645,  0.9580512 , -0.38750383,
        -0.4602147 , -0.5695994 ,  0.84094375,  0.8553138 ,  0.5832275 ],
       [-0.6184119 , -0.46943244,  0.5081968 ,  0.23235811, -1.0106367 ,
         1.2488307 , -1.092287  ,  0.5350223 ,  0.89444596,  0.57519585],
       [ 0.30682114, -0.8249248 ,  0.58382183,  0.9456545 ,  0.34259945,
         1.1634817 , -0.24569902,  0.9468481 , -0.7710169 ,  1.0236197 ],
       [-0.18577848, -0.2158095 , -0.12900169, -0.5266182 , -1.5028578 ,
         1.7724979 ,  0.4888807 ,  0.37636748,  0.7211519 ,  0.45484394],
       [-0.35439354,  0.02250019, -0.14978753,  0.0623524 , -1.0024002 ,
        -0.2471572 , -0.26531622,  1.5592521 ,  1.8695918 ,  0.32735375],
       [-0.4570463 ,  0.7454058 , -0.54020745, -1.3201543 ,  0.8613004 ,
        -0.03372117, -0.56252515,  1.2322145 ,  0.86637026,  0.18695086],
       [-0.61284417,  0.00794887, -0.03333262,  0.3183188 ,  1.0077677 ,
        -0.13151498, -0.12819032,  0.2189876 ,  0.80322593,  0.13942462],
       [ 0.8514582 , -0.29149917,  0.02035525,  1.2380049 , -0.7244006 ,
        -0.77649575, -0.14925213,  1.0601542 ,  1.0498748 , -0.8634581 ],
       [ 0.79688364,  0.14217958,  0.92227596, -0.34639782, -0.49002457,
         0.79619503,  0.7581102 , -0.20695408, -0.6323039 ,  0.61892194],
       [ 1.6187514 , -0.31161132, -0.2920812 ,  0.7901433 , -0.5355893 ,
         0.8893625 , -0.2186488 ,  0.29815543, -0.57193404,  0.2037867 ],
       [-0.12408426, -0.20197545,  0.19886763,  1.3022752 , -0.3862995 ,
         1.3648329 ,  0.7387305 , -0.63835084,  0.93319017,  0.4486135 ],
       [ 0.10023186,  1.0754973 , -0.99819654, -0.28341967, -1.3369845 ,
        -0.01405888,  1.7552376 ,  1.328952  ,  1.2914195 , -0.21003583],
       [-0.33733144,  0.9775914 , -0.70978254, -1.1832956 ,  1.3752099 ,
        -0.41016123,  0.49853346,  0.7673721 ,  0.21219257, -0.325298  ],
       [-0.42132673, -0.03898058,  0.0362957 , -0.25394872,  1.0986477 ,
        -0.03518182,  0.12393703,  0.11479804,  0.26411232,  0.17567307],
       [ 0.5590457 , -0.37462536,  0.78787273,  0.29123873, -0.61623424,
        -0.7905323 ,  0.24010955, -0.63208914,  0.96438336, -1.2925636 ],
       [ 0.16019864, -0.70396674,  0.24960332,  0.29097775,  0.8447544 ,
         0.91347384,  1.267311  ,  0.50518525, -0.6923285 , -0.2212831 ],
       [ 0.8544769 ,  1.1516193 ,  0.05893031,  0.4520826 , -0.8547916 ,
         1.270491  , -0.5079858 , -0.16228223, -0.21560942,  1.3643326 ],
       [ 0.2434965 , -0.91872066, -0.00529972,  1.3432336 , -0.13313493,
         0.83810246, -0.07148696,  0.6555843 ,  0.50736666, -0.78962934],
       [-0.8186059 ,  0.38097128,  0.12957433,  0.34142363, -0.23314023,
         0.04210882,  1.6006981 , -0.7036352 ,  1.7043612 , -0.56951284],
       [-0.387462  ,  1.1636882 , -0.82891417, -1.1916553 ,  1.22422   ,
        -0.41936418,  0.21975657,  0.7879947 ,  0.03371279, -0.0068273 ],
       [ 0.54870695,  0.1954996 ,  0.9515659 , -0.9424378 ,  1.0745533 ,
         0.24896704,  0.18021673, -0.4826091 , -0.01103083, -0.938126  ],
       [-0.03830998, -0.853275  , -0.20823884,  0.91971785,  1.6532396 ,
        -0.7522372 ,  0.6053283 , -0.21380441,  0.08998156, -0.29504845],
       [-0.53664863,  0.7511106 ,  1.3398497 ,  0.5681164 , -0.23400742,
        -0.527506  ,  0.736033  , -0.6696685 ,  0.6070688 , -0.5447503 ],
       [ 0.54418284,  1.1424253 ,  0.9926216 ,  0.5507931 , -0.82487106,
        -0.4111356 ,  0.04693633, -0.525585  , -0.02151021,  0.3307424 ],
       [-0.53889495,  0.64450246,  1.455016  ,  0.70391935, -0.3757469 ,
        -0.40507913,  0.8620756 , -0.80390316,  0.5747063 , -0.75918   ],
       [-0.22576   , -0.7715791 , -0.55579644,  1.5107391 ,  2.2290506 ,
        -1.0271686 ,  0.12539232, -0.03532103,  0.63389426, -0.37844986],
       [ 0.45809206,  1.0942953 ,  0.6240498 , -0.6217497 ,  1.0703698 ,
         0.04592633,  0.7642102 , -0.5863432 , -0.30197427, -0.9208112 ],
       [ 0.87413836, -0.63930476,  0.16146845,  0.04341224,  1.0195981 ,
         0.18735383,  0.45720375,  0.8804894 , -0.5938456 , -0.675058  ],
       [ 1.8891449 , -0.47687665,  0.35141575,  0.04842189, -0.04383221,
        -0.9339948 ,  0.50672483,  0.67568636, -0.27423513, -0.27058208],
       [-0.27765858, -0.13003528, -0.18099822,  0.4378428 ,  0.45766032,
        -0.859154  ,  1.2730693 ,  0.7055503 , -0.33904216,  1.1614149 ],
       [ 0.04601726,  0.83682454,  0.33500174,  0.24428724,  0.13956678,
        -0.25086036,  0.2959411 , -0.73101145, -0.2929153 ,  1.4176987 ],
       [-0.6812765 ,  0.07757298,  0.61785126,  0.16184929,  0.9251708 ,
        -0.8441465 ,  0.80136263, -0.0875392 , -0.24393514,  0.897074  ],
       [ 1.3872738 ,  0.26510894,  0.36217105, -0.2737756 ,  0.6356801 ,
        -1.1699147 ,  1.4350147 ,  0.69575495, -1.1251464 , -0.01314341],
       [ 2.0438824 , -0.5904052 , -0.40284428,  0.34696075,  1.1053598 ,
        -0.3953752 ,  0.9474176 ,  1.1748306 , -0.36441135, -1.8347081 ]],
      dtype=float32), array([ 0.60524166,  0.3886481 ,  0.16571611,  0.778514  ,  0.83041817,
        1.0447391 ,  0.32011852,  0.4542087 , -0.44020534,  1.0536088 ],
      dtype=float32), array([[ 0.3537225 ,  0.1778504 , -0.2597866 , -2.2108417 , -1.0619121 ,
        -1.1656728 ,  0.3201743 , -2.057727  , -1.028772  ,  0.05656913,
        -0.14812532,  0.3433479 ,  0.21471393,  0.31896913, -2.3737118 ,
         0.25285298],
       [-0.7234081 , -0.2793279 ,  0.6071757 ,  0.36045164, -0.85644364,
         0.61156374, -2.3704104 , -3.3078675 , -0.8773917 ,  0.48845422,
         0.5417351 ,  1.4523411 , -1.4096757 , -2.1656826 , -0.10865823,
        -0.8874348 ],
       [ 0.7011542 ,  0.24920759, -2.2211468 , -1.8790866 ,  0.6685349 ,
         0.5190802 , -0.0765607 , -0.69870365,  0.9124816 , -0.8402176 ,
         0.40205204, -1.3809638 , -1.7767253 ,  0.79680777, -0.00678239,
         0.25833333],
       [ 0.8651196 , -2.32902   , -2.218356  , -0.7128966 , -2.362633  ,
        -0.9653437 ,  0.29259518,  0.4844921 ,  0.16896045, -0.85004514,
        -0.23378453, -0.14286718,  0.5768766 , -1.7340475 ,  0.45895553,
         0.23157655],
       [ 0.14888476,  0.66709644, -0.36528906,  0.66170275, -0.46615157,
         0.20176972, -0.3589782 ,  0.5016977 , -1.9375554 ,  0.09558704,
        -2.403438  , -0.72907174,  0.38301668,  0.07216742, -0.76204395,
        -1.464496  ],
       [-2.6961436 , -0.39037874,  0.5981901 , -0.8505497 ,  0.51281285,
        -0.02929921, -0.11723497, -0.20044687,  0.53992313, -2.7837443 ,
        -0.5061248 ,  0.1687433 ,  0.3769766 , -0.1447431 , -2.7405322 ,
        -1.3205124 ],
       [-0.48547992, -1.1798495 ,  0.5910882 , -0.9573244 , -2.2574673 ,
         0.08822815, -1.8180488 ,  0.42460287, -0.08361089,  0.571599  ,
         0.15752245, -0.5542389 ,  0.43260622,  0.7846474 ,  0.21052255,
        -0.21011311],
       [-0.76282376,  0.3551753 , -0.0067766 , -0.01364524,  0.10027943,
        -2.4224796 ,  0.20820254, -1.4284027 , -1.3107384 ,  0.330897  ,
        -0.2098231 , -1.4319447 , -0.07068162, -0.6578556 ,  0.6311928 ,
         0.920935  ],
       [-0.3013379 , -0.9238078 ,  0.12269623, -0.16370673,  0.17942987,
         0.24304663,  0.50146115,  0.51344234, -0.5799504 ,  0.29829827,
         0.6015039 , -1.5110314 , -1.6194092 , -0.8745374 ,  0.26453546,
        -1.6907569 ],
       [-1.861652  , -1.7460625 , -2.4279819 ,  0.8452554 ,  0.47614613,
        -0.9677698 , -1.7851255 ,  0.33797628,  0.06077842, -2.5773027 ,
        -1.2195698 ,  0.5714803 , -1.2577318 ,  0.01657704, -0.07731773,
         0.5874479 ]], dtype=float32), array([ 0.03751777, -0.05016974, -0.1295689 ,  0.15083705, -0.0667918 ,
       -0.5553617 , -0.49469015,  0.30026415, -0.7612533 , -0.6435517 ,
       -0.11494061,  0.16745386,  0.11023176, -0.28313127, -0.48232427,
        0.22325037], dtype=float32)]

Model[3]
[array([[ 8.04586887e-01,  6.10751152e-01,  6.23239338e-01,
        -1.19387329e-01,  3.61924678e-01,  1.07235229e+00,
        -7.48171955e-02, -9.00539756e-01, -5.89932144e-01,
        -2.87965804e-01],
       [ 1.22193322e-01,  4.80293967e-02,  1.40968108e+00,
        -4.62658286e-01, -3.37916911e-01,  3.86892594e-02,
         1.18958354e-01, -8.79915714e-01,  6.45767510e-01,
        -3.06905061e-01],
       [-1.17572021e+00, -3.57390791e-01,  6.40308261e-01,
         1.23182006e-01,  4.26888406e-01,  7.62282968e-01,
        -6.66950166e-01, -5.62344968e-01,  4.94314879e-01,
         1.19684732e+00],
       [-1.27544880e+00, -6.54776514e-01,  6.62295103e-01,
         3.52010101e-01,  2.86113054e-01,  7.03237295e-01,
        -4.53335106e-01,  4.27247509e-02,  3.63926589e-01,
         1.67191327e+00],
       [-1.12416196e+00, -4.99574602e-01,  5.48081994e-01,
        -1.42027259e-01,  4.67448205e-01,  1.01216018e+00,
        -4.83220428e-01, -6.45882726e-01,  9.64318871e-01,
         9.24350739e-01],
       [-1.74453542e-01, -6.52421117e-01,  4.89566684e-01,
        -6.84143662e-01, -2.47655451e-01,  8.66996765e-01,
         5.44425249e-01, -3.06523800e-01,  1.96494520e+00,
         1.39741257e-01],
       [ 9.03568387e-01,  6.66694999e-01, -9.76340398e-02,
        -8.79040539e-01,  3.00327409e-02,  1.20684004e+00,
         2.46752486e-01, -3.46811503e-01, -4.87309545e-02,
        -3.81205529e-01],
       [ 7.05872238e-01,  1.00092143e-01,  8.90323281e-01,
        -1.98888302e-01, -6.25006780e-02,  5.90404510e-01,
        -7.85506725e-01,  3.34966257e-02,  7.76532829e-01,
        -1.06514907e+00],
       [ 3.83262217e-01,  4.31619197e-01, -1.23682332e+00,
         1.53213167e+00, -1.73241884e-01,  2.27348804e-02,
         2.61975318e-01, -7.27001190e-01,  7.63034284e-01,
        -3.90520424e-01],
       [-2.15301767e-01, -2.51487643e-01,  7.27936983e-01,
         6.73925757e-01, -1.55526662e+00,  2.11768538e-01,
         4.94166017e-02,  1.04957831e+00, -5.89310884e-01,
         1.11528385e+00],
       [-6.99277937e-01, -4.50946093e-01,  9.13761616e-01,
         1.00152099e+00, -1.43925405e+00, -1.05455734e-01,
         7.74352074e-01,  1.31787622e+00, -1.06746279e-01,
         7.72986948e-01],
       [-6.90035284e-01, -9.00158733e-02,  7.24672794e-01,
         1.01302993e+00, -8.40646625e-01,  2.68348336e-01,
         4.18213964e-01,  3.30484897e-01, -5.72789848e-01,
         2.00424656e-01],
       [ 2.95480698e-01,  9.64702964e-01, -7.40422487e-01,
        -4.85778779e-01,  4.05268669e-01,  1.14176586e-01,
         5.16986847e-01, -4.27370340e-01, -3.09156924e-01,
         7.82180190e-01],
       [-1.05518848e-01, -2.52772987e-01,  8.97353739e-02,
        -1.07979226e+00, -3.61217886e-01,  1.11549473e+00,
         4.73882735e-01, -2.59117395e-01,  1.44880617e+00,
        -4.46242779e-01],
       [-8.22284892e-02,  6.38889074e-01,  3.00150037e-01,
        -9.19691846e-02,  8.62717807e-01, -4.47236970e-02,
        -7.28875041e-01,  8.73123944e-01,  8.06416348e-02,
        -1.02276117e-01],
       [ 1.04824424e+00, -2.42720589e-01,  5.95484614e-01,
         1.19747365e+00, -9.85258259e-03, -1.07732332e+00,
        -7.99942136e-01,  1.59677410e+00, -1.02081902e-01,
        -5.96154153e-01],
       [ 3.98085147e-01,  1.00574505e+00, -1.18823147e+00,
         8.68324339e-01, -4.65075731e-01,  1.61415863e+00,
         1.26006174e+00, -6.96853280e-01, -5.14739454e-01,
        -2.97476739e-01],
       [ 2.14107543e-01,  2.59214729e-01,  6.01500690e-01,
         3.17490585e-02, -8.78714085e-01,  2.20183935e-02,
         4.05899137e-01,  1.12420607e+00, -3.84925783e-01,
         3.15306246e-01],
       [ 4.40135360e-01,  5.91585100e-01, -1.83810830e-01,
         7.51378179e-01, -4.29194607e-02,  1.50021172e+00,
        -5.62990271e-02, -4.28550780e-01, -9.37255979e-01,
         8.00467968e-01],
       [ 6.38335466e-01,  4.07472998e-01,  7.25084960e-01,
        -8.98977339e-01,  2.62348413e-01, -1.40546709e-01,
         7.76122987e-01,  9.73219395e-01, -3.98679793e-01,
        -8.37573633e-02],
       [ 4.14840840e-02,  8.09337437e-01, -3.89741927e-01,
        -1.37252307e+00,  1.87077120e-01,  5.03045678e-01,
         1.10877104e-01,  7.32915342e-01,  6.38539851e-01,
        -7.22245052e-02],
       [ 7.87483528e-02,  7.67631233e-01,  2.33183816e-01,
         6.95824400e-02,  6.20538235e-01, -1.36472685e-02,
        -8.31546664e-01,  7.46647120e-01,  4.51707661e-01,
        -2.31207088e-01],
       [ 1.06028736e+00, -7.25242794e-02,  1.27720580e-01,
         1.44917023e+00, -7.35763252e-01, -1.20097244e+00,
        -7.78926238e-02,  1.04963541e+00,  8.15129220e-01,
        -8.23599458e-01],
       [-3.15972090e-01, -3.72178614e-01,  7.68595099e-01,
         7.21244633e-01,  1.39651859e+00,  7.52160132e-01,
        -5.72256446e-01, -1.27090029e-02, -6.93379521e-01,
        -2.51521245e-02],
       [ 1.06670117e+00,  7.48403013e-01, -1.25879645e+00,
         7.12134957e-01, -8.96041572e-01,  1.57500970e+00,
         1.19586384e+00,  3.28137487e-01, -1.00126839e+00,
         5.39458215e-01],
       [ 4.04929399e-01, -7.84144253e-02,  1.16545355e+00,
        -9.78258133e-01,  7.99884558e-01,  2.09478363e-01,
        -1.00423753e-01,  3.02712083e-01, -1.62601066e+00,
         1.25248298e-01],
       [ 9.03880447e-02,  2.34156940e-02,  1.37607262e-01,
        -6.12302363e-01, -8.28470826e-01, -6.01251781e-01,
         1.44386292e+00,  7.01115847e-01,  3.62351686e-01,
         1.20567949e-03],
       [-3.58464658e-01,  5.77966273e-01, -2.68165737e-01,
        -1.02439082e+00,  1.13303781e-01,  5.02955973e-01,
        -1.21164370e+00,  1.23762345e+00,  6.21064067e-01,
         4.63909842e-02],
       [-3.72932673e-01,  5.18331885e-01, -6.96523711e-02,
        -3.53691399e-01,  1.21104753e+00, -3.35918963e-01,
        -9.02543485e-01,  4.27745283e-01,  3.06466371e-01,
        -1.51148200e-01],
       [ 2.08590150e-01,  2.76705414e-01,  3.54565918e-01,
         7.73066401e-01, -5.63608587e-01, -5.02429008e-01,
        -3.51201206e-01,  8.25318217e-01,  9.05659080e-01,
         4.95146662e-01],
       [-6.15632951e-01, -6.20846868e-01,  6.24425113e-01,
         3.18364948e-01, -9.37224984e-01,  1.31692874e+00,
        -9.84215260e-01,  5.32970786e-01,  9.33710396e-01,
         2.08212987e-01],
       [ 1.25456795e-01, -9.86954451e-01,  5.76807320e-01,
         9.70800936e-01,  3.05955380e-01,  1.38679409e+00,
        -2.91473657e-01,  7.04379141e-01, -9.45836008e-01,
         1.13176358e+00],
       [-1.78302437e-01, -4.67077911e-01, -5.91360293e-02,
        -4.69060481e-01, -1.38670456e+00,  1.97706890e+00,
         1.75953761e-01,  3.85654718e-01,  7.28368580e-01,
         3.65617126e-01],
       [-2.92503238e-01,  2.14382354e-02, -1.43429071e-01,
         3.09593882e-02, -1.03943491e+00, -2.61084229e-01,
        -3.19168687e-01,  1.73264325e+00,  1.89556181e+00,
         2.83219546e-01],
       [-4.39784467e-01,  5.61496079e-01, -5.47551870e-01,
        -1.52126801e+00,  6.53972507e-01, -1.93889346e-02,
        -7.05237389e-01,  1.55801964e+00,  8.50644886e-01,
        -6.79142848e-02],
       [-6.82510495e-01,  9.54701528e-02,  8.77249837e-02,
         2.72157133e-01,  1.15334547e+00, -1.09604396e-01,
        -7.66355991e-01,  2.64596920e-02,  3.78342241e-01,
        -2.35406794e-02],
       [ 7.36100137e-01,  1.91681124e-02, -3.88877213e-01,
         1.13443959e+00, -7.77999341e-01, -9.12328601e-01,
        -1.07882775e-01,  7.62273371e-01,  1.13539958e+00,
        -6.73570752e-01],
       [ 9.26429391e-01,  2.64926609e-02,  8.17917347e-01,
        -3.98998946e-01, -4.24074143e-01,  9.60291624e-01,
         5.72658300e-01, -3.86448354e-01, -5.93833447e-01,
         4.12727088e-01],
       [ 1.60686171e+00, -7.33100355e-01, -3.10746014e-01,
         9.43150222e-01, -6.98801100e-01,  1.05450761e+00,
        -8.44844133e-02,  1.66107997e-01, -7.83860207e-01,
        -1.81896031e-01],
       [-5.80888763e-02, -3.45658600e-01,  4.78669941e-01,
         1.20174968e+00, -5.03544748e-01,  1.07845712e+00,
         6.64803565e-01, -8.34650517e-01,  7.48970568e-01,
         2.44427651e-01],
       [ 2.71025270e-01,  1.05595398e+00, -7.99424350e-01,
        -1.02970667e-01, -1.39835143e+00, -1.00025728e-01,
         1.52254212e+00,  1.14853907e+00,  1.15090656e+00,
        -4.49418128e-01],
       [-3.03847432e-01,  1.05740476e+00, -8.72535527e-01,
        -1.00222027e+00,  1.32833564e+00, -3.61491680e-01,
         4.99348752e-02,  6.81380451e-01,  1.06167737e-02,
        -5.70475757e-01],
       [-6.74928427e-01, -1.03450276e-01,  2.12555975e-01,
        -4.02719676e-01,  1.27513289e+00,  5.99953718e-02,
         7.90695176e-02, -2.24058509e-01,  5.25183856e-01,
         7.06228167e-02],
       [ 7.13472664e-01, -2.08129525e-01,  5.96219718e-01,
         3.97415251e-01, -5.53752363e-01, -9.62563574e-01,
         3.17362338e-01, -5.25400043e-01,  9.94412422e-01,
        -1.09211886e+00],
       [ 3.35497260e-01, -8.15387487e-01, -2.02872723e-01,
         3.61860156e-01,  8.83252084e-01,  8.64496827e-01,
         1.41168809e+00,  6.13137305e-01, -6.09251380e-01,
        -3.28630477e-01],
       [ 1.36157501e+00,  1.17285013e+00,  9.64296311e-02,
         7.84322500e-01, -1.19497252e+00,  1.03376389e+00,
        -4.31757510e-01, -2.01224126e-02, -7.40064800e-01,
         1.16713428e+00],
       [ 2.94126332e-01, -1.13809204e+00,  7.30520710e-02,
         1.44680953e+00, -7.14373291e-02,  1.17262149e+00,
        -1.54743850e-01,  5.81308722e-01, -1.15674637e-01,
        -4.48609084e-01],
       [-8.68270218e-01,  2.47030064e-01,  3.92526031e-01,
         2.69135267e-01, -1.40578032e-01, -5.75243682e-02,
         1.90898561e+00, -8.86723220e-01,  1.86775494e+00,
        -4.00250405e-01],
       [-5.17692447e-01,  1.11690986e+00, -8.08941066e-01,
        -1.11043119e+00,  1.19026637e+00, -7.23532736e-01,
         5.26833208e-03,  4.89406496e-01, -9.33107883e-02,
        -1.09533876e-01],
       [ 5.76784670e-01,  2.15917408e-01,  9.19423401e-01,
        -1.27319026e+00,  1.16828430e+00,  2.52968490e-01,
         1.23439401e-01, -2.22115800e-01, -1.24051854e-01,
        -9.01576340e-01],
       [ 1.20343879e-01, -9.81557786e-01, -1.71610162e-01,
         9.61589932e-01,  1.72519195e+00, -8.86194348e-01,
         5.90864360e-01, -2.99746364e-01,  2.11134195e-01,
        -2.59141982e-01],
       [-2.80543357e-01,  8.11191976e-01,  1.31183124e+00,
         3.57794255e-01, -2.53873646e-01, -4.46334004e-01,
         8.37193429e-01, -8.95080328e-01,  4.63039279e-01,
        -7.25769758e-01],
       [ 5.94928622e-01,  1.08570457e+00,  8.09424520e-01,
         5.42902052e-01, -9.49562907e-01, -7.19663501e-01,
        -2.54796427e-02, -6.52991116e-01, -1.67052373e-01,
         6.78682148e-01],
       [-2.58202583e-01,  4.77524281e-01,  1.18845630e+00,
         8.44680727e-01, -4.48774815e-01, -5.23294270e-01,
         7.77769387e-01, -7.86032856e-01,  5.67514479e-01,
        -6.49340272e-01],
       [-5.11860371e-01, -3.50574762e-01, -8.22316527e-01,
         1.40012300e+00,  2.03883886e+00, -1.01450837e+00,
         2.16478899e-01, -1.45006090e-01,  7.87947774e-01,
        -5.91130018e-01],
       [ 5.63395083e-01,  8.99737418e-01,  8.28575552e-01,
        -3.86559308e-01,  1.13967347e+00,  1.50475398e-01,
         5.61139405e-01, -4.88342553e-01, -2.54568845e-01,
        -1.15947688e+00],
       [ 9.80332613e-01, -8.16344976e-01,  2.72594422e-01,
        -2.34369069e-01,  1.30986154e+00,  3.33162367e-01,
         4.83598173e-01,  1.25440681e+00, -6.02100790e-01,
        -6.61555111e-01],
       [ 1.68328667e+00, -6.67275190e-01, -4.74027544e-02,
         1.15052439e-01,  3.95234138e-01, -1.12848103e+00,
         5.50514162e-01,  6.56770527e-01,  2.59207845e-01,
        -5.02759695e-01],
       [-4.55149263e-01, -1.40708625e-01, -1.52910411e-01,
         4.23880547e-01,  4.01882231e-01, -8.70367885e-01,
         1.41901028e+00,  4.40688640e-01, -5.95964134e-01,
         1.50632656e+00],
       [ 3.23006287e-02,  1.05118477e+00,  2.45422617e-01,
         5.62513590e-01,  1.79709941e-01, -3.51895183e-01,
         3.92547041e-01, -1.26837373e+00, -5.25930762e-01,
         1.50012600e+00],
       [-9.58989024e-01, -1.26660219e-03,  6.14428461e-01,
         7.08421618e-02,  8.60713184e-01, -1.01694000e+00,
         1.16934729e+00, -2.57081091e-01, -3.94814253e-01,
         1.15536630e+00],
       [ 1.42318070e+00,  1.11405902e-01,  5.62968612e-01,
        -4.24133688e-01,  3.83618861e-01, -1.21011627e+00,
         9.87087190e-01,  6.36674345e-01, -1.05158329e+00,
         7.30327740e-02],
       [ 1.87249625e+00, -6.52644217e-01, -4.87916321e-01,
         6.65407628e-02,  1.29294896e+00, -1.23034693e-01,
         7.09676623e-01,  6.55508280e-01, -2.74534643e-01,
        -1.97403800e+00]], dtype=float32), array([ 0.6675669 ,  0.40674984, -0.01717811,  0.9423087 ,  0.7960039 ,
        1.1696067 ,  0.16302823,  0.27628717, -0.7789205 ,  1.2847362 ],
      dtype=float32), array([[ 3.0844131e-01,  2.9161018e-01, -3.2901996e-01, -2.3095767e+00,
        -1.1089488e+00, -1.3393167e+00,  4.8207951e-01, -2.2325649e+00,
        -1.1739286e+00,  7.5204857e-02,  4.1609406e-03,  4.2574763e-01,
         1.5834847e-01,  3.5643637e-01, -2.9254687e+00,  4.9189728e-02],
       [-5.7727712e-01, -2.8515837e-01,  7.1461326e-01,  3.9931697e-01,
        -1.1455266e+00,  5.7480258e-01, -2.7275567e+00, -3.4869699e+00,
        -9.7336519e-01,  2.8222090e-01,  5.3392577e-01,  1.6944020e+00,
        -1.6820530e+00, -2.4393423e+00, -1.3814569e-03, -7.8285676e-01],
       [ 6.4085507e-01,  4.3535385e-01, -2.3334785e+00, -2.0131049e+00,
         6.8307102e-01,  4.6113676e-01, -1.6085480e-01, -4.8330495e-01,
         9.1406244e-01, -8.5125363e-01,  4.0398499e-01, -1.5723084e+00,
        -2.2708337e+00,  7.6361817e-01,  2.7212882e-02,  2.4464309e-01],
       [ 9.6128386e-01, -2.6893222e+00, -2.5926273e+00, -5.5280268e-01,
        -2.7469645e+00, -9.5188349e-01,  2.8251255e-01,  4.0978089e-01,
         1.7232116e-01, -9.9556935e-01, -2.7113003e-01,  2.9728345e-03,
         7.0377380e-01, -2.2609215e+00,  4.9416724e-01,  1.1374226e-01],
       [ 2.0178099e-01,  6.6489774e-01, -4.7209471e-01,  8.2105410e-01,
        -5.6971180e-01,  2.0426664e-01, -3.9488822e-01,  4.3911293e-01,
        -1.9969820e+00, -1.0204618e-01, -2.7943728e+00, -8.8770968e-01,
         3.1128669e-01,  7.2789774e-03, -8.5976011e-01, -1.6400077e+00],
       [-3.1058302e+00, -3.7844446e-01,  6.7309713e-01, -9.8308885e-01,
         6.4362419e-01,  3.8069751e-02, -3.5615843e-03, -3.4152594e-01,
         7.3925650e-01, -2.8810277e+00, -6.0517609e-01,  8.7037660e-02,
         4.8447454e-01, -2.3867886e-01, -2.7217400e+00, -1.3494499e+00],
       [-5.4446375e-01, -1.4691265e+00,  4.1587460e-01, -9.2359227e-01,
        -2.1969502e+00, -8.8853180e-02, -2.1097100e+00,  4.7886071e-01,
         6.3479975e-02,  6.6069138e-01, -4.7539432e-02, -4.4475523e-01,
         2.0193028e-01,  1.0471938e+00,  1.8771726e-01, -2.5398472e-01],
       [-8.1097430e-01,  4.7258493e-01,  3.0415406e-02,  3.3821296e-02,
         2.6818392e-01, -2.5560422e+00,  1.7915967e-01, -1.8841332e+00,
        -1.2821208e+00,  3.7678295e-01, -4.6261674e-01, -1.4446191e+00,
        -6.7830947e-03, -6.3858265e-01,  6.9814932e-01,  9.6525013e-01],
       [-5.2817088e-01, -1.3105662e+00,  2.2369355e-02, -2.4557827e-01,
         2.0547619e-01,  3.0832374e-01,  7.6415890e-01,  4.4607654e-01,
        -7.6138484e-01,  3.8744286e-01,  5.9772956e-01, -1.5499066e+00,
        -1.8644212e+00, -7.7732617e-01,  2.4239935e-01, -2.0543120e+00],
       [-2.4239817e+00, -2.1184053e+00, -2.8877685e+00,  1.0488400e+00,
         4.6012077e-01, -1.1688597e+00, -2.2195601e+00,  3.3358365e-01,
         5.3991705e-02, -2.7459645e+00, -1.3618927e+00,  6.0802019e-01,
        -1.4874843e+00,  6.8065239e-04, -1.5659004e-01,  8.6642593e-01]],
      dtype=float32), array([ 0.00222456, -0.1366801 , -0.21356203,  0.26247892, -0.05209734,
       -0.7661903 , -0.6378618 ,  0.2936951 , -0.94659054, -0.9107129 ,
       -0.24513447,  0.28995553,  0.12605575, -0.4199604 , -0.5961804 ,
        0.2483672 ], dtype=float32)]

Model[4]
[array([[ 1.1589072 ,  0.80334747,  0.27943754, -0.17890465,  0.01565458,
         1.3923    , -0.3256444 , -1.2819505 , -0.48871094, -0.3166841 ],
       [ 0.3274832 ,  0.06247979,  1.4479142 , -0.4247764 , -0.5594347 ,
        -0.3623551 , -0.15841937, -0.6163826 ,  0.76365876, -0.3329378 ],
       [-1.0374923 , -0.59612846,  0.8835641 ,  0.18344408,  0.4446308 ,
         0.64996755, -0.76001865, -0.7047674 ,  0.7373026 ,  0.6848533 ],
       [-1.2715672 , -0.7364197 ,  0.7411444 ,  0.09734542, -0.18721026,
         0.63158673, -0.7369866 , -0.30272308,  0.32935196,  1.3211192 ],
       [-0.94133836, -0.30068797,  0.3842483 ,  0.08840673,  0.71867394,
         0.60489315, -0.7749059 , -0.6600398 ,  0.5781659 ,  1.3742363 ],
       [-0.1515703 , -0.778872  ,  0.9731563 , -0.5436074 ,  0.01951354,
         0.5368324 ,  0.18837534, -0.5196648 ,  1.7062224 , -0.01121501],
       [ 0.88162786,  0.5933493 ,  0.09711446, -0.83963907, -0.29319286,
         1.0538151 ,  0.08002048, -0.55497175, -0.1193113 , -0.26695612],
       [ 0.5023699 ,  0.11333073,  0.71942985, -0.35993835,  0.30636582,
         0.27478954, -0.7661358 , -0.08231735,  0.36051732, -1.1981165 ],
       [-0.06942135,  0.06964239, -1.2194566 ,  1.4111317 , -0.26763865,
         0.05000172,  0.46914184, -1.1068865 ,  1.091248  , -0.40793347],
       [-0.25179806, -0.16358396,  0.5505498 ,  0.88679266, -1.1062002 ,
        -0.28427684,  0.66394204,  1.3406082 , -0.82422245,  1.1215861 ],
       [-0.66831243,  0.5007086 ,  0.6784895 ,  0.96625733, -1.6456021 ,
        -0.16079581,  0.37906873,  0.97190017, -0.84150076,  0.88065463],
       [-0.9234238 ,  0.50481266,  0.74982536,  0.81648296, -0.56565905,
         0.57182354,  0.37350821,  0.15858378, -0.17440215,  0.07484561],
       [-0.02411073,  0.9536467 , -0.6308973 , -0.4500363 ,  0.09148698,
         0.26784608,  0.37180942, -0.671149  , -0.23826158,  0.34848845],
       [-0.136959  , -0.640652  ,  0.11543391, -0.9849509 , -0.02536832,
         0.9972318 ,  0.54430646, -0.43344983,  1.2901459 , -0.50854456],
       [-0.4573729 ,  0.63890797,  0.24342418, -0.01800993,  0.6845644 ,
        -0.30077836, -0.829488  ,  0.84809023,  0.25232548, -0.07693015],
       [ 1.0206435 , -0.0390007 ,  0.7685657 ,  0.85274744,  0.12505357,
        -1.5558465 , -0.46549416,  1.4769068 , -0.2944813 , -0.6626369 ],
       [ 0.5464573 ,  0.61765033, -1.073125  ,  0.7992197 , -0.32826135,
         1.3791789 ,  1.2081858 , -0.49133772, -0.53713995, -0.07256573],
       [ 0.29110697,  0.04457946,  0.42191955,  0.33362743, -1.0311097 ,
        -0.02883959,  0.6913276 ,  0.9114837 , -0.5304464 ,  0.30585474],
       [ 0.30896088,  0.6222632 , -0.17841125,  0.42177808, -0.21536952,
         1.3791234 ,  0.01665091, -0.5365956 , -1.3904198 ,  0.8862986 ],
       [ 0.11157173,  0.43150404,  0.83694375, -0.48714113,  0.54140127,
        -0.37250412,  0.47395724,  0.8776226 , -0.7781346 , -0.46106315],
       [-0.21790375,  0.15307088,  0.22941524, -1.1860678 ,  0.00695736,
         0.17387225, -0.4550117 ,  0.7108564 ,  0.47312748, -0.15689518],
       [-0.1046423 ,  1.0073727 ,  0.22636397, -0.2125377 ,  0.47556353,
         0.09659724, -1.3658155 ,  0.61152273,  0.60243875, -0.6889279 ],
       [ 1.0332023 ,  0.04646285,  0.44237724,  1.5472862 , -0.84948117,
        -1.1193877 , -0.20406024,  0.7955413 ,  0.72307175, -0.9935033 ],
       [-0.44246015, -0.00944992,  0.69278425,  0.24575838,  0.97852457,
         0.7273476 , -0.31090316, -0.23437402, -0.58332986, -0.12499826],
       [ 0.8642825 ,  0.49692622, -0.9732139 ,  0.8525246 , -0.9980249 ,
         1.5023234 ,  0.6895186 ,  0.20178968, -0.9936586 ,  0.67174256],
       [ 0.5527838 , -0.11824193,  0.9287009 , -1.0501827 ,  0.5323534 ,
         0.47204432,  0.16993305,  0.22494699, -1.5226417 ,  0.07658643],
       [ 0.30987552,  0.41897994, -0.03388365, -0.8565026 , -0.8001442 ,
        -0.6636379 ,  1.5855829 ,  0.6904949 ,  0.2098796 ,  0.01351096],
       [-0.43194577,  0.65829104, -0.37486562, -1.2683129 ,  0.44338295,
         0.26314732, -1.0243675 ,  1.1700786 ,  1.0861452 , -0.26182383],
       [-0.34721094,  0.2647135 , -0.00574446, -0.5420788 ,  1.1851875 ,
        -0.15236291, -1.0827947 ,  0.73309463,  0.30002016,  0.01993967],
       [ 0.10029941, -0.21452837,  0.22278129,  0.8083671 , -0.17991799,
        -0.38552925, -0.02472157,  0.4157641 ,  1.1974146 ,  0.15223427],
       [-0.80621177, -0.39226773,  0.25339395, -0.01938816, -0.6045234 ,
         1.0913855 , -1.1032724 ,  0.6619856 ,  0.6804599 ,  0.37008515],
       [ 0.18980277, -0.86010516,  0.0819632 ,  0.8926259 ,  0.3700877 ,
         1.2585223 , -0.51101273,  0.46961442, -0.8850134 ,  1.3199674 ],
       [-0.22072075, -0.7619018 ,  0.008517  , -0.591819  , -1.2910073 ,
         1.7309822 ,  0.21568227,  0.72120684,  0.5299523 ,  0.2775274 ],
       [-0.19636866, -0.20010406, -0.0906992 , -0.05051653, -1.0267909 ,
        -0.15296166, -0.50813687,  1.191144  ,  1.5616107 , -0.198486  ],
       [-0.37225306,  0.6700933 , -0.6561385 , -1.4453169 ,  0.69943523,
        -0.07485011, -0.8262534 ,  1.3854312 ,  0.53602976, -0.17578082],
       [-0.9162439 ,  0.19137771, -0.4298594 ,  0.18321387,  1.3049468 ,
         0.04113008, -0.84358364,  0.04805776,  0.5768508 ,  0.01146699],
       [ 1.2039912 ,  0.15861873, -0.11406156,  1.160361  , -0.3775966 ,
        -1.3238114 , -0.10209637,  0.51365364,  0.94685847, -0.91750073],
       [ 0.7148061 ,  0.06966566,  0.70519584, -0.47413254, -0.80389947,
         1.1246336 ,  0.46144077, -0.18993898, -0.39260545,  0.21247062],
       [ 1.5952407 , -0.3515664 , -0.49841848,  0.57137084, -0.65347946,
         0.69626063, -0.1501773 , -0.07495616, -0.94401   ,  0.01441489],
       [-0.46956176, -0.04130232,  0.3580735 ,  0.2819269 , -0.5692093 ,
         0.86211467,  1.0406537 , -0.6817685 ,  0.89301187, -0.04774985],
       [-0.08657254,  0.5105516 , -0.6294186 , -0.03909397, -1.4435265 ,
         0.09137892,  1.592104  ,  0.9383567 ,  0.93470365, -0.56245303],
       [-0.5685118 ,  1.1572016 , -0.857905  , -1.4618639 ,  1.3337262 ,
        -0.18861985,  0.43900895,  0.9133861 , -0.04430511, -0.6648438 ],
       [-0.7121125 , -0.11806162,  0.15400638, -0.6649593 ,  1.5056353 ,
        -0.04863532, -0.11505469, -0.4922185 ,  0.31657752,  0.3182747 ],
       [ 0.7805364 , -0.14124118,  0.5631454 ,  0.27925944, -0.47631454,
        -0.7766767 ,  0.28891632, -0.96495026,  0.9572875 , -1.1586682 ],
       [ 0.5457211 , -0.90268   ,  0.0110502 ,  0.1540586 ,  0.46648404,
         1.0355117 ,  0.996926  ,  0.10714161, -0.9663064 , -0.13744226],
       [ 1.1321772 ,  1.0684988 ,  0.38645396,  0.6913371 , -1.4530357 ,
         0.50083464,  0.07621341, -0.60622215, -1.1842903 ,  1.1394186 ],
       [ 0.38441113, -0.5081027 , -0.28203365,  1.4717699 , -0.05231446,
         1.3973185 , -0.21581204,  0.15951128, -0.16137078, -0.5541822 ],
       [-0.5186579 ,  0.43670243,  0.13143899,  0.43148553,  0.09302348,
        -0.5139538 ,  1.4034408 , -1.0516843 ,  1.4727228 ,  0.03662345],
       [-0.91180104,  0.7663911 , -0.7768919 , -1.3370012 ,  1.2328583 ,
        -0.6692006 ,  0.07776663,  0.5158654 ,  0.318631  , -0.03424775],
       [ 0.618109  ,  0.0108486 ,  0.85210454, -1.2501404 ,  0.70803   ,
         0.16872032,  0.01545557,  0.09566564, -0.27721855, -0.49098885],
       [-0.00227076, -0.85866255, -0.3345328 ,  1.0459436 ,  2.0534139 ,
        -0.8150787 ,  0.7561924 , -0.39240205,  0.25584382, -0.08061412],
       [-0.08976678,  0.80102533,  0.9579872 ,  0.7201009 , -0.51131016,
        -0.40324646,  1.0145838 , -0.9910656 ,  0.59844434, -1.0638655 ],
       [ 0.23727936,  1.1958572 ,  1.0574743 ,  0.29264402, -1.0407281 ,
        -1.047285  ,  0.42949218, -0.56916493, -0.38599434,  0.4018444 ],
       [-0.6342934 ,  0.86034447,  0.92407686,  0.8178997 , -0.50405544,
        -0.4951203 ,  0.78266925, -0.8345098 ,  0.8129223 , -0.41881648],
       [-0.7536687 , -0.13922772, -0.5693125 ,  1.1517076 ,  2.2144861 ,
        -1.1142217 ,  0.05280963, -0.32701764,  0.71987325, -0.5474696 ],
       [ 0.30198592,  1.0564591 ,  0.3557249 , -0.46490675,  1.0129989 ,
         0.35615727,  0.58844125, -0.20277189, -0.34362242, -0.9839326 ],
       [ 1.0747461 , -0.5364052 , -0.09004989, -0.3504295 ,  0.86299574,
         0.584021  ,  0.17124058,  0.9450482 , -0.69731814, -0.91620713],
       [ 1.5258075 , -1.0335711 ,  0.15049085,  0.25384435,  0.64349157,
        -1.0909568 ,  0.57068133,  0.7597175 ,  0.1655174 , -0.25776184],
       [-0.5911619 , -0.41697213, -0.24933174,  0.3291325 ,  0.18310276,
        -0.633299  ,  1.332269  ,  0.35309535, -0.23925063,  1.2456262 ],
       [ 0.42495823,  1.0436919 ,  0.18886885,  0.4109705 , -0.03291116,
        -0.74020743,  0.48623526, -1.2088892 , -0.70677483,  1.3802358 ],
       [-1.1157901 , -0.19671106,  0.8059524 , -0.14514634,  1.092337  ,
        -1.4243118 ,  0.96798134, -0.44432294, -0.46637803,  0.68748677],
       [ 1.2094644 , -0.3484719 ,  0.6053679 , -0.4413503 ,  0.3522243 ,
        -1.1622566 ,  1.0193765 ,  0.9306612 , -0.563643  ,  0.19019333],
       [ 1.9788082 , -0.6206014 , -0.883984  ,  0.13661659,  1.4223654 ,
        -0.17578399,  0.41119432,  0.661492  , -0.3630978 , -1.5550821 ]],
      dtype=float32), array([ 0.6304134 ,  0.4801831 , -0.2192895 ,  0.9740425 ,  0.8783248 ,
        1.1372247 , -0.0905586 ,  0.11171917, -1.0894071 ,  1.5978824 ],
      dtype=float32), array([[ 0.35070953,  0.20100549, -0.40773794, -2.5727017 , -1.0446587 ,
        -1.667869  ,  0.46955794, -2.352873  , -1.343237  ,  0.0424273 ,
        -0.04522243,  0.55254245,  0.13244267,  0.5883064 , -2.9540734 ,
         0.31529623],
       [-0.6475729 , -0.2830567 ,  0.7349575 ,  0.12315847, -1.301415  ,
         0.55797064, -2.980436  , -3.2802715 , -0.8509142 , -0.04521172,
         0.8728572 ,  1.2565241 , -2.0481896 , -2.5408278 ,  0.48974296,
        -1.0523715 ],
       [ 0.5358299 ,  0.49961168, -2.1632402 , -2.0133908 ,  0.37901565,
         0.50324047, -0.38751897, -0.56055605,  0.8720167 , -0.66164804,
         0.42915016, -1.4863303 , -2.4273393 ,  0.674962  , -0.24253055,
         0.43947953],
       [ 1.0107096 , -2.9094925 , -2.6203773 , -0.6683589 , -2.8256855 ,
        -0.7579072 ,  0.3985391 ,  0.36010313,  0.02084276, -1.0888424 ,
        -0.36829087,  0.18451592,  0.78109777, -2.6405902 ,  0.39258066,
        -0.0435311 ],
       [ 0.45737782,  0.40616772, -0.52158517,  0.68329203, -0.75165147,
         0.1537226 , -0.29375413,  0.28493825, -2.1121476 , -0.2362051 ,
        -2.9876196 , -0.9370403 ,  0.21850012, -0.13618675, -0.90593284,
        -1.630901  ],
       [-4.0438724 , -0.24326856,  0.6180014 , -1.0370138 ,  0.631516  ,
        -0.07903757, -0.01964916, -0.59721136,  0.5923584 , -3.113379  ,
        -0.39375973, -0.02402776,  0.51348555, -0.28572208, -3.1648812 ,
        -1.3365103 ],
       [-0.65294003, -1.6423954 ,  0.3261123 , -1.147421  , -2.1047647 ,
        -0.39444733, -2.102336  ,  0.3879583 ,  0.1631862 ,  0.70602363,
        -0.02356276, -0.49947816,  0.23055793,  0.89861596,  0.11676174,
        -0.19763258],
       [-0.5276259 ,  0.457439  ,  0.19977388, -0.21658425,  0.25695854,
        -2.4536328 , -0.09270456, -2.0319123 , -1.3875061 ,  0.39458898,
        -0.5934008 , -1.674493  , -0.04141121, -0.7117596 ,  0.78240854,
         0.86803293],
       [-0.45352435, -1.7019895 ,  0.012805  , -0.57879645,  0.30710736,
         0.19814734,  0.6386373 ,  0.30672798, -0.965338  ,  0.3187551 ,
         0.45783618, -1.7483723 , -2.2882392 , -0.63923043,  0.01152578,
        -2.1738093 ],
       [-3.2165854 , -2.3887854 , -3.7406707 ,  1.0881482 ,  0.15186206,
        -1.0280088 , -2.3737614 ,  0.22791578, -0.34467474, -3.3341935 ,
        -1.291409  ,  0.42845482, -2.0856228 ,  0.01928913, -0.12170375,
         0.83961827]], dtype=float32), array([ 0.060339  , -0.34656167, -0.25186098,  0.12886415, -0.08485946,
       -0.83562714, -0.7878671 ,  0.24535076, -1.3982757 , -1.2782453 ,
       -0.20322451,  0.25476193,  0.04311606, -0.54955876, -0.8719007 ,
        0.44623858], dtype=float32)]

Model[5]
[array([[ 8.20231855e-01,  4.95612696e-02,  7.19495177e-01,
        -3.67474139e-01,  3.11445713e-01,  1.53039324e+00,
        -4.15564120e-01, -9.65288401e-01, -7.78825402e-01,
        -6.59461558e-01],
       [ 4.23252195e-01, -3.18934709e-01,  1.54752791e+00,
        -6.14438534e-01, -5.60416341e-01, -2.51594692e-01,
        -1.69297650e-01, -9.11978602e-01,  4.55778331e-01,
        -3.55257332e-01],
       [-1.23837936e+00, -5.38259685e-01,  5.55794477e-01,
         9.87854749e-02,  3.59058291e-01,  5.28292954e-01,
        -6.18458807e-01, -9.57578421e-01,  8.90460551e-01,
         7.61902034e-01],
       [-1.13068581e+00, -8.63226354e-01,  5.56374788e-01,
         1.34429991e-01, -1.38135508e-01,  1.93657324e-01,
        -4.87660646e-01, -7.43624493e-02,  5.79753160e-01,
         1.11344862e+00],
       [-1.36316156e+00, -4.21368927e-01,  5.67840874e-01,
         5.19657172e-02,  6.68421745e-01,  6.18109345e-01,
        -7.32377231e-01, -5.72774529e-01,  6.00995302e-01,
         1.08927560e+00],
       [-2.10967213e-01, -7.07058311e-01,  8.46662223e-01,
        -5.88355541e-01, -2.33700708e-01,  1.92152545e-01,
         1.64167076e-01, -7.09349632e-01,  1.56814706e+00,
        -1.86072115e-03],
       [ 7.28762746e-01,  3.76356035e-01,  9.23217461e-02,
        -1.10615432e+00, -5.04037678e-01,  1.25957775e+00,
         1.00053111e-02, -6.59464061e-01, -3.31099838e-01,
        -2.93419093e-01],
       [-5.56690469e-02,  5.71458042e-01,  5.92551053e-01,
        -1.62143797e-01, -5.13527431e-02,  1.82292655e-01,
        -8.79909575e-01, -1.95714131e-01,  4.01041389e-01,
        -1.13933003e+00],
       [-3.74829322e-02,  3.99319828e-02, -1.22669649e+00,
         1.34742701e+00, -5.86960949e-02, -1.03341810e-01,
         5.12692273e-01, -1.32978857e+00,  5.60069442e-01,
        -3.60932112e-01],
       [-2.89789140e-01,  1.06538078e-02,  8.66524994e-01,
         7.25253522e-01, -1.07302248e+00, -4.25122440e-01,
         6.26201987e-01,  1.05376256e+00, -6.11468017e-01,
         9.30329859e-01],
       [ 1.53166309e-01,  3.32949877e-01,  5.52599430e-01,
         9.86593187e-01, -1.37229693e+00,  1.97567698e-02,
         2.82013953e-01,  7.85798669e-01, -3.51654917e-01,
         5.61838865e-01],
       [-5.33553421e-01,  3.53133023e-01,  3.83681118e-01,
         8.15079451e-01, -5.10181904e-01,  5.26036501e-01,
         1.43605605e-01,  4.94282335e-01, -7.28761256e-02,
         5.23725331e-01],
       [-1.77034453e-01,  8.87194097e-01, -7.75405109e-01,
        -1.16606921e-01, -2.46627972e-01,  7.82452151e-02,
         5.46830177e-01, -9.69860911e-01, -4.55702782e-01,
         3.68757308e-01],
       [-1.85628027e-01, -4.08474118e-01,  4.39969480e-01,
        -1.23544943e+00, -2.54025925e-02,  1.00074387e+00,
         3.68805259e-01, -6.07013404e-01,  1.14785218e+00,
        -4.43914831e-01],
       [-4.66706872e-01,  3.19795758e-01,  3.25527668e-01,
        -5.60311377e-01,  5.30639648e-01, -3.94538403e-01,
        -1.25872898e+00,  8.23671341e-01,  4.76929814e-01,
        -3.12523684e-03],
       [ 1.06365597e+00,  4.94673401e-01,  7.74600029e-01,
         8.78974795e-01, -3.28858137e-01, -1.58839965e+00,
        -9.22927439e-01,  1.04942453e+00, -4.82898057e-01,
        -5.74057639e-01],
       [ 5.78098357e-01,  4.03790832e-01, -5.55675030e-01,
         2.77335078e-01, -3.46149743e-01,  1.54398942e+00,
         9.77323532e-01, -8.52677166e-01, -4.84525502e-01,
        -4.04481590e-01],
       [-2.51085401e-01, -7.96834081e-02,  2.53686935e-01,
         2.71697760e-01, -6.48723006e-01, -1.43761054e-01,
         1.26963973e-01,  4.33200002e-01, -6.18551254e-01,
         2.72775352e-01],
       [ 2.07728833e-01,  4.69147384e-01, -3.38664800e-01,
         1.47739992e-01,  6.67443424e-02,  1.10502791e+00,
         7.06386287e-03, -8.50567341e-01, -1.14143419e+00,
         3.94868076e-01],
       [ 5.54169297e-01,  4.44412678e-01, -1.05711423e-01,
        -2.23293155e-01,  3.06917310e-01, -9.92695689e-01,
         8.32587957e-01,  7.71919906e-01, -4.92595464e-01,
        -3.68185371e-01],
       [-1.54072106e-01,  7.07982123e-01, -1.90553010e-01,
        -1.59555030e+00, -2.17755809e-02,  2.65839193e-02,
        -8.46464097e-01,  1.11175609e+00,  7.09860742e-01,
         9.25537422e-02],
       [-1.55232057e-01,  7.13987291e-01,  2.44544074e-01,
        -2.85346806e-01,  4.34393644e-01, -5.19229285e-02,
        -8.88697267e-01,  1.04892105e-01,  4.78286237e-01,
        -3.90260905e-01],
       [ 7.03534484e-01,  3.31432760e-01, -7.48152211e-02,
         1.14614749e+00, -9.55595255e-01, -1.31089270e+00,
        -8.58560503e-02,  1.00626194e+00,  6.17765605e-01,
        -9.39260423e-01],
       [-5.16638398e-01, -3.08743894e-01,  7.27103591e-01,
         2.43473381e-01,  6.63280606e-01,  4.22966033e-01,
        -6.34470815e-03, -9.94847640e-02, -4.96661067e-01,
         2.78579921e-01],
       [ 8.57406318e-01,  1.44897610e-01, -8.76879990e-01,
         9.75757957e-01, -1.41716909e+00,  1.18548942e+00,
         7.66351938e-01,  4.92019773e-01, -1.04913878e+00,
         5.98945916e-01],
       [-8.52477178e-02, -1.17706552e-01,  8.95723999e-01,
        -8.76133502e-01,  7.69485831e-01,  1.03577316e+00,
         4.51100230e-01,  2.12847501e-01, -1.12379050e+00,
        -4.87052351e-02],
       [ 6.97513670e-02,  8.50276649e-02, -1.32992372e-01,
        -9.03695285e-01, -6.29947722e-01, -7.80305922e-01,
         1.47115719e+00,  5.08222401e-01,  4.75002438e-01,
         5.90578429e-02],
       [-2.53409833e-01,  4.51180190e-01, -4.47874367e-01,
        -9.76391494e-01,  6.59573555e-01,  2.13501900e-01,
        -1.38137436e+00,  6.83658779e-01,  7.99412310e-01,
        -7.46284962e-01],
       [-4.96532023e-01,  4.33232635e-02,  2.46401295e-01,
        -5.74985981e-01,  1.22115064e+00, -2.47925907e-01,
        -9.73330081e-01,  6.71101391e-01,  4.13538039e-01,
         2.25337133e-01],
       [ 2.46691823e-01, -3.50302935e-01,  4.41786975e-01,
         6.30390763e-01, -4.45957869e-01, -2.88433611e-01,
        -1.03402995e-01,  8.54151249e-01,  1.27384877e+00,
        -2.70172328e-01],
       [-8.92906964e-01, -4.34478343e-01,  6.19705260e-01,
        -2.31297359e-01, -3.82741064e-01,  1.10004830e+00,
        -8.08899045e-01,  1.10430270e-03,  6.30469441e-01,
         3.38949323e-01],
       [ 5.19840196e-02, -9.19528902e-01,  2.00329348e-01,
         7.99322128e-01,  1.79560199e-01,  8.64041388e-01,
        -5.04447222e-01,  4.09947693e-01, -9.74902868e-01,
         1.01437521e+00],
       [ 2.51605541e-01, -4.00926232e-01, -4.72934879e-02,
        -6.15114748e-01, -1.20294070e+00,  1.22300994e+00,
         2.32539311e-01,  5.78445852e-01,  3.54952544e-01,
         4.21430856e-01],
       [-1.75135434e-01, -6.18402719e-01, -1.21369220e-01,
         2.47962540e-03, -1.30339956e+00, -2.72106439e-01,
        -2.92598069e-01,  6.46612108e-01,  1.63111448e+00,
        -1.23765975e-01],
       [-4.61391896e-01,  7.22929895e-01, -9.40393865e-01,
        -1.41229498e+00,  9.29027200e-01,  2.20311597e-01,
        -1.07189333e+00,  1.23979235e+00,  4.30669069e-01,
        -3.26387733e-01],
       [-1.14281595e+00,  2.93127093e-02, -3.78816962e-01,
         8.05607811e-02,  1.00254822e+00, -2.31123850e-01,
        -6.76521420e-01,  4.61878553e-02,  8.33375275e-01,
        -3.21598910e-02],
       [ 7.37507224e-01, -4.69459414e-01, -4.60368544e-02,
         1.05725455e+00, -6.58739388e-01, -1.14357388e+00,
        -4.32251580e-02,  7.22439110e-01,  7.08732963e-01,
        -1.04927468e+00],
       [ 3.68004084e-01, -3.75840336e-01,  7.33323216e-01,
        -1.54032454e-01, -6.20576799e-01,  1.05698109e+00,
         6.79941595e-01,  5.00412136e-02, -2.18156680e-01,
        -9.73971933e-02],
       [ 1.23456585e+00, -4.28169280e-01, -3.65759462e-01,
         8.16449076e-02, -8.54615808e-01,  5.13551235e-01,
        -1.68301836e-01, -4.28349495e-01, -9.53790605e-01,
         1.85623631e-01],
       [-3.52618635e-01, -3.57229799e-01,  3.87646556e-01,
         9.82581019e-01, -6.60692036e-01,  3.12959105e-01,
         1.04932749e+00, -6.80620849e-01,  7.61156559e-01,
         2.11386129e-01],
       [-1.94012478e-01,  1.98411688e-01, -5.92434764e-01,
         4.18275386e-01, -1.40617633e+00, -1.69899955e-01,
         1.24744022e+00,  5.90891600e-01,  7.05080807e-01,
        -3.11399195e-02],
       [-4.96047854e-01,  1.12576592e+00, -9.46564376e-01,
        -1.05118394e+00,  9.66366708e-01, -3.33485454e-01,
         4.95251358e-01,  5.92946768e-01,  3.40819508e-02,
        -1.85480908e-01],
       [-3.88643086e-01, -2.55033791e-01, -9.68776047e-02,
        -1.00822735e+00,  1.63807738e+00, -1.87590301e-01,
        -2.36703902e-01, -3.18045199e-01,  1.38459921e-01,
         2.17960596e-01],
       [ 7.20338106e-01,  9.55052674e-02,  3.95949483e-01,
         4.23326939e-01, -5.50651371e-01, -1.08012140e+00,
         4.77391422e-01, -1.02017748e+00,  9.65222657e-01,
        -7.09717274e-01],
       [ 4.28437181e-02, -3.17316473e-01, -4.25402373e-02,
         3.30610305e-01,  1.87376499e-01,  1.29543424e+00,
         1.21550214e+00, -7.50365853e-01, -9.84715939e-01,
        -1.50539681e-01],
       [ 1.05580115e+00,  9.01576638e-01,  6.65086150e-01,
         8.12921643e-01, -1.85294187e+00, -4.64525372e-02,
        -6.31419867e-02, -5.69939971e-01, -5.13072312e-01,
         1.52995872e+00],
       [ 7.64233291e-01, -6.40438020e-01, -1.55668661e-01,
         8.82456481e-01, -1.44150540e-01,  1.36919689e+00,
         6.28200080e-03, -1.92643493e-01, -2.94378370e-01,
        -2.63712436e-01],
       [-2.16149345e-01,  3.19021523e-01, -2.69315839e-01,
         3.16805243e-01, -2.88293362e-01, -6.82463467e-01,
         1.52899313e+00, -9.27609503e-01,  1.10140967e+00,
         2.25970060e-01],
       [-6.15619779e-01,  7.35212147e-01, -2.45839640e-01,
        -1.19129944e+00,  1.21804249e+00, -6.93072021e-01,
        -3.84955376e-01,  6.37075543e-01,  2.37541571e-01,
        -3.51034731e-01],
       [ 8.27571869e-01,  1.29149973e-01,  7.42455482e-01,
        -9.11396682e-01,  2.63973236e-01,  2.35993817e-01,
         9.59324613e-02, -3.22063314e-03, -1.45060971e-01,
        -5.63453197e-01],
       [-2.84243494e-01, -8.42845440e-01, -3.88396531e-01,
         8.52557361e-01,  1.33511198e+00, -9.57890332e-01,
         5.85593462e-01, -6.27400339e-01,  7.72954047e-01,
        -1.30197138e-01],
       [ 3.86090614e-02,  9.03002024e-01,  7.13198662e-01,
         3.97402227e-01, -2.62141496e-01, -5.83404064e-01,
         7.73364067e-01, -9.77934837e-01,  5.78097522e-01,
        -6.93225861e-01],
       [ 2.64360011e-01,  1.32463694e+00,  1.29964066e+00,
         2.05339015e-01, -9.35641050e-01, -9.34506893e-01,
         3.78673139e-04, -3.72036025e-02, -4.29368228e-01,
         3.18713784e-01],
       [-3.66276592e-01,  3.57424080e-01,  5.90589225e-01,
         8.36037219e-01, -7.98810959e-01, -6.88063860e-01,
         8.34439993e-01, -4.94735092e-01,  3.96013647e-01,
        -2.20316648e-01],
       [-8.95472109e-01, -1.79160386e-01, -1.03517747e+00,
         8.92349839e-01,  2.21183729e+00, -1.02309442e+00,
        -2.22907379e-01, -1.28809556e-01,  6.80424511e-01,
        -4.03746128e-01],
       [ 1.59235403e-01,  8.85780036e-01,  2.88387805e-01,
        -6.70915246e-01,  6.29775405e-01,  7.61095136e-02,
         4.18641299e-01, -3.33071798e-01, -3.23156238e-01,
        -1.33523941e+00],
       [ 9.07522976e-01, -7.10193932e-01, -1.63697690e-01,
        -6.75497115e-01,  1.09129524e+00,  1.88545570e-01,
         1.71031088e-01,  8.19333851e-01, -6.85495019e-01,
        -1.10935450e+00],
       [ 1.66807306e+00, -1.12398207e+00,  8.78503621e-02,
         1.70506671e-01, -1.54247105e-01, -1.18956494e+00,
         6.73622012e-01,  7.95595288e-01,  3.22635084e-01,
        -1.79986775e-01],
       [-2.76969582e-01, -3.30927581e-01,  1.04165398e-01,
         5.91299832e-01,  3.62350494e-01, -1.10631049e+00,
         1.28427708e+00,  3.57079178e-01, -1.70909420e-01,
         8.71210277e-01],
       [ 4.15398814e-02,  6.46310449e-01,  3.66730690e-02,
         7.75544405e-01, -8.43144208e-02, -8.34601879e-01,
         6.17802680e-01, -1.45324194e+00, -1.39938787e-01,
         1.09937429e+00],
       [-9.27104712e-01, -4.49398875e-01,  5.86992145e-01,
        -2.17762589e-01,  1.08045793e+00, -1.39455187e+00,
         1.02956045e+00, -8.33702162e-02, -4.79462713e-01,
         7.74311304e-01],
       [ 7.92336404e-01,  8.71708170e-02,  4.69883978e-01,
        -2.08484232e-01,  4.01348293e-01, -1.27097726e+00,
         1.01788080e+00,  9.38630030e-02, -3.21771085e-01,
         4.99564111e-02],
       [ 1.53262901e+00, -6.63482368e-01, -4.21645433e-01,
        -1.70342982e-01,  9.93218184e-01, -1.65302902e-01,
         4.17917311e-01,  6.43920660e-01, -4.16461021e-01,
        -1.61141944e+00]], dtype=float32), array([ 0.58328944,  0.31903955, -0.5192627 ,  0.9508182 ,  0.78126633,
        0.9412009 , -0.18706666, -0.21351649, -1.4705861 ,  1.6947061 ],
      dtype=float32), array([[ 0.12403148, -0.0377361 , -0.3730093 , -2.4723291 , -0.83042985,
        -1.259447  ,  0.4912236 , -2.2486165 , -1.1114807 , -0.03085717,
         0.03587822,  0.3487856 , -0.06764358,  0.27043265, -3.7831528 ,
         0.27204573],
       [-0.4011979 , -0.22802274,  0.67097527,  0.15715265, -1.3881952 ,
         0.68991446, -2.9957604 , -3.0486245 , -0.8455362 , -0.10816904,
         0.6641316 ,  0.91710925, -1.5627928 , -3.4549856 ,  0.14266178,
        -0.84478855],
       [ 0.23987333,  0.6319513 , -2.1928642 , -1.8877374 ,  0.23836282,
         0.43775997, -0.480224  , -0.748302  ,  1.0720805 , -0.3858458 ,
         0.08883484, -1.3484404 , -2.5433204 ,  0.6427777 , -0.32062092,
         0.11371056],
       [ 1.0411791 , -3.645614  , -2.6565647 , -0.93133354, -2.4250631 ,
        -0.8491066 ,  0.4266027 ,  0.6583404 ,  0.1914975 , -1.1188476 ,
        -0.23544234,  0.00609396,  0.68956363, -3.0227027 ,  0.29654774,
        -0.21259508],
       [ 0.28664201,  0.4781336 , -0.53076106,  0.411795  , -0.6634343 ,
         0.10305869, -0.351316  ,  0.24089338, -2.2092452 , -0.11060864,
        -3.006913  , -1.4386034 ,  0.21074173, -0.21369979, -0.7495825 ,
        -1.7663335 ],
       [-4.447782  , -0.3510847 ,  0.6423459 , -1.1812851 ,  0.44734544,
        -0.30861992, -0.18433926, -0.64261675,  0.72111744, -3.847138  ,
        -0.71527094, -0.33234465,  0.53359544, -0.18554169, -3.7208493 ,
        -1.2493688 ],
       [-0.5878011 , -1.9880706 ,  0.29168263, -0.7487243 , -3.2223356 ,
        -0.56553394, -2.3225064 ,  0.5841505 ,  0.14896517,  0.58561224,
        -0.03830154, -0.5898156 ,  0.36438262,  0.529982  ,  0.15621358,
        -0.43816176],
       [-0.6118118 ,  0.51789755,  0.05195704, -0.0730244 ,  0.28302872,
        -2.4950237 ,  0.09004224, -2.3861604 , -1.7636546 , -0.01421369,
        -0.6505419 , -1.2443829 , -0.27169114, -0.6510367 ,  0.5763504 ,
         0.39321563],
       [-0.5226105 , -1.6250954 , -0.13300693, -0.49845147,  0.23229896,
        -0.01296389,  0.5035795 , -0.05690074, -1.885663  ,  0.26531187,
         0.30545834, -1.5610957 , -1.550588  , -0.5736923 ,  0.18693785,
        -2.6944187 ],
       [-3.8678567 , -2.1931918 , -4.0905347 ,  0.98293954, -0.00790986,
        -0.6884983 , -2.1153502 ,  0.23777936, -0.6466273 , -3.7832613 ,
        -1.9281445 ,  0.49916685, -2.1477246 , -0.06746224,  0.08368205,
         0.7196224 ]], dtype=float32), array([-0.12534219, -0.35058373, -0.30611137,  0.22286586, -0.25681975,
       -0.73923755, -0.91947335,  0.43945384, -1.4781214 , -1.5945225 ,
       -0.30961666,  0.3332483 ,  0.3331041 , -0.7777592 , -1.0403802 ,
        0.3364008 ], dtype=float32)]

Model[6]
[array([[ 6.00540698e-01, -3.35981809e-02, -2.12267548e-01,
        -6.59935176e-01,  7.77976364e-02,  1.30480194e+00,
        -3.00764114e-01, -5.03621876e-01, -4.30157661e-01,
        -4.70657289e-01],
       [ 1.55567378e-01, -9.20744706e-03,  1.08620739e+00,
        -6.90720141e-01, -7.15896428e-01, -2.62295920e-02,
        -2.85300016e-01, -6.13798559e-01,  6.20277822e-01,
        -7.82811642e-01],
       [-1.14396822e+00, -1.29168704e-01,  3.69898498e-01,
        -2.54743099e-01, -1.71522871e-01,  3.66385400e-01,
        -4.70404893e-01, -6.96039557e-01,  1.94684327e-01,
         1.09766233e+00],
       [-1.23744094e+00, -9.05504823e-01,  3.40381175e-01,
         1.17259316e-01, -1.82986408e-01,  1.94944412e-01,
        -4.83457029e-01, -5.73008358e-01,  5.46010673e-01,
         9.42800879e-01],
       [-1.44581878e+00, -5.92381716e-01,  1.91845909e-01,
        -1.04101494e-01,  2.73661036e-02,  3.22788507e-01,
        -4.42273051e-01, -1.01084602e+00,  5.99798918e-01,
         5.59250474e-01],
       [-3.59733313e-01, -6.99617565e-01,  6.07528150e-01,
        -7.76060402e-01,  8.34650919e-02,  3.43731791e-01,
         2.48817042e-01, -9.51715231e-01,  8.64140213e-01,
        -2.90667675e-02],
       [ 9.85184312e-01,  4.95175302e-01,  5.50865978e-02,
        -1.17447102e+00, -2.98260629e-01,  9.71662641e-01,
        -2.62819137e-02, -9.78028655e-01, -2.22912759e-01,
        -2.40416035e-01],
       [ 1.23633012e-01,  3.38923723e-01,  5.27669728e-01,
        -4.45671767e-01,  1.18993618e-01,  7.70828962e-01,
        -9.43452775e-01,  1.51071683e-01, -1.37132825e-03,
        -1.33349597e+00],
       [-4.13226306e-01,  1.10256650e-01, -1.45745957e+00,
         9.64889407e-01, -2.51670599e-01,  3.72041762e-02,
         7.42137879e-02, -7.94091463e-01,  3.40707272e-01,
        -2.62789041e-01],
       [ 3.11300725e-01, -1.55010849e-01,  4.75760132e-01,
         6.23084843e-01, -2.79107809e-01, -3.96109432e-01,
         6.82553649e-01,  8.55867445e-01, -5.28113425e-01,
         8.61603141e-01],
       [-3.08094829e-01,  4.17525530e-01,  3.83756310e-01,
         8.25523794e-01, -1.48195827e+00, -1.41475052e-01,
         3.79105538e-01,  7.58078873e-01, -2.94679970e-01,
         4.70152348e-01],
       [-4.25372869e-01,  3.55862647e-01,  5.69164932e-01,
         9.00526226e-01, -2.92749882e-01,  5.33034861e-01,
         2.15391088e-02, -2.67728448e-01, -5.19666314e-01,
         9.96879339e-02],
       [-3.01832825e-01,  8.25144053e-01, -3.72421652e-01,
        -1.73208132e-01, -7.90151477e-01, -2.09313147e-02,
         6.07822180e-01, -9.55273628e-01, -2.79155791e-01,
         5.95843315e-01],
       [ 9.32802409e-02, -1.32044792e-01,  3.84110101e-02,
        -1.23265624e+00,  2.51012415e-01,  5.63353896e-01,
         9.82108191e-02, -1.25251734e+00,  9.08442140e-01,
        -5.02221763e-01],
       [-5.11590362e-01,  3.16354096e-01, -2.09427625e-01,
        -2.64091074e-01,  2.83607751e-01, -3.09449703e-01,
        -6.25027955e-01,  6.81417942e-01,  6.76090956e-01,
        -5.90575814e-01],
       [ 1.02156091e+00,  3.10304224e-01,  4.02874291e-01,
         6.34979606e-01,  1.31762344e-02, -1.80698240e+00,
        -5.98179936e-01,  9.30177212e-01, -3.51053119e-01,
        -7.03242838e-01],
       [ 3.17183822e-01,  2.91352510e-01, -3.50497872e-01,
        -1.06946610e-01, -4.30736601e-01,  1.66790736e+00,
         4.95090604e-01, -4.13400650e-01, -1.00245464e+00,
        -2.47750744e-01],
       [ 3.80430460e-01, -8.23674724e-02,  5.09902000e-01,
        -3.04700762e-01, -3.97655725e-01,  6.23124689e-02,
         2.91962028e-01,  3.42750758e-01, -3.81405324e-01,
        -3.80721122e-01],
       [ 2.02017590e-01,  8.84665027e-02, -1.40564784e-01,
         3.16082507e-01, -1.59463525e-01,  1.25675082e+00,
         4.53082383e-01, -5.23382068e-01, -1.17029309e+00,
        -7.41763934e-02],
       [ 5.38868487e-01,  2.95902848e-01, -1.49547577e-01,
        -1.13381572e-01, -1.65738940e-01, -6.93775713e-01,
         7.76207268e-01,  5.16728103e-01,  5.25496565e-02,
        -1.29699126e-01],
       [-6.54305816e-01,  4.56773102e-01,  8.90850499e-02,
        -1.73977733e+00, -1.99414119e-02,  2.02220336e-01,
        -8.10812652e-01,  7.98072577e-01,  7.23518193e-01,
        -3.04115474e-01],
       [-2.79715192e-02,  6.72732651e-01, -1.44358277e-01,
         1.89533327e-02,  2.13277698e-01, -1.94411859e-01,
        -1.38390005e+00, -1.53163299e-01,  6.16872609e-01,
        -5.50808609e-01],
       [ 5.87327540e-01,  1.99457601e-01, -4.00128335e-01,
         4.54391658e-01, -5.80322623e-01, -1.16095424e+00,
         3.24293137e-01,  7.49429524e-01,  9.39549685e-01,
        -7.10880458e-01],
       [-4.90928560e-01, -5.83288372e-01,  3.30687523e-01,
         4.69233751e-01,  1.04294229e+00,  1.52060926e-01,
         4.88463610e-01, -1.99298039e-01, -7.87782073e-01,
         7.01829791e-02],
       [ 4.30121481e-01,  2.06272513e-01, -7.88253844e-01,
         7.13643849e-01, -1.68574965e+00,  1.05506611e+00,
         1.59799978e-01,  4.98259902e-01, -1.04486060e+00,
         2.86874801e-01],
       [-2.64239192e-01, -2.88537085e-01,  7.69411385e-01,
        -4.27689224e-01,  8.75779688e-01,  1.22644138e+00,
         3.67788315e-01,  1.23638354e-01, -8.37737978e-01,
        -5.99810109e-02],
       [ 7.80365020e-02, -1.77390993e-01, -1.24201171e-01,
        -9.35290575e-01, -8.90680194e-01, -7.72007823e-01,
         1.28595889e+00,  3.90432388e-01,  2.54099458e-01,
         3.42353642e-01],
       [-9.08055976e-02,  4.40457791e-01, -5.25971413e-01,
        -1.59123814e+00,  9.13870990e-01,  1.21971771e-01,
        -1.69267058e+00,  3.67636681e-01,  8.83546293e-01,
        -3.21731538e-01],
       [-4.94868606e-01, -4.40874845e-02,  4.63583805e-02,
        -4.20094095e-02,  9.28893507e-01, -8.25018212e-02,
        -8.81300092e-01,  4.39657420e-01,  2.96037793e-01,
        -1.65322661e-01],
       [-1.51542470e-01, -8.63083005e-01,  2.36968577e-01,
         5.23251355e-01, -6.61574185e-01, -4.24734175e-01,
        -2.17571259e-01,  8.66099000e-01,  9.46925104e-01,
        -3.98098856e-01],
       [-8.08450162e-01, -3.69320422e-01,  5.50706923e-01,
        -5.37200093e-01, -6.43059313e-01,  1.08967173e+00,
        -1.17819679e+00,  4.10345703e-01,  2.94471204e-01,
         6.27125442e-01],
       [ 8.42017680e-02, -1.04751778e+00,  2.07409978e-01,
         4.86113936e-01, -6.08934164e-01,  9.20952797e-01,
        -6.66212618e-01,  5.43656588e-01, -5.91140807e-01,
         1.03702199e+00],
       [ 1.39173744e-02, -4.58580881e-01, -3.87755074e-02,
        -8.09515834e-01, -7.97459066e-01,  1.32817852e+00,
         8.64841696e-03,  7.80549645e-02,  5.71316659e-01,
        -3.32184918e-02],
       [-2.00691044e-01, -6.22017205e-01, -1.84965014e-01,
        -1.50727835e-02, -1.12684977e+00, -5.88371992e-01,
        -1.20278932e-01,  4.02351916e-01,  1.55297148e+00,
        -7.80726671e-02],
       [-6.83681518e-02,  6.40746772e-01, -1.12689924e+00,
        -1.77600682e+00,  6.33306384e-01,  1.27265817e-02,
        -1.29657209e+00,  9.56317902e-01,  6.86549664e-01,
        -1.21364832e-01],
       [-7.72577286e-01, -2.47327805e-01, -5.44525623e-01,
        -4.04871643e-01,  8.53121877e-01, -4.49638367e-01,
        -1.20308340e+00,  3.48027721e-02,  1.13281381e+00,
         1.61323193e-02],
       [ 4.02911037e-01, -2.91852176e-01,  2.83060342e-01,
         7.74116576e-01, -3.63881260e-01, -1.15287411e+00,
         9.61067155e-02,  1.10050716e-01,  2.96762049e-01,
        -9.31209564e-01],
       [ 1.72170386e-01, -5.78523837e-02,  1.05570078e+00,
        -4.08901095e-01, -7.38215864e-01,  5.51245034e-01,
         3.87373686e-01, -2.70566314e-01, -4.33462262e-02,
         3.18310857e-01],
       [ 9.75235760e-01, -6.11281753e-01, -3.68189603e-01,
        -1.91704601e-01, -1.02918005e+00,  4.97364700e-01,
         3.54998082e-01, -7.94224069e-02, -1.07860267e+00,
         1.23543538e-01],
       [ 1.48828864e-01, -1.73659235e-01,  5.79604566e-01,
         3.10341775e-01, -6.11109078e-01,  6.09253407e-01,
         7.66337752e-01, -1.07161748e+00,  3.93797457e-01,
         3.41299661e-02],
       [-3.96440148e-01,  4.63597357e-01, -6.38075888e-01,
         3.51932049e-02, -1.44072819e+00, -3.48911941e-01,
         1.52284098e+00,  3.72644305e-01,  7.19155610e-01,
        -4.36793923e-01],
       [-8.79453242e-01,  9.34903622e-01, -9.23340380e-01,
        -7.95465887e-01,  5.58313668e-01, -5.96956611e-01,
        -5.74470423e-02,  6.22485876e-01, -1.62954852e-01,
        -1.13771461e-01],
       [-8.55104446e-01, -9.71291959e-02, -4.03560489e-01,
        -8.41779351e-01,  1.26039398e+00,  2.22239792e-01,
         1.25067815e-01, -4.15370226e-01,  4.22747821e-01,
         8.74202475e-02],
       [ 8.02032053e-01, -8.81648883e-02,  2.20338017e-01,
         6.72786176e-01, -4.55899298e-01, -1.27379727e+00,
         4.98007149e-01, -5.54136395e-01,  6.77075088e-01,
        -8.31044555e-01],
       [ 4.39553946e-01, -4.76617932e-01, -1.69125035e-01,
        -2.03882128e-01, -8.79562795e-02,  8.21986318e-01,
         1.10309649e+00, -7.64617383e-01, -8.11811209e-01,
         1.01711161e-01],
       [ 1.15548337e+00,  5.07904589e-01,  5.79760909e-01,
         5.77258587e-01, -2.13872910e+00, -7.07153603e-02,
         1.89256042e-01, -6.40839815e-01, -5.16714454e-01,
         1.47630847e+00],
       [ 9.27186131e-01, -5.02277672e-01,  4.08605218e-01,
         1.04571199e+00, -1.30975366e-01,  1.00108457e+00,
        -2.39138484e-01, -3.36725622e-01, -3.94068003e-01,
        -3.68187726e-01],
       [-4.50128913e-01,  4.04866561e-02, -4.96193528e-01,
         8.33318755e-02, -3.80824000e-01, -8.43707204e-01,
         7.99722791e-01, -8.83858621e-01,  1.19981182e+00,
        -2.74116360e-02],
       [-7.42603481e-01,  6.18495524e-01, -4.19611573e-01,
        -9.18643773e-01,  1.05452454e+00, -4.18763220e-01,
        -8.35143402e-02,  8.74804616e-01,  2.10584085e-02,
        -5.47226310e-01],
       [ 5.70680797e-01,  2.08377928e-01,  3.04121710e-02,
        -6.82106435e-01,  3.75280857e-01, -5.51660545e-02,
        -4.68454629e-01,  2.46791005e-01, -1.89539373e-01,
        -7.60074258e-01],
       [-2.34304830e-01, -9.56146777e-01, -8.02890420e-01,
         7.59287298e-01,  1.15980446e+00, -7.60903060e-01,
         5.89192271e-01, -1.18646812e+00,  6.60363495e-01,
        -5.24597824e-01],
       [-3.70657533e-01,  6.67434275e-01,  8.83861423e-01,
         3.75291437e-01, -6.57143414e-01, -2.02107459e-01,
         4.78933781e-01, -9.05585647e-01,  5.86677074e-01,
        -5.35130560e-01],
       [ 3.01011741e-01,  5.39572775e-01,  1.06787980e+00,
         5.63228011e-01, -8.94667745e-01, -9.23542857e-01,
         4.10157502e-01, -1.47781566e-01, -4.76271570e-01,
         2.82920450e-01],
       [-3.15688491e-01,  3.56204480e-01,  6.05925977e-01,
         5.14253676e-01, -7.65940070e-01, -2.69587547e-01,
         4.30731148e-01, -5.11777937e-01,  3.26815575e-01,
        -4.01446193e-01],
       [-7.19278812e-01, -2.74584115e-01, -6.48484528e-01,
         6.81967378e-01,  1.45639515e+00, -9.57703650e-01,
         1.32142723e-01, -3.77323300e-01,  4.67286825e-01,
        -1.85966983e-01],
       [ 4.15916741e-01,  3.84612352e-01,  5.05821168e-01,
        -4.78110313e-01,  1.33482325e+00,  1.77170131e-02,
        -4.29444283e-01, -1.66547164e-01, -3.70115727e-01,
        -9.73509133e-01],
       [ 1.33584726e+00, -6.15235627e-01, -5.82265317e-01,
        -8.32655191e-01,  4.30505395e-01,  1.15412816e-01,
        -3.55671912e-01,  7.48137295e-01, -3.15667689e-01,
        -1.33100820e+00],
       [ 1.46016395e+00, -7.64954805e-01,  2.24000454e-01,
        -2.82244205e-01, -4.45557863e-01, -7.76437104e-01,
         6.35625184e-01,  1.01260567e+00,  7.86094517e-02,
        -9.31370035e-02],
       [-2.41741002e-01, -3.54578108e-01,  1.83935553e-01,
         5.19759417e-01,  3.43158007e-01, -7.66742289e-01,
         5.05513310e-01,  7.35541135e-02, -2.70688962e-02,
         1.02060699e+00],
       [-3.49447608e-01,  9.55069363e-01,  5.04587352e-01,
