Model[0]
[array([[ 2.75059760e-01,  2.46070579e-01,  1.61707342e-01,
         2.71174252e-01, -4.03943174e-02, -3.65836509e-02,
         3.90352234e-02,  3.06671858e-01, -9.99413524e-03,
         5.47017902e-02],
       [ 2.94118434e-01,  6.81918934e-02, -2.90393651e-01,
        -1.97592415e-02,  3.78378741e-02, -5.21062389e-02,
         2.86218636e-02,  9.13776383e-02, -5.45231812e-02,
         9.96108446e-03],
       [ 1.05566550e-02, -2.62294650e-01,  1.90421939e-01,
         1.44147322e-01,  3.13316844e-02, -4.53103520e-02,
        -6.53707236e-03,  2.16403846e-02, -1.49314515e-02,
         2.29276076e-01],
       [ 5.16662225e-02, -1.23379864e-01,  3.23235393e-01,
         1.33441120e-01, -2.26756185e-03, -1.60670020e-02,
        -2.96123866e-02,  7.60693923e-02, -1.21391192e-02,
         2.64721751e-01],
       [-8.43235664e-03, -2.20805988e-01,  1.19346350e-01,
         1.14618666e-01, -4.58372720e-02, -2.42722500e-02,
         3.96835059e-03, -3.90262008e-02, -1.58121586e-02,
         1.49947837e-01],
       [ 1.05639040e-01,  1.20253349e-02,  1.55701209e-02,
         3.58243100e-02, -2.07453258e-02,  3.79450023e-02,
        -4.68181856e-02,  5.21349721e-02, -2.08819043e-02,
         1.11783452e-01],
       [ 3.24298382e-01,  1.82959393e-01,  2.47375518e-01,
         1.86042473e-01, -4.10134085e-02,  1.68853477e-02,
        -1.40795959e-02,  3.59337419e-01,  5.91711188e-03,
        -2.10168026e-02],
       [ 2.38934636e-01,  2.01912016e-01, -3.02961797e-01,
         1.56960636e-01, -2.48379633e-03,  2.79252417e-03,
        -3.45527497e-03,  4.05039579e-01, -1.47430729e-02,
         8.56178552e-02],
       [-3.79927829e-02,  2.98944265e-01,  3.77921104e-01,
         2.31633425e-01, -2.50753406e-02,  2.67345197e-02,
        -3.86665426e-02,  1.42648295e-01,  3.46714780e-02,
         1.82650268e-01],
       [-8.46044868e-02,  1.05545290e-01,  4.66475576e-01,
        -1.05475388e-01, -1.58236846e-02,  1.30884601e-02,
        -4.34336439e-02, -8.10630620e-02, -3.75931375e-02,
         8.64780620e-02],
       [-1.37536064e-01,  5.43101132e-02,  4.71069157e-01,
        -6.35805726e-02, -3.11240088e-02,  2.18301751e-02,
        -7.25161284e-04, -3.02821212e-02, -2.91396268e-02,
         1.13996990e-01],
       [-3.88245523e-01, -1.17526226e-01,  3.35925817e-01,
        -1.92998692e-01,  3.15214731e-02,  2.79541519e-02,
        -2.75232084e-02, -2.38913894e-01, -3.70746255e-02,
        -1.09045483e-01],
       [ 1.29337519e-01,  1.33957282e-01,  5.02214670e-01,
        -2.05626152e-02,  4.12070788e-02,  1.37745973e-03,
        -1.52035272e-02, -7.21251369e-02,  2.86005940e-02,
        -4.16763760e-02],
       [ 3.40066880e-01,  1.18967537e-02,  3.27712880e-03,
         9.64826345e-02,  4.38284874e-03, -5.83334900e-02,
         2.78780758e-02,  2.52472162e-01, -4.99003306e-02,
         8.33575800e-02],
       [ 9.66455713e-02,  2.33716771e-01, -2.27159813e-01,
         3.68455023e-01,  1.85784958e-02, -1.10869538e-02,
        -4.57188673e-02,  1.83661431e-01,  4.55406448e-03,
         3.00553620e-01],
       [ 4.82759885e-02,  3.54498327e-01,  2.07885116e-01,
         1.85375333e-01, -4.95815761e-02, -2.30479855e-02,
        -5.48901409e-02,  2.08608415e-02, -3.55217271e-02,
         2.33811751e-01],
       [ 7.33862594e-02,  2.31653765e-01,  5.56252420e-01,
         9.88686457e-02, -4.04408090e-02, -2.55623041e-03,
         3.36024910e-03,  2.69246370e-01, -4.00468111e-02,
        -3.38055305e-02],
       [ 1.89165428e-01,  1.41716197e-01,  4.48930383e-01,
        -9.24361199e-02,  1.21381767e-02,  3.25680971e-02,
        -2.55805608e-02,  1.74592957e-01, -1.73500068e-02,
        -2.39597876e-02],
       [-1.70934685e-02,  1.98263377e-01,  5.61750650e-01,
         1.10746302e-01, -2.30284221e-02, -1.00950971e-02,
        -4.15309891e-02,  2.21461922e-01, -5.24052866e-02,
        -5.75697981e-02],
       [ 1.13885395e-01,  1.05833508e-01,  1.44941747e-01,
        -1.21037196e-02, -2.43143924e-02,  2.47290041e-02,
         2.78368802e-03, -1.00436524e-01,  2.45848745e-02,
        -8.95114802e-03],
       [ 1.67121947e-01, -4.88544181e-02, -1.84011325e-01,
         2.28893951e-01, -2.00889353e-02, -4.15706076e-03,
         2.84147337e-02,  1.44104987e-01, -4.79849242e-02,
         1.89756632e-01],
       [ 1.46900147e-01,  2.12950215e-01, -2.71901220e-01,
         3.53577107e-01, -4.89789359e-02,  7.38997338e-03,
        -1.00901956e-03,  1.82586238e-01, -4.42286730e-02,
         2.39095569e-01],
       [-2.22101644e-01,  2.51985103e-01, -3.45902234e-01,
         7.38831908e-02,  7.78607279e-03, -5.38102500e-02,
         3.20581980e-02, -2.62849540e-01, -5.18069118e-02,
         1.92088500e-01],
       [ 6.02388680e-02, -6.42741472e-02,  4.72389221e-01,
         1.36794627e-01, -1.10744834e-02, -9.47433803e-03,
         1.58597268e-02,  2.65729666e-01, -7.80334463e-03,
         1.23758398e-01],
       [ 9.82772708e-02,  3.18835080e-01,  6.43016815e-01,
         1.78028077e-01, -4.47296612e-02, -1.29737826e-02,
         2.60905176e-03,  3.21038812e-01,  1.95863545e-02,
         9.97902825e-02],
       [ 4.09203112e-01, -3.28561276e-01,  4.57266212e-01,
        -1.02876365e-01,  2.91298367e-02, -3.06309946e-03,
        -2.47091497e-03,  1.10583082e-01, -1.61522627e-02,
        -2.62740910e-01],
       [-1.24590769e-02,  2.92400867e-02,  1.86521009e-01,
        -2.04756215e-01, -4.99752909e-03, -4.68455330e-02,
        -4.55265902e-02, -2.95036077e-01, -4.98825908e-02,
        -6.49985969e-02],
       [ 1.84394978e-02,  7.35044107e-02, -2.62685359e-01,
         3.28126699e-01,  4.83170040e-02,  2.23077666e-02,
         4.88722418e-03,  2.04929546e-01, -2.49884054e-02,
         2.80865282e-01],
       [ 7.34735504e-02,  1.73060056e-02, -2.60440260e-01,
         3.05737227e-01,  1.14519708e-02,  3.40857022e-02,
        -4.42397445e-02,  2.23549098e-01, -3.48797143e-02,
         2.42543772e-01],
       [-2.56672472e-01,  3.24937612e-01, -3.31165344e-01,
         2.05839992e-01, -3.26734185e-02,  1.67930759e-02,
        -3.22307087e-02, -9.91718844e-02,  1.31006921e-02,
         3.10207993e-01],
       [-1.36199370e-01, -1.51109532e-01,  7.50388950e-03,
         1.21888421e-01, -3.26679349e-02, -2.84071658e-02,
        -4.04078476e-02,  1.48046613e-01,  2.57228129e-02,
         4.87992764e-02],
       [ 3.62388901e-02,  1.50956243e-01,  6.39448285e-01,
         2.29406938e-01,  1.47340186e-02, -3.91950645e-02,
        -4.33803312e-02,  2.42741823e-01, -6.53119432e-03,
         2.03595474e-01],
       [ 2.52150297e-01, -2.21081331e-01, -2.85871364e-02,
         1.02426492e-01,  1.31695904e-02,  2.27906462e-02,
        -8.18476919e-03,  1.94693893e-01,  1.64670870e-03,
        -5.19194119e-02],
       [-3.35691720e-01,  1.75478205e-01, -2.78725624e-01,
         1.52872771e-01, -4.37347889e-02,  1.90671012e-02,
        -5.07486612e-02, -5.33262379e-02, -5.26348501e-03,
         1.89301640e-01],
       [ 5.01545444e-02, -1.51201501e-01, -2.96078861e-01,
         2.92603105e-01, -3.23546678e-02, -5.33408411e-02,
        -4.57358174e-02,  1.71412393e-01,  3.59505489e-02,
         2.65322894e-01],
       [ 5.41367531e-02,  2.95343567e-02, -6.00483902e-02,
         4.07209694e-01, -3.65024693e-02, -4.22210656e-02,
        -3.91137227e-02,  1.62214220e-01, -1.98584907e-02,
         3.53738576e-01],
       [-1.56519368e-01,  2.86971778e-01, -2.91008592e-01,
         1.01134583e-01,  4.80107553e-02, -2.67254412e-02,
         2.09865812e-02, -2.68495053e-01, -3.82835604e-02,
         1.02792129e-01],
       [ 3.32671791e-01,  5.96994944e-02,  5.46088636e-01,
        -2.11610466e-01,  8.55767727e-03, -3.38509865e-02,
         3.07493508e-02, -5.38033731e-02, -1.64901093e-03,
        -2.14428067e-01],
       [ 2.37414420e-01,  1.33659869e-01,  5.62359869e-01,
         1.40383914e-01,  1.48145221e-02, -3.84150669e-02,
        -4.46848124e-02,  7.22364262e-02, -4.92963679e-02,
         1.84474308e-02],
       [-9.14623514e-02,  2.17577681e-01,  5.69524884e-01,
        -6.89037293e-02,  4.32752259e-02, -2.08665561e-02,
        -3.77944745e-02,  1.57267794e-01, -4.13452461e-03,
         1.49250433e-01],
       [-1.59624755e-01,  2.04993695e-01,  6.02114154e-03,
        -3.58524807e-02,  2.64312290e-02, -4.79825847e-02,
        -4.65285871e-03, -8.68683085e-02,  1.51730664e-02,
         1.35988042e-01],
       [ 1.47960067e-01, -1.20133221e-01, -1.31499097e-01,
         1.86448768e-01, -3.68400328e-02, -4.48028604e-03,
        -3.06971427e-02,  7.13397264e-02, -3.11143436e-02,
         1.34769812e-01],
       [ 1.75100237e-01, -1.14247009e-01, -5.35115376e-02,
         2.63315171e-01, -5.53118065e-03,  2.55512111e-02,
        -2.51787212e-02,  1.65585682e-01, -5.65033359e-03,
         3.58951628e-01],
       [ 1.48400385e-02,  1.04143426e-01, -4.17648017e-01,
        -4.15451941e-04,  4.22768854e-02,  1.38960844e-02,
         3.21157351e-02, -2.59430528e-01,  1.68984458e-02,
         2.79217828e-02],
       [ 1.93079427e-01, -9.37765241e-02,  4.76549059e-01,
        -1.68538257e-01,  4.58602980e-03,  1.89709943e-02,
         4.19760495e-03,  1.95902810e-02,  3.74345295e-02,
        -1.22720324e-01],
       [ 1.61736831e-01,  4.06689554e-01,  5.51388144e-01,
         5.92484847e-02, -6.69848174e-04,  3.55865210e-02,
        -3.87722366e-02,  2.94131637e-01, -3.54008377e-02,
        -3.02665643e-02],
       [-5.37815355e-02, -4.89032082e-02,  2.14206487e-01,
         3.44372615e-02,  1.42435320e-02, -1.81591716e-02,
         3.04532535e-02,  5.50629646e-02, -2.33127251e-02,
        -3.32858823e-02],
       [-2.03590944e-01,  2.55718201e-01,  5.48184961e-02,
        -5.82770035e-02, -2.18553077e-02,  1.10565703e-02,
         7.20956363e-03, -3.04026436e-02, -3.28867659e-02,
         2.36506164e-01],
       [ 1.41044080e-01, -7.43961558e-02, -9.49894711e-02,
         1.60095125e-01,  3.47009413e-02, -3.77092920e-02,
         3.82081680e-02,  1.21844739e-01,  2.73370761e-02,
         1.15594730e-01],
       [ 4.81153339e-01, -4.00407091e-02, -5.01414001e-01,
         2.34027475e-01,  2.59145163e-02,  2.73210648e-02,
        -4.47815768e-02,  2.64767855e-01, -1.07000191e-02,
         1.30751073e-01],
       [ 7.27995783e-02, -1.40106604e-02,  2.14083135e-01,
         1.24105059e-01, -8.87984037e-03, -1.11644184e-02,
         1.36531116e-02, -1.58696681e-01,  3.29434569e-03,
         2.57085413e-01],
       [-1.14496663e-01,  2.59452373e-01, -2.28356272e-01,
        -1.44386232e-01,  6.19741529e-03,  3.30659486e-02,
         2.67995633e-02, -1.39569953e-01, -1.87202170e-02,
        -7.48516852e-03],
       [-1.86157413e-02,  4.19513106e-01,  3.68896633e-01,
         7.18115717e-02,  4.33759764e-03,  1.28707169e-02,
         8.08013137e-03,  7.78184608e-02,  2.68563349e-02,
         9.62326601e-02],
       [-1.24735087e-01,  2.43600681e-01, -2.23180398e-01,
        -9.44531634e-02,  7.50732422e-03,  6.11144770e-03,
         3.55046839e-02, -8.90861526e-02,  4.07291949e-02,
        -1.91089679e-02],
       [-2.22529806e-02,  9.17100236e-02,  1.61306277e-01,
         2.17439279e-01, -1.11951604e-02, -8.22189171e-03,
        -4.96156551e-02, -1.09028824e-01, -5.30052036e-02,
         2.46073574e-01],
       [ 4.31313843e-01,  1.25448331e-01, -4.69045132e-01,
         2.07018137e-01,  4.64676060e-02,  2.30031349e-02,
         5.46736596e-03,  2.83159137e-01,  4.11845818e-02,
         1.39347076e-01],
       [ 3.49311888e-01,  8.23166668e-02,  6.02166057e-02,
         2.78722852e-01,  2.83410288e-02, -9.60232969e-03,
        -5.52443676e-02,  2.20104605e-01,  3.43436301e-02,
         1.86969936e-01],
       [ 4.15264547e-01,  7.61569291e-02,  2.19253406e-01,
         8.71777907e-02,  3.73273529e-02,  2.14844551e-02,
        -6.40087994e-03, -1.92828983e-01, -1.40323499e-02,
         1.52706891e-01],
       [ 1.96894765e-01, -3.08825765e-02,  6.01928890e-01,
         8.42619836e-02, -3.58724222e-02,  1.33659551e-02,
         2.34065149e-02, -2.04184100e-01, -1.97791904e-02,
         2.44667634e-01],
       [ 1.81795120e-01,  2.87990481e-01,  5.25848985e-01,
         1.12858981e-01, -4.27214615e-02, -2.79398654e-02,
        -1.48832204e-03,  1.15802614e-02,  3.36444676e-02,
         1.57621965e-01],
       [ 2.13376001e-01,  1.49692707e-02,  4.49224830e-01,
        -2.94772349e-02, -8.77183676e-03,  3.69900353e-02,
         3.16867940e-02, -4.79608811e-02,  4.11745831e-02,
         1.80256069e-01],
       [ 3.53656232e-01,  1.38858333e-01,  3.05243909e-01,
        -3.26562636e-02, -8.42485577e-03, -5.74872643e-02,
         1.25152525e-02, -9.49073508e-02, -1.05946856e-02,
         1.49998039e-01],
       [ 4.33402121e-01,  5.15794568e-02,  3.87800783e-02,
         1.63541436e-01, -2.98599005e-02, -1.16095319e-02,
         2.20991746e-02,  6.41259179e-02,  3.14695686e-02,
         4.64909635e-02]], dtype=float32), array([ 0.21649362,  0.26106808,  0.53786737,  0.28942767,  0.        ,
       -0.01206387, -0.00944362,  0.2827286 , -0.01080063,  0.27250788],
      dtype=float32), array([[-7.9478145e-02, -3.4149040e-02, -7.0018649e-02, -1.0418926e-01,
        -1.7463481e-01, -5.2254163e-02, -9.0103328e-02, -2.6024216e-01,
        -1.2915692e-01, -3.9667752e-02, -1.6887532e-01, -2.5343397e-01,
        -2.0913209e-01,  5.0213020e-02, -2.8803626e-01, -2.3228677e-01],
       [-4.0823217e-02, -2.1829152e-01, -1.7642300e-01, -2.8014138e-01,
        -2.2462498e-01, -1.1409009e-01, -1.5379749e-01, -2.7857667e-01,
        -1.8487777e-01, -4.4704448e-02,  5.0366007e-02, -1.1246539e-01,
        -1.7747599e-01, -2.7293679e-01, -7.9041928e-02, -2.0229021e-01],
       [-7.9733646e-01, -8.6691868e-01, -8.8955116e-01, -2.0407361e-01,
        -8.7716615e-01, -8.1210065e-01, -8.3364254e-01,  5.9236776e-02,
         1.7061074e-01, -7.8041720e-01, -3.7528241e-01,  1.2334004e-01,
         9.9935882e-02,  1.7807648e-02, -1.6493455e-01,  2.1885023e-01],
       [-1.0085970e-01, -6.8514854e-02, -9.8135471e-02, -9.2383981e-02,
        -6.6655792e-02, -1.1949236e-01, -2.0221127e-02, -2.2879091e-01,
        -2.9701376e-01, -8.4016144e-02, -1.8941079e-01, -2.4048498e-01,
        -2.4942695e-01, -2.2274990e-01, -9.9237539e-02, -3.9405686e-01],
       [ 4.7118213e-02, -1.8654883e-02, -4.0936075e-02,  1.5778963e-02,
        -2.2864556e-02, -3.8481675e-02, -7.9584010e-03, -3.9431654e-02,
         4.1116167e-02, -4.6621636e-04, -3.0772269e-02,  3.3322047e-02,
         1.8018808e-02, -7.3593371e-03,  6.5530427e-03, -1.3790440e-02],
       [-4.1137289e-02,  2.1029536e-02, -5.3522945e-03,  3.4848392e-02,
         2.4287853e-02,  1.5088642e-02, -3.0742615e-02, -2.9896837e-02,
         1.3073623e-02, -2.9876303e-02, -2.4833463e-02, -2.9635277e-02,
        -2.0278787e-02, -8.4095856e-04,  3.3912703e-02, -3.6619749e-02],
       [-1.8233806e-02,  1.3341381e-02,  8.1665237e-03, -2.9967345e-02,
         1.9300422e-02,  7.8711193e-03, -2.0816928e-02,  1.4587037e-02,
        -5.1668800e-02, -1.1438348e-03, -1.8232197e-02,  3.2549435e-03,
         2.2848222e-02,  2.8074879e-02, -4.0993996e-02,  2.7212396e-02],
       [-2.0329547e-01, -2.2727910e-02, -4.9264538e-03, -2.1555926e-01,
        -3.4279842e-02, -4.8304278e-02, -1.3256320e-01, -2.5008047e-01,
        -1.3564737e-01, -1.8998910e-01, -1.5144718e-01, -2.0514086e-01,
        -2.0484842e-01, -2.3171827e-01, -2.8560174e-01, -3.3406702e-01],
       [-5.6391726e-03, -3.3212755e-02, -3.7783731e-02,  3.6152299e-02,
         2.7867833e-02,  3.0706637e-02,  6.6907089e-03, -4.8010729e-02,
         3.1695616e-02, -4.2411767e-02, -2.6053714e-02, -5.1273480e-02,
        -4.9578771e-04,  3.7534110e-02, -4.5565185e-03,  7.4910494e-03],
       [-8.6896509e-02, -1.6599447e-01, -1.4443961e-01, -9.7289324e-02,
        -7.4836031e-02, -1.1241635e-01, -7.8417100e-02, -1.0033023e-01,
        -2.8601870e-01, -5.6513526e-02, -1.6208869e-01, -3.7911317e-01,
        -2.8690127e-01, -2.0341954e-01, -2.2620231e-02, -2.8142795e-01]],
      dtype=float32), array([-0.10158918, -0.06917164, -0.06603843, -0.07179366, -0.06070583,
       -0.12974003, -0.14312653, -0.08738264, -0.27115184, -0.1928056 ,
       -0.06740282, -0.07975633, -0.09886976, -0.18538693, -0.18376896,
       -0.11660172], dtype=float32)]

Model[1]
[array([[ 8.39243531e-02,  5.62754273e-01, -3.23438644e-01,
         2.86887676e-01,  4.67756003e-01, -5.35639040e-02,
         5.27424574e-01,  1.15296924e+00, -3.51103283e-02,
        -6.38437212e-01],
       [ 2.26169735e-01, -3.37347418e-01, -8.77757549e-01,
        -1.24349201e+00,  1.01700079e+00, -5.21062389e-02,
         3.80654424e-01,  4.74281788e-01, -5.45231812e-02,
         1.12513995e+00],
       [-6.57518446e-01, -1.09985089e+00,  4.11738962e-01,
         3.40034664e-01,  1.41020283e-01, -4.53103520e-02,
         1.76131707e-02,  9.71489847e-01, -1.49314515e-02,
         1.77017498e+00],
       [-3.55666250e-01, -8.73937130e-01,  8.13272178e-01,
        -6.20669499e-02, -1.71166047e-01, -1.60670020e-02,
         8.70649423e-03,  6.33209765e-01, -1.21391192e-02,
         1.83088589e+00],
       [-6.13888621e-01, -1.03558636e+00,  5.19147933e-01,
         1.18668027e-01, -3.13567460e-01, -2.42722500e-02,
         2.32529879e-01,  6.49279594e-01, -4.09283526e-02,
         1.84295380e+00],
       [-3.33263308e-01, -2.40065932e-01, -2.67141253e-01,
        -9.78691399e-01,  2.06298418e-02,  3.79450023e-02,
        -3.04434985e-01,  9.64461267e-01, -2.08819043e-02,
         1.55919766e+00],
       [ 9.56891570e-03,  5.19699872e-01, -5.13886809e-02,
         5.27574658e-01, -2.23141447e-01, -9.49216919e-05,
        -6.82399690e-01,  1.45292056e+00, -1.91991273e-02,
        -5.12450278e-01],
       [ 1.40914068e-01,  6.46007061e-01, -9.57652032e-01,
        -7.24628627e-01,  6.63915038e-01,  2.79252417e-03,
         2.81947643e-01,  1.54201269e+00, -1.47430729e-02,
        -4.75243069e-02],
       [-1.37195528e+00,  9.56993759e-01,  7.72734404e-01,
         1.00805283e+00,  3.18122685e-01,  9.75425169e-03,
        -3.37038077e-02,  3.48786473e-01,  9.55524761e-03,
        -3.17382872e-01],
       [-2.42831409e-01,  4.45885569e-01,  1.07660258e+00,
        -6.10457599e-01,  2.79723585e-01,  1.30884601e-02,
        -6.44882977e-01, -4.54863787e-01, -6.27093688e-02,
         4.54305530e-01],
       [-3.74451071e-01,  6.43750012e-01,  1.19667685e+00,
        -4.20116305e-01,  2.50231653e-01,  2.18301751e-02,
        -2.53329396e-01, -4.79356587e-01, -2.91396268e-02,
         4.76670384e-01],
       [-1.11362350e+00,  8.23991954e-01,  7.32588053e-01,
        -2.40266636e-01,  5.21206617e-01,  2.79541519e-02,
        -1.39057547e-01,  8.99728090e-02, -3.70746255e-02,
        -3.01332325e-01],
       [ 2.98976809e-01,  1.46401152e-01,  8.16939294e-01,
         7.57491767e-01, -8.75243962e-01, -1.56028066e-02,
        -1.57087517e+00,  8.53604004e-02,  3.48435994e-03,
         3.40825915e-01],
       [ 4.33607757e-01,  2.87203103e-01, -4.13138509e-01,
        -6.58943892e-01,  9.78003070e-02, -5.83334900e-02,
         4.30795163e-01,  1.39445984e+00, -4.99003306e-02,
         4.76886243e-01],
       [ 3.28455299e-01,  3.14622313e-01, -4.19864416e-01,
         9.10612941e-01, -8.31795391e-03, -1.10869538e-02,
         1.77641153e-01,  6.51153386e-01,  4.55406448e-03,
         5.13271928e-01],
       [ 4.55191553e-01,  1.27518284e+00,  4.65541512e-01,
         6.35332525e-01,  5.24638116e-01, -2.30479855e-02,
         8.57605696e-01, -1.70165145e+00, -3.55217271e-02,
         6.48692548e-02],
       [-8.35655451e-01,  1.14791322e+00,  9.21482623e-01,
         9.21617270e-01,  4.40045893e-01, -1.95364933e-02,
        -6.22968853e-01,  1.46488202e+00, -6.51630461e-02,
        -1.62629807e+00],
       [ 1.02187192e+00,  7.70820320e-01,  9.72048521e-01,
        -1.02463186e+00,  7.09400177e-01,  3.25680971e-02,
        -3.52662414e-01, -1.61807612e-01, -1.73500068e-02,
        -8.35964158e-02],
       [-5.61687052e-01,  2.31820643e-01,  8.35110009e-01,
         8.40918660e-01, -1.10900953e-01, -2.70753652e-02,
        -5.21305382e-01,  8.78483117e-01, -5.24052866e-02,
        -7.41916478e-01],
       [ 1.53354681e+00,  2.99950004e-01,  3.26610833e-01,
         4.75976706e-01, -8.04500341e-01,  2.47290041e-02,
         3.52770209e-01, -1.08808410e+00,  2.45848745e-02,
         6.20425761e-01],
       [ 7.54884541e-01, -1.07857607e-01, -4.85300213e-01,
         9.34631050e-01, -1.48889631e-01, -4.15706076e-03,
        -5.28251529e-01,  5.65802574e-01, -4.79849242e-02,
         6.59021199e-01],
       [ 3.48485768e-01,  2.97318488e-01, -4.41970885e-01,
         9.05006945e-01,  3.11255693e-01,  7.38997338e-03,
        -1.88969858e-02,  4.97739166e-01, -4.42286730e-02,
         6.18772507e-01],
       [-5.73525608e-01,  1.56564879e+00, -1.76755320e-02,
         5.23748219e-01,  1.16161954e+00, -5.38102500e-02,
        -1.00023393e-02, -1.32243204e+00, -5.18069118e-02,
         2.08701476e-01],
       [ 2.93109983e-01, -2.85125256e-01,  1.23492479e+00,
        -3.44178706e-01, -2.29208663e-01, -9.47433803e-03,
         2.23463893e+00,  1.18086898e+00, -7.80334463e-03,
         4.68195647e-01],
       [-1.80333138e-01,  1.19556153e+00,  1.50433159e+00,
         6.95463300e-01,  3.89425725e-01, -2.99540497e-02,
        -1.49848628e+00,  1.41199720e+00, -5.52988332e-03,
        -1.23266435e+00],
       [ 1.44187546e+00, -1.05405617e+00,  4.22068775e-01,
        -8.69166255e-02,  1.10023364e-01, -3.06309946e-03,
         1.60554731e+00,  4.93431747e-01, -1.61522627e-02,
        -1.23924196e-01],
       [ 9.26696956e-01,  7.39517510e-01,  3.79908681e-01,
        -1.83916148e-02, -1.76186711e-01, -4.68455330e-02,
        -1.80973613e+00, -1.06680524e+00, -4.98825908e-02,
         8.59564424e-01],
       [ 2.08919823e-01,  3.73562157e-01, -5.12733400e-01,
         9.78654981e-01, -3.74879390e-01,  5.32749901e-03,
        -6.44858360e-01,  9.33496118e-01, -2.49884054e-02,
         8.82678390e-01],
       [ 3.55716676e-01, -2.27037027e-01, -5.87705910e-01,
         1.26750493e+00,  7.82829076e-02,  3.40857022e-02,
         2.51035422e-01,  4.47757870e-01, -3.48797143e-02,
         8.34481180e-01],
       [-5.38081765e-01,  4.97088909e-01, -1.74767807e-01,
         2.65919060e-01,  1.13510871e+00,  1.67930759e-02,
        -7.77525380e-02, -1.99758857e-01,  1.31006921e-02,
         7.34411895e-01],
       [-9.37373996e-01, -9.46760058e-01, -9.44104716e-02,
         4.83935922e-01,  1.27614236e+00, -2.84071658e-02,
        -7.55260289e-01,  8.13246727e-01,  2.57228129e-02,
         5.37425756e-01],
       [-1.42786680e-02, -4.38051134e-01,  1.34824216e+00,
         9.07525599e-01,  8.16452354e-02, -5.61753176e-02,
         1.47493589e+00,  7.01525867e-01, -3.16473879e-02,
         2.36654669e-01],
       [ 2.43891537e-01, -4.67791885e-01, -2.34415501e-01,
         6.17206693e-01,  1.66950226e+00,  2.27906462e-02,
        -6.02341533e-01,  1.02776444e+00,  1.64670870e-03,
        -5.59224606e-01],
       [-9.33790565e-01,  5.92283010e-01, -2.81881362e-01,
         8.41771364e-01,  6.61464930e-02,  2.08683335e-03,
        -1.85421371e+00,  8.24319050e-02, -5.26348501e-03,
         1.22900927e+00],
       [ 3.77153903e-01, -2.90109754e-01, -7.14569032e-01,
         1.46289599e+00, -1.01319599e+00, -5.33408411e-02,
        -6.92856789e-01,  3.96116734e-01,  3.59505489e-02,
         1.10519910e+00],
       [-6.14988431e-02, -1.98212907e-01, -1.85308680e-01,
         8.42186213e-01,  1.20537011e-02, -4.22210656e-02,
         4.93284225e-01,  6.54156506e-01, -1.98584907e-02,
         1.06784666e+00],
       [-1.03084207e+00,  1.44094384e+00, -2.05519408e-01,
         7.35866010e-01,  1.30420244e+00, -2.67254412e-02,
         2.07587764e-01, -1.59504712e+00, -3.82835604e-02,
        -1.18906468e-01],
       [ 1.05691111e+00, -3.32267374e-01,  9.64348078e-01,
        -1.11434126e+00,  1.68164110e+00, -3.38509865e-02,
         1.17183015e-01,  6.43715441e-01, -1.64901093e-03,
        -3.19386899e-01],
       [-4.45853956e-02,  2.95619577e-01,  9.46449518e-01,
         1.14275181e+00,  6.91248298e-01, -3.84150669e-02,
        -1.34971693e-01, -4.24579293e-01, -7.44126141e-02,
        -3.03921610e-01],
       [-9.68123615e-01,  4.50157076e-01,  1.36528993e+00,
        -9.46039081e-01,  9.20799553e-01, -2.08665561e-02,
         5.44748843e-01,  1.54550624e+00, -4.13452461e-03,
         3.43541622e-01],
       [-2.88185269e-01,  1.61203194e+00,  2.61952937e-01,
         4.37039763e-01,  2.62406379e-01, -4.79825847e-02,
        -1.23171473e+00,  2.20341757e-01,  1.51730664e-02,
        -5.92343211e-01],
       [ 7.34028280e-01,  4.73809838e-01, -2.96387196e-01,
         9.41582680e-01, -1.54183972e+00, -4.48028604e-03,
        -4.88849401e-01, -9.45242196e-02, -3.11143436e-02,
         6.68235064e-01],
       [ 6.11577809e-01, -4.51979518e-01, -1.29608527e-01,
         6.01486742e-01, -8.53620321e-02,  2.55512111e-02,
         8.28204215e-01,  4.56626743e-01, -5.65033359e-03,
         9.03523445e-01],
       [-4.79972810e-01,  8.81317914e-01, -8.43389153e-01,
        -6.52806997e-01,  5.68709791e-01,  1.38960844e-02,
         2.90573001e-01, -9.89585876e-01,  1.68984458e-02,
         1.17225552e+00],
       [ 6.05357945e-01, -9.82469797e-01,  9.90364254e-01,
         4.59030688e-01,  1.55078030e+00,  1.89709943e-02,
        -1.92176178e-01, -2.53368258e-01,  3.74345295e-02,
        -7.44686782e-01],
       [ 1.93697944e-01,  1.64341450e+00,  1.69140327e+00,
        -5.70361316e-01, -3.74258965e-01,  1.86062530e-02,
        -6.89941406e-01,  1.23053479e+00, -6.05170354e-02,
        -5.84531426e-01],
       [-1.66610229e+00, -3.14745679e-02,  4.80654359e-01,
         1.25951350e+00,  1.52884674e+00, -1.81591716e-02,
        -5.23775935e-01, -4.28584546e-01, -2.33127251e-02,
        -7.86925912e-01],
       [-1.21803832e+00,  1.25552845e+00,  4.92062457e-02,
        -1.24833858e+00, -9.33232069e-01, -5.92369772e-03,
        -9.12912339e-02,  5.86368561e-01, -3.28867659e-02,
         1.54338169e+00],
       [ 1.18327105e+00,  6.83975816e-01, -9.82320532e-02,
         1.25975156e+00, -1.38062418e+00, -3.77092920e-02,
        -4.77326393e-01, -1.58083722e-01,  2.73370761e-02,
         4.04722422e-01],
       [ 1.08465290e+00, -1.61464810e-02, -1.23764944e+00,
        -2.80354887e-01,  4.39037204e-01,  2.73210648e-02,
         6.33444905e-01,  6.10660136e-01, -1.07000191e-02,
         3.27125996e-01],
       [-1.92190990e-01, -4.79426771e-01,  3.18360984e-01,
         8.57818067e-01,  3.93541455e-01, -1.11644184e-02,
         6.89448118e-01, -1.24902606e+00,  3.29434569e-03,
         1.30558181e+00],
       [-4.85024244e-01,  1.44304025e+00, -3.16870540e-01,
        -1.59051478e+00,  3.25313181e-01,  3.30659486e-02,
         3.81506860e-01,  2.10417897e-01, -1.87202170e-02,
         6.21293664e-01],
       [-2.39786625e-01,  2.33055091e+00,  5.41978002e-01,
        -1.40225184e+00, -7.91994214e-01,  1.28707169e-02,
         2.43606612e-01,  3.13330889e-01,  1.74009905e-03,
         6.81967497e-01],
       [-5.00598490e-01,  1.23084104e+00, -3.02873760e-01,
        -1.09506714e+00,  3.55967581e-01,  6.11144770e-03,
         2.51339018e-01,  9.85965580e-02,  4.07291949e-02,
         9.34162199e-01],
       [-8.56120169e-01, -2.10497260e-01,  1.52553245e-01,
         1.38750374e+00,  2.15714484e-01, -8.22189171e-03,
         4.40716922e-01, -1.23365176e+00, -5.30052036e-02,
         1.37429166e+00],
       [ 1.56745851e+00,  1.47597861e+00, -1.21181738e+00,
        -5.15389800e-01, -5.70291162e-01,  2.30031349e-02,
         8.55607212e-01,  6.20497286e-01,  1.60683431e-02,
        -3.46288413e-01],
       [ 1.31793690e+00, -1.60827875e-01, -4.35436487e-01,
         1.58555365e+00,  1.32026100e+00, -9.60232969e-03,
         4.45234507e-01,  3.02936863e-02,  3.43436301e-02,
        -6.23501718e-01],
       [ 1.55712020e+00,  5.51999807e-01, -6.63084686e-02,
         3.13971162e-01,  9.57941055e-01,  2.14844551e-02,
        -9.78408568e-03, -2.32546592e+00, -3.91485393e-02,
         2.55046040e-01],
       [ 1.50075114e+00, -2.60550767e-01,  1.36132240e+00,
         3.74606252e-01,  2.76901782e-01,  1.33659551e-02,
         8.87797922e-02, -1.02278733e+00, -1.97791904e-02,
         8.46505582e-01],
       [ 5.96035898e-01,  8.33208323e-01,  1.14876866e+00,
        -2.34369546e-01, -6.35609090e-01, -4.49201167e-02,
         3.69501680e-01,  1.78983390e-01,  8.52823351e-03,
         9.39497471e-01],
       [ 9.45615113e-01,  1.83962852e-01,  9.54207599e-01,
        -6.49328649e-01, -5.60011566e-01,  2.00097673e-02,
         3.32787752e-01, -6.20937765e-01,  1.60583444e-02,
         1.57220328e+00],
       [ 2.14818573e+00,  5.51942468e-01,  4.21303302e-01,
        -6.20348036e-01,  3.39719862e-01, -5.74872643e-02,
         2.77779371e-01, -1.26176560e+00, -1.05946856e-02,
         5.61087012e-01],
       [ 1.03302491e+00,  6.60874426e-01, -4.36897933e-01,
         1.86747921e+00,  1.17416441e+00, -1.16095319e-02,
         4.89613593e-01, -1.11088693e+00,  3.14695686e-02,
        -1.22172296e+00]], dtype=float32), array([ 0.5223187 ,  0.44646955,  1.098487  ,  0.81018394,  0.41449955,
       -0.02904414,  0.7016003 ,  1.0629227 , -0.03591683,  0.31324953],
      dtype=float32), array([[-1.7794235e-01,  6.2804210e-01,  7.6535870e-03,  2.4521616e-01,
        -5.8835793e-02, -5.9372503e-01, -1.5212463e+00, -1.7743003e+00,
        -1.0579202e+00,  5.6840998e-01, -1.4641713e+00, -1.6264856e+00,
        -6.9119090e-01,  1.2354548e+00, -2.2024550e+00,  3.8702902e-01],
       [ 1.2179718e-01, -7.6752788e-01,  5.4833943e-01, -1.6194313e+00,
        -2.1741996e+00, -2.2501897e-02, -5.0717527e-01, -1.6392505e+00,
        -7.4176013e-01,  4.1496301e-01,  8.3215135e-01,  4.8378173e-01,
        -9.9105096e-01, -2.1001773e+00,  2.4859655e-01,  2.3802346e-01],
       [-1.2346616e+00, -2.9822683e+00, -3.1716971e+00, -2.8417030e-01,
        -3.2795663e+00, -2.4786718e+00, -2.5965712e+00,  5.0131023e-01,
         2.4498846e-01, -2.9509971e+00, -1.0070214e+00,  5.0805986e-01,
         9.8699927e-02, -1.7760542e-01, -1.7377417e-01,  1.2311378e+00],
       [-6.4165694e-01,  2.3145091e-02,  2.8166971e-01,  8.6371863e-01,
        -1.8900135e-01, -8.0736065e-01,  4.3615472e-01, -8.8337445e-01,
        -2.7284184e+00,  1.6112646e-01, -1.9708922e+00, -2.9936102e-01,
         6.8618935e-01, -6.9982576e-01,  2.7189934e-01, -1.7803166e+00],
       [ 8.3302838e-01, -1.4442337e+00, -1.5374941e-01, -3.5715208e+00,
         4.5423629e-03, -2.2203631e+00,  7.8980178e-01, -8.3608717e-01,
         9.9811375e-01, -8.5661846e-01,  4.5744655e-01, -1.8395975e+00,
         1.0537822e+00,  9.9000049e-01, -1.6141407e+00, -7.2990197e-01],
       [-5.1577054e-02,  1.3774663e-02, -1.2178870e-02,  1.8763641e-02,
         1.8543240e-02,  2.5328756e-03, -4.0162534e-02, -4.6637073e-02,
        -3.8036448e-03, -3.9187815e-02, -4.1403983e-02, -1.2637986e-02,
        -3.7125695e-02, -1.7272951e-02,  1.7577676e-02, -5.3424280e-02],
       [ 1.5210108e+00,  1.7283605e+00, -1.9990810e+00, -1.7386228e+00,
        -1.3173213e+00,  2.2283730e-01, -3.4847602e-01,  1.4802893e+00,
        -1.2877712e+00, -1.3874723e+00, -1.4025736e+00, -1.9490501e+00,
        -3.7750331e-01, -6.1866116e-02, -6.6760081e-01, -6.2966114e-01],
       [-2.7435751e+00, -1.5586750e-01,  4.2871177e-01, -4.5313877e-01,
         8.0342764e-01,  3.4694937e-01, -1.0343614e+00, -1.3597684e-01,
         5.4098517e-01, -1.4938231e+00, -1.3635205e-01,  5.7719684e-01,
        -6.9246525e-01, -9.8190469e-01, -2.6157310e+00, -2.2936335e+00],
       [-6.1668395e-03, -3.4543116e-02, -3.8030196e-02,  2.1037824e-02,
         2.7823763e-02,  2.6620265e-02,  6.3283052e-03, -7.0379265e-02,
         7.0863687e-03, -4.3224767e-02, -4.8316572e-02, -2.6281158e-02,
        -2.4993023e-02,  1.6650369e-02, -1.9527422e-02, -1.6934223e-02],
       [-4.3399915e-01, -4.9437520e-01, -1.3448039e+00,  2.9348189e-01,
         3.9031532e-02,  4.9783388e-01,  1.3464183e-01,  3.2402837e-01,
        -5.9725940e-01,  1.4732438e-01, -1.1727038e-01, -1.9792876e+00,
        -1.8603828e+00, -1.7545883e-01,  4.7648308e-01, -5.2446777e-01]],
      dtype=float32), array([-0.12232688, -0.0986751 , -0.06087469,  0.1861428 ,  0.05599049,
       -0.1749306 , -0.59042877,  0.15418895, -1.0165551 , -0.51856756,
       -0.05556965,  0.15592015,  0.04539741, -0.34320912, -0.36574215,
        0.18455498], dtype=float32)]

Model[2]
[array([[-2.70639300e-01,  5.07956922e-01, -4.05654728e-01,
        -1.86460540e-02,  5.69528043e-01, -8.41747001e-02,
         5.94901443e-01,  1.15006399e+00, -3.51103283e-02,
        -8.12961221e-01],
       [ 3.59184146e-01, -1.97396457e-01, -9.60800648e-01,
        -1.50907063e+00,  1.20936131e+00, -8.27170387e-02,
         6.75598979e-02,  9.25479650e-01, -5.45231812e-02,
         1.23329473e+00],
       [-9.67045248e-01, -1.79154611e+00,  5.02024710e-01,
         1.18310176e-01,  5.42769842e-02, -4.53103520e-02,
        -8.87141302e-02,  1.27409542e+00, -1.49314515e-02,
         1.85664189e+00],
       [-6.62979245e-01, -1.40258217e+00,  9.27087843e-01,
        -1.83732472e-02, -1.70906737e-01, -1.60670020e-02,
        -9.07416567e-02,  6.14619851e-01, -1.21391192e-02,
         2.02573991e+00],
       [-8.11839879e-01, -1.41695035e+00,  5.31034708e-01,
         5.53934835e-02,  3.85563932e-02, -2.42722500e-02,
        -2.62987494e-01,  1.11990023e+00, -4.09283526e-02,
         1.88506174e+00],
       [-1.64887905e-01, -2.31879503e-01, -4.13347185e-01,
        -1.25868034e+00,  7.87412673e-02,  3.79450023e-02,
        -6.86326861e-01,  1.02839661e+00, -2.08819043e-02,
         1.67150915e+00],
       [-2.18999460e-01,  3.42832595e-01, -3.64949167e-01,
         3.67711425e-01,  2.75383085e-01, -9.49216919e-05,
        -5.89586139e-01,  1.57324970e+00, -1.91991273e-02,
        -6.55011356e-01],
       [ 4.31931466e-01,  9.32402253e-01, -1.19225967e+00,
        -8.42564285e-01,  4.61891294e-01, -2.78183185e-02,
         3.33821982e-01,  1.11084795e+00, -1.47430729e-02,
        -8.71351063e-02],
       [-1.56362426e+00,  1.17225659e+00,  7.43881762e-01,
         9.61666822e-01,  3.86097282e-01, -2.08565891e-02,
        -1.63927227e-01,  1.76681235e-01,  9.55524761e-03,
        -7.09557652e-01],
       [-4.46917534e-01,  7.07877040e-01,  1.20769894e+00,
        -1.02388668e+00,  1.98689073e-01, -1.75223798e-02,
        -4.31537241e-01, -7.07077384e-01, -6.27093688e-02,
         3.84792984e-01],
       [-5.02736390e-01,  1.10239995e+00,  1.26624036e+00,
        -5.94491303e-01,  2.44752645e-01,  2.18301751e-02,
        -4.94259775e-01, -2.58529723e-01, -2.91396268e-02,
         5.80592453e-01],
       [-1.77010584e+00,  1.07455540e+00,  7.99774170e-01,
        -6.47585928e-01,  5.62860072e-01,  2.79541519e-02,
        -2.88325381e-02, -1.87451683e-03, -3.70746255e-02,
         1.10412657e-01],
       [ 1.53213039e-01,  1.08581662e-01,  8.41030359e-01,
         6.77323818e-01, -8.82647812e-01, -1.56028066e-02,
        -2.01600242e+00,  4.07539427e-01,  3.48435994e-03,
         3.22910070e-01],
       [ 6.60973370e-01, -1.32111639e-01, -3.31885725e-01,
        -9.41991448e-01,  1.30023748e-01, -5.83334900e-02,
         3.52239817e-01,  1.55368173e+00, -4.99003306e-02,
         7.13824093e-01],
       [ 1.39161974e-01,  1.62724391e-01, -5.27873158e-01,
         1.11930370e+00, -3.65121067e-02, -4.16977853e-02,
         2.49677107e-01,  4.18159872e-01,  4.55406448e-03,
         6.90339625e-01],
       [ 2.87384447e-02,  1.36067402e+00,  3.83219272e-01,
         2.87702799e-01,  2.14392424e-01, -5.36588207e-02,
         1.26710606e+00, -1.86284018e+00, -3.55217271e-02,
         7.62851983e-02],
       [-1.39261675e+00,  1.28480232e+00,  9.06162798e-01,
         1.01636505e+00,  7.53560126e-01, -1.95364933e-02,
        -1.20429969e+00,  1.78580034e+00, -6.51630461e-02,
        -1.83337796e+00],
       [ 1.20007181e+00,  8.12522948e-01,  1.22859561e+00,
        -7.80701637e-01,  2.84191668e-01,  1.95725425e-03,
        -4.21016484e-01, -9.35643241e-02, -1.73500068e-02,
         3.53177160e-01],
       [-7.45940149e-01,  5.16995311e-01,  9.99467313e-01,
         9.38943446e-01, -4.19104993e-01, -2.70753652e-02,
        -8.75528395e-01,  7.18363523e-01, -5.24052866e-02,
        -8.55057001e-01],
       [ 1.08727169e+00,  4.11604643e-01,  1.84525207e-01,
         2.66831607e-01, -6.59680068e-01,  2.47290041e-02,
         5.34271419e-01, -1.23189700e+00,  2.45848745e-02,
         8.36917102e-01],
       [ 8.78634572e-01, -2.42594913e-01, -5.60434580e-01,
         9.91060317e-01, -3.76038045e-01, -3.47678922e-02,
        -7.52827466e-01,  5.42644322e-01, -4.79849242e-02,
         7.73768425e-01],
       [ 4.16473225e-02,  5.15411422e-02, -7.32378900e-01,
         5.03183544e-01,  2.05520004e-01, -2.32208688e-02,
         5.18494211e-02,  4.81201857e-01, -4.42286730e-02,
         8.25560272e-01],
       [-5.72600186e-01,  1.33282173e+00, -1.40865132e-01,
         6.40394986e-01,  1.13148296e+00, -5.38102500e-02,
         1.11509092e-01, -1.59601629e+00, -5.18069118e-02,
         4.30383116e-01],
       [ 5.07496834e-01, -6.54117882e-01,  1.02814102e+00,
        -2.37197459e-01, -1.42641943e-02, -9.47433803e-03,
         2.53371191e+00,  9.78311181e-01, -7.80334463e-03,
         3.93948883e-01],
       [-3.78191471e-01,  1.30779672e+00,  1.22241938e+00,
         7.10349500e-01,  5.96997917e-01, -2.99540497e-02,
        -1.25948358e+00,  1.34226584e+00, -5.52988332e-03,
        -1.71845543e+00],
       [ 1.11761010e+00, -1.17159164e+00,  4.50364470e-01,
        -2.48474300e-01,  2.23266512e-01, -3.36739309e-02,
         1.68817949e+00,  3.21836293e-01, -1.61522627e-02,
        -1.87650427e-01],
       [ 8.95508945e-01,  7.02596307e-01,  2.96440780e-01,
        -3.09361428e-01,  2.36742403e-02, -4.68455330e-02,
        -1.81237781e+00, -1.10709345e+00, -4.98825908e-02,
         9.61377442e-01],
       [ 3.92585188e-01,  9.87546518e-02, -6.49960160e-01,
         1.10817707e+00, -4.09672290e-01,  5.32749901e-03,
        -7.78752267e-01,  1.00589061e+00, -2.49884054e-02,
         6.09622121e-01],
       [ 5.61689496e-01, -2.47159109e-01, -7.36332417e-01,
         1.43509686e+00, -2.33025759e-01,  3.47485975e-03,
         3.81445765e-01,  1.85908914e-01, -3.48797143e-02,
         5.06702781e-01],
       [-6.26680017e-01,  5.60179949e-01, -4.47701335e-01,
         2.60935485e-01,  1.14786148e+00, -1.38177630e-02,
        -1.00052215e-01, -3.28044087e-01,  1.31006921e-02,
         4.73647982e-01],
       [-8.45811009e-01, -1.02365112e+00, -4.03903201e-02,
         1.50692567e-01,  1.07304120e+00, -2.84071658e-02,
        -7.16764987e-01,  8.74767601e-01,  2.57228129e-02,
         7.81052351e-01],
       [-6.13442481e-01, -5.28557897e-01,  1.51003349e+00,
         1.04041958e+00, -2.77126759e-01, -5.61753176e-02,
         1.50181937e+00,  5.70774078e-01, -3.16473879e-02,
        -2.55660862e-01],
       [-1.32402867e-01, -6.17606699e-01, -1.03589803e-01,
         4.76196170e-01,  1.88927948e+00,  2.27906462e-02,
        -8.75810683e-01,  1.26122046e+00,  1.64670870e-03,
        -3.91255409e-01],
       [-1.07100904e+00,  2.01234192e-01, -4.25391257e-01,
         5.97097993e-01,  3.98295552e-01,  2.08683335e-03,
        -1.94445693e+00, -1.53821157e-02, -5.26348501e-03,
         1.03197920e+00],
       [ 3.29240531e-01,  1.62802245e-02, -7.72194862e-01,
         1.72419202e+00, -1.07281363e+00, -5.33408411e-02,
        -1.02526772e+00,  1.23183668e-01,  3.59505489e-02,
         8.83237481e-01],
       [ 1.21499024e-01, -2.28417829e-01, -5.07424474e-01,
         9.38991487e-01, -2.55181164e-01, -7.28318691e-02,
         8.66529584e-01,  5.07391572e-01, -1.98584907e-02,
         1.08701730e+00],
       [-7.84278095e-01,  1.20292234e+00, -2.26554573e-01,
         8.65625143e-01,  9.41560388e-01, -2.67254412e-02,
         3.70274633e-01, -1.80032313e+00, -3.82835604e-02,
         7.51924589e-02],
       [ 8.13839853e-01, -7.74583146e-02,  9.05952096e-01,
        -1.13316846e+00,  1.47524846e+00, -3.38509865e-02,
        -3.32568794e-01,  7.55855620e-01, -1.64901093e-03,
         2.57923633e-01],
       [-1.20308690e-01,  3.05487782e-01,  1.11846149e+00,
         1.20730436e+00,  6.44298732e-01, -3.84150669e-02,
        -6.23001337e-01, -6.70348585e-01, -7.44126141e-02,
        -6.95005357e-01],
       [-7.55745232e-01,  6.17558062e-01,  1.17249644e+00,
        -1.00794244e+00,  8.86977673e-01, -2.08665561e-02,
         6.27331197e-01,  1.03786516e+00, -4.13452461e-03,
         5.43645978e-01],
       [-2.55433738e-01,  1.86926317e+00,  1.37182280e-01,
         4.08922762e-01,  4.17773783e-01, -4.79825847e-02,
        -1.65893900e+00, -1.99641332e-01,  1.51730664e-02,
        -2.89490908e-01],
       [ 9.09689665e-01,  5.17103553e-01, -4.72230732e-01,
         1.29984868e+00, -1.51209235e+00, -4.48028604e-03,
        -3.81007224e-01, -3.50404024e-01, -3.11143436e-02,
         4.90863144e-01],
       [ 4.24041539e-01, -5.37748694e-01, -3.23715717e-01,
         5.75393975e-01, -2.61897385e-01, -5.05963294e-03,
         9.11266387e-01,  3.75157475e-01, -5.65033359e-03,
         1.06804574e+00],
       [-6.39775097e-01,  1.22665811e+00, -7.22937346e-01,
        -9.12767053e-01,  4.84989315e-01,  1.38960844e-02,
         3.30972046e-01, -1.25335801e+00,  1.68984458e-02,
         1.41190696e+00],
       [ 4.79976833e-01, -8.62631977e-01,  9.28296089e-01,
         3.33430976e-01,  1.63926339e+00,  1.89709943e-02,
        -3.97436142e-01, -3.84650558e-01,  3.74345295e-02,
        -4.95193392e-01],
       [ 5.54178692e-02,  1.75317383e+00,  1.43238330e+00,
        -1.10175967e+00, -5.26861787e-01,  1.86062530e-02,
        -4.17721868e-01,  1.52118862e+00, -6.05170354e-02,
        -9.41038609e-01],
       [-1.36011946e+00, -3.87898952e-01,  3.57012987e-01,
         1.29635906e+00,  1.42210495e+00, -1.81591716e-02,
        -4.19634908e-01, -4.99585360e-01, -2.33127251e-02,
        -1.52522489e-01],
       [-9.24696982e-01,  1.58496618e+00,  2.38907725e-01,
        -1.17645454e+00, -1.15324175e+00, -5.92369772e-03,
        -2.16856763e-01,  3.70787352e-01, -3.28867659e-02,
         1.72205961e+00],
       [ 1.23768091e+00,  6.73157454e-01, -5.47105782e-02,
         1.58428550e+00, -1.52963138e+00, -3.77092920e-02,
        -3.49441499e-01,  1.07416406e-01,  2.73370761e-02,
         2.37426057e-01],
       [ 1.14170027e+00,  6.46953005e-03, -1.18719125e+00,
        -2.16083318e-01,  2.05130205e-01, -3.28977988e-03,
         7.53660023e-01,  7.42836475e-01, -1.07000191e-02,
         3.82303953e-01],
       [-1.22858152e-01, -4.48393047e-01,  3.25796425e-01,
         1.03759861e+00,  2.40515202e-01, -4.17752489e-02,
         4.13080245e-01, -1.24826169e+00,  3.29434569e-03,
         1.13620842e+00],
       [-6.75504386e-01,  1.39957869e+00, -2.42512450e-01,
        -1.57373750e+00,  3.78960818e-01,  2.45510670e-03,
         4.56579357e-01,  2.95718431e-01, -1.87202170e-02,
         7.85419047e-01],
       [-2.45716199e-01,  2.46624684e+00,  5.60621560e-01,
        -1.77674007e+00, -1.07437718e+00, -1.77401248e-02,
        -4.70732860e-02, -1.91529654e-02,  1.74009905e-03,
         3.93501192e-01],
       [-6.95291340e-01,  1.38376379e+00, -2.15924218e-01,
        -1.59608328e+00,  2.06899926e-01, -2.44993940e-02,
         2.74360001e-01, -3.85588735e-01,  4.07291949e-02,
         1.41531217e+00],
       [-8.35382581e-01, -3.61334860e-01,  1.25093982e-01,
         1.33303261e+00, -5.33532389e-02, -3.88327241e-02,
         4.72858131e-01, -1.57477903e+00, -5.30052036e-02,
         1.28092754e+00],
       [ 1.57177019e+00,  1.46390510e+00, -1.28921878e+00,
        -5.85905969e-01, -4.95826632e-01, -7.60770962e-03,
         1.02340531e+00,  2.46270254e-01,  1.60683431e-02,
        -1.33862078e-01],
       [ 9.77753818e-01, -2.63474464e-01, -6.05705559e-01,
         1.25473845e+00,  1.41838062e+00, -4.02131602e-02,
         4.41753834e-01, -3.33073884e-02,  3.43436301e-02,
        -8.00666332e-01],
       [ 1.31980276e+00,  5.41024983e-01, -1.45901188e-01,
         6.61492407e-01,  1.14506960e+00, -9.12638288e-03,
         1.46628529e-01, -2.32574606e+00, -3.91485393e-02,
         9.66096580e-01],
       [ 1.75248742e+00, -1.62704349e-01,  1.41873372e+00,
         2.42055818e-01, -8.74292105e-03, -1.72448866e-02,
         1.51529282e-01, -1.32315993e+00, -1.97791904e-02,
         6.27346098e-01],
       [ 7.54899502e-01,  9.13855374e-01,  1.23768878e+00,
        -5.87512195e-01, -1.11784446e+00, -4.49201167e-02,
         3.14516634e-01,  1.58129722e-01,  8.52823351e-03,
         5.29741824e-01],
       [ 1.14816523e+00, -4.49430645e-02,  8.56753528e-01,
        -9.05626059e-01, -5.39455175e-01, -1.06010698e-02,
         6.10839948e-02, -8.05582702e-01,  1.60583444e-02,
         1.41922879e+00],
       [ 2.14408088e+00,  5.24070621e-01,  6.61667764e-01,
        -7.74599195e-01,  4.14664656e-01, -5.74872643e-02,
         2.18718588e-01, -1.37802899e+00, -1.05946856e-02,
         4.37128574e-01],
       [ 9.89830434e-01,  5.83863914e-01, -5.75138509e-01,
         1.98582625e+00,  1.26172888e+00, -1.16095319e-02,
         7.17745960e-01, -1.57900691e+00,  3.14695686e-02,
        -1.13195467e+00]], dtype=float32), array([ 0.5166152 ,  0.33078727,  1.2782626 ,  0.6899766 ,  0.393154  ,
       -0.05965497,  0.87350357,  1.3059572 , -0.03591683, -0.03958903],
      dtype=float32), array([[-1.41774446e-01,  7.46167421e-01,  4.66862693e-02,
         3.75142843e-01, -6.67664781e-02, -7.93407679e-01,
        -1.87617588e+00, -2.64108872e+00, -1.31964624e+00,
         7.46897638e-01, -1.62689793e+00, -1.69404137e+00,
        -1.87232566e+00,  1.51067352e+00, -2.55171227e+00,
         7.59891033e-01],
       [ 2.09639400e-01, -1.00071919e+00,  5.90746105e-01,
        -1.97725093e+00, -2.90191627e+00,  8.71634409e-02,
        -6.41054034e-01, -2.06222439e+00, -1.16198874e+00,
         3.61668438e-01,  8.97682130e-01,  5.59989333e-01,
        -1.31949043e+00, -2.52848673e+00,  4.13709849e-01,
         2.58243650e-01],
       [-1.59451675e+00, -2.67885470e+00, -4.07983160e+00,
         2.10152432e-01, -3.54390907e+00, -3.44251156e+00,
        -3.19913721e+00,  6.42529786e-01,  2.18772054e-01,
        -3.74270821e+00, -1.17600489e+00,  6.67810559e-01,
         3.04869175e-01,  1.12373069e-01,  4.94351238e-02,
         1.21413159e+00],
       [-7.84416378e-01,  1.17571756e-01,  5.23358881e-01,
         1.00095809e+00, -6.58324897e-01, -1.02804160e+00,
         5.07566452e-01, -9.66829956e-01, -3.53152442e+00,
         5.07543050e-02, -2.39213562e+00, -5.40603817e-01,
         8.58508289e-01, -9.00378764e-01,  1.87318698e-01,
        -1.92651212e+00],
       [ 6.45513713e-01, -1.68266189e+00, -3.27792466e-01,
        -4.41747379e+00,  1.79235786e-01, -2.98888278e+00,
         8.17407072e-01, -8.35772276e-01,  1.08267581e+00,
        -7.50718832e-01,  5.71409106e-01, -2.20637441e+00,
         1.08867705e+00,  1.00793350e+00, -1.69831920e+00,
        -1.13896096e+00],
       [-5.14959916e-02, -1.76656321e-02, -1.21788699e-02,
         1.87636409e-02,  1.85432397e-02,  2.53287563e-03,
        -4.01828513e-02, -4.66370732e-02, -3.80364479e-03,
        -3.92147750e-02, -4.14039828e-02, -1.26379859e-02,
        -3.71256955e-02, -2.94903573e-02,  1.75776761e-02,
        -5.34320921e-02],
       [ 1.83463919e+00,  2.15007830e+00, -2.55183530e+00,
        -1.84226298e+00, -1.36595869e+00,  1.89200878e-01,
        -1.18516691e-01,  1.83850777e+00, -1.81168437e+00,
        -1.75755668e+00, -3.24305224e+00, -1.52965808e+00,
        -6.13675416e-01, -7.20874190e-01, -9.92955446e-01,
        -6.22949541e-01],
       [-3.58998513e+00, -1.37972757e-01,  6.54514611e-01,
        -6.39581382e-01,  9.36181068e-01,  4.47436124e-01,
        -1.16995335e+00, -1.61250487e-01,  4.90303934e-01,
        -1.98755252e+00, -3.62135112e-01,  6.24817491e-01,
        -9.03177977e-01, -1.15934634e+00, -3.07785559e+00,
        -2.40236282e+00],
       [-6.16683951e-03, -3.45431156e-02, -3.80301960e-02,
         2.10378245e-02,  2.78237630e-02,  2.66202651e-02,
         6.32830523e-03, -7.03792647e-02,  7.08636874e-03,
        -4.32247669e-02, -4.83165719e-02, -2.62811575e-02,
        -2.49930229e-02,  1.66503694e-02, -1.95274223e-02,
        -1.69342235e-02],
       [-6.25490487e-01, -6.84825063e-01, -1.40275896e+00,
         2.00837165e-01, -7.48646632e-02,  5.16938090e-01,
        -8.55778754e-02,  3.53339791e-01, -5.24459183e-01,
        -2.72477306e-02, -1.70075938e-01, -2.55421114e+00,
        -2.23902655e+00, -1.29550532e-01,  3.51032853e-01,
        -6.23444557e-01]], dtype=float32), array([-0.28245863, -0.19918856, -0.08377482,  0.18422526, -0.12847835,
       -0.34580663, -0.9231758 ,  0.18314545, -1.4699602 , -0.8896937 ,
       -0.2963638 ,  0.20906122,  0.01750172, -0.41700643, -0.7780243 ,
        0.11820461], dtype=float32)]

Model[3]
[array([[-1.77886471e-01, -1.15395941e-01, -8.38601410e-01,
         4.69626524e-02,  7.49689102e-01, -8.41747001e-02,
         4.61776912e-01,  1.15398645e+00, -3.51103283e-02,
        -1.37833297e+00],
       [ 3.74635458e-01,  3.40961963e-02, -8.22294414e-01,
        -1.35751164e+00,  9.81889546e-01, -8.27170387e-02,
        -3.81729245e-01,  8.49346995e-01, -5.45231812e-02,
         1.15055752e+00],
       [-1.32210875e+00, -2.33955717e+00,  3.60515535e-01,
         2.72359625e-02,  1.35643899e-01, -4.53103520e-02,
        -5.36769331e-01,  1.30565059e+00, -1.49314515e-02,
         1.88108492e+00],
       [ 6.52651191e-02, -1.32939374e+00,  9.86400127e-01,
        -2.13971749e-01, -6.06834769e-01, -1.60670020e-02,
        -3.14938813e-01,  1.86154738e-01, -1.21391192e-02,
         1.60286534e+00],
       [-7.84352720e-01, -1.54449093e+00,  5.12800753e-01,
        -5.89311421e-01, -4.69480038e-01, -2.42722500e-02,
        -6.88854516e-01,  1.59557307e+00, -4.09283526e-02,
         1.69244611e+00],
       [-2.81649768e-01, -6.15921855e-01, -3.95283639e-01,
        -1.89133477e+00,  4.42798674e-01,  3.79450023e-02,
        -3.94225597e-01,  7.41113901e-01, -2.08819043e-02,
         1.89948106e+00],
       [-4.66181748e-02,  6.09868430e-02, -6.27823293e-01,
         3.08163404e-01,  5.93990624e-01, -9.49216919e-05,
        -7.29681313e-01,  1.43704474e+00, -1.91991273e-02,
        -1.07869315e+00],
       [ 3.20349097e-01,  5.35265625e-01, -1.26422763e+00,
        -9.23019469e-01,  7.13920832e-01, -2.78183185e-02,
         3.00322324e-01,  7.44794846e-01, -1.47430729e-02,
        -1.17073901e-01],
       [-1.98678887e+00,  1.25410950e+00,  7.53875017e-01,
         5.62555134e-01,  3.61432344e-01, -2.08565891e-02,
        -1.52783142e-02,  4.12657708e-02,  9.55524761e-03,
        -6.55041337e-01],
       [-1.46103930e-02,  7.74380445e-01,  1.39406502e+00,
        -9.64495957e-01,  5.00708938e-01, -1.75223798e-02,
        -1.71697140e-01, -9.26316261e-01, -6.27093688e-02,
         4.40824270e-01],
       [-1.46562591e-01,  1.10083103e+00,  1.12993610e+00,
        -3.05915236e-01,  2.46757090e-01,  2.18301751e-02,
        -3.81562680e-01, -9.47888847e-03, -2.91396268e-02,
         3.24716181e-01],
       [-1.36404550e+00,  9.26450551e-01,  5.29144824e-01,
        -4.14067209e-02,  1.44079447e-01,  2.79541519e-02,
        -5.75849950e-01,  1.08630888e-01, -3.70746255e-02,
         4.06526893e-01],
       [-5.07849038e-01, -1.40531480e-01,  8.14703524e-01,
         7.94356823e-01, -7.06527114e-01, -1.56028066e-02,
        -2.09094143e+00,  5.42181253e-01,  3.48435994e-03,
         3.84908497e-01],
       [ 3.83480459e-01, -2.76149392e-01, -6.25797987e-01,
        -1.08928227e+00,  3.00397217e-01, -5.83334900e-02,
        -4.33188602e-02,  1.25559235e+00, -4.99003306e-02,
         1.26248586e+00],
       [-5.07946883e-04,  1.69996858e-01, -7.08357573e-01,
         9.15234685e-01, -4.97085094e-01, -4.16977853e-02,
         1.02945216e-01,  5.40011406e-01,  4.55406448e-03,
         3.65956575e-01],
       [ 7.45875180e-01,  1.16716135e+00,  2.16779113e-01,
         1.04557365e-01, -6.00978844e-02, -5.36588207e-02,
         1.28700495e+00, -2.06433940e+00, -3.55217271e-02,
        -2.98200101e-02],
       [-9.03077662e-01,  7.45931029e-01,  6.44250870e-01,
         1.21753275e+00,  8.09649110e-01, -1.95364933e-02,
        -1.23851418e+00,  1.24807250e+00, -6.51630461e-02,
        -2.03419662e+00],
       [ 9.33741987e-01,  1.77698866e-01,  1.11532712e+00,
        -1.07759142e+00,  3.67159843e-01,  1.95725425e-03,
        -1.69730678e-01, -7.86657408e-02, -1.73500068e-02,
         1.03860652e+00],
       [-1.21313500e+00,  2.89542943e-01,  9.46607232e-01,
         7.73656726e-01,  3.26818109e-01, -2.70753652e-02,
        -4.07147020e-01,  1.26709259e+00, -5.24052866e-02,
        -1.15431845e+00],
       [ 1.21362853e+00,  3.74021113e-01,  9.44850519e-02,
        -3.46233070e-01, -4.85476106e-01,  2.47290041e-02,
         4.79430586e-01, -1.51887059e+00,  2.45848745e-02,
         8.03029478e-01],
       [ 8.81305575e-01, -7.10861206e-01, -6.89574599e-01,
         7.56860316e-01, -3.13489556e-01, -3.47678922e-02,
        -1.32655036e+00,  5.91470063e-01, -4.79849242e-02,
         9.27120686e-01],
       [ 4.34805244e-01, -2.03785703e-01, -9.75011230e-01,
         7.18112111e-01, -7.01692924e-02, -2.32208688e-02,
        -1.15977809e-01,  4.42767292e-01, -4.42286730e-02,
         6.87416732e-01],
       [-5.67107439e-01,  1.35067785e+00, -2.77103692e-01,
         7.70894706e-01,  5.52293658e-01, -5.38102500e-02,
         1.75835520e-01, -1.61352170e+00, -5.18069118e-02,
         3.76035541e-01],
       [ 2.00621173e-01, -1.06650996e+00,  8.96716535e-01,
        -3.73814963e-02,  7.35244229e-02, -9.47433803e-03,
         2.16484880e+00,  9.77204382e-01, -7.80334463e-03,
         2.39880398e-01],
       [-3.14218551e-02,  1.28500068e+00,  9.84566569e-01,
         1.20652211e+00,  6.68004930e-01, -2.99540497e-02,
        -1.24765086e+00,  1.15957534e+00, -5.52988332e-03,
        -2.45265269e+00],
       [ 1.43351841e+00, -1.16351581e+00,  3.23907465e-01,
        -2.09765717e-01,  2.02758759e-01, -3.36739309e-02,
         1.13610983e+00,  5.03015101e-01, -1.61522627e-02,
         2.53199905e-01],
       [ 1.02044487e+00,  5.72622240e-01,  5.16302526e-01,
         2.83143610e-01,  5.39221525e-01, -4.68455330e-02,
        -1.85582829e+00, -8.12735200e-01, -4.98825908e-02,
         8.09983730e-01],
       [ 3.81476790e-01, -1.46908209e-01, -3.37374210e-01,
         1.37716246e+00, -5.20440996e-01,  5.32749901e-03,
        -1.00332260e+00,  9.58389997e-01, -2.49884054e-02,
         7.09944129e-01],
       [ 4.99686122e-01,  8.89763013e-02, -9.40563083e-01,
         1.49673164e+00, -5.15273333e-01,  3.47485975e-03,
         3.25219423e-01, -1.01882601e-02, -3.48797143e-02,
         3.76811773e-01],
       [-8.04772317e-01,  9.09179151e-01, -5.81473820e-02,
         8.86078328e-02,  1.64274251e+00, -1.38177630e-02,
        -5.83615899e-01, -3.02080601e-01,  1.31006921e-02,
         6.52355015e-01],
       [-8.11405301e-01, -1.40574205e+00, -1.09143779e-01,
        -3.30100387e-01,  1.35231626e+00, -2.84071658e-02,
        -3.87316734e-01,  9.93005157e-01,  2.57228129e-02,
         4.65588868e-01],
       [-9.77240443e-01, -8.69113803e-01,  1.25001228e+00,
         3.45877767e-01, -2.05498382e-01, -5.61753176e-02,
         1.77751434e+00,  8.02038372e-01, -3.16473879e-02,
        -1.86598092e-01],
       [ 1.29643008e-01, -8.20266604e-01, -3.49468946e-01,
         1.51352599e-01,  1.04908788e+00,  2.27906462e-02,
        -8.76236379e-01,  9.77161169e-01,  1.64670870e-03,
        -2.58157164e-01],
       [ 1.14825815e-01, -2.72142380e-01, -1.86906174e-01,
         1.59835115e-01,  4.36796278e-01,  2.08683335e-03,
        -1.67514443e+00, -3.79732370e-01, -5.26348501e-03,
         1.29166245e+00],
       [ 1.68808714e-01, -2.78353989e-01, -7.90219605e-01,
         1.56489182e+00, -8.76824856e-01, -5.33408411e-02,
        -1.26119566e+00,  1.30984679e-01,  3.59505489e-02,
         6.98545456e-01],
       [-1.91759355e-02, -5.91846168e-01, -5.02005756e-01,
         1.08558667e+00, -4.39371467e-01, -7.28318691e-02,
         1.25834000e+00,  3.39357764e-01, -1.98584907e-02,
         6.83403790e-01],
       [-7.77918756e-01,  1.30900168e+00, -2.87835687e-01,
         1.10467529e+00,  1.37308955e+00, -2.67254412e-02,
        -2.24744961e-01, -1.92054057e+00, -3.82835604e-02,
         5.14391139e-02],
       [ 2.55964845e-01, -2.72452563e-01,  1.42410553e+00,
        -9.70709383e-01,  1.96100140e+00, -3.38509865e-02,
        -7.05311775e-01,  9.88950074e-01, -1.64901093e-03,
         2.96137720e-01],
       [-4.66029376e-01,  2.12012053e-01,  1.06807077e+00,
         5.30319035e-01,  3.65733445e-01, -3.84150669e-02,
        -9.77690995e-01, -6.99673951e-01, -7.44126141e-02,
        -5.79559803e-01],
       [-4.46168154e-01,  1.71914533e-01,  8.22800040e-01,
        -8.54616821e-01,  8.38562131e-01, -2.08665561e-02,
         4.32214081e-01,  7.64646590e-01, -4.13452461e-03,
         2.69520462e-01],
       [-2.05480810e-02,  1.80468619e+00,  3.21448267e-01,
         7.95537233e-01,  6.52532279e-01, -4.79825847e-02,
        -2.05672169e+00, -1.62897542e-01,  1.51730664e-02,
        -4.97517139e-01],
       [ 7.98464715e-01,  9.98348355e-01, -6.55279756e-01,
         1.88821304e+00, -1.45567679e+00, -4.48028604e-03,
        -5.72125256e-01, -4.51757573e-02, -3.11143436e-02,
         1.07841879e-01],
       [ 5.23635387e-01, -2.76544839e-01, -3.58597606e-01,
         5.07714152e-01, -2.39960626e-01, -5.05963294e-03,
         1.10757983e+00,  2.38862619e-01, -5.65033359e-03,
         1.17903113e+00],
       [-6.52521074e-01,  1.09890878e+00, -8.46813738e-01,
        -4.93704379e-01, -1.15260230e-02,  1.38960844e-02,
        -4.11833644e-01, -1.42315733e+00,  1.68984458e-02,
         1.91430068e+00],
       [-1.63177252e-01, -8.12451184e-01,  1.05419552e+00,
         5.74146271e-01,  1.77670419e+00,  1.89709943e-02,
        -7.29846179e-01, -3.82482819e-03,  3.74345295e-02,
        -1.22590899e-01],
       [ 9.37840864e-02,  1.46311128e+00,  1.42689526e+00,
        -1.15309393e+00, -4.65615213e-01,  1.86062530e-02,
        -6.36809587e-01,  1.05029655e+00, -6.05170354e-02,
        -8.49508882e-01],
       [-1.72011292e+00, -2.90605873e-01,  3.79182547e-01,
         9.55510914e-01,  1.12274981e+00, -1.81591716e-02,
        -2.37194404e-01, -9.36957002e-01, -2.33127251e-02,
        -5.44108748e-01],
       [-8.78812850e-01,  8.31536055e-01,  2.18019322e-01,
        -1.12702823e+00, -5.64848840e-01, -5.92369772e-03,
        -6.36128783e-01, -3.12993258e-01, -3.28867659e-02,
         1.54868853e+00],
       [ 7.31733620e-01,  8.48782659e-01, -3.13577771e-01,
         1.22000253e+00, -1.56106806e+00, -3.77092920e-02,
        -8.70635986e-01,  3.29460688e-02,  2.73370761e-02,
         1.06911175e-01],
       [ 1.35547364e+00, -7.22719058e-02, -1.44982648e+00,
        -4.09777045e-01,  4.48143303e-01, -3.28977988e-03,
         5.50989866e-01,  3.73653591e-01, -1.07000191e-02,
         3.61564100e-01],
       [-8.31414223e-01, -6.00669622e-01,  2.50354707e-01,
         1.11830926e+00,  3.01029801e-01, -4.17752489e-02,
         5.90922594e-01, -1.47415376e+00,  3.29434569e-03,
         8.80644262e-01],
       [-1.18805297e-01,  1.21149397e+00, -1.37501433e-01,
        -1.56719184e+00,  2.07505733e-01,  2.45510670e-03,
         2.18929529e-01,  1.94550201e-01, -1.87202170e-02,
         5.63516438e-01],
       [-3.99964958e-01,  2.71322894e+00,  5.10999620e-01,
        -1.63154674e+00, -6.70284510e-01, -1.77401248e-02,
         7.06351325e-02,  2.76757568e-01,  1.74009905e-03,
        -7.06301779e-02],
       [-2.28582367e-01,  1.42532849e+00, -3.30242932e-01,
        -1.09693325e+00,  3.64358336e-01, -2.44993940e-02,
        -1.81995537e-02, -5.05445182e-01,  4.07291949e-02,
         5.62249482e-01],
       [-8.88973057e-01, -7.80667841e-01, -1.41770035e-01,
         1.86247766e+00, -2.65504301e-01, -3.88327241e-02,
         5.65899789e-01, -1.99184620e+00, -5.30052036e-02,
         1.17205060e+00],
       [ 9.85802412e-01,  1.39019012e+00, -1.13265252e+00,
        -2.95981497e-01, -4.24525738e-01, -7.60770962e-03,
         1.12958050e+00,  6.69366896e-01,  1.60683431e-02,
        -1.85923919e-01],
       [ 1.08731461e+00, -4.76932198e-01, -4.36225593e-01,
         9.80221689e-01,  1.23644781e+00, -4.02131602e-02,
         4.43446010e-01, -5.62203191e-02,  3.43436301e-02,
        -1.48599589e+00],
       [ 1.13523734e+00, -4.65634651e-02,  3.57498199e-01,
         4.03586209e-01,  6.78570747e-01, -9.12638288e-03,
         2.47229651e-01, -1.91871715e+00, -3.91485393e-02,
         8.09646130e-01],
       [ 1.70161629e+00, -4.98483032e-01,  1.55347204e+00,
         8.31501931e-02, -3.37158263e-01, -1.72448866e-02,
         7.70051360e-01, -9.48039591e-01, -1.97791904e-02,
         1.06449270e+00],
       [ 1.98870689e-01,  8.27333629e-01,  1.18571007e+00,
        -1.17516530e+00, -9.24059153e-01, -4.49201167e-02,
         1.88001707e-01, -4.70089018e-02,  8.52823351e-03,
         1.54677883e-01],
       [ 7.28851557e-01,  3.97217393e-01,  5.66569805e-01,
        -9.88393307e-01, -8.64710271e-01, -1.06010698e-02,
         1.46468714e-01, -8.20339918e-01,  1.60583444e-02,
         1.55439174e+00],
       [ 1.89227509e+00,  9.66687977e-01,  9.28267121e-01,
        -6.60770237e-01,  7.52362728e-01, -5.74872643e-02,
         6.76373392e-02, -1.27772427e+00, -1.05946856e-02,
         1.64327487e-01],
       [ 7.29612827e-01,  3.95613134e-01, -1.96099132e-01,
         1.17430973e+00,  1.25663531e+00, -1.16095319e-02,
         5.91681838e-01, -8.43785763e-01,  3.14695686e-02,
        -1.10760450e+00]], dtype=float32), array([ 0.510128  ,  0.11348683,  1.5471274 ,  0.71451503,  0.17844577,
       -0.05965497,  0.93473965,  1.4921287 , -0.03591683, -0.45185935],
      dtype=float32), array([[-6.27895370e-02,  8.11842918e-01,  3.24342281e-01,
        -4.34479378e-02, -2.69726142e-02, -1.02192771e+00,
        -2.38902736e+00, -2.52919841e+00, -1.77679086e+00,
         7.52743065e-01, -1.85530472e+00, -1.82650530e+00,
        -2.23788285e+00,  1.68629420e+00, -3.08374739e+00,
         1.13059580e+00],
       [ 3.88164110e-02, -9.35886145e-01,  3.73415053e-01,
        -2.25767827e+00, -3.40551114e+00,  1.61963016e-01,
        -1.10126626e+00, -1.89493167e+00, -8.53664994e-01,
         3.96811247e-01,  8.56524885e-01,  8.17776859e-01,
        -9.92248952e-01, -2.60272598e+00,  2.27621824e-01,
         1.35448515e-01],
       [-1.98882747e+00, -3.15700579e+00, -4.60629225e+00,
         2.56835818e-01, -3.98363209e+00, -3.55581880e+00,
        -3.68566942e+00,  7.38479316e-01,  6.41037285e-01,
        -4.93537378e+00, -1.44468069e+00,  5.79771757e-01,
         2.00427487e-01, -4.32280824e-02, -2.02824324e-01,
         1.26451802e+00],
       [-8.76582026e-01,  1.81999683e-01,  2.05555558e-01,
         8.58336210e-01, -1.03865862e+00, -8.55825365e-01,
         4.50930029e-01, -1.10350537e+00, -3.90186930e+00,
         6.37215003e-02, -3.13417411e+00, -5.12798250e-01,
         9.28477526e-01, -1.51101494e+00,  1.79570377e-01,
        -1.97428083e+00],
       [ 6.65936172e-01, -2.04088449e+00, -1.70092031e-01,
        -4.36388397e+00,  2.99297601e-01, -3.55116153e+00,
         9.67015088e-01, -1.00913870e+00,  7.97279239e-01,
        -7.75906980e-01,  5.55934668e-01, -2.15984654e+00,
         1.13436961e+00,  8.77795100e-01, -1.98635685e+00,
        -9.62927759e-01],
       [-5.14959916e-02, -1.76656321e-02, -1.21788699e-02,
         1.87636409e-02,  1.85432397e-02,  2.53287563e-03,
        -4.01828513e-02, -4.66370732e-02, -3.80364479e-03,
        -3.92147750e-02, -4.14039828e-02, -1.26379859e-02,
        -3.71256955e-02, -2.94903573e-02,  1.75776761e-02,
        -5.34320921e-02],
       [ 2.06634545e+00,  2.02680326e+00, -3.18520808e+00,
        -2.35618711e+00, -1.51248026e+00, -4.37726900e-02,
        -5.56328535e-01,  2.36388493e+00, -2.11647439e+00,
        -2.30952477e+00, -3.84369636e+00, -1.60543454e+00,
        -6.39434040e-01, -1.10761356e+00, -1.73857796e+00,
        -1.14291513e+00],
       [-4.62923193e+00, -1.04258791e-01,  6.78834736e-01,
        -6.93062544e-01,  9.75723028e-01,  4.60819483e-01,
        -1.13749409e+00, -5.97914100e-01,  3.51015002e-01,
        -2.61883831e+00, -5.35055101e-01,  7.28066266e-01,
        -1.17121291e+00, -1.70402336e+00, -3.40301561e+00,
        -2.40531802e+00],
       [-6.16683951e-03, -3.45431156e-02, -3.80301960e-02,
         2.10378245e-02,  2.78237630e-02,  2.66202651e-02,
         6.32830523e-03, -7.03792647e-02,  7.08636874e-03,
        -4.32247669e-02, -4.83165719e-02, -2.62811575e-02,
        -2.49930229e-02,  1.66503694e-02, -1.95274223e-02,
        -1.69342235e-02],
       [-6.86429441e-01, -7.73485005e-01, -1.70599174e+00,
        -5.52418316e-03, -2.16385737e-01,  5.52016556e-01,
         8.69139954e-02,  2.35799491e-01, -5.95664918e-01,
         5.24985529e-02, -8.01918432e-02, -3.01288342e+00,
        -2.48822069e+00, -1.09830588e-01,  1.16112046e-01,
        -9.26361859e-01]], dtype=float32), array([-0.29884028, -0.22408473, -0.52457833,  0.03035661, -0.29614002,
       -0.37530175, -1.2026432 ,  0.12897606, -1.9319649 , -1.3912958 ,
       -0.513421  ,  0.5942222 ,  0.06927028, -0.69580024, -1.5484221 ,
        0.06604511], dtype=float32)]

Model[4]
[array([[-1.56388313e-01, -6.45424873e-02, -1.25512850e+00,
         1.21023804e-01,  8.77915919e-01, -8.41747001e-02,
         3.35208118e-01,  1.17925298e+00, -3.51103283e-02,
        -1.47266006e+00],
       [ 1.82606757e-01, -4.65732574e-01, -5.95400155e-01,
        -1.33544600e+00,  9.25268531e-01, -8.27170387e-02,
        -1.82370394e-02,  7.50884652e-01, -5.45231812e-02,
         1.24159789e+00],
       [-8.88413131e-01, -1.78273869e+00,  2.51641631e-01,
        -3.67716163e-01, -5.69621660e-03, -4.53103520e-02,
         2.68380363e-02,  6.22442305e-01, -1.49314515e-02,
         1.57707202e+00],
       [-8.20565820e-01, -1.27712560e+00,  6.71923399e-01,
        -3.45828891e-01, -2.91172355e-01, -1.60670020e-02,
         2.66544044e-01,  2.22191215e-02, -1.21391192e-02,
         1.57390130e+00],
       [-1.00224006e+00, -1.64936185e+00,  9.72786903e-01,
        -7.55411983e-01,  2.83233374e-02, -2.42722500e-02,
        -5.46493292e-01,  8.22193861e-01, -4.09283526e-02,
         1.60075545e+00],
       [-3.69999021e-01, -1.31268728e+00, -3.89628083e-01,
        -1.59592116e+00,  6.67615235e-01,  3.79450023e-02,
        -4.74974096e-01, -2.40626574e-01, -2.08819043e-02,
         2.13000679e+00],
       [ 4.68006805e-02,  2.17150077e-01, -7.59679198e-01,
        -5.13309166e-02,  4.60447073e-01, -9.49216919e-05,
        -1.10721159e+00,  1.22969019e+00, -1.91991273e-02,
        -1.02517354e+00],
       [ 3.08330655e-01,  1.10590905e-01, -1.48425460e+00,
        -6.57112062e-01,  8.05244803e-01, -2.78183185e-02,
         6.63915813e-01,  9.82765436e-01, -1.47430729e-02,
         8.34955573e-02],
       [-2.04909945e+00,  5.43537617e-01,  3.66637528e-01,
         8.66598010e-01,  3.80368158e-02, -2.08565891e-02,
        -2.83038259e-01,  1.97776869e-01,  9.55524761e-03,
        -6.03170574e-01],
       [-3.74520123e-01,  4.83438432e-01,  1.05764985e+00,
        -2.28524074e-01, -4.24158603e-01, -1.75223798e-02,
        -3.42055529e-01, -1.03990543e+00, -6.27093688e-02,
         4.94257510e-01],
       [-1.18075170e-01,  9.02215242e-01,  9.51973617e-01,
        -2.91560769e-01,  1.48820639e-01,  2.18301751e-02,
        -5.81837595e-01, -3.37692872e-02, -2.91396268e-02,
         3.66501778e-01],
       [-1.22964454e+00,  5.96042454e-01,  6.76001251e-01,
        -1.30567133e-01, -1.04957551e-01,  2.79541519e-02,
        -2.49226779e-01,  4.21550214e-01, -3.70746255e-02,
        -3.17944974e-01],
       [-6.64553285e-01, -1.70713037e-01,  5.32617807e-01,
         3.18090737e-01, -4.05370295e-01, -1.56028066e-02,
        -1.36823046e+00,  3.98832649e-01,  3.48435994e-03,
         6.31328970e-02],
       [ 5.71714044e-01, -6.59466565e-01, -6.72494531e-01,
        -8.53873193e-01,  2.10733876e-01, -5.83334900e-02,
        -1.91510525e-02,  1.21456110e+00, -4.99003306e-02,
         9.71183181e-01],
       [ 2.78006587e-02,  2.03624845e-01, -1.08424473e+00,
         8.13380182e-01, -7.04128325e-01, -4.16977853e-02,
        -3.24324295e-02,  6.84959352e-01,  4.55406448e-03,
        -6.78704157e-02],
       [ 5.20091176e-01,  1.16863263e+00, -3.30956250e-01,
         2.56019533e-01, -3.50737274e-01, -5.36588207e-02,
         1.10106206e+00, -1.88138056e+00, -3.55217271e-02,
         5.04183806e-02],
       [-4.79073405e-01,  8.16748083e-01,  7.45380759e-01,
         9.05148864e-01,  7.06264317e-01, -1.95364933e-02,
        -1.35172427e+00,  1.66537559e+00, -6.51630461e-02,
        -1.66930866e+00],
       [ 1.03399158e+00, -2.88461179e-01,  8.18376064e-01,
        -6.42734706e-01,  2.08866462e-01,  1.95725425e-03,
        -3.59154135e-01,  6.71032518e-02, -1.73500068e-02,
         1.26069176e+00],
       [-7.79874504e-01,  7.84094810e-01,  5.13586819e-01,
         4.91557837e-01,  5.35537720e-01, -2.70753652e-02,
        -5.55194199e-01,  7.05626369e-01, -5.24052866e-02,
        -1.14433312e+00],
       [ 9.71855283e-01,  4.19603616e-01,  3.15836333e-02,
        -4.53693300e-01, -5.17821729e-01,  2.47290041e-02,
         7.75594711e-01, -9.45967197e-01,  2.45848745e-02,
         4.99071896e-01],
       [ 4.27099079e-01, -3.85542929e-01, -1.05785966e+00,
         5.66578269e-01, -6.88078105e-01, -3.47678922e-02,
        -8.18162978e-01,  5.84579527e-01, -4.79849242e-02,
         4.00523186e-01],
       [-1.31745366e-02,  1.67937681e-01, -1.12149119e+00,
         7.54702091e-01, -5.66776931e-01, -2.32208688e-02,
        -3.41783464e-01,  1.20100424e-01, -4.42286730e-02,
         6.98122859e-01],
       [-2.75532126e-01,  9.22769308e-01, -2.03662753e-01,
         1.98700756e-01,  4.22703773e-01, -5.38102500e-02,
         2.46794984e-01, -1.20546377e+00, -5.18069118e-02,
         3.36119354e-01],
       [ 1.90718159e-01, -6.44298136e-01,  1.80874765e-01,
         8.67970139e-02,  4.06711012e-01, -9.47433803e-03,
         1.67822039e+00,  8.41121912e-01, -7.80334463e-03,
         4.80585486e-01],
       [-2.06392612e-02,  1.16715705e+00,  6.45207942e-01,
         9.01639819e-01, -2.60432493e-02, -2.99540497e-02,
        -8.38376045e-01,  4.39792395e-01, -5.52988332e-03,
        -2.50466156e+00],
       [ 1.04789841e+00, -6.32413447e-01,  1.99622259e-01,
        -6.67092323e-01,  1.61635876e-01, -3.36739309e-02,
         1.07605362e+00,  5.54602206e-01, -1.61522627e-02,
        -1.42825305e-01],
       [ 5.34474909e-01,  6.63885593e-01,  2.77293734e-02,
        -6.12002730e-01,  2.42196351e-01, -4.68455330e-02,
        -8.15999031e-01, -1.06556892e+00, -4.98825908e-02,
         8.07936847e-01],
       [ 3.20192486e-01, -5.52618146e-01, -5.85945666e-01,
         1.00871480e+00, -3.01419705e-01,  5.32749901e-03,
        -1.14792085e+00,  4.75377887e-01, -2.49884054e-02,
         5.87421834e-01],
       [-1.16486214e-01, -4.43332493e-02, -9.64861453e-01,
         1.31649768e+00, -7.30261266e-01,  3.47485975e-03,
         1.04102448e-01, -5.31980753e-01, -3.48797143e-02,
         3.00727367e-01],
       [-4.41260338e-01,  1.01016986e+00, -3.42052460e-01,
        -2.62738466e-01,  5.62015831e-01, -1.38177630e-02,
        -2.86603540e-01, -1.31013095e-01,  1.31006921e-02,
         1.31773397e-01],
       [-7.09902167e-01, -1.00682664e+00,  1.36951327e-01,
        -2.61663020e-01,  1.25660157e+00, -2.84071658e-02,
        -7.92338192e-01,  9.39741015e-01,  2.57228129e-02,
        -7.04416214e-03],
       [-3.83626729e-01, -1.32084817e-01,  1.09360659e+00,
        -6.37249425e-02,  1.75384451e-02, -5.61753176e-02,
         1.11214268e+00, -9.10522863e-02, -3.16473879e-02,
        -5.16947985e-01],
       [ 3.19819778e-01, -8.81630540e-01, -2.87776738e-01,
        -3.47345248e-02,  1.21020627e+00,  2.27906462e-02,
        -1.10110021e+00,  7.95042396e-01,  1.64670870e-03,
        -2.19427962e-02],
       [-4.45503026e-01,  6.75920427e-01,  1.43355146e-01,
         7.29341686e-01,  7.46846378e-01,  2.08683335e-03,
        -1.98157692e+00, -1.82580069e-01, -5.26348501e-03,
         7.44865179e-01],
       [-4.27998155e-01, -5.60579777e-01, -3.27749282e-01,
         1.09909856e+00, -1.21987343e+00, -5.33408411e-02,
        -9.88150895e-01,  6.76883340e-01,  3.59505489e-02,
         7.23327473e-02],
       [-2.18799431e-02, -7.71545231e-01, -3.33681107e-01,
         4.91750121e-01, -6.27043664e-01, -7.28318691e-02,
         6.49377823e-01,  4.30616766e-01, -1.98584907e-02,
         1.05535328e+00],
       [-8.85146320e-01,  2.10439491e+00, -4.12363291e-01,
         5.83556712e-01,  5.90099454e-01, -2.67254412e-02,
        -9.42370176e-01, -1.29454732e+00, -3.82835604e-02,
        -4.45387036e-01],
       [-2.40039945e-01, -5.52685797e-01,  6.22084916e-01,
        -8.74328732e-01,  1.65233076e+00, -3.38509865e-02,
        -4.31447089e-01,  7.58538246e-01, -1.64901093e-03,
        -2.30994895e-01],
       [-6.59938395e-01,  5.14598727e-01,  1.54870605e+00,
         1.87735915e-01,  3.72032940e-01, -3.84150669e-02,
        -1.10659492e+00, -8.67744446e-01, -7.44126141e-02,
        -1.00581753e+00],
       [-8.96327734e-01, -3.24720681e-01,  9.37777996e-01,
        -8.08094800e-01,  6.47706807e-01, -2.08665561e-02,
         9.75621045e-01,  3.10518831e-01, -4.13452461e-03,
        -1.28629759e-01],
       [-1.26913086e-01,  2.21302652e+00,  4.00085062e-01,
         4.65054661e-01,  6.17449045e-01, -4.79825847e-02,
        -1.79799581e+00, -1.60498872e-01,  1.51730664e-02,
        -4.23950315e-01],
       [ 5.52077055e-01,  7.66772091e-01, -5.89977443e-01,
         1.98642206e+00, -1.76580894e+00, -4.48028604e-03,
        -3.95899296e-01,  6.03170514e-01, -3.11143436e-02,
         2.30194405e-01],
       [ 4.37833786e-01, -5.82284808e-01, -4.44480330e-01,
         3.98742884e-01, -7.75167823e-01, -5.05963294e-03,
         8.42194557e-01,  3.11853196e-02, -5.65033359e-03,
         9.55180287e-01],
       [-1.24951139e-01,  2.26033196e-01, -1.15928721e+00,
        -1.32458776e-01,  2.05237508e-01,  1.38960844e-02,
        -8.20031643e-01, -1.79843020e+00,  1.68984458e-02,
         8.07553947e-01],
       [-7.11058918e-03, -7.03015924e-01,  9.05047238e-01,
        -2.41900548e-01,  1.07626557e+00,  1.89709943e-02,
        -6.36403382e-01,  3.47060770e-01,  3.74345295e-02,
        -7.58718312e-01],
       [-1.69036746e-01,  1.09808421e+00,  1.00821257e+00,
        -3.04943949e-01,  3.66341561e-01,  1.86062530e-02,
        -4.03909087e-01,  6.32149458e-01, -6.05170354e-02,
        -7.57647336e-01],
       [-9.86888707e-01, -5.01511693e-01,  1.75519124e-01,
         1.07316136e+00,  1.02639914e+00, -1.81591716e-02,
        -8.16200614e-01, -5.94894886e-01, -2.33127251e-02,
        -2.47611418e-01],
       [-4.19409275e-01,  1.25358865e-01, -2.83368956e-03,
        -7.81751990e-01, -8.26229990e-01, -5.92369772e-03,
         3.52416903e-01, -4.35843468e-01, -3.28867659e-02,
         1.60225165e+00],
       [ 1.94632739e-01, -4.29322422e-01, -2.46578351e-01,
         1.63445342e+00, -1.84831572e+00, -3.77092920e-02,
        -5.44953823e-01,  3.87942761e-01,  2.73370761e-02,
        -3.36632967e-01],
       [ 1.13444638e+00, -3.34957480e-01, -1.12192786e+00,
         1.42061919e-01,  5.05815983e-01, -3.28977988e-03,
         1.86141536e-01, -3.48572314e-01, -1.07000191e-02,
        -1.50495410e-01],
       [-8.69011462e-01, -8.54805231e-01,  9.28172916e-02,
         8.67305994e-01,  2.40499049e-01, -4.17752489e-02,
         6.30091727e-01, -2.33835196e+00,  3.29434569e-03,
         6.67408943e-01],
       [-3.73697013e-01,  1.43663526e+00, -3.99315476e-01,
        -1.28805661e+00, -2.84359068e-01,  2.45510670e-03,
         5.20092189e-01, -1.13209583e-01, -1.87202170e-02,
         1.13795662e+00],
       [-1.23970024e-01,  1.72111917e+00,  1.30550474e-01,
        -1.52235997e+00, -5.59771836e-01, -1.77401248e-02,
         6.38276264e-02,  4.47803974e-01,  1.74009905e-03,
        -3.29088598e-01],
       [-5.38257360e-01,  1.13700223e+00, -5.05008757e-01,
        -8.05033326e-01, -1.45734489e-01, -2.44993940e-02,
         2.59634227e-01,  2.47671425e-01,  4.07291949e-02,
         4.63766545e-01],
       [-1.41636157e+00, -2.16791019e-01,  1.64874554e-01,
         1.32977772e+00, -4.89826411e-01, -3.88327241e-02,
         2.88146257e-01, -1.46336496e+00, -5.30052036e-02,
         1.20206368e+00],
       [ 8.00780892e-01,  1.21452272e+00, -8.07785511e-01,
        -2.00678527e-01, -3.81804317e-01, -7.60770962e-03,
         8.64381731e-01,  4.72302496e-01,  1.60683431e-02,
        -3.22896749e-01],
       [ 1.00740886e+00, -2.77801484e-01, -7.77667582e-01,
         7.34168470e-01,  6.63888693e-01, -4.02131602e-02,
         2.72221506e-01, -5.43748856e-01,  3.43436301e-02,
        -1.21936798e+00],
       [ 1.19807839e+00,  4.64305252e-01, -1.10695250e-01,
        -2.67068326e-01,  5.21160901e-01, -9.12638288e-03,
         1.06114931e-01, -1.70794666e+00, -3.91485393e-02,
         2.43825659e-01],
       [ 8.12732875e-01, -3.63049954e-01,  9.34599996e-01,
        -8.60685647e-01,  1.92508593e-01, -1.72448866e-02,
         3.52868140e-01, -2.96167463e-01, -1.97791904e-02,
         5.96653283e-01],
       [-3.86273116e-01,  6.73933506e-01,  4.58449394e-01,
        -1.36058307e+00, -5.42593777e-01, -4.49201167e-02,
         4.74633612e-02, -6.48833752e-01,  8.52823351e-03,
         5.73997259e-01],
       [ 4.02900815e-01, -1.34889424e-01,  7.27767408e-01,
        -1.02493441e+00, -7.29658604e-01, -1.06010698e-02,
        -4.15935040e-01, -1.22935283e+00,  1.60583444e-02,
         1.64273298e+00],
       [ 2.02370620e+00,  6.61078215e-01,  6.88135207e-01,
        -7.01821983e-01,  5.47294259e-01, -5.74872643e-02,
         7.50574112e-01, -1.06233585e+00, -1.05946856e-02,
        -4.70309816e-02],
       [ 5.49578726e-01,  4.57095921e-01, -4.24762219e-01,
         1.56894112e+00,  1.13104665e+00, -1.16095319e-02,
         1.91581771e-01, -6.58061385e-01,  3.14695686e-02,
        -1.26775610e+00]], dtype=float32), array([ 0.26119077,  0.03609046,  1.4541273 ,  0.4231349 , -0.31221533,
       -0.05965497,  0.73710257,  1.1835803 , -0.03591683, -0.9811503 ],
      dtype=float32), array([[-3.00850451e-01,  9.67920959e-01,  7.06297671e-03,
        -9.71410751e-01, -1.83648709e-02, -1.21194851e+00,
        -2.37849307e+00, -2.97899413e+00, -2.78837800e+00,
         3.71836662e-01, -1.77744997e+00, -3.13523483e+00,
        -2.10813212e+00,  1.52917075e+00, -3.00607824e+00,
         1.23306441e+00],
       [ 2.33441696e-01, -9.03167367e-01, -7.95508251e-02,
        -2.10473609e+00, -4.88963985e+00, -5.29032052e-01,
        -1.14747012e+00, -3.63773346e+00, -5.94654799e-01,
         3.65494967e-01,  7.86156595e-01,  5.47435522e-01,
        -6.02665007e-01, -3.14792132e+00,  3.98505807e-01,
         1.97020620e-01],
       [-2.26689792e+00, -3.85957956e+00, -4.57484245e+00,
         1.97167873e-01, -4.78407383e+00, -4.79591322e+00,
        -4.16330624e+00,  5.77361047e-01,  4.19001669e-01,
        -6.03135586e+00, -1.93300462e+00,  3.74255806e-01,
        -1.55304462e-01, -6.98769465e-02,  5.90878539e-02,
         1.23805892e+00],
       [-5.72930276e-01,  1.53716087e-01,  3.56102675e-01,
         5.76052547e-01, -9.13812637e-01, -6.13595366e-01,
         2.38140285e-01, -6.87002003e-01, -5.59482861e+00,
        -7.50205247e-03, -4.05712986e+00, -7.17374086e-01,
         7.29474127e-01, -1.86120069e+00, -1.28494695e-01,
        -1.99119186e+00],
       [-3.10817182e-01, -1.42567110e+00, -2.13618234e-01,
        -5.70214891e+00,  4.18729275e-01, -3.81272411e+00,
         1.56090844e+00, -1.19774795e+00,  5.64842165e-01,
        -4.76049542e-01,  5.49151242e-01, -1.26913869e+00,
         9.02612448e-01,  8.36586118e-01, -2.37541699e+00,
        -1.59460402e+00],
       [-5.14959916e-02, -1.76656321e-02, -1.21788699e-02,
         1.87636409e-02,  1.85432397e-02,  2.53287563e-03,
        -4.01828513e-02, -4.66370732e-02, -3.80364479e-03,
        -3.92147750e-02, -4.14039828e-02, -1.26379859e-02,
        -3.71256955e-02, -2.94903573e-02,  1.75776761e-02,
        -5.34320921e-02],
       [ 1.71633482e+00,  1.44688952e+00, -3.69882393e+00,
        -3.24844623e+00, -2.31550884e+00, -1.35575533e+00,
        -9.64254200e-01,  2.11464000e+00, -2.78424978e+00,
        -3.28105736e+00, -4.26636553e+00, -1.95131361e+00,
        -1.22680165e-01, -2.16519380e+00, -2.67723584e+00,
        -1.14720893e+00],
       [-5.61897516e+00, -5.77346683e-01,  8.18161190e-01,
        -8.57239544e-01,  6.81267321e-01,  2.41499588e-01,
        -1.40703428e+00, -6.45700872e-01,  5.28932035e-01,
        -3.78913975e+00, -7.26837814e-01,  8.05292010e-01,
        -1.76158786e+00, -1.90165555e+00, -5.62250376e+00,
        -2.51035666e+00],
       [-6.16683951e-03, -3.45431156e-02, -3.80301960e-02,
         2.10378245e-02,  2.78237630e-02,  2.66202651e-02,
         6.32830523e-03, -7.03792647e-02,  7.08636874e-03,
        -4.32247669e-02, -4.83165719e-02, -2.62811575e-02,
        -2.49930229e-02,  1.66503694e-02, -1.95274223e-02,
        -1.69342235e-02],
       [-3.32753330e-01, -6.18088603e-01, -1.78432548e+00,
        -1.73585698e-01, -2.53971457e-01,  2.82114089e-01,
        -1.94358841e-01,  3.69104110e-02, -3.88539106e-01,
         2.97905039e-02, -8.58179927e-02, -3.70273232e+00,
        -2.92216158e+00, -1.86604440e-01,  1.49348080e-01,
        -9.90562320e-01]], dtype=float32), array([-0.22338034,  0.15255372, -0.950865  , -0.26844406, -0.5212996 ,
       -0.42090902, -1.3944471 ,  0.00413147, -2.5549555 , -2.0564442 ,
       -0.7465501 ,  0.70209265, -0.01930322, -0.7912336 , -2.6870985 ,
        0.04759451], dtype=float32)]

Model[5]
[array([[-6.66937292e-01, -6.28890455e-01, -1.10189104e+00,
        -2.35124707e-01,  8.20239246e-01, -8.41747001e-02,
         1.46372929e-01,  8.03376734e-01, -3.51103283e-02,
        -1.43988574e+00],
       [ 1.37866706e-01, -2.71475643e-01, -6.63239241e-01,
        -1.13649809e+00,  9.38360095e-01, -8.27170387e-02,
        -3.21930051e-01, -2.06284970e-01, -5.45231812e-02,
         6.88991010e-01],
       [-7.72180855e-01, -1.55664110e+00,  1.48322240e-01,
        -1.96368530e-01, -1.61610812e-01, -4.53103520e-02,
        -1.69650406e-01,  6.21558428e-01, -1.49314515e-02,
         1.85860980e+00],
       [-9.28632736e-01, -1.52273250e+00,  6.91802621e-01,
        -4.93086055e-02, -4.01976645e-01, -1.60670020e-02,
        -4.03783238e-03, -2.46567145e-01, -1.21391192e-02,
         1.64695549e+00],
       [-1.71123650e-02, -1.44614530e+00,  3.68073612e-01,
        -9.16897118e-01,  6.72215968e-02, -2.42722500e-02,
         9.41930935e-02,  2.56706774e-01, -4.09283526e-02,
         1.78076673e+00],
       [-9.73644257e-02, -1.40547943e+00, -2.98471957e-01,
        -1.74679816e+00,  8.38565350e-01,  3.79450023e-02,
        -4.22834635e-01,  1.25012860e-01, -2.08819043e-02,
         1.22600114e+00],
       [-4.76925075e-01,  4.59019914e-02, -4.00503337e-01,
         1.25350028e-01,  5.71629047e-01, -9.49216919e-05,
        -1.37165415e+00,  1.17177472e-01, -1.91991273e-02,
        -1.34083426e+00],
       [ 1.08824015e-01, -5.19005835e-01, -7.89380014e-01,
        -1.00290048e+00,  3.12283218e-01, -2.78183185e-02,
         5.60299873e-01,  1.14997280e+00, -1.47430729e-02,
        -2.16400772e-01],
       [-1.24101102e+00,  4.30766493e-01,  1.59059033e-01,
         7.40187168e-01,  1.29772902e-01, -2.08565891e-02,
        -2.05751210e-01, -3.77455465e-02,  9.55524761e-03,
        -3.90223891e-01],
       [ 7.14902766e-03,  1.58479244e-01,  1.12672389e+00,
        -3.36175710e-01, -2.05541372e-01, -1.75223798e-02,
        -2.46119052e-01,  2.69440681e-01, -6.27093688e-02,
         4.92803663e-01],
       [ 1.63706958e-01,  8.93378079e-01,  8.63428771e-01,
        -1.59738094e-01, -3.80694479e-01,  2.18301751e-02,
        -3.00320774e-01, -2.36184552e-01, -2.91396268e-02,
         5.66811085e-01],
       [-6.52245104e-01,  4.67270106e-01,  2.30786964e-01,
        -2.04249740e-01,  3.28846037e-01,  2.79541519e-02,
         1.55983284e-01,  6.60965204e-01, -3.70746255e-02,
        -3.27602565e-01],
       [-1.00150645e+00,  1.24254748e-01,  1.05764735e-02,
         5.39151549e-01,  3.44366252e-01, -1.56028066e-02,
        -1.66734731e+00, -2.63502181e-01,  3.48435994e-03,
        -2.44249813e-02],
       [ 1.59348950e-01, -5.93945026e-01, -8.80411088e-01,
        -5.74441075e-01, -2.60812998e-01, -5.83334900e-02,
        -5.11229932e-01,  6.95522964e-01, -4.99003306e-02,
        -2.10252758e-02],
       [-7.03768209e-02,  5.48101246e-01, -1.10923719e+00,
         2.22489551e-01, -4.48118061e-01, -4.16977853e-02,
        -9.44506600e-02,  4.79830623e-01,  4.55406448e-03,
        -2.67191023e-01],
       [ 5.43722630e-01,  1.47688007e+00,  1.45764351e-01,
        -2.34784380e-01, -2.47960910e-01, -5.36588207e-02,
         8.13253224e-01, -2.44717073e+00, -3.55217271e-02,
        -7.86936656e-02],
       [-2.24116594e-01,  4.12553191e-01,  6.10766411e-01,
         7.05429316e-01,  3.84356737e-01, -1.95364933e-02,
        -1.38213837e+00,  3.12767923e-01, -6.51630461e-02,
        -2.01052570e+00],
       [ 5.69182158e-01,  2.25354284e-02,  9.73525286e-01,
        -4.46615875e-01,  9.59900022e-02,  1.95725425e-03,
        -2.74049073e-01,  8.18481505e-01, -1.73500068e-02,
        -2.93259233e-01],
       [-4.34389412e-01, -2.47824639e-01,  4.90929842e-01,
         4.75168705e-01,  7.29967475e-01, -2.70753652e-02,
        -3.30184996e-01,  2.35761538e-01, -5.24052866e-02,
        -1.08176029e+00],
       [ 1.09128225e+00,  4.39447254e-01, -1.44225001e-01,
         1.32471517e-01, -9.01999623e-02,  2.47290041e-02,
         3.28567326e-01, -9.28285539e-01,  2.45848745e-02,
         2.27110565e-01],
       [ 1.54527009e-01, -1.97292894e-01, -1.15572822e+00,
        -1.21367231e-01, -5.78497611e-02, -3.47678922e-02,
        -7.13462949e-01,  7.96833336e-01, -4.79849242e-02,
        -6.08931407e-02],
       [ 2.92569082e-02, -5.83044589e-01, -9.45894599e-01,
         3.33191037e-01, -1.63543224e-01, -2.32208688e-02,
        -1.87357008e-01, -2.12099150e-01, -4.42286730e-02,
         5.42084575e-01],
       [-7.16594398e-01,  8.05471599e-01, -4.06070411e-01,
         1.33024022e-01,  1.39348567e-01, -5.38102500e-02,
         1.22947760e-01, -1.29449415e+00, -5.18069118e-02,
         4.74087059e-01],
       [ 2.01388747e-01,  1.02024406e-01,  4.99973148e-01,
        -4.50892299e-01, -9.08831879e-02, -9.47433803e-03,
         1.77586365e+00,  3.57223243e-01, -7.80334463e-03,
        -2.79583663e-01],
       [-5.01389205e-01,  6.15887523e-01,  1.39855814e+00,
         1.05043793e+00, -5.84988594e-01, -2.99540497e-02,
        -2.82055825e-01,  1.33501303e+00, -5.52988332e-03,
        -2.24444556e+00],
       [ 5.29955626e-01, -1.73154712e-01, -2.93365568e-01,
        -2.27220684e-01,  4.74800825e-01, -3.36739309e-02,
         7.61903048e-01, -2.26057202e-01, -1.61522627e-02,
        -2.36188933e-01],
       [ 2.65638828e-01,  1.30032301e+00, -4.72273916e-01,
        -1.71744019e-01,  6.32350683e-01, -4.68455330e-02,
        -6.94292724e-01, -9.63115394e-01, -4.98825908e-02,
         4.37117875e-01],
       [ 3.33237797e-02, -5.27367629e-02, -7.18436301e-01,
         5.45396388e-01, -2.92459279e-01,  5.32749901e-03,
        -1.26857388e+00,  6.72912955e-01, -2.49884054e-02,
         2.88625032e-01],
       [-6.51973307e-01,  3.42621922e-01, -8.56176734e-01,
         1.26820207e+00, -5.11818349e-01,  3.47485975e-03,
        -4.59089763e-02,  2.32843369e-01, -3.48797143e-02,
         1.84887916e-01],
       [-1.05631101e+00,  9.20365334e-01, -6.27547622e-01,
        -5.48084795e-01,  3.22250515e-01, -1.38177630e-02,
        -2.08608404e-01, -3.51537049e-01,  1.31006921e-02,
         1.44271880e-01],
       [-1.14897931e+00, -1.62767482e+00,  4.93932992e-01,
        -7.38319576e-01,  9.34970498e-01, -2.84071658e-02,
        -9.27853942e-01,  8.42963576e-01,  2.57228129e-02,
         4.20070648e-01],
       [ 1.89895302e-01, -6.00727916e-01,  7.93950558e-01,
        -6.27227545e-01,  5.67377582e-02, -5.61753176e-02,
         4.15004402e-01, -3.81872058e-01, -3.16473879e-02,
        -1.20955907e-01],
       [ 1.62939474e-01, -5.28555453e-01, -1.17914908e-01,
         1.03000663e-01,  7.53486276e-01,  2.27906462e-02,
        -1.17449296e+00,  8.82696927e-01,  1.64670870e-03,
         8.78369212e-02],
       [-3.71191591e-01,  6.86890662e-01, -4.05516744e-01,
         3.08591068e-01,  3.09639305e-01,  2.08683335e-03,
        -1.52645969e+00, -2.72398442e-01, -5.26348501e-03,
         5.46325088e-01],
       [-3.56825560e-01, -8.77587378e-01, -5.37036479e-01,
         7.27612197e-01, -6.37581646e-01, -5.33408411e-02,
        -9.27593410e-01, -4.79845256e-02,  3.59505489e-02,
         5.69870293e-01],
       [-6.33034632e-02, -6.53836727e-01, -9.29688573e-01,
         7.47726738e-01, -1.16316175e+00, -7.28318691e-02,
         4.81907159e-01, -2.37053603e-01, -1.98584907e-02,
         3.88577580e-01],
       [-6.12773240e-01,  8.42654407e-01, -2.76430935e-01,
         3.17942679e-01,  6.57510340e-01, -2.67254412e-02,
        -3.77082944e-01, -1.58216870e+00, -3.82835604e-02,
         4.78148311e-01],
       [-3.08970630e-01, -3.21708262e-01,  3.32281113e-01,
        -7.85612524e-01,  1.07447374e+00, -3.38509865e-02,
        -1.42378777e-01,  6.93040788e-02, -1.64901093e-03,
         2.07638025e-01],
       [-9.95576233e-02,  2.39739850e-01,  1.03420663e+00,
         2.46197417e-01,  9.49013114e-01, -3.84150669e-02,
        -1.59266615e+00, -7.96556115e-01, -7.44126141e-02,
        -6.25481069e-01],
       [-1.99964821e-01, -4.53582644e-01,  9.42920506e-01,
        -9.02976036e-01,  6.72017395e-01, -2.08665561e-02,
         8.16705704e-01, -3.47227722e-01, -4.13452461e-03,
         3.50694895e-01],
       [-6.31193161e-01,  1.81014180e+00,  4.03667003e-01,
         2.69378304e-01, -1.41210213e-01, -4.79825847e-02,
        -1.50909209e+00, -6.20382801e-02,  1.51730664e-02,
        -5.13075113e-01],
       [ 3.57386142e-01,  2.34982088e-01, -7.96958711e-03,
         1.77342665e+00, -5.81294239e-01, -4.48028604e-03,
        -3.21500629e-01, -1.03516579e-01, -3.11143436e-02,
        -1.79108232e-01],
       [ 4.89985019e-01, -4.48526949e-01, -7.76144743e-01,
         3.74584019e-01, -1.05604208e+00, -5.05963294e-03,
         1.10736501e+00, -1.00099795e-01, -5.65033359e-03,
         9.82946515e-01],
       [-5.33992425e-02,  4.16622430e-01, -1.31949425e-01,
        -5.52775204e-01,  1.16330393e-01,  1.38960844e-02,
        -3.80139917e-01, -1.44509804e+00,  1.68984458e-02,
         6.94127262e-01],
       [ 1.72928005e-01, -1.07965815e+00,  7.74077535e-01,
         1.34249896e-01,  1.22290504e+00,  1.89709943e-02,
        -7.09463656e-01,  4.90318000e-01,  3.74345295e-02,
        -5.24269283e-01],
       [-3.22973698e-01,  1.35551488e+00,  8.64899695e-01,
        -1.30868340e+00,  5.22736728e-01,  1.86062530e-02,
         4.62962518e-04,  5.85511744e-01, -6.05170354e-02,
        -1.33271527e+00],
       [-4.73503679e-01, -4.32393044e-01,  5.81558883e-01,
         3.03232431e-01,  9.66480851e-01, -1.81591716e-02,
        -6.99753165e-01, -3.35400492e-01, -2.33127251e-02,
        -3.55829626e-01],
       [-9.60818112e-01,  2.00299308e-01, -2.20670760e-01,
        -1.24252605e+00, -3.41710150e-01, -5.92369772e-03,
         1.27622470e-01, -8.11770558e-01, -3.28867659e-02,
         1.34704685e+00],
       [ 5.49234867e-01,  5.80129679e-03, -6.41974807e-01,
         1.68482041e+00, -1.34296989e+00, -3.77092920e-02,
        -1.08523595e+00, -2.17497379e-01,  2.73370761e-02,
        -1.19892694e-01],
       [ 1.00883579e+00, -5.24278760e-01, -9.68172848e-01,
        -3.20264995e-01,  2.70710081e-01, -3.28977988e-03,
         3.76926720e-01,  9.09149721e-02, -1.07000191e-02,
         2.66575605e-01],
       [-1.07249999e+00, -4.78035539e-01, -2.75178492e-01,
         1.95197567e-01, -2.63360381e-01, -4.17752489e-02,
         6.26875401e-01, -2.15471339e+00,  3.29434569e-03,
         7.15143979e-01],
       [-4.66645807e-01,  8.46709549e-01, -1.59948274e-01,
        -1.28581059e+00,  2.74541155e-02,  2.45510670e-03,
         2.83423364e-01, -3.27450484e-01, -1.87202170e-02,
         1.08111989e+00],
       [ 1.11390792e-01,  1.36639440e+00,  2.19158024e-01,
        -1.66881788e+00, -4.62425053e-01, -1.77401248e-02,
         6.42936304e-02,  1.47641927e-01,  1.74009905e-03,
        -4.36127335e-01],
       [-7.86635220e-01,  1.10357714e+00, -2.53217161e-01,
        -1.48332250e+00,  1.30305171e-01, -2.44993940e-02,
         2.85492241e-01,  4.83684927e-01,  4.07291949e-02,
         3.22997987e-01],
       [-1.67596567e+00, -1.98237792e-01,  3.73932958e-01,
         6.89632416e-01, -6.98310912e-01, -3.88327241e-02,
         3.48564893e-01, -1.44662261e+00, -5.30052036e-02,
         1.29063141e+00],
       [ 1.86443835e-01,  4.23920989e-01, -1.03549635e+00,
        -1.79766282e-01, -7.53676295e-01, -7.60770962e-03,
         5.88669658e-01, -2.21132129e-01,  1.60683431e-02,
        -4.34644520e-01],
       [ 8.23089898e-01, -6.73648268e-02, -8.92841995e-01,
         3.26456785e-01,  4.71704423e-01, -4.02131602e-02,
         1.64278060e-01, -6.94608271e-01,  3.43436301e-02,
        -4.09410506e-01],
       [ 1.01662040e+00,  7.23867476e-01,  4.49034989e-01,
        -1.43681526e-01,  7.39168942e-01, -9.12638288e-03,
         4.40861672e-01, -1.51977861e+00, -3.91485393e-02,
         3.23333085e-01],
       [ 3.79164726e-01, -3.71409446e-01,  9.39965248e-01,
        -5.57840884e-01, -1.11251079e-01, -1.72448866e-02,
         5.83312325e-02, -1.61303148e-01, -1.97791904e-02,
         4.27775502e-01],
       [-2.11992294e-01,  4.55248088e-01,  3.18324596e-01,
        -7.62337446e-01, -7.02117801e-01, -4.49201167e-02,
         5.85269406e-02, -3.54921311e-01,  8.52823351e-03,
         6.84062064e-01],
       [ 1.52566716e-01, -3.82968187e-01,  9.04931486e-01,
        -4.83459115e-01, -8.21912169e-01, -1.06010698e-02,
        -2.54305363e-01, -1.16707063e+00,  1.60583444e-02,
         1.60222769e+00],
       [ 1.43719113e+00,  6.35562062e-01,  5.48080444e-01,
        -7.85981774e-01, -7.47300908e-02, -5.74872643e-02,
         5.24046659e-01, -1.16605747e+00, -1.05946856e-02,
        -3.02762151e-01],
       [ 7.18743980e-01,  4.54889685e-01, -3.33691418e-01,
         1.11742163e+00,  6.43434227e-01, -1.16095319e-02,
         8.34834354e-04, -7.05318093e-01,  3.14695686e-02,
        -1.00602567e+00]], dtype=float32), array([-0.15910529, -0.47249314,  1.3465518 , -0.01530634, -0.8860892 ,
       -0.05965497,  0.38453594,  0.5248374 , -0.03591683, -1.7813874 ],
      dtype=float32), array([[-3.1433791e-01,  1.4478297e+00, -6.1148399e-01, -1.8849639e+00,
        -1.6799164e+00, -2.1608896e+00, -3.1340561e+00, -4.3458014e+00,
        -4.2450504e+00,  3.3424005e-01, -3.6803074e+00, -3.5560448e+00,
        -4.0216327e+00,  9.8411900e-01, -4.3489375e+00,  5.0510305e-01],
       [-8.9436039e-02, -7.6272738e-01,  2.3862209e-02, -2.4343886e+00,
        -4.8196821e+00, -6.3248467e-01, -1.8685362e+00, -4.8696103e+00,
        -1.4825042e+00,  2.6988900e-01,  3.4177288e-01,  3.7080251e-02,
        -6.3174808e-01, -4.4120975e+00,  3.2698116e-01, -2.4271791e-01],
       [-2.9772043e+00, -4.2982283e+00, -6.0195994e+00, -1.6828533e-01,
        -5.6408091e+00, -5.9493618e+00, -5.0913692e+00,  6.2708426e-01,
         6.6019696e-01, -8.3602333e+00, -2.9360321e+00,  2.1528763e-01,
         3.2995450e-01, -8.6635256e-01,  6.1352707e-02,  1.2269131e+00],
       [-1.9123625e+00,  7.2220333e-02,  2.1875934e-01,  4.8628429e-01,
        -1.2442504e+00, -7.2900575e-01, -3.5395923e-01, -1.9989996e+00,
        -7.3866553e+00, -1.0358757e+00, -4.0403428e+00, -1.3341262e+00,
         1.1635334e-01, -3.4574618e+00, -2.5242376e-01, -2.6535132e+00],
       [-3.2269356e-01, -2.0094018e+00, -1.2493845e+00, -8.4957266e+00,
         5.5282209e-02, -4.2874327e+00,  5.5697852e-01, -1.4177537e+00,
         1.9991560e-01, -9.9902636e-01,  2.9618543e-01, -4.1681868e-01,
         2.4908946e-01,  4.2251986e-01, -5.1297774e+00, -2.0826142e+00],
       [-5.1495992e-02, -1.7665632e-02, -1.2178870e-02,  1.8763641e-02,
         1.8543240e-02,  2.5328756e-03, -4.0182851e-02, -4.6637073e-02,
        -3.8036448e-03, -3.9214775e-02, -4.1403983e-02, -1.2637986e-02,
        -3.7125695e-02, -2.9490357e-02,  1.7577676e-02, -5.3432092e-02],
       [ 2.0734057e+00,  3.3283758e-01, -4.2785182e+00, -3.7310145e+00,
        -3.5048130e+00, -3.0229869e+00, -2.6235838e+00,  1.8461962e+00,
        -4.3293643e+00, -4.0404234e+00, -5.5559001e+00, -2.8306420e+00,
        -5.8450246e-01, -3.5874248e+00, -3.7572479e+00, -1.7991896e+00],
       [-8.3787098e+00, -7.8963685e-01,  5.3914928e-01, -9.1830325e-01,
         9.5886081e-01, -6.6648972e-01, -2.4451687e+00, -1.3987910e+00,
         4.2915571e-01, -4.8811936e+00, -9.0683031e-01, -1.6272032e-01,
        -1.8855960e+00, -3.4709744e+00, -7.4521527e+00, -3.8700111e+00],
       [-6.1668395e-03, -3.4543116e-02, -3.8030196e-02,  2.1037824e-02,
         2.7823763e-02,  2.6620265e-02,  6.3283052e-03, -7.0379265e-02,
         7.0863687e-03, -4.3224767e-02, -4.8316572e-02, -2.6281158e-02,
        -2.4993023e-02,  1.6650369e-02, -1.9527422e-02, -1.6934223e-02],
       [-4.4528556e-01, -1.0654824e+00, -1.4699458e+00, -1.9519459e-02,
        -2.2823662e-01,  8.8824637e-02, -2.6274625e-02, -1.7230015e-01,
        -1.9289947e-01, -1.2847120e-02, -2.9673597e-01, -4.0759535e+00,
        -4.3720307e+00, -1.6147645e-01,  1.3662921e-01, -6.4375430e-01]],
      dtype=float32), array([-0.65314466, -0.0111191 , -1.2077645 , -1.119281  , -0.9538828 ,
       -0.14325827, -1.5451536 , -1.0723407 , -3.6209981 , -2.2075691 ,
       -1.888617  , -0.03808004, -0.82743925, -1.9503467 , -3.357196  ,
       -1.3521613 ], dtype=float32)]

Model[6]
[array([[-2.81878948e-01, -4.41064745e-01, -7.80380011e-01,
        -1.01871479e+00,  6.75585210e-01, -8.41747001e-02,
        -4.51639518e-02,  6.29688740e-01, -3.51103283e-02,
        -1.35610700e+00],
       [-3.90257686e-01, -1.10812694e-01, -5.67705989e-01,
        -1.22710395e+00,  1.06569660e+00, -8.27170387e-02,
        -1.43698618e-01, -7.62914941e-02, -5.45231812e-02,
         4.71938759e-01],
       [-7.27358282e-01, -9.39304948e-01, -4.20869619e-01,
        -6.93079054e-01, -1.02441527e-01, -4.53103520e-02,
        -3.39006662e-01,  4.33399707e-01, -1.49314515e-02,
         1.40115261e+00],
       [-1.82784289e-01, -1.29920590e+00,  3.73920292e-01,
        -5.82176208e-01, -4.16529208e-01, -1.60670020e-02,
        -4.30097044e-01, -3.32676619e-01, -1.21391192e-02,
         1.23882151e+00],
       [-3.85340042e-02, -1.22476351e+00, -8.24512914e-02,
        -1.00802302e+00,  2.12854162e-01, -2.42722500e-02,
        -3.44104655e-02,  4.59630102e-01, -4.09283526e-02,
         2.03772116e+00],
       [ 2.77071148e-01, -6.13414764e-01, -3.40430945e-01,
        -1.40912712e+00,  1.10471380e+00,  3.79450023e-02,
        -1.99652776e-01,  1.14663415e-01, -2.08819043e-02,
         3.83256435e-01],
       [-2.33330473e-01, -7.16596723e-01, -2.85906851e-01,
        -4.45723832e-02,  8.81214440e-01, -9.49216919e-05,
        -1.17321503e+00,  9.52517539e-02, -1.91991273e-02,
        -5.96136928e-01],
       [ 8.20764601e-02, -1.89067468e-01, -8.38964939e-01,
        -1.16766822e+00, -4.74833474e-02, -2.78183185e-02,
         3.05869579e-01,  1.02849293e+00, -1.47430729e-02,
        -4.00615484e-01],
       [-2.02900267e+00,  9.12860874e-03, -1.87239274e-01,
         7.35551238e-01,  1.49088725e-03, -2.08565891e-02,
        -2.19823569e-01, -5.23016512e-01,  9.55524761e-03,
         1.41427383e-01],
       [-1.11118272e-01, -1.38436466e-01,  1.00230742e+00,
         4.36859578e-01, -5.97073257e-01, -1.75223798e-02,
         8.33926648e-02,  3.85217108e-02, -6.27093688e-02,
         6.78212941e-01],
       [-7.77719393e-02,  1.20588076e+00,  9.36039090e-01,
         1.33964658e-01, -1.91494718e-01,  2.18301751e-02,
