Model[0]
[array([[-3.25879827e-02,  2.64182925e-01,  1.39883444e-01,
         2.37139493e-01,  1.34653449e-01,  1.91505197e-02,
         3.46744329e-01,  3.71551722e-01,  6.18227385e-02,
         1.99968249e-01, -4.08655480e-02,  4.19205893e-03],
       [ 1.07286349e-02, -8.60957243e-03, -1.59106180e-01,
         8.13681483e-02, -7.86569268e-02, -3.55187990e-02,
         7.85525292e-02, -1.69575542e-01,  1.15883220e-02,
         1.64825872e-01, -2.94653531e-02, -5.87880276e-02],
       [ 3.56041081e-02, -2.67332941e-01,  9.48616639e-02,
         1.26122445e-01,  6.89616501e-02,  2.23626606e-02,
        -3.78066860e-02,  8.35602954e-02,  2.53933966e-01,
         6.87804744e-02, -4.42012809e-02,  3.00036855e-02],
       [ 3.69111039e-02, -2.30370194e-01,  1.88186601e-01,
         1.36990204e-01,  3.00708473e-01,  9.82756168e-03,
         1.68624911e-02,  2.80008078e-01,  1.98188752e-01,
         2.44418114e-01, -3.58996764e-02, -4.13337015e-02],
       [ 4.22986262e-02, -3.06140542e-01,  7.70205781e-02,
         9.94380191e-02,  1.06783602e-02, -3.82793918e-02,
        -7.89337307e-02,  8.68683532e-02,  2.48740003e-01,
         5.22545241e-02, -2.45096087e-02, -5.29263616e-02],
       [-2.70245317e-02, -1.98305964e-01,  7.76745752e-02,
         8.69855732e-02,  6.25056922e-02,  4.17328021e-03,
         1.39609410e-03,  2.70909052e-02,  8.35262705e-03,
         1.45431831e-01, -1.60294548e-02, -3.62645648e-02],
       [-1.01225004e-02,  9.34263095e-02,  9.88465399e-02,
         1.52998522e-01,  2.61042088e-01, -9.68283508e-03,
         2.82732397e-01,  4.21159267e-01, -1.26601651e-01,
         9.41989943e-02, -3.06497235e-02, -3.06046829e-02],
       [ 4.98201139e-02,  1.43536180e-01, -6.98824972e-02,
         2.91815549e-01,  1.10678434e-01,  5.53348428e-03,
         3.52352023e-01, -5.62928140e-01,  8.25559348e-02,
         1.29362896e-01,  3.36432941e-02, -8.53917003e-03],
       [-3.20800319e-02,  1.28910735e-01,  2.20220223e-01,
         3.44775259e-01, -2.01164410e-01, -6.39069639e-03,
         1.39102027e-01,  3.84196162e-01,  2.63825774e-01,
         1.50583729e-01, -3.62641178e-02, -1.76227409e-02],
       [-2.38899235e-02, -7.43458644e-02,  3.04656148e-01,
        -1.64537013e-01,  4.19988424e-01,  2.00948827e-02,
        -1.10799156e-01,  3.55561152e-02,  7.08418489e-02,
         1.19179644e-01, -4.29901369e-02, -1.23384707e-02],
       [ 3.42338420e-02, -5.05079888e-02,  2.58853078e-01,
        -2.37402543e-01,  3.91671270e-01,  5.66253811e-03,
        -1.21224262e-01,  3.23644653e-02,  1.14409298e-01,
         7.73917958e-02, -1.11620910e-02,  1.68398507e-02],
       [ 4.97466363e-02, -1.31309226e-01,  1.43841729e-01,
        -3.61184388e-01,  1.07186921e-01, -2.76870131e-02,
        -2.88694084e-01, -5.17652333e-01,  2.43664160e-02,
        -1.78787768e-01,  4.88324650e-02, -2.46148594e-02],
       [-9.17775556e-03,  1.70459151e-01,  1.83617488e-01,
        -1.74697656e-02, -1.76719323e-01, -5.22099100e-02,
         1.40934018e-02,  6.22618914e-01,  2.51752026e-02,
         5.68672419e-02, -4.62303758e-02, -5.64085832e-03],
       [-1.40556321e-02,  1.52756274e-03,  1.26105845e-01,
         1.60682514e-01,  3.73645306e-01, -1.23584904e-02,
         1.82950780e-01, -1.61981806e-01, -4.84200232e-02,
         7.92953968e-02,  3.51545401e-02,  1.44710541e-02],
       [-4.97642532e-02,  2.69085526e-01, -4.99983467e-02,
         3.52204740e-01,  6.33667931e-02, -2.36843005e-02,
         3.74416023e-01, -2.14660197e-01,  2.32307732e-01,
         6.11601286e-02, -4.26729545e-02, -5.81097528e-02],
       [-2.76090037e-02,  4.44436729e-01,  1.56851381e-01,
         1.03379972e-01,  3.34654182e-01, -4.60767411e-02,
         1.31386802e-01, -2.93639507e-02, -2.38427485e-04,
         2.17830032e-01, -4.49287891e-02, -4.47448529e-02],
       [ 4.75636981e-02,  5.13601936e-02,  2.66638607e-01,
         1.75869495e-01,  7.35855773e-02, -2.66072005e-02,
         1.33681297e-01,  4.78333950e-01,  1.39992312e-01,
         1.25651807e-01,  2.24645250e-02, -2.71821972e-02],
       [-1.57271139e-02, -7.57170320e-02,  2.38622814e-01,
        -1.43685818e-01,  3.26658249e-01, -1.40728466e-02,
        -9.51375887e-02,  1.78376049e-01,  6.92058802e-02,
         1.81628510e-01, -1.28607266e-02, -2.84428243e-02],
       [-3.10911424e-02, -2.39461716e-02,  2.69344002e-01,
         5.81562296e-02, -4.71269228e-02, -3.53676304e-02,
         3.92352380e-02,  5.15343249e-01,  7.38484338e-02,
         2.04712242e-01, -2.83165574e-02, -1.26463063e-02],
       [-4.67496999e-02,  5.31407893e-01,  5.61357513e-02,
        -1.40980437e-01,  4.78924721e-01,  2.95901801e-02,
         4.34494726e-02,  3.78444977e-02, -3.66630644e-01,
        -2.06646547e-01,  4.45819385e-02, -7.85092730e-03],
       [-4.38194536e-02,  1.88454479e-01, -8.04179683e-02,
         2.40084574e-01,  2.40477726e-01,  2.88272761e-02,
         1.90060645e-01,  2.40814555e-02, -6.11812714e-03,
        -5.89648895e-02,  5.68450848e-03,  3.01098195e-03],
       [-1.54390335e-02,  2.56598085e-01, -1.33116171e-01,
         3.40940773e-01, -2.40597911e-02, -3.35332565e-02,
         3.07141542e-01, -2.20148861e-01,  1.54614016e-01,
         1.09181814e-01,  2.67140493e-02,  2.21190732e-02],
       [-2.20941380e-03,  3.05016845e-01, -6.21502101e-02,
         1.03423007e-01, -2.95352846e-01, -4.69640866e-02,
         3.14309150e-02, -5.25875151e-01, -6.36043772e-02,
         2.39571363e-01, -3.24717760e-02, -3.43965143e-02],
       [-3.06176897e-02, -4.60054092e-02,  3.02795917e-01,
         1.05375811e-01,  4.52539295e-01,  3.07516381e-02,
         1.35841876e-01,  2.27629207e-02,  7.84952193e-02,
        -4.89769578e-02, -4.77634184e-02, -4.62682620e-02],
       [-2.44885329e-02,  6.31546751e-02,  2.85755754e-01,
         1.79250151e-01,  3.21903199e-01, -4.29825075e-02,
         1.58152908e-01,  5.42999327e-01,  2.00034723e-01,
         2.22843871e-01,  2.44327765e-02, -2.68270373e-02],
       [ 5.46461344e-03,  7.21662268e-02,  1.35926351e-01,
        -2.75441080e-01,  4.88727629e-01, -2.74201273e-03,
        -2.54057180e-02,  4.02835160e-02, -2.61855423e-01,
        -3.22069019e-01, -4.86178510e-02, -2.77683139e-02],
       [ 2.44536251e-03,  4.38306391e-01,  8.54033604e-02,
        -2.41619170e-01,  2.31836438e-01, -3.98429744e-02,
        -2.02537060e-01,  5.06064184e-02, -3.82227600e-01,
        -9.66951698e-02, -3.23052295e-02,  2.93401945e-02],
       [ 6.96420670e-03,  2.08396420e-01, -1.18069284e-01,
         3.73642862e-01,  7.26979822e-02,  1.54463779e-02,
         2.43621364e-01, -1.69166952e-01,  1.00637011e-01,
         4.27631512e-02, -5.49428090e-02, -2.86892876e-02],
       [ 3.38118151e-03,  2.57202089e-01, -2.21160114e-01,
         2.58886665e-01,  2.90996172e-02,  3.87815200e-02,
         2.32983097e-01, -1.78941146e-01,  2.93714046e-01,
         5.20854257e-02, -5.46336509e-02,  3.70398201e-02],
       [-3.14214118e-02,  1.89649165e-01, -2.61409283e-02,
         1.93113253e-01,  4.27156966e-03, -3.54669094e-02,
         8.27632323e-02, -4.44210708e-01,  4.60917363e-03,
         3.79591376e-01,  1.56299509e-02,  3.44943367e-02],
       [ 2.23349780e-04, -4.71858084e-01, -9.52021778e-02,
         1.02343254e-01,  2.15762019e-01,  3.36774476e-02,
        -4.70521934e-02, -3.33655119e-01,  1.71664741e-03,
         3.21135640e-01, -2.84412038e-02,  8.05496797e-03],
       [ 1.89185627e-02,  1.11589305e-01,  3.94337386e-01,
         8.58131722e-02,  6.09206319e-01,  7.33766821e-04,
         5.67622706e-02,  5.82547188e-01,  9.66645256e-02,
         3.32563400e-01,  4.42539118e-02, -2.19338518e-02],
       [-4.93620150e-02, -2.83300251e-01, -4.28299569e-02,
         5.29900342e-02,  4.48933631e-01, -1.52644590e-02,
        -4.19653468e-02, -2.85243660e-01, -3.16994190e-02,
         1.13367163e-01,  2.46439483e-02,  1.27739571e-02],
       [-2.18915697e-02,  1.03103640e-02, -4.87776287e-02,
         1.62236646e-01,  1.17792808e-01, -1.76438112e-02,
        -9.32044536e-02, -4.08808172e-01, -1.52544394e-01,
         3.30503762e-01,  4.68706526e-02,  3.55468877e-02],
       [ 2.36134790e-02,  1.13365285e-01, -1.85060352e-01,
         2.34417647e-01,  1.21732809e-01, -9.85556934e-03,
         2.05071256e-01, -1.81472450e-01,  8.74289870e-02,
         4.89194924e-03,  1.40259741e-02, -1.25617161e-02],
       [-1.66063420e-02,  2.00601459e-01, -4.32006307e-02,
         3.23376298e-01,  1.34907961e-01, -1.51930982e-02,
         2.78391302e-01, -9.72851962e-02,  3.80739450e-01,
         6.56872764e-02, -3.17068957e-02,  3.80908814e-03],
       [-9.81763750e-03,  2.86276937e-01, -8.94622728e-02,
         1.32647410e-01, -2.95852244e-01,  2.14915611e-02,
        -5.18798381e-02, -5.13636649e-01, -9.44107100e-02,
         2.16976136e-01, -3.48996893e-02, -2.70062056e-03],
       [ 4.35131788e-03,  4.91462089e-02,  2.48972192e-01,
        -4.35788743e-02,  3.32735568e-01, -5.97209856e-03,
        -3.23384255e-02,  1.08934045e-01, -2.33230874e-01,
        -5.97183816e-02, -4.86282222e-02, -3.74456607e-02],
       [ 9.17442888e-03, -4.13400419e-02,  2.82584399e-01,
        -8.23521614e-03,  3.06608289e-01, -1.27841458e-02,
        -3.15909348e-02,  5.39262652e-01, -3.22846859e-03,
         2.18822971e-01,  4.21192534e-02,  5.69258351e-03],
       [-2.37136483e-02, -8.79609585e-02,  4.16510463e-01,
         2.38353014e-01,  3.07278872e-01,  4.14304622e-02,
         9.54981446e-02,  4.55937050e-02,  8.32737163e-02,
         8.91831815e-02, -2.00611353e-02,  2.12869663e-02],
       [-3.67084742e-02,  4.58985507e-01,  4.58598733e-02,
         8.74713734e-02,  2.09535092e-01,  8.65699071e-03,
         2.65065301e-02, -4.06138599e-01, -6.24593161e-02,
        -6.54709786e-02,  2.12148540e-02, -1.42403897e-02],
       [-4.71087471e-02,  3.37530851e-01, -1.67597502e-01,
         5.44508398e-02, -6.21684156e-02,  1.16127497e-02,
         1.65091529e-01, -5.08183613e-02,  1.20847456e-01,
        -3.04134220e-01, -1.60649680e-02, -1.59677491e-02],
       [-4.05989066e-02,  2.13770524e-01, -8.18228573e-02,
         1.67644635e-01,  1.64860845e-01,  3.10077844e-03,
         1.56620428e-01,  4.45852019e-02,  2.86857456e-01,
         3.32619920e-02, -4.21103686e-02, -3.41944285e-02],
       [-3.86085026e-02,  2.75662839e-01, -1.59489334e-01,
        -2.67789364e-02, -3.44717145e-01, -8.66985973e-03,
         7.85721391e-02, -2.65342593e-01, -1.37462676e-01,
         3.18278151e-04, -3.77847441e-02,  2.39819810e-02],
       [-4.86156233e-02, -4.82416041e-02,  1.32708311e-01,
        -1.57265410e-01,  2.58544777e-02, -1.47206560e-02,
        -4.30196971e-02,  3.99191290e-01, -2.19510961e-02,
        -3.26198302e-02,  3.60793136e-02, -1.75824277e-02],
       [-4.05272357e-02,  1.54391930e-01,  4.33358729e-01,
         8.66957158e-02,  4.35483962e-01,  4.44223396e-02,
         9.54796821e-02,  4.85191345e-01,  3.40437563e-03,
         2.28373513e-01,  4.96474653e-03, -4.03133966e-02],
       [-2.82886513e-02, -3.08537841e-01,  2.15335339e-02,
         1.58438191e-01, -3.94248575e-01, -7.74632767e-03,
         2.38681957e-02,  9.45994556e-02,  7.76542351e-03,
         2.29423732e-01, -1.20917931e-02, -2.60239444e-03],
       [-2.89650913e-02,  1.93708643e-01,  1.76715150e-01,
         3.51599008e-02, -1.30572587e-01, -2.32562888e-02,
         1.02793634e-01, -8.32694098e-02,  2.19511730e-03,
         5.01927137e-02,  3.72989289e-02,  4.09554392e-02],
       [ 1.93849467e-02,  3.67020786e-01, -1.95863754e-01,
         2.64143124e-02, -3.45272832e-02, -2.67877672e-02,
         2.17294291e-01, -5.57436943e-02,  1.33083969e-01,
        -3.04182678e-01,  2.94659454e-02, -2.89634764e-02],
       [ 2.42648274e-03,  1.98491141e-01, -2.14180991e-01,
         8.08343664e-02,  1.23253785e-01, -1.13028713e-04,
         2.44329289e-01, -1.86077163e-01,  5.70308082e-02,
        -1.82698779e-02,  2.12681852e-02,  2.72268485e-02],
       [ 4.41998951e-02,  7.55923167e-02,  1.52607495e-03,
         1.38154358e-01, -3.99821043e-01, -3.79950814e-02,
         9.40679088e-02,  4.44685668e-01,  2.13674411e-01,
         1.52104825e-01, -2.73812301e-02, -4.75703105e-02],
       [-7.61344284e-03,  1.22952841e-01,  2.96463314e-02,
        -1.38053641e-01, -4.50074315e-01,  3.11029665e-02,
         1.33938059e-01, -5.33499658e-01,  2.59200688e-02,
        -5.48922569e-02, -4.11524624e-03,  1.86771266e-02],
       [-4.37015668e-02,  3.19101185e-01,  2.54473239e-01,
        -5.72281256e-02,  1.01719230e-01,  3.20342258e-02,
         1.07167408e-01,  2.79918790e-01,  7.95310736e-02,
         1.35500833e-01, -2.75327321e-02, -2.07259301e-02],
       [ 3.85459401e-02,  1.90431774e-01, -3.26305181e-02,
        -1.34056762e-01, -4.33535516e-01, -5.33763394e-02,
         1.34944960e-01, -5.68964183e-01,  5.27403280e-02,
        -1.57206934e-02,  1.49203427e-02,  3.03073209e-02],
       [-4.71990183e-03,  6.24456517e-02, -4.93389787e-03,
         1.99950159e-01, -5.49914002e-01,  3.85359414e-02,
         1.46028012e-01,  3.37789804e-01,  3.18797588e-01,
         1.96611345e-01, -1.90694928e-02, -4.01703082e-03],
       [ 3.04843895e-02,  4.03461486e-01, -2.25751966e-01,
         5.20987883e-02, -8.45095515e-02,  1.00073116e-02,
         3.80627960e-01, -4.37249660e-01,  1.48471907e-01,
        -2.87476331e-01,  3.75313945e-02, -1.08960215e-02],
       [-4.14694771e-02,  2.77653903e-01, -9.93383974e-02,
         1.79307550e-01,  2.59537131e-01, -5.73454797e-02,
         2.89133847e-01,  2.35528126e-01,  1.36072010e-01,
         1.77124292e-01,  1.99110769e-02,  3.67898978e-02],
       [ 4.81733195e-02,  2.53514469e-01, -6.28902614e-02,
        -1.11529857e-01,  1.68048680e-01, -5.55472448e-03,
        -1.05258383e-01,  2.44093671e-01, -2.22503077e-02,
         1.77613750e-01, -3.55286486e-02,  2.06664833e-03],
       [-1.99195985e-02,  1.26141444e-01,  1.99210241e-01,
        -1.22740097e-01,  3.37795973e-01, -5.27050868e-02,
        -1.61786303e-01,  5.01634836e-01,  2.85440743e-01,
         1.13903992e-01, -2.54439600e-02, -5.28725199e-02],
       [-4.04189602e-02,  2.05536172e-01,  3.07680398e-01,
         5.50692603e-02,  1.93034634e-01, -2.33766306e-02,
         1.91631261e-02,  6.11449122e-01,  2.27295116e-01,
         8.27028528e-02,  2.17463486e-02, -2.17875391e-02],
       [-4.02160399e-02,  7.14304149e-02,  2.00122014e-01,
        -7.58620203e-02,  9.65145379e-02, -1.80495977e-02,
        -1.10014724e-02,  3.87379020e-01,  3.11638415e-01,
         4.86859269e-02, -2.50601172e-02, -4.85004224e-02],
       [-2.30795145e-03,  3.23218912e-01,  5.69515713e-02,
        -1.55291185e-01,  2.82397836e-01, -1.98149085e-02,
         4.15517832e-04,  4.29705203e-01,  1.03437006e-01,
         8.19468051e-02,  4.35721762e-02,  1.01258857e-02],
       [-5.42161614e-03,  3.26973349e-01, -1.21517822e-01,
         1.28834978e-01,  1.13111705e-01, -4.63115685e-02,
         1.46401361e-01,  1.44010544e-01,  9.97601077e-03,
         5.11208475e-02, -2.98295845e-03, -3.56093533e-02]], dtype=float32), array([ 0.        ,  0.23970386,  0.27169093,  0.28748903,  0.33817834,
       -0.01142383,  0.2508682 ,  0.5694985 ,  0.24463573,  0.23057306,
       -0.00797181, -0.0118995 ], dtype=float32), array([[-0.01964839, -0.04207546, -0.03150046,  0.01081072, -0.04651432,
        -0.00353418,  0.02135006,  0.02896639,  0.0097047 , -0.02584723,
         0.0192205 ,  0.02431552,  0.00823321, -0.00421805, -0.00980412,
         0.04271862],
       [-0.01443714, -0.01846279, -0.09384134, -0.1805867 , -0.28037828,
        -0.11574223, -0.18724863, -0.3308706 , -0.33639508,  0.02894781,
        -0.04198506, -0.20450166, -0.25211573, -0.09834526, -0.01056536,
        -0.24166974],
       [-0.2429523 , -0.21904461, -0.2548969 , -0.23215812, -0.24257205,
        -0.19691022, -0.20316385, -0.02331852,  0.02583351, -0.21467552,
        -0.06813072, -0.07169902, -0.11542103, -0.11172838, -0.07471266,
        -0.05081172],
       [-0.12431698, -0.12333769, -0.04757749, -0.0672273 , -0.05683311,
        -0.07179102,  0.01539346, -0.12519206, -0.20418264, -0.13619852,
        -0.05936822, -0.242802  , -0.16491526, -0.2651184 , -0.15567358,
        -0.38280734],
       [-0.46870455,  0.03332356, -0.05253788, -0.25568804,  0.01848488,
        -0.34971192, -0.13104601, -0.10933536,  0.0123257 , -0.16474357,
        -0.1517125 , -0.12903106, -0.30922514,  0.02987982, -0.11373246,
         0.05296657],
       [-0.02992379,  0.03566394, -0.02991779, -0.03075383,  0.0117812 ,
         0.0485565 , -0.03788568, -0.00281906,  0.01752115, -0.05965992,
         0.03212726,  0.01032829,  0.02060732,  0.01839739,  0.02551742,
         0.01347342],
       [-0.06565581, -0.03203188, -0.06102492, -0.14962551, -0.08916385,
         0.00653117, -0.09714107, -0.22223993, -0.17232984, -0.08648495,
        -0.08775677, -0.25464404, -0.1628668 , -0.20799334, -0.14809339,
        -0.33731872],
       [-0.4165305 , -0.4412436 , -0.46932825, -0.01903265, -0.46473834,
        -0.27400804, -0.42052227, -0.03322359, -0.03161659, -0.35564902,
        -0.4359583 ,  0.1699153 ,  0.16692954,  0.06362545, -0.42844483,
         0.07031249],
       [-0.02955463, -0.22259966, -0.10669579, -0.00261159, -0.09655631,
        -0.06480788, -0.13486008, -0.06070524, -0.09483307, -0.12190525,
        -0.31188533, -0.26920724, -0.19122237, -0.23299497, -0.08338055,
        -0.21527837],
       [-0.11038352, -0.28471544, -0.23367296, -0.20229024, -0.02902307,
        -0.16235024,  0.024041  , -0.14233452, -0.08451775, -0.08775349,
        -0.11321986, -0.17690435, -0.10211007, -0.1833187 , -0.11430342,
        -0.11744574],
       [-0.03046245,  0.02681832,  0.03650324, -0.00347789, -0.00956656,
         0.02516487, -0.01639629, -0.01233458,  0.00751182,  0.02010693,
        -0.0230106 ,  0.02454874,  0.02766739,  0.03889968,  0.03276653,
        -0.02109958],
       [ 0.02892654, -0.00224232, -0.01383396, -0.02455169, -0.00567463,
        -0.02704661,  0.00915572,  0.0350934 , -0.00580814,  0.02157296,
        -0.03700039,  0.03130237,  0.01671285, -0.04659909,  0.02639661,
         0.02093229]], dtype=float32), array([-0.10203664, -0.10059354, -0.09833285, -0.06540392, -0.06794391,
       -0.14155748, -0.16966873, -0.04492323, -0.19799699, -0.21670558,
       -0.08176985, -0.06055613, -0.08501281, -0.15960178, -0.15220813,
       -0.0599518 ], dtype=float32)]

Model[1]
[array([[-3.25879827e-02,  2.13026240e-01,  3.84398997e-01,
         9.70065296e-02, -3.38776410e-02,  1.91505197e-02,
         1.66768157e+00,  2.14384928e-01, -4.71652329e-01,
         1.24793902e-01,  6.93744600e-01,  4.19205893e-03],
       [ 1.07286349e-02, -2.79347867e-01,  1.01001233e-01,
        -2.73312181e-01, -1.49982139e-01, -3.55187990e-02,
         1.52772653e+00, -5.11965811e-01, -5.23868129e-02,
         9.00763333e-01, -9.84297693e-02, -5.87880276e-02],
       [ 3.56041081e-02, -1.05095243e+00,  6.37746811e-01,
         5.16160011e-01,  4.03266817e-01,  2.63562403e-03,
        -1.65390864e-01,  6.02411926e-01,  8.56734931e-01,
         1.86380610e-01, -6.52695954e-01,  3.00036855e-02],
       [ 6.28864951e-03, -7.27396727e-01,  6.60420656e-01,
         7.10323989e-01,  6.82229996e-01, -9.89946909e-03,
        -1.89494625e-01,  7.83509612e-01,  1.02355134e+00,
         5.91038167e-01, -8.59748125e-01, -4.13337015e-02],
       [ 1.16761699e-02, -9.49744165e-01,  5.09391665e-01,
         7.47338951e-01,  2.77437568e-01, -3.82793918e-02,
        -3.11881423e-01,  4.37709153e-01,  8.04312706e-01,
         2.95457453e-01, -6.08911037e-01, -5.29263616e-02],
       [-2.70245317e-02, -6.21133864e-01,  3.90926838e-01,
         5.47369123e-01,  8.30660015e-02, -1.55537501e-02,
         7.19487667e-01, -5.77963665e-02, -1.83216602e-01,
         7.85541773e-01, -1.61707056e+00, -3.62645648e-02],
       [-4.07449529e-02,  7.67844915e-02,  2.74332523e-01,
         2.59571820e-01,  3.53578001e-01, -9.68283508e-03,
         1.68546045e+00,  3.48350137e-01, -9.92792785e-01,
        -2.02192396e-01, -2.61876643e-01, -3.06046829e-02],
       [ 4.98201139e-02, -1.18715525e-01,  1.78607509e-01,
         4.19763267e-01,  1.29761308e-01,  5.53348428e-03,
         1.70273697e+00, -1.04478014e+00,  2.86758572e-01,
         1.37845144e-01,  5.11437237e-01, -8.53917003e-03],
       [-3.20800319e-02,  2.41180986e-01,  3.35136384e-01,
         1.22491634e+00, -1.46312606e+00, -2.61177309e-02,
        -9.81949195e-02,  5.64422965e-01,  4.66246694e-01,
         3.20648164e-01,  1.07684636e+00, -1.76227409e-02],
       [-5.45123778e-02,  9.83851403e-02,  1.12435937e+00,
        -3.64598274e-01,  6.97057009e-01,  2.00948827e-02,
        -3.71724606e-01, -8.88524875e-02,  7.97162950e-01,
         6.83265209e-01, -4.76414450e-02, -1.23384707e-02],
       [ 3.61138582e-03,  2.64179170e-01,  6.30065084e-01,
        -4.84538972e-01,  1.11265588e+00,  5.66253811e-03,
        -4.69746143e-01, -1.15818895e-01,  9.96132851e-01,
         8.76840055e-01,  1.79112300e-01,  1.68398507e-02],
       [ 4.97466363e-02, -2.75443882e-01,  8.49303663e-01,
        -5.57307661e-01,  6.09207392e-01, -2.76870131e-02,
        -1.06950723e-01, -8.35321665e-01,  4.85450387e-01,
         2.79077411e-01,  3.99149626e-01, -2.46148594e-02],
       [-9.17775556e-03,  1.14750135e+00,  5.61057404e-02,
        -2.84492016e-01, -3.77383441e-01, -5.22099100e-02,
         4.36018229e-01,  1.22793806e+00, -6.58728600e-01,
        -7.17941344e-01, -3.73167694e-01, -5.64085832e-03],
       [-1.40556321e-02, -3.65265399e-01,  5.31714678e-01,
         5.92330933e-01,  7.09840655e-01, -1.23584904e-02,
         6.88714027e-01, -4.31300581e-01, -2.57245481e-01,
         6.38520271e-02, -5.56790411e-01,  1.44710541e-02],
       [-4.97642532e-02,  7.34554410e-01, -7.26642013e-02,
         6.87366605e-01,  3.73241425e-01, -2.36843005e-02,
         4.75688368e-01, -4.19192284e-01,  5.70140660e-01,
        -1.83034286e-01,  2.28714883e-01, -5.81097528e-02],
       [-5.82314618e-02,  1.78178179e+00, -8.21046010e-02,
        -2.01135352e-01,  9.52763200e-01, -4.60767411e-02,
        -3.64541113e-01, -6.16752326e-01, -4.14100587e-01,
         1.14751315e+00, -3.13697070e-01, -4.47448529e-02],
       [ 1.69412475e-02, -1.54005527e-01,  5.55358112e-01,
         4.26879406e-01, -7.07543671e-01, -2.66072005e-02,
         3.02824855e-01,  6.36261225e-01, -7.76249915e-03,
        -3.86927098e-01,  1.34293950e+00, -2.71821972e-02],
       [-4.63495739e-02, -2.85086152e-03,  4.24876809e-01,
        -5.73563337e-01,  1.19704866e+00, -1.40728466e-02,
        -1.27523700e-02,  1.44049272e-01,  7.85670936e-01,
         5.89950025e-01, -2.33317122e-01, -2.84428243e-02],
       [-3.10911424e-02, -1.76882908e-01,  8.53008866e-01,
        -2.37193957e-01, -3.31518143e-01, -3.53676304e-02,
         7.11453915e-01,  1.02764761e+00, -4.72267151e-01,
         9.31914337e-03,  6.40306473e-01, -1.26463063e-02],
       [-4.67496999e-02,  1.63889575e+00, -1.28057957e-01,
        -6.19280100e-01,  1.39364123e+00,  2.95901801e-02,
         1.95172787e-01, -3.60729434e-02, -1.35975206e+00,
        -9.36194211e-02, -9.28745329e-01, -7.85092730e-03],
       [-4.38194536e-02,  6.05355978e-01, -2.67297715e-01,
         7.53085196e-01,  7.64936566e-01,  9.10024717e-03,
         5.23675263e-01,  3.14347781e-02,  7.08108917e-02,
        -5.08806109e-01, -3.90027672e-01,  3.01098195e-03],
       [-1.54390335e-02,  5.87871850e-01, -4.00470719e-02,
         4.05133933e-01,  2.17843920e-01, -3.35332565e-02,
         7.39143550e-01, -4.06665087e-01,  5.30238330e-01,
        -1.89345643e-01,  4.71938223e-01,  2.21190732e-02],
       [-2.20941380e-03,  1.33862054e+00, -3.02940369e-01,
         9.77030173e-02, -5.79112470e-01, -4.69640866e-02,
        -8.65710258e-01, -8.96075070e-01, -3.21638227e-01,
         1.50065160e+00,  2.86466062e-01, -3.43965143e-02],
       [-3.06176897e-02, -4.68998522e-01,  1.26163590e+00,
         4.55380417e-02,  1.48585308e+00,  1.10246092e-02,
         1.84773579e-01,  8.11339542e-02, -5.11676185e-02,
         1.41683087e-01, -5.02923429e-01, -4.62682620e-02],
       [-5.51109873e-02, -1.27140239e-01,  6.84452176e-01,
         5.93239903e-01, -2.07966492e-01, -4.29825075e-02,
         3.50590557e-01,  4.94126260e-01,  7.45064855e-01,
        -6.68632090e-02,  1.58623743e+00, -2.68270373e-02],
       [ 5.46461344e-03,  4.80121106e-01,  8.08228776e-02,
        -1.29228354e+00,  1.86116838e+00, -2.74201273e-03,
         1.12087083e+00,  3.49907070e-01, -9.72175002e-01,
        -4.64955956e-01, -3.99999291e-01, -2.77683139e-02],
       [ 2.44536251e-03,  1.56120193e+00, -8.41949359e-02,
        -4.19166714e-01,  5.41239440e-01, -3.98429744e-02,
        -2.55577594e-01, -1.18980668e-01, -9.04393971e-01,
         1.85263738e-01, -9.50696528e-01,  2.93401945e-02],
       [ 6.96420670e-03,  4.28478628e-01, -1.61300480e-01,
         1.07369971e+00,  6.64912581e-01,  1.54463779e-02,
         6.99063480e-01, -4.17418301e-01,  4.01197582e-01,
        -4.02075917e-01, -3.98788154e-01, -2.86892876e-02],
       [ 3.38118151e-03,  6.23357534e-01, -3.02226752e-01,
         3.43105346e-01,  2.54637212e-01,  3.87815200e-02,
         2.26534665e-01, -3.56841058e-01,  1.04367018e+00,
        -3.70080620e-01,  6.81970537e-01,  3.70398201e-02],
       [-3.14214118e-02,  1.88083291e-01,  2.66738951e-01,
        -7.04031214e-02,  2.87948817e-01, -3.54669094e-02,
        -3.43561500e-01, -9.74796772e-01,  3.22436720e-01,
         1.17574394e+00,  1.20010264e-01,  3.44943367e-02],
       [ 2.23349780e-04, -9.88020062e-01,  5.41885316e-01,
         6.07142709e-02,  6.69625819e-01,  3.36774476e-02,
         5.12523651e-01, -7.85000265e-01,  1.17483005e-01,
         1.10449672e+00, -6.33877635e-01,  8.05496797e-03],
       [-1.17038935e-02, -2.97386259e-01,  1.35600042e+00,
         3.53084914e-02,  1.40295589e+00,  7.33766821e-04,
        -2.17295170e-01,  6.99995220e-01, -2.51015604e-01,
         5.01600325e-01, -3.73935014e-01, -2.19338518e-02],
       [-4.93620150e-02, -1.04877138e+00, -3.57977077e-02,
         5.25901198e-01,  8.33381653e-01, -1.52644590e-02,
         3.51140946e-01, -4.43694890e-01,  4.40369993e-01,
         5.61221182e-01,  6.48880005e-01,  1.27739571e-02],
       [-2.18915697e-02,  4.59346063e-02,  2.63524473e-01,
         5.74304640e-01,  8.14864397e-01, -1.76438112e-02,
        -8.18706572e-01, -1.02759647e+00, -1.85446203e-01,
         9.31710064e-01, -1.58622730e+00,  3.55468877e-02],
       [-7.00897444e-03,  4.09851044e-01, -3.91016275e-01,
         5.69723666e-01,  6.73937678e-01, -9.85556934e-03,
         3.72046620e-01, -3.97724450e-01,  7.48378634e-01,
        -6.37496829e-01, -3.86013001e-01, -1.25617161e-02],
       [-1.66063420e-02,  7.68084824e-02, -2.36665625e-02,
         8.94080102e-01,  3.80492181e-01, -3.49201038e-02,
         6.87618330e-02, -1.92884818e-01,  1.32228470e+00,
        -1.47355884e-01,  3.39396477e-01,  3.80908814e-03],
       [-9.81763750e-03,  1.32367814e+00, -2.02357039e-01,
         2.66935319e-01, -5.56771874e-01,  2.14915611e-02,
        -7.31277406e-01, -9.21222389e-01, -3.75436008e-01,
         1.30667806e+00, -2.47357875e-01, -2.70062056e-03],
       [-2.62711290e-02, -3.42744529e-01,  3.08952868e-01,
        -1.38264835e-01,  9.93063748e-01, -5.97209856e-03,
         1.17701316e+00,  2.47326285e-01, -7.84820914e-01,
         7.41755068e-01,  1.84644848e-01, -3.74456607e-02],
       [-2.14480218e-02,  4.20621544e-01,  5.11020422e-02,
         1.77848265e-01, -9.81785133e-02, -1.27841458e-02,
         1.27307132e-01,  1.16986370e+00, -1.02181387e+00,
         1.03031003e+00,  1.39872685e-01,  5.69258351e-03],
       [-2.37136483e-02, -7.33072519e-01,  1.67805696e+00,
         6.40636921e-01,  5.14297545e-01,  2.17034258e-02,
        -9.17355418e-02,  4.78761047e-01,  1.71302512e-01,
         1.15381801e+00,  1.84874877e-01,  2.12869663e-02],
       [-3.67084742e-02,  9.21969116e-01,  6.35164045e-03,
         8.55349898e-01, -6.72152936e-02,  8.65699071e-03,
        -9.48280036e-01, -1.13308632e+00,  3.34535271e-01,
        -9.71713290e-02,  6.55225098e-01, -1.42403897e-02],
       [-4.71087471e-02,  1.59782684e+00, -7.27878988e-01,
         2.16135487e-01,  2.70314187e-01,  1.16127497e-02,
         1.73821270e-01,  1.43549498e-02,  4.44419265e-01,
        -1.41242445e+00, -3.74595262e-02, -1.59677491e-02],
       [-4.05989066e-02,  7.17452839e-02, -3.72397482e-01,
         6.08562469e-01,  3.11930209e-01, -1.66262556e-02,
        -1.44519269e-01,  1.48738116e-01,  9.41264153e-01,
        -1.41696036e-01,  2.50275642e-01, -3.41944285e-02],
       [-3.86085026e-02,  1.12366569e+00, -2.90024757e-01,
         2.64693238e-02, -9.39480901e-01, -8.66985973e-03,
         4.70368266e-01, -8.25762630e-01, -5.08653581e-01,
         8.67593229e-01, -1.17533125e-01,  2.39819810e-02],
       [-4.86156233e-02, -9.14658010e-01, -4.63280529e-01,
         3.78121994e-02,  9.57432464e-02, -1.47206560e-02,
         1.22249770e+00,  9.93055224e-01, -6.59166515e-01,
         8.43549311e-01,  2.11513802e-01, -1.75824277e-02],
       [-7.11496472e-02,  9.54241991e-01,  1.33854294e+00,
        -6.17937982e-01,  7.11278439e-01,  4.44223396e-02,
         7.03371167e-02,  9.83886600e-01, -3.16510737e-01,
        -4.49109286e-01,  4.37224627e-01, -4.03133966e-02],
       [-2.82886513e-02, -7.06491292e-01, -6.40519261e-01,
         1.44689035e+00, -7.90402353e-01, -2.74733622e-02,
         7.09023237e-01,  3.93228717e-02, -3.52648437e-01,
         2.30289578e+00,  3.01217824e-01, -2.60239444e-03],
       [-2.89650913e-02,  2.78225958e-01,  9.12655771e-01,
         5.71875632e-01, -4.73037392e-01, -4.29833047e-02,
        -1.77026868e-01, -2.52539486e-01,  3.66978943e-02,
         2.78879821e-01, -1.53868985e+00,  4.09554392e-02],
       [ 1.93849467e-02,  1.52654827e+00, -4.87449288e-01,
         3.42681617e-01,  1.39134571e-01, -2.67877672e-02,
         3.63280892e-01,  1.42858759e-01,  4.57014024e-01,
        -1.42692292e+00, -1.95433706e-01, -2.89634764e-02],
       [ 2.42648274e-03,  6.81448728e-02, -4.04546589e-01,
        -1.34777054e-01,  1.91679358e-01, -1.13028713e-04,
         1.42094302e+00, -5.94654024e-01,  1.32633060e-01,
        -1.95323378e-01,  4.96598810e-01,  2.72268485e-02],
       [ 1.35774408e-02,  1.41139552e-01, -5.53190291e-01,
         1.22396326e+00, -1.00321078e+00, -5.77220991e-02,
        -1.94471687e-01,  7.96056032e-01,  3.59663785e-01,
         1.13252091e+00,  5.95120303e-02, -4.75703105e-02],
       [-7.61344284e-03,  3.38809818e-01,  6.87627912e-01,
        -7.97156274e-01, -9.11349952e-01,  3.11029665e-02,
         1.06862128e+00, -1.06073630e+00,  4.10739243e-01,
         7.34331785e-03,  1.44740790e-01,  1.86771266e-02],
       [-7.43239671e-02,  1.39790082e+00,  1.36233807e+00,
        -1.24077463e+00, -4.21499997e-01,  3.20342258e-02,
         2.64054179e-01,  5.80608621e-02,  1.28887430e-01,
        -6.25776112e-01,  1.85593769e-01, -2.07259301e-02],
       [ 3.85459401e-02,  8.04349720e-01,  7.77636528e-01,
        -8.63879859e-01, -1.00023878e+00, -5.33763394e-02,
         7.77271569e-01, -9.39673901e-01,  2.80567706e-01,
         2.41122887e-01,  2.04801768e-01,  3.03073209e-02],
       [-4.71990183e-03, -1.53883949e-01, -4.86977130e-01,
         1.41039336e+00, -1.41563690e+00,  1.88089069e-02,
        -3.11614782e-01,  6.02735877e-01,  8.44638884e-01,
         1.15323997e+00, -3.23371179e-02, -4.01703082e-03],
       [ 3.04843895e-02,  7.91759551e-01, -1.75921798e-01,
        -2.10818931e-01, -3.26460779e-01,  1.00073116e-02,
         1.54343557e+00, -7.08100498e-01,  5.89896858e-01,
        -7.66877711e-01,  6.96856380e-01, -1.08960215e-02],
       [-4.14694771e-02, -1.23201078e-02, -1.41823316e+00,
         5.31306446e-01,  5.24227560e-01, -5.73454797e-02,
         9.92274463e-01, -2.71597989e-02,  7.17008263e-02,
         7.29167998e-01,  7.53597915e-01,  3.67898978e-02],
       [ 1.75508689e-02,  1.57519531e+00, -1.19049597e+00,
        -4.01366115e-01,  8.45534354e-03, -5.55472448e-03,
        -8.14049184e-01,  3.96038324e-01, -3.96399438e-01,
         1.70598865e+00,  2.98054190e-03,  2.06664833e-03],
       [-5.05420528e-02,  6.76097333e-01, -1.78873733e-01,
        -6.39816582e-01,  9.20917511e-01, -7.24321008e-02,
        -1.22710180e+00,  1.11739373e+00,  1.02247488e+00,
         4.45660025e-01,  1.65662691e-01, -5.28725199e-02],
       [-7.10413679e-02,  8.93883705e-01,  8.65538538e-01,
        -5.28116167e-01,  8.04852620e-02, -2.33766306e-02,
        -3.72615904e-01,  1.23278809e+00,  4.03652996e-01,
        -5.16693056e-01,  2.88118184e-01, -2.17875391e-02],
       [-7.08384514e-02,  6.46638274e-01,  1.09293863e-01,
        -3.29973727e-01, -1.03074729e-01, -3.77766080e-02,
        -3.16511989e-01,  1.02279329e+00,  1.18766582e+00,
         8.81730244e-02,  1.52725005e-03, -4.85004224e-02],
       [-3.29303965e-02,  1.41942942e+00, -7.91275144e-01,
        -1.34263158e+00,  4.83163178e-01, -1.98149085e-02,
        -1.07823476e-01,  8.18821132e-01,  3.15111011e-01,
         6.20330453e-01,  4.33598459e-01,  1.01258857e-02],
       [-5.42161614e-03,  7.55370736e-01, -1.54322362e+00,
         6.22666597e-01, -1.26710072e-01, -4.63115685e-02,
         6.99288249e-01,  3.37683819e-02, -4.06449616e-01,
         8.41770887e-01,  8.15110564e-01, -3.56093533e-02]], dtype=float32), array([-0.03062245,  0.28481644,  0.69069   ,  0.6664302 ,  0.60005605,
       -0.03115086,  0.34928915,  1.06837   ,  0.5526037 ,  0.1900361 ,
        0.7991826 , -0.0118995 ], dtype=float32), array([[-1.96483862e-02, -4.20914143e-02, -3.15004587e-02,
         6.04669424e-03, -4.65185978e-02, -3.53417546e-03,
         2.13500597e-02, -4.93091531e-04, -1.43523840e-02,
        -2.58472320e-02,  1.92160048e-02, -5.89354988e-03,
         7.71414116e-03, -3.29169743e-02, -1.13990642e-02,
         6.84614331e-02],
       [ 4.32540365e-02,  2.30151564e-01, -3.70265096e-01,
         1.70279622e-01, -1.65762961e+00, -2.40268797e-01,
        -4.33888644e-01, -1.57053030e+00, -1.92553270e+00,
         6.22623861e-01,  2.26160035e-01, -8.68859794e-03,
        -9.74356771e-01, -1.45050257e-01,  2.45823532e-01,
         2.25427672e-02],
       [-9.15537357e-01, -1.04200995e+00, -1.43547118e+00,
        -1.20927370e+00,  2.76334614e-01,  1.84840813e-01,
        -1.55160594e+00,  3.61797094e-01,  5.77142656e-01,
        -1.72113895e+00,  9.55641627e-01,  6.66460276e-01,
        -9.60321486e-01, -1.25801075e+00,  3.08265090e-01,
         1.50345191e-01],
       [-8.42656136e-01, -3.27064812e-01,  2.99323469e-01,
         2.47284070e-01, -1.69754606e-02,  1.23941429e-01,
         4.62863088e-01,  3.15092444e-01, -1.66405714e+00,
        -2.05614761e-01, -1.10378772e-01, -8.47264588e-01,
         2.97369987e-01, -8.99228275e-01, -3.27855706e-01,
        -2.63272381e+00],
       [-2.03154683e+00,  6.72988892e-01, -4.63514566e-01,
        -1.11658946e-01,  5.44049740e-01, -1.67426538e+00,
        -3.60421956e-01, -2.12738588e-01,  1.48903728e-01,
        -5.98091960e-01, -2.92758197e-01, -6.68711841e-01,
        -1.40469575e+00,  2.83936203e-01, -1.46830985e-02,
         5.40148020e-01],
       [-4.35407609e-02,  2.43361630e-02, -4.17970307e-02,
        -4.97057177e-02, -3.92942503e-03,  3.04192044e-02,
        -5.48222698e-02,  1.67802777e-02, -1.40664924e-03,
        -7.32583106e-02,  2.20313277e-02, -8.27743299e-03,
         1.50552473e-03,  1.30823243e-03,  8.20842106e-03,
        -4.07753931e-03],
       [-2.21105546e-01,  2.02809870e-01, -8.66638571e-02,
        -8.78440976e-01,  8.26811120e-02,  7.69415259e-01,
        -2.43907019e-01, -1.46058381e+00,  1.87870815e-01,
        -9.09295529e-02, -7.02007264e-02, -2.23385885e-01,
         5.66325299e-02,  6.13964722e-02, -1.48028183e+00,
        -2.17957616e+00],
       [-1.44351745e+00, -5.70634782e-01, -1.80597329e+00,
         6.70551956e-01, -2.15483570e+00, -6.51107669e-01,
        -1.25666630e+00,  2.40345016e-01, -2.34595388e-01,
        -1.36594534e+00, -2.03858352e+00,  4.60499108e-01,
         3.29345256e-01,  6.41829252e-01, -1.99892735e+00,
         3.62540334e-01],
       [ 1.85996622e-01, -6.52314603e-01,  8.86475444e-02,
         5.55922627e-01,  2.30255455e-01,  1.73863351e-01,
        -3.45035642e-01,  2.46431544e-01, -3.37452441e-01,
        -2.08483055e-01, -1.96212125e+00, -1.21264648e+00,
        -1.16151989e+00, -1.54875338e+00,  4.78845656e-01,
        -1.21470625e-02],
       [ 4.03784007e-01, -1.58713424e+00, -1.40398669e+00,
        -1.68601942e+00, -2.64705300e-01, -1.06087780e+00,
         8.12345684e-01,  2.07256317e-01,  1.99151278e-01,
        -9.13233534e-02,  1.47231385e-01, -1.13649881e+00,
         3.65010530e-01,  4.06904221e-01, -4.84280894e-03,
         2.83079654e-01],
       [ 7.95097113e-01, -7.52373755e-01,  1.11461055e+00,
        -9.15417194e-01, -1.27313495e+00, -1.76162159e+00,
        -1.22911036e+00, -1.84478176e+00, -7.03528523e-01,
        -1.69835651e+00, -1.76715887e+00,  3.75867128e-01,
         4.90103275e-01, -2.07471061e+00, -1.52766478e+00,
        -4.67970461e-01],
       [ 2.89265364e-02, -2.24231905e-03, -1.38339596e-02,
        -2.45516878e-02, -5.67463459e-03, -2.70466078e-02,
         9.15572327e-03,  3.50934044e-02, -5.80813782e-03,
         2.15729587e-02, -3.70003916e-02,  3.13023664e-02,
         1.67128481e-02, -4.65990901e-02,  2.63966098e-02,
         2.09322926e-02]], dtype=float32), array([-0.05348282, -0.00690851, -0.22276339,  0.15748599,  0.073341  ,
       -0.17712791, -0.27329168,  0.18727838, -0.5074636 , -0.44902885,
        0.09687871,  0.17248079, -0.1762731 , -0.14486064, -0.2003192 ,
        0.07518648], dtype=float32)]

Model[2]
[array([[-3.25879827e-02,  2.03494668e-01,  2.50166535e-01,
        -1.73247471e-01, -5.73264547e-02,  1.91505197e-02,
         2.09919715e+00,  1.48949400e-01, -5.83756566e-01,
        -7.62887448e-02,  6.47930384e-01,  2.27385922e-03],
       [ 1.07286349e-02, -1.57322779e-01, -1.04074366e-01,
        -5.52467227e-01, -2.40292072e-01, -3.55187990e-02,
         1.68882370e+00, -5.63154340e-01,  8.92069265e-02,
         1.31178176e+00, -2.53225178e-01, -5.87880276e-02],
       [ 3.56041081e-02, -1.20866466e+00,  6.28177643e-01,
         5.24360418e-01,  5.46450257e-01,  2.63562403e-03,
         5.70659339e-02,  3.61864090e-01,  8.76940429e-01,
         2.93482512e-01, -1.00251102e+00,  2.80854926e-02],
       [ 6.28864951e-03, -1.03501189e+00,  7.20517516e-01,
         6.85620487e-01,  8.14098120e-01, -9.89946909e-03,
        -2.68729091e-01,  9.49026048e-01,  1.14313507e+00,
         6.79922163e-01, -1.12548745e+00, -4.13337015e-02],
       [ 1.16761699e-02, -9.52409208e-01,  5.50012946e-01,
         6.96263671e-01,  2.66538858e-01, -3.82793918e-02,
        -3.59937012e-01,  4.30146366e-01,  7.89160788e-01,
         3.53672385e-01, -7.25802541e-01, -5.48445359e-02],
       [-2.70245317e-02, -9.76746619e-01,  4.74532425e-01,
         5.20824850e-01,  5.42672426e-02, -1.55537501e-02,
         8.46721590e-01,  1.52422860e-01, -2.54826009e-01,
         9.22832191e-01, -2.05763555e+00, -3.62645648e-02],
       [-4.07449529e-02,  2.30128337e-02,  1.38228327e-01,
         4.24671412e-01,  7.82717615e-02, -9.68283508e-03,
         1.70846558e+00,  3.25861089e-02, -1.02094460e+00,
        -7.52575397e-02, -2.63609916e-01, -3.25228572e-02],
       [ 4.98201139e-02, -7.31281117e-02,  1.52925432e-01,
        -2.48732060e-01,  3.54438931e-01,  5.53348428e-03,
         1.58888674e+00, -1.27597332e+00,  5.31239927e-01,
        -1.31882012e-01,  4.44732666e-01, -1.04573639e-02],
       [-3.20800319e-02, -7.90027678e-02,  3.04278225e-01,
         1.22169852e+00, -1.82393467e+00, -2.61177309e-02,
        -3.33452255e-01,  5.21126032e-01,  3.04964572e-01,
         4.65478927e-01,  1.18408179e+00, -1.76227409e-02],
       [-5.45123778e-02,  1.87815428e-02,  1.13448024e+00,
        -5.99573255e-01,  8.14535081e-01,  2.00948827e-02,
        -5.63887715e-01, -1.14279985e-02,  1.04410708e+00,
         6.37188733e-01,  1.00191481e-01, -1.42566646e-02],
       [ 3.61138582e-03,  5.50920486e-01,  5.80010116e-01,
        -5.45633078e-01,  1.12548971e+00,  5.66253811e-03,
        -6.29268527e-01, -4.02021825e-01,  1.16212487e+00,
         7.69240558e-01,  4.16517526e-01,  1.68398507e-02],
       [ 4.97466363e-02, -3.04051161e-01,  8.44325304e-01,
        -6.21832609e-01,  4.74721253e-01, -2.76870131e-02,
        -2.87845153e-02, -6.77577674e-01,  7.97153354e-01,
         2.31198058e-01,  4.80343580e-01, -2.46148594e-02],
       [-9.17775556e-03,  1.08696306e+00,  1.65519387e-01,
        -3.40232700e-01, -7.03179479e-01, -5.22099100e-02,
         6.86014056e-01,  1.16868079e+00, -7.61334658e-01,
        -5.59037626e-01, -4.12092894e-01, -5.64085832e-03],
       [-1.40556321e-02, -4.48530227e-01,  3.35694641e-01,
         6.75821841e-01,  7.86137760e-01, -1.23584904e-02,
         7.06555605e-01, -1.92393258e-01, -4.40168262e-01,
        -1.35857567e-01, -1.07640517e+00,  1.44710541e-02],
       [-4.97642532e-02,  6.16988301e-01, -1.83216691e-01,
         7.89044976e-01,  2.44738773e-01, -2.36843005e-02,
         4.48599577e-01, -6.51391506e-01,  8.60113978e-01,
        -5.40946662e-01,  1.44039974e-01, -6.00279272e-02],
       [-5.82314618e-02,  1.94356263e+00, -1.51973292e-01,
        -1.80900976e-01,  1.10098588e+00, -4.60767411e-02,
        -8.19543540e-01, -8.12205255e-01, -5.12709379e-01,
         1.19547033e+00, -4.64204520e-01, -4.47448529e-02],
       [ 1.69412475e-02, -3.66149247e-01,  4.99311030e-01,
         4.59808975e-01, -9.79612231e-01, -2.66072005e-02,
         1.21769354e-01,  4.16762978e-01, -2.61677224e-02,
        -2.94707000e-01,  1.64440143e+00, -2.71821972e-02],
       [-4.63495739e-02, -1.64660409e-01,  4.11632508e-01,
        -8.68081629e-01,  1.04401541e+00, -1.40728466e-02,
         8.37531090e-02,  3.74807358e-01,  7.62214839e-01,
         7.45086551e-01, -1.24599844e-01, -2.84428243e-02],
       [-3.10911424e-02, -4.96869013e-02,  5.77133477e-01,
        -1.87979162e-01, -6.90380692e-01, -3.53676304e-02,
         6.91222310e-01,  1.13675714e+00, -6.40656948e-01,
        -2.26255413e-02,  7.79290259e-01, -1.26463063e-02],
       [-4.67496999e-02,  1.76946008e+00, -2.07885727e-02,
        -4.29330468e-01,  1.38291943e+00,  2.95901801e-02,
         7.01972563e-03, -2.90573418e-01, -1.48245573e+00,
        -1.26037989e-02, -1.06408787e+00, -7.85092730e-03],
       [-4.38194536e-02,  6.56413734e-01, -3.22660178e-01,
         5.70631921e-01,  1.00856709e+00,  9.10024717e-03,
         4.48969603e-01,  3.33711207e-02,  2.00557038e-01,
        -7.80290067e-01, -6.31297350e-01,  3.01098195e-03],
       [-1.54390335e-02,  4.73011881e-01, -1.83352232e-01,
         5.78565538e-01,  7.19945654e-02, -3.35332565e-02,
         8.62545431e-01, -4.66812313e-01,  6.83260739e-01,
        -4.52911764e-01,  5.95780313e-01,  2.02008802e-02],
       [-2.20941380e-03,  1.41476583e+00, -2.05376089e-01,
         2.83635706e-02, -5.49179077e-01, -4.69640866e-02,
        -6.87730968e-01, -9.43288088e-01, -5.09785295e-01,
         1.54646850e+00,  2.04704583e-01, -3.43965143e-02],
       [-3.06176897e-02, -7.70472169e-01,  9.43985462e-01,
         1.04506701e-01,  1.34017932e+00,  1.10246092e-02,
         9.53139961e-02,  1.88803762e-01, -2.31832534e-01,
         1.09071143e-01, -5.90194941e-01, -4.62682620e-02],
       [-5.51109873e-02, -1.00414023e-01,  7.91798055e-01,
         3.94030035e-01, -3.29984277e-01, -4.29825075e-02,
         3.35814059e-01,  5.03417611e-01,  7.08111465e-01,
        -1.85465470e-01,  1.82758999e+00, -2.68270373e-02],
       [ 5.46461344e-03,  4.15717095e-01, -9.97722521e-03,
        -1.45270407e+00,  1.88280821e+00, -2.74201273e-03,
         1.03434801e+00,  3.25826645e-01, -8.60212088e-01,
        -4.59929019e-01, -5.45385361e-01, -2.77683139e-02],
       [ 2.44536251e-03,  1.68364096e+00,  1.90273687e-01,
        -9.66823287e-03,  5.36358714e-01, -3.98429744e-02,
        -1.28065363e-01, -2.07943991e-01, -8.86564434e-01,
         4.96703506e-01, -8.89140308e-01,  2.93401945e-02],
       [ 6.96420670e-03,  7.06727624e-01, -2.75926203e-01,
         1.20490217e+00,  5.12464166e-01,  1.54463779e-02,
         4.70554620e-01, -5.42824149e-01,  3.99658591e-01,
        -5.99915683e-01, -5.88790417e-01, -3.06074806e-02],
       [ 3.38118151e-03,  8.08250844e-01, -5.40683806e-01,
         1.70736834e-01,  5.25509179e-01,  3.87815200e-02,
         2.97545552e-01, -5.30655086e-01,  1.23668945e+00,
        -7.91130483e-01,  5.98734558e-01,  3.51216458e-02],
       [-3.14214118e-02,  2.35539138e-01,  1.09589636e-01,
         5.58709987e-02,  2.35600963e-01, -3.54669094e-02,
        -1.77007303e-01, -1.11981654e+00,  7.12679744e-01,
         1.21107948e+00,  2.83553660e-01,  3.25761624e-02],
       [ 2.23349780e-04, -1.09407258e+00,  3.01384479e-01,
        -9.60809290e-02,  9.08373535e-01,  3.36774476e-02,
         6.45018578e-01, -6.89612985e-01,  2.43602425e-01,
         1.32550907e+00, -8.97081375e-01,  6.13676943e-03],
       [-1.17038935e-02, -5.00876546e-01,  1.51230597e+00,
         9.31217447e-02,  1.66421783e+00,  7.33766821e-04,
        -3.28505009e-01,  5.16944945e-01, -4.14357334e-01,
         3.29364657e-01, -4.65764165e-01, -2.38520447e-02],
       [-4.93620150e-02, -1.17246330e+00, -2.43728846e-01,
         4.47780460e-01,  8.82877231e-01, -1.52644590e-02,
         5.67566752e-01, -3.25737059e-01,  3.25240344e-01,
         6.08175218e-01,  5.19365311e-01,  1.08557632e-02],
       [-2.18915697e-02,  2.06281245e-01,  6.00164272e-02,
         8.53422284e-01,  6.09005868e-01, -1.76438112e-02,
        -4.43647176e-01, -1.17174852e+00,  9.36410651e-02,
         1.06602228e+00, -1.40875041e+00,  3.36287133e-02],
       [-7.00897444e-03,  4.43552941e-01, -2.36227870e-01,
         5.64124525e-01,  5.54984570e-01, -9.85556934e-03,
         2.82825559e-01, -6.02495074e-01,  1.08779037e+00,
        -8.74275446e-01, -5.03984511e-01, -1.44799100e-02],
       [-1.66063420e-02, -1.28156632e-01, -9.82262865e-02,
         9.89316344e-01,  2.33537972e-01, -3.49201038e-02,
        -1.75678805e-01, -2.57189870e-01,  1.51914477e+00,
        -4.08049256e-01,  3.99563193e-01,  1.89088855e-03],
       [-9.81763750e-03,  1.06358469e+00, -2.86183238e-01,
         3.29955339e-01, -5.55424511e-01,  2.14915611e-02,
        -7.68243909e-01, -1.07144308e+00, -2.25809380e-01,
         1.56155336e+00, -1.79963350e-01, -2.70062056e-03],
       [-2.62711290e-02, -3.40917647e-01,  2.55169183e-01,
        -1.64809346e-01,  9.63165462e-01, -5.97209856e-03,
         1.03440762e+00,  4.01088268e-01, -7.03858674e-01,
         1.06197214e+00, -2.75976975e-02, -3.74456607e-02],
       [-2.14480218e-02,  4.24973428e-01,  5.87876737e-02,
        -5.89819215e-02, -2.74340957e-02, -1.27841458e-02,
         4.15908545e-02,  1.13835251e+00, -1.41910803e+00,
         1.12017536e+00,  2.79379096e-02,  5.69258351e-03],
       [-2.37136483e-02, -8.64860833e-01,  1.53675163e+00,
         6.59937799e-01,  7.97902286e-01,  2.17034258e-02,
        -5.90292737e-02,  2.97881603e-01,  9.39487591e-02,
         1.07001805e+00,  8.49743709e-02,  2.12869663e-02],
       [-3.67084742e-02,  9.14281607e-01,  2.37706974e-02,
         9.74186718e-01, -6.01849794e-01,  8.65699071e-03,
        -1.04269850e+00, -1.21626663e+00,  1.05707198e-01,
         1.01325378e-01,  5.50375879e-01, -1.42403897e-02],
       [-4.71087471e-02,  1.58439243e+00, -5.76581836e-01,
         5.57192624e-01,  8.05822909e-02,  1.16127497e-02,
         2.07490280e-01,  9.92237628e-02,  3.95269603e-01,
        -1.62531376e+00,  6.88895732e-02, -1.59677491e-02],
       [-4.05989066e-02,  1.58126071e-01, -6.05248213e-01,
         6.81195199e-01,  2.83658594e-01, -1.66262556e-02,
        -3.72716635e-01,  1.27873555e-01,  1.01847970e+00,
        -2.87792355e-01,  1.08287163e-01, -3.41944285e-02],
       [-3.86085026e-02,  1.09908450e+00, -9.25590321e-02,
         4.31661829e-02, -1.08100677e+00, -8.66985973e-03,
         3.00947636e-01, -8.87824774e-01, -6.80297136e-01,
         1.13733828e+00, -3.23580682e-01,  2.39819810e-02],
       [-4.86156233e-02, -1.15244353e+00, -4.67827499e-01,
        -1.04993440e-01,  3.17536354e-01, -1.47206560e-02,
         1.15622342e+00,  7.97013819e-01, -5.34619868e-01,
         1.45977366e+00,  3.47514004e-01, -1.75824277e-02],
       [-7.11496472e-02,  1.06216693e+00,  1.56696653e+00,
        -8.29136729e-01,  6.04012787e-01,  4.44223396e-02,
         8.00236538e-02,  8.69410634e-01, -6.52836740e-01,
        -2.83686787e-01,  3.34166169e-01, -4.03133966e-02],
       [-2.82886513e-02, -7.17236221e-01, -9.42196846e-01,
         1.20330238e+00, -8.12720537e-01, -2.74733622e-02,
         7.08528459e-01,  3.78264725e-01, -5.53145349e-01,
         2.07514405e+00,  1.67913139e-01, -2.60239444e-03],
       [-2.89650913e-02, -1.63567543e-01,  1.52175784e+00,
         1.07291770e+00, -1.13556170e+00, -4.29833047e-02,
        -3.12012911e-01, -4.51897979e-01,  8.49357396e-02,
         5.71987152e-01, -1.54393864e+00,  4.09554392e-02],
       [ 1.93849467e-02,  1.66435397e+00, -5.35185575e-01,
         4.49122995e-01,  6.96627274e-02, -2.67877672e-02,
         5.62856853e-01,  2.31186494e-01,  4.26854432e-01,
        -1.65262699e+00, -2.78360546e-01, -2.89634764e-02],
       [ 2.42648274e-03, -5.68205351e-03, -5.88905931e-01,
        -1.56000748e-01,  2.68963933e-01, -1.13028713e-04,
         1.63455129e+00, -6.89918637e-01,  1.08509295e-01,
        -3.32949638e-01,  3.48395437e-01,  2.53086556e-02],
       [ 1.35774408e-02,  2.35331282e-01, -5.87548316e-01,
         1.12120593e+00, -1.00086021e+00, -5.77220991e-02,
        -2.86834538e-01,  8.48455966e-01,  4.24066275e-01,
         9.00100052e-01, -8.87423530e-02, -4.75703105e-02],
       [-7.61344284e-03,  2.60112494e-01,  6.85271144e-01,
        -1.07570171e+00, -9.81134713e-01,  3.11029665e-02,
         1.31528378e+00, -1.14250803e+00,  4.82140958e-01,
         2.45692685e-01, -1.68702155e-01,  1.67589337e-02],
       [-7.43239671e-02,  1.70692396e+00,  1.53260946e+00,
        -1.52851081e+00, -8.80455971e-01,  3.20342258e-02,
         2.11867049e-01, -1.00560442e-01,  1.80647269e-01,
        -5.30369699e-01,  1.24457121e-01, -2.07259301e-02],
       [ 3.85459401e-02,  6.77866161e-01,  8.93241763e-01,
        -1.05838013e+00, -1.13684797e+00, -5.33763394e-02,
         9.05491710e-01, -7.24208295e-01,  3.39680552e-01,
         5.57737708e-01,  2.81111032e-01,  3.03073209e-02],
       [-4.71990183e-03,  5.28878765e-03, -4.71144170e-01,
         1.23460793e+00, -1.21375358e+00,  1.88089069e-02,
        -6.51044190e-01,  8.77227128e-01,  5.28795719e-01,
         9.15993631e-01, -3.14967364e-01, -4.01703082e-03],
       [ 3.04843895e-02,  7.53861487e-01, -3.75816494e-01,
        -8.76406506e-02, -6.91430748e-01,  1.00073116e-02,
         1.87161887e+00, -6.95196629e-01,  6.20812953e-01,
        -9.38745022e-01,  7.43481040e-01, -1.08960215e-02],
       [-4.14694771e-02, -1.60230212e-02, -1.76843417e+00,
         5.39819300e-01,  5.31410575e-01, -5.73454797e-02,
         9.79511023e-01, -1.01995192e-01,  1.03565954e-01,
         5.76729953e-01,  8.23063016e-01,  3.48717235e-02],
       [ 1.75508689e-02,  1.44987750e+00, -1.34292495e+00,
        -2.29232311e-01, -1.72799695e-02, -5.55472448e-03,
        -1.12583697e+00,  4.88170952e-01, -3.31241846e-01,
         1.85131299e+00, -6.06701784e-02,  2.06664833e-03],
       [-5.05420528e-02,  3.79592717e-01, -2.45088875e-01,
        -6.65089667e-01,  9.47520554e-01, -7.24321008e-02,
        -1.55166841e+00,  1.37276125e+00,  1.08264184e+00,
         6.98757589e-01,  9.80515257e-02, -5.28725199e-02],
       [-7.10413679e-02,  9.72936213e-01,  1.06167185e+00,
        -6.72261536e-01, -1.67174086e-01, -2.33766306e-02,
        -4.99872833e-01,  1.25646567e+00,  3.89096290e-01,
        -5.88248134e-01,  6.22035637e-02, -2.17875391e-02],
       [-7.08384514e-02,  4.59754050e-01,  2.38154501e-01,
        -4.95810837e-01, -3.40270132e-01, -3.77766080e-02,
        -3.78560960e-01,  1.23425293e+00,  1.16592336e+00,
         2.62567043e-01, -4.34535556e-02, -4.85004224e-02],
       [-3.29303965e-02,  1.23359334e+00, -8.70023310e-01,
        -1.26296270e+00,  2.83989787e-01, -1.98149085e-02,
        -7.52833784e-02,  8.45459580e-01,  4.54536974e-01,
         6.27779186e-01,  5.83730221e-01,  1.01258857e-02],
       [-5.42161614e-03,  7.18525529e-01, -1.82942450e+00,
         7.02450454e-01, -1.13143019e-01, -4.63115685e-02,
         7.23896742e-01, -6.03894815e-02, -5.42247355e-01,
         7.26420224e-01,  8.21044922e-01, -3.56093533e-02]], dtype=float32), array([-0.03062245,  0.24171713,  0.75485605,  0.6866333 ,  0.6427451 ,
       -0.03115086,  0.27283275,  1.2131314 ,  0.59946895, -0.02744512,
        0.9572335 , -0.01381769], dtype=float32), array([[-1.96483862e-02, -4.20914143e-02, -3.15004587e-02,
         6.04669424e-03, -4.65185978e-02, -3.53417546e-03,
         2.13500597e-02, -4.93091531e-04, -1.43523840e-02,
        -2.58472320e-02,  1.92160048e-02, -5.89354988e-03,
         7.71414116e-03, -3.29169743e-02, -1.13990642e-02,
         6.84614331e-02],
       [-3.42630260e-02,  2.90028781e-01, -3.23733658e-01,
         6.01273775e-02, -2.21034384e+00, -3.86525750e-01,
        -4.67619389e-01, -1.70797396e+00, -2.22459149e+00,
         6.71054661e-01,  2.05740869e-01,  2.94698682e-02,
        -1.14176309e+00, -3.02524626e-01,  3.93089414e-01,
         7.89202452e-02],
       [-1.14024305e+00, -1.44405258e+00, -1.73347461e+00,
        -1.40873802e+00,  1.82350472e-01,  1.00852445e-01,
        -1.74272275e+00,  5.86392701e-01,  6.51303768e-01,
        -2.29203129e+00,  1.11001039e+00,  9.56638753e-01,
        -1.34903467e+00, -1.73468256e+00,  4.53999102e-01,
         3.35363671e-02],
       [-1.24197876e+00, -2.97573745e-01,  4.26360101e-01,
         2.77663499e-01, -2.01476067e-02, -3.60804945e-02,
         4.94596094e-01,  4.93408084e-01, -1.83359993e+00,
        -1.38174444e-01, -5.72363511e-02, -8.42831254e-01,
         2.80389875e-01, -9.24138904e-01, -3.10593069e-01,
        -2.96920753e+00],
       [-2.32115436e+00,  8.89032841e-01, -5.42831600e-01,
        -2.95675665e-01,  8.16354692e-01, -2.29158902e+00,
        -4.35389072e-01, -3.64400864e-01,  1.35397483e-02,
        -1.10065377e+00, -4.91558433e-01, -1.06991577e+00,
        -1.80300188e+00,  2.68108070e-01, -4.19340283e-02,
         5.20963550e-01],
       [-4.35407609e-02,  2.43361630e-02, -4.17970307e-02,
        -4.97057177e-02, -3.92942503e-03,  3.04192044e-02,
        -5.48222698e-02,  1.67802777e-02, -1.40664924e-03,
        -7.32583106e-02,  2.20313277e-02, -8.27743299e-03,
         1.50552473e-03,  1.30823243e-03,  8.20842106e-03,
        -4.07753931e-03],
       [-3.89622122e-01,  1.55371308e-01, -6.50557503e-02,
        -1.05576134e+00,  1.95811719e-01,  8.00017595e-01,
        -3.77594441e-01, -1.71982741e+00,  2.80788094e-01,
        -9.98121127e-03, -1.45047247e-01, -2.31796816e-01,
         3.38697806e-02,  2.63508022e-01, -1.86722898e+00,
        -2.28059268e+00],
       [-1.30681670e+00, -8.05482924e-01, -2.30254173e+00,
         8.57535720e-01, -2.91042399e+00, -8.49806309e-01,
        -1.68800628e+00,  3.89893800e-01, -2.96874702e-01,
        -1.78381968e+00, -2.75615454e+00,  5.16202211e-01,
         4.55852389e-01,  6.83394372e-01, -2.47165895e+00,
         3.78765762e-01],
       [ 3.54372710e-01, -7.96081722e-01,  1.75010100e-01,
         6.58215761e-01,  4.22817945e-01,  3.92171770e-01,
        -5.19523501e-01,  1.05003059e-01, -1.71859935e-01,
        -1.33424178e-01, -2.38079333e+00, -1.60547006e+00,
        -1.42277098e+00, -1.67346871e+00,  4.85297918e-01,
         1.22508280e-01],
       [ 7.46541679e-01, -1.76025343e+00, -1.68749130e+00,
        -1.68050611e+00, -3.61794025e-01, -1.38467300e+00,
         8.66297424e-01,  2.97856003e-01,  3.21503341e-01,
        -2.02055603e-01,  1.68540105e-01, -1.39858496e+00,
         3.62211198e-01,  4.92347211e-01,  2.37563457e-02,
         2.47649133e-01],
       [ 1.05740225e+00, -9.20490980e-01,  1.43052101e+00,
        -9.28044260e-01, -1.53010106e+00, -2.02082944e+00,
        -1.61350942e+00, -2.69337654e+00, -7.20400929e-01,
        -2.20674491e+00, -1.95743668e+00,  6.03749454e-01,
         7.08134115e-01, -2.67704678e+00, -2.20984912e+00,
        -2.36657232e-01],
       [ 2.89265364e-02, -2.30428949e-03, -1.38436528e-02,
        -2.45516878e-02, -5.34103427e-04, -2.72148438e-02,
         8.68100394e-03,  3.50439139e-02, -6.58048503e-03,
         2.15729587e-02, -3.70010883e-02,  3.13023664e-02,
         1.67128481e-02, -4.65990901e-02,  2.63922866e-02,
         2.09322926e-02]], dtype=float32), array([-0.03634897, -0.01350373, -0.25115895,  0.12269577,  0.21621816,
       -0.40050834, -0.48106712,  0.24631558, -0.6873846 , -0.6194457 ,
        0.00805975,  0.30673704, -0.22739284, -0.282739  , -0.35946453,
        0.01119045], dtype=float32)]

Model[3]
[array([[-3.25879827e-02,  2.06067413e-01,  4.01463538e-01,
        -5.03182471e-01, -2.83073664e-01, -6.06134068e-04,
         1.91399121e+00,  2.26644166e-02, -5.44548869e-01,
        -5.67528784e-01,  5.64419687e-01, -2.90256962e-02],
       [ 1.07286349e-02, -3.27293694e-01, -3.13908190e-01,
        -5.74015021e-01, -5.83530009e-01, -3.55187990e-02,
         1.75817323e+00, -6.34300828e-01,  2.77664959e-01,
         1.34619498e+00, -1.47846624e-01, -9.00875852e-02],
       [ 3.56041081e-02, -1.29251182e+00,  9.55155015e-01,
         6.21881843e-01,  5.88833272e-01,  2.63562403e-03,
        -2.22145081e-01,  4.17895377e-01,  7.35829949e-01,
         4.50996041e-01, -9.64532197e-01, -3.21406778e-03],
       [ 6.28864951e-03, -1.14950812e+00,  5.35154939e-01,
         7.20562518e-01,  9.27468300e-01, -9.89946909e-03,
        -3.80709976e-01,  8.02835584e-01,  1.42848003e+00,
         6.31657302e-01, -1.21007311e+00, -4.13337015e-02],
       [ 1.16761699e-02, -1.25341892e+00,  4.10148889e-01,
         6.79697394e-01,  4.83960241e-01, -3.82793918e-02,
        -1.26733869e-01,  4.61530834e-01,  9.74180281e-01,
         1.87302560e-01, -8.70468855e-01, -8.61440897e-02],
       [-2.70245317e-02, -1.17478156e+00,  5.01360774e-01,
         8.05820704e-01, -2.88511902e-01, -1.55537501e-02,
         9.54993784e-01,  6.38149604e-02, -1.85300648e-01,
         1.16291380e+00, -1.55818737e+00, -6.75641373e-02],
       [-4.07449529e-02, -8.58584642e-02,  9.06001031e-02,
         5.39963663e-01,  9.31835175e-02, -2.94394791e-02,
         1.86928463e+00, -2.62190163e-01, -1.31098759e+00,
        -3.22217107e-01, -2.94020265e-01, -6.38224259e-02],
       [ 4.98201139e-02, -4.21475887e-01,  1.14132799e-01,
        -2.46276364e-01,  4.17016000e-01,  5.53348428e-03,
         1.77188849e+00, -1.55291271e+00,  5.85159540e-01,
         2.93611258e-01,  3.82540941e-01, -1.04573639e-02],
       [-3.20800319e-02, -1.65421069e-01,  3.18949133e-01,
         1.43084133e+00, -2.24604797e+00, -2.61177309e-02,
        -6.92708850e-01,  3.11030626e-01,  9.70012993e-02,
         4.12792385e-01,  1.08911622e+00, -1.76227409e-02],
       [-5.45123778e-02,  2.51130044e-01,  6.94244742e-01,
        -4.41391140e-01,  9.76838171e-01,  2.00948827e-02,
        -7.63962388e-01,  1.06183700e-01,  1.15630662e+00,
         7.24205196e-01,  3.27876598e-01, -1.42566646e-02],
       [ 3.61138582e-03,  4.46520299e-02,  3.15100729e-01,
        -7.83876956e-01,  1.52936268e+00, -1.40941115e-02,
        -9.68197286e-01,  3.87700796e-02,  1.13104486e+00,
         1.04721689e+00,  2.14450344e-01,  1.68398507e-02],
       [ 4.97466363e-02,  3.11439093e-02,  5.07978261e-01,
        -4.08338249e-01,  7.54326761e-01, -2.76870131e-02,
        -2.38095626e-01, -7.37818122e-01,  4.90068913e-01,
         3.53677839e-01,  2.30695724e-01, -2.46148594e-02],
       [-9.17775556e-03,  1.03019404e+00,  2.24187419e-01,
        -8.53184313e-02, -9.62117791e-01, -5.22099100e-02,
         7.01084793e-01,  1.27714109e+00, -8.40789080e-01,
        -8.51149321e-01, -4.28159267e-01, -3.69404033e-02],
       [-1.40556321e-02, -8.39890540e-01,  2.42469892e-01,
         8.24703515e-01,  6.86879635e-01, -3.21151279e-02,
         7.91344702e-01, -2.55122781e-01, -4.42918777e-01,
        -2.23117173e-01, -1.23039818e+00, -1.68285016e-02],
       [-4.97642532e-02,  6.75375164e-01, -1.87055826e-01,
         7.76190817e-01,  3.77057284e-01, -4.34409305e-02,
         8.34129229e-02, -7.68495977e-01,  1.01930296e+00,
        -8.80315602e-01,  1.23700425e-01, -6.00279272e-02],
       [-5.82314618e-02,  1.94695413e+00, -3.77532840e-01,
        -4.01124328e-01,  1.27356422e+00, -4.60767411e-02,
        -1.05622339e+00, -7.89496541e-01, -7.35617042e-01,
         1.04466474e+00, -5.49916804e-01, -4.47448529e-02],
       [ 1.69412475e-02, -6.10248268e-01,  1.19531885e-01,
         8.19569707e-01, -1.40980542e+00, -2.66072005e-02,
         2.90902108e-01,  5.07210612e-01, -1.71066280e-02,
        -3.45898211e-01,  2.04445696e+00, -2.71821972e-02],
       [-4.63495739e-02, -1.37938067e-01,  1.60037547e-01,
        -8.06090415e-01,  6.21414542e-01, -1.40728466e-02,
         3.66472393e-01,  5.67904413e-01,  7.06178248e-01,
         6.39920771e-01,  3.34018499e-01, -2.84428243e-02],
       [-3.10911424e-02, -3.17665488e-01,  1.07395005e+00,
        -3.36709559e-01, -3.63624156e-01, -3.53676304e-02,
         6.29506826e-01,  8.33999276e-01, -2.81094283e-01,
        -8.55254307e-02,  7.61665463e-01, -1.26463063e-02],
       [-4.67496999e-02,  1.63163507e+00,  7.85136074e-02,
        -4.28318828e-02,  1.37198651e+00,  9.83352866e-03,
         1.74113214e-02, -1.54268518e-01, -1.53722250e+00,
         1.50492266e-01, -1.13400364e+00, -7.85092730e-03],
       [-4.38194536e-02,  8.71199846e-01, -9.58915830e-01,
         1.13611495e+00,  7.99276769e-01,  9.10024717e-03,
         9.53702778e-02, -1.32304579e-01,  1.85141101e-01,
        -8.16451490e-01, -7.21874833e-01,  3.01098195e-03],
       [-1.54390335e-02,  5.93789339e-01, -3.26560050e-01,
         4.37178105e-01,  1.41052395e-01, -3.35332565e-02,
         7.66246617e-01, -5.61468661e-01,  8.07657182e-01,
        -4.55445111e-01,  5.65896988e-01, -1.10986754e-02],
       [-2.20941380e-03,  1.34648573e+00,  1.78225666e-01,
         2.54434019e-01, -9.49432969e-01, -4.69640866e-02,
        -4.83553886e-01, -1.01550210e+00, -5.41372597e-01,
         1.26931405e+00,  1.65271103e-01, -3.43965143e-02],
       [-3.06176897e-02, -6.76678658e-01,  7.05023468e-01,
         4.09817487e-01,  9.85176623e-01,  1.10246092e-02,
         2.16629505e-01,  2.00912297e-01, -2.06165299e-01,
         1.09121963e-01, -5.19715011e-01, -4.62682620e-02],
       [-5.51109873e-02, -4.50938456e-02,  4.09501433e-01,
         7.32233822e-01, -7.33395278e-01, -4.29825075e-02,
        -5.58269136e-02,  5.49924076e-01,  5.49915671e-01,
        -3.44614424e-02,  1.83304250e+00, -2.68270373e-02],
       [ 5.46461344e-03,  6.49081051e-01, -2.37192616e-01,
        -1.31028771e+00,  1.85357893e+00, -2.74201273e-03,
         9.34159875e-01,  1.09891154e-01, -7.37559676e-01,
        -6.47230148e-01, -6.64070725e-01, -2.77683139e-02],
       [ 2.44536251e-03,  1.60364068e+00, -1.18130326e-01,
         3.09069961e-01,  3.82356107e-01, -3.98429744e-02,
        -2.35455260e-01, -1.32441401e-01, -7.19548881e-01,
         6.70609474e-01, -4.63025004e-01,  2.93401945e-02],
       [ 6.96420670e-03,  5.71465492e-01, -3.75877589e-01,
         1.08735490e+00,  6.44912899e-01, -4.31027496e-03,
         3.68751347e-01, -3.69974554e-01,  2.10419878e-01,
        -6.70910895e-01, -4.66612369e-01, -6.19070306e-02],
       [ 3.38118151e-03,  7.68272638e-01, -4.92377877e-01,
         3.09520781e-01,  5.43451488e-01,  3.87815200e-02,
         1.10825941e-01, -3.99447680e-01,  1.20718467e+00,
        -8.33648264e-01,  3.62423420e-01,  3.82208405e-03],
       [-3.14214118e-02,  2.01899558e-01,  3.79102439e-01,
         3.28432769e-01,  1.57566071e-01, -3.54669094e-02,
        -2.06141084e-01, -1.06877768e+00,  8.12511802e-01,
         1.43200028e+00,  1.69526320e-02,  1.27660239e-03],
       [ 2.23349780e-04, -1.30975568e+00,  4.49422508e-01,
        -1.02146275e-01,  9.83086407e-01,  3.36774476e-02,
         5.72252870e-01, -5.54030836e-01,  6.62006438e-01,
         1.06210721e+00, -7.00998664e-01, -2.51627844e-02],
       [-1.17038935e-02, -6.38154387e-01,  1.67099333e+00,
         2.20053598e-01,  1.76377583e+00,  7.33766821e-04,
        -7.32490301e-01,  4.77991611e-01, -5.97721934e-01,
         5.26016474e-01, -5.00254333e-01, -2.38520447e-02],
       [-4.93620150e-02, -1.08747733e+00, -1.66586354e-01,
         3.93609196e-01,  7.97113597e-01, -1.52644590e-02,
         3.55400205e-01, -5.26659369e-01,  2.63779104e-01,
         7.98803568e-01,  7.28124738e-01, -2.04437897e-02],
       [-2.18915697e-02,  2.89920986e-01,  1.55574277e-01,
         7.79075146e-01,  5.45208976e-02, -3.74004468e-02,
        -3.93462598e-01, -8.26852739e-01, -3.17830712e-01,
         7.53714919e-01, -1.41275311e+00,  2.32915231e-03],
       [-7.00897444e-03,  2.39620060e-01, -5.59970021e-01,
         6.10027850e-01,  5.87273538e-01, -9.85556934e-03,
         2.93232739e-01, -6.79277956e-01,  1.10683537e+00,
        -1.10785329e+00, -8.45265746e-01, -4.57794592e-02],
       [-1.66063420e-02, -5.29437780e-01,  1.99351758e-01,
         7.93463707e-01,  4.16889310e-01, -3.49201038e-02,
        -6.38501227e-01, -4.50742096e-01,  1.23976600e+00,
        -1.58946276e-01,  3.28439415e-01, -2.94086672e-02],
       [-9.81763750e-03,  1.22660935e+00, -4.27257091e-01,
         4.33601946e-01, -7.42409706e-01,  2.14915611e-02,
        -7.21788704e-01, -1.09387720e+00, -1.89640060e-01,
         1.48053336e+00,  1.13217540e-01, -3.40001695e-02],
       [-2.62711290e-02, -5.09077385e-02,  5.95110536e-01,
        -3.38500947e-01,  6.85464859e-01, -5.97209856e-03,
         9.71206009e-01,  6.45790517e-01, -5.09147704e-01,
         6.67072713e-01,  9.16509181e-02, -3.74456607e-02],
       [-2.14480218e-02,  2.32777551e-01, -4.44395989e-02,
         2.15271801e-01,  5.29165007e-02, -1.27841458e-02,
         1.03700630e-01,  1.13044608e+00, -1.42529881e+00,
         9.91628647e-01,  1.84034795e-01,  5.69258351e-03],
       [-2.37136483e-02, -8.33518088e-01,  1.33367181e+00,
         6.22362137e-01,  7.23121345e-01,  1.94677233e-03,
        -1.63939655e-01,  7.43730605e-01,  1.17976569e-01,
         7.71597087e-01,  9.61988345e-02,  2.12869663e-02],
       [-3.67084742e-02,  1.19936049e+00,  2.15918645e-01,
         1.12648344e+00, -4.41030413e-01,  8.65699071e-03,
        -9.47882533e-01, -1.11745739e+00, -2.80764341e-01,
         3.03292841e-01,  2.54451096e-01, -1.42403897e-02],
       [-4.71087471e-02,  1.58795321e+00, -3.18557650e-01,
         5.18090785e-01, -2.72352338e-01,  1.16127497e-02,
         8.31692293e-02,  1.13555893e-01,  5.22011042e-01,
        -1.81877971e+00, -1.03525095e-01, -1.59677491e-02],
       [-4.05989066e-02,  2.92080283e-01, -6.03012621e-01,
         5.53654075e-01,  2.92905688e-01, -1.66262556e-02,
        -5.73117614e-01, -1.92484707e-01,  1.31655502e+00,
        -4.11799759e-01, -1.28714561e-01, -3.41944285e-02],
       [-3.86085026e-02,  9.61843073e-01,  1.04954906e-01,
         1.77602813e-01, -9.77294803e-01, -8.66985973e-03,
         1.90383926e-01, -9.72526133e-01, -6.15799010e-01,
         1.25046635e+00, -4.76368636e-01,  2.39819810e-02],
       [-4.86156233e-02, -1.54318440e+00, -4.90663886e-01,
         6.54699355e-02,  7.70708546e-02, -1.47206560e-02,
         1.17512798e+00,  1.01884246e+00, -2.66830683e-01,
         1.40393996e+00,  5.49899936e-01, -1.75824277e-02],
       [-7.11496472e-02,  9.44569409e-01,  1.46107674e+00,
        -9.82815206e-01,  4.13593650e-01,  2.46656984e-02,
        -1.25398085e-01,  9.44418788e-01, -5.46281934e-01,
        -2.39452302e-01,  6.30105019e-01, -4.03133966e-02],
       [-2.82886513e-02, -9.78229403e-01, -8.11854959e-01,
         1.09809637e+00, -8.14866066e-01, -2.74733622e-02,
         5.35757720e-01,  6.67151153e-01, -2.34653950e-01,
         1.62742579e+00,  9.00343284e-02, -3.39019448e-02],
       [-2.89650913e-02,  3.89465168e-02,  1.63523638e+00,
         1.07785487e+00, -1.41541922e+00, -4.29833047e-02,
        -2.38311380e-01, -4.54421341e-01, -1.11812033e-01,
         3.24011236e-01, -1.35782850e+00,  9.65588726e-03],
       [ 1.93849467e-02,  1.56194997e+00, -4.18632656e-01,
         6.13972187e-01,  1.67982459e-01, -2.67877672e-02,
         2.83302873e-01,  1.24671701e-02,  7.16576219e-01,
        -1.58397889e+00, -2.34881669e-01, -2.89634764e-02],
       [ 2.42648274e-03,  4.98219132e-02, -9.83646750e-01,
         1.07761934e-01,  3.09147030e-01, -1.13028713e-04,
         1.53138041e+00, -6.91044509e-01,  2.47441441e-01,
        -3.76851827e-01,  3.23887438e-01,  2.53086556e-02],
       [ 1.35774408e-02, -5.89538319e-03, -8.17012668e-01,
         1.10778654e+00, -1.08310008e+00, -7.74787143e-02,
        -7.92906433e-02,  8.98095131e-01,  1.10993296e-01,
         9.51866150e-01, -1.37729436e-01, -4.75703105e-02],
       [-7.61344284e-03,  1.64924249e-01,  1.00450265e+00,
        -1.12349045e+00, -7.50395536e-01,  3.11029665e-02,
         1.36214185e+00, -1.16058600e+00,  5.56092083e-01,
         5.39141536e-01,  1.16574403e-03,  1.67589337e-02],
       [-7.43239671e-02,  1.27696800e+00,  1.66924083e+00,
        -1.79859257e+00, -9.59338486e-01,  1.22775761e-02,
         9.13739204e-02, -4.21830624e-01,  2.82585382e-01,
        -4.07342911e-01,  2.54914880e-01, -2.07259301e-02],
       [ 3.85459401e-02,  4.53125268e-01,  8.63188267e-01,
        -1.12270129e+00, -1.26895380e+00, -5.33763394e-02,
         8.69089663e-01, -5.47998905e-01,  3.64923805e-01,
         6.20471358e-01,  3.38907361e-01,  3.03073209e-02],
       [-4.71990183e-03, -1.59217805e-01, -4.62987661e-01,
         1.29205847e+00, -1.39679360e+00,  1.88089069e-02,
        -7.79998541e-01,  5.92452943e-01,  4.64561135e-01,
         7.60679841e-01, -2.36364722e-01, -4.01703082e-03],
       [ 3.04843895e-02,  1.04644048e+00, -6.31874681e-01,
        -2.72047073e-01, -4.93156791e-01, -9.74933710e-03,
         1.56163967e+00, -7.27687240e-01,  4.40843046e-01,
        -1.03643620e+00,  6.34504914e-01, -1.08960215e-02],
       [-4.14694771e-02, -4.44704771e-01, -2.02325225e+00,
         7.85262764e-01,  5.38343549e-01, -5.73454797e-02,
         1.08802450e+00, -4.27914262e-01,  1.36516854e-01,
         8.64542246e-01,  8.45200777e-01,  3.57216247e-03],
       [ 1.75508689e-02,  1.44497764e+00, -1.18607283e+00,
        -6.27695382e-01, -2.14607179e-01, -5.55472448e-03,
        -9.10984814e-01,  4.99580711e-01, -3.97738397e-01,
         1.61906922e+00,  2.49281432e-02,  2.06664833e-03],
       [-5.05420528e-02,  3.02355677e-01, -1.32396579e-01,
        -9.02770042e-01,  8.53076458e-01, -7.24321008e-02,
        -1.64188683e+00,  1.32236993e+00,  1.10058355e+00,
         9.00895417e-01,  1.39939636e-01, -5.28725199e-02],
       [-7.10413679e-02,  1.12814593e+00,  1.15148675e+00,
        -8.37284863e-01, -1.94026530e-01, -4.31332625e-02,
        -5.41908741e-01,  1.38469529e+00,  4.22773600e-01,
        -2.45360672e-01, -1.05379939e-01, -2.17875391e-02],
       [-7.08384514e-02,  3.45815510e-01, -7.70090744e-02,
        -4.86239940e-01, -4.35491502e-01, -3.77766080e-02,
        -5.92030048e-01,  1.37858307e+00,  1.15686035e+00,
         5.48932552e-01, -4.95609008e-02, -4.85004224e-02],
       [-3.29303965e-02,  1.46026969e+00, -1.15088248e+00,
        -1.13034320e+00,  1.33949548e-01, -1.98149085e-02,
         3.67382646e-01,  6.61878765e-01,  3.93555194e-01,
         8.82659137e-01,  1.12412500e+00, -2.11736672e-02],
       [-5.42161614e-03,  9.70400393e-01, -1.86075592e+00,
         8.55446815e-01, -3.78600001e-01, -4.63115685e-02,
         7.16603756e-01, -1.63139552e-01, -9.47939932e-01,
         7.34535694e-01,  1.12191057e+00, -3.56093533e-02]], dtype=float32), array([-0.03062245,  0.12030309,  0.79398966,  0.8584662 ,  0.592872  ,
       -0.0509075 ,  0.049311  ,  1.5236797 ,  0.47973648, -0.14722796,
        1.3102522 , -0.04511724], dtype=float32), array([[-1.96483862e-02, -4.20914143e-02, -3.15004587e-02,
         6.04669424e-03, -4.65185978e-02, -3.53417546e-03,
         2.13500597e-02, -4.93091531e-04, -1.43523840e-02,
        -2.58472320e-02,  1.92160048e-02, -5.89354988e-03,
         7.71414116e-03, -3.29169743e-02, -1.13990642e-02,
         6.84614331e-02],
       [-6.14160374e-02,  5.08975685e-01, -4.33443606e-01,
        -1.90121695e-01, -2.55840755e+00, -3.83974820e-01,
        -6.45494401e-01, -1.85367739e+00, -2.48478603e+00,
         7.90670156e-01,  2.06986666e-01,  3.99682596e-02,
        -1.16050160e+00, -4.04172033e-01,  3.49911809e-01,
         9.26390812e-02],
       [-1.49214196e+00, -1.54274261e+00, -1.70209646e+00,
        -1.57168496e+00,  5.82260564e-02,  7.91108012e-02,
        -1.92678034e+00,  6.84436679e-01,  8.21682572e-01,
        -2.30102229e+00,  1.24835002e+00,  1.13318980e+00,
        -1.51430249e+00, -2.01869798e+00,  4.98162240e-01,
        -4.39718850e-02],
       [-1.56264567e+00, -3.69448572e-01,  5.38791001e-01,
         1.57378942e-01, -1.48930833e-01, -2.34148979e-01,
         6.24126434e-01,  3.84360641e-01, -2.19213581e+00,
        -2.10725918e-01, -2.08861530e-01, -5.66072285e-01,
         3.67309034e-01, -1.13973212e+00, -2.71496713e-01,
        -3.46355510e+00],
       [-2.24491501e+00,  1.02986228e+00, -7.02801287e-01,
        -3.93741935e-01,  9.73338485e-01, -2.70320272e+00,
        -4.09623176e-01, -6.23954117e-01, -4.51630987e-02,
        -1.63737416e+00, -6.24640286e-01, -1.16005099e+00,
        -1.96854711e+00,  4.58362788e-01, -3.77267152e-01,
         8.11244607e-01],
       [-4.35407609e-02,  1.14128375e-02, -4.17971686e-02,
        -4.97075506e-02, -3.92977288e-03,  3.00812162e-02,
        -5.48222698e-02,  1.67802777e-02, -1.40711141e-03,
        -7.32588097e-02,  2.65974365e-03,  1.07790604e-02,
         1.50552473e-03,  1.30591844e-03,  8.00570101e-03,
        -4.07753931e-03],
       [-3.49437624e-01,  1.44689813e-01, -6.55886605e-02,
        -1.03029060e+00,  2.28457332e-01,  8.57545972e-01,
        -4.93840158e-01, -1.97676384e+00,  4.74832535e-01,
        -3.57281715e-02, -6.64529577e-02, -3.24677259e-01,
        -7.62719661e-02,  1.95149630e-01, -1.80399692e+00,
        -2.18441081e+00],
       [-1.72806513e+00, -1.11346745e+00, -2.39901137e+00,
         1.01313674e+00, -3.19642138e+00, -4.65742469e-01,
        -2.03828835e+00,  2.10379869e-01, -1.61439791e-01,
        -2.14592266e+00, -3.31991816e+00,  5.91416895e-01,
         5.45283079e-01,  9.39308941e-01, -2.86823583e+00,
         4.49531436e-01],
       [ 5.37097752e-01, -9.67774272e-01,  4.69045714e-02,
         7.06160545e-01,  2.72481769e-01,  4.61684138e-01,
        -4.11648542e-01, -1.07643984e-01, -3.66616026e-02,
        -2.76121706e-01, -2.39048147e+00, -1.93350494e+00,
        -1.78274965e+00, -1.71680331e+00,  5.28584540e-01,
         2.79832691e-01],
       [ 7.20949709e-01, -1.92689729e+00, -1.85759711e+00,
        -1.93128777e+00, -6.63598835e-01, -1.36408615e+00,
         8.30802441e-01,  4.20618415e-01,  3.22124392e-01,
         1.16438016e-01,  1.89645529e-01, -1.29303682e+00,
         3.21257710e-01,  5.81515968e-01, -2.62937009e-01,
         2.92254061e-01],
       [ 1.20546496e+00, -8.55716228e-01,  1.68086839e+00,
        -9.92343068e-01, -1.98182690e+00, -2.81568265e+00,
        -2.00845218e+00, -3.35693336e+00, -6.54624403e-01,
        -2.25633931e+00, -2.32238317e+00,  6.20301843e-01,
         7.59685695e-01, -3.19492817e+00, -2.83682084e+00,
         7.56698996e-02],
       [ 2.89265364e-02, -2.30939966e-03, -1.39836511e-02,
        -2.45516878e-02,  3.08437757e-02, -3.78652662e-02,
        -2.28688549e-02,  3.50439139e-02, -6.59201620e-03,
         1.52084343e-02, -3.70164886e-02,  3.13023664e-02,
         1.51440930e-02, -5.98798469e-02,  2.63922866e-02,
         2.09322926e-02]], dtype=float32), array([-0.04817754,  0.02345555, -0.31011206,  0.04815343,  0.1333266 ,
       -0.5265962 , -0.6527331 ,  0.1687536 , -0.7892119 , -0.77403355,
       -0.06401653,  0.60189533, -0.2372117 , -0.37267217, -0.6388696 ,
        0.04689674], dtype=float32)]

Model[4]
[array([[-3.25879827e-02, -9.67999324e-02,  3.69318724e-01,
        -4.41149533e-01, -5.39570689e-01, -6.06134068e-04,
         1.82357872e+00, -1.09145336e-01, -9.74657893e-01,
        -3.53591681e-01,  8.47096920e-01, -2.90256962e-02],
       [ 1.07286349e-02, -8.39293122e-01, -2.62674540e-01,
        -8.52437556e-01, -5.62476158e-01, -3.55187990e-02,
         1.61953354e+00, -6.00003123e-01,  4.09758508e-01,
         9.67816234e-01, -3.38699847e-01, -9.00875852e-02],
       [ 3.56041081e-02, -1.35287964e+00,  1.05530918e+00,
         5.15234470e-01,  6.00456834e-01,  2.63562403e-03,
         1.20086990e-01,  2.96394587e-01,  1.10272360e+00,
        -1.03601582e-01, -1.03029156e+00, -3.21406778e-03],
       [ 6.28864951e-03, -1.34444821e+00,  9.83618319e-01,
         7.47805983e-02,  8.17979515e-01, -9.89946909e-03,
        -3.27238321e-01,  3.04121554e-01,  1.40502322e+00,
         3.19360822e-01, -9.56407249e-01, -4.13337015e-02],
       [ 1.16761699e-02, -1.67433441e+00,  6.55439973e-01,
         5.15126705e-01,  8.02908689e-02, -3.82793918e-02,
         2.05166191e-01,  4.47969913e-01,  8.27440262e-01,
        -9.12652165e-02, -8.07254672e-01, -8.61440897e-02],
       [-2.70245317e-02, -1.53073716e+00,  4.27302748e-01,
         8.42537820e-01, -7.05211833e-02, -1.55537501e-02,
         1.10322511e+00,  2.98413813e-01,  3.44396263e-01,
         7.27081060e-01, -1.56755316e+00, -6.75641373e-02],
       [-4.07449529e-02, -2.05872953e-01, -8.94914418e-02,
         3.95141423e-01, -3.97022627e-02, -2.94394791e-02,
         1.53452945e+00, -1.79975986e-01, -1.63157690e+00,
        -6.85307503e-01, -5.49909532e-01, -6.38224259e-02],
       [ 4.98201139e-02, -5.15982509e-01,  2.11333204e-03,
         1.08986378e-01,  4.82448079e-02,  5.53348428e-03,
         1.13027620e+00, -1.14787459e+00,  1.53915688e-01,
         3.29705209e-01,  3.23601484e-01, -1.04573639e-02],
       [-3.20800319e-02,  1.40002951e-01,  4.61756140e-01,
         1.19755554e+00, -2.06207538e+00, -2.61177309e-02,
        -6.39815927e-01, -8.21939390e-03,  2.12020017e-02,
         2.77494878e-01,  8.77970338e-01, -1.76227409e-02],
       [-5.45123778e-02, -2.51378398e-02,  9.66171682e-01,
        -1.23428392e+00,  5.06382465e-01,  2.00948827e-02,
        -5.75817287e-01,  9.63079780e-02,  1.09257376e+00,
         3.10085148e-01,  5.27909219e-01, -1.42566646e-02],
       [ 3.61138582e-03, -2.79015958e-01,  1.94171593e-01,
        -5.24921715e-01,  1.22490823e+00, -1.40941115e-02,
        -8.76348197e-01,  1.33053392e-01,  1.07198274e+00,
         8.82784128e-01,  1.34837240e-01,  1.68398507e-02],
       [ 4.97466363e-02, -3.08365077e-01,  2.94428438e-01,
        -2.88557798e-01,  7.36229479e-01, -2.76870131e-02,
        -2.34136418e-01, -6.83051646e-01,  7.62577772e-01,
         5.85934281e-01,  4.23221886e-01, -2.46148594e-02],
       [-9.17775556e-03,  9.53269064e-01,  3.44447106e-01,
         6.15821332e-02, -1.36007416e+00, -5.22099100e-02,
         6.68850541e-01,  1.18851733e+00, -6.41477823e-01,
        -6.35571063e-01, -4.42428440e-01, -3.69404033e-02],
       [-1.40556321e-02, -9.18173194e-01,  1.13535404e-01,
         1.06311762e+00,  3.00099760e-01, -3.21151279e-02,
         8.98881435e-01, -2.12646708e-01, -6.72283828e-01,
         8.66861045e-02, -1.33176923e+00, -1.68285016e-02],
       [-4.97642532e-02,  4.45685297e-01, -4.68721658e-01,
         5.09956777e-01,  1.56099439e-01, -4.34409305e-02,
         2.52494693e-01, -8.71284485e-01,  7.22779512e-01,
        -7.39928842e-01, -1.29355490e-01, -6.00279272e-02],
       [-5.82314618e-02,  2.03379536e+00, -1.33442178e-01,
        -4.27595347e-01,  6.20109320e-01, -4.60767411e-02,
        -9.33877528e-01, -1.08715963e+00, -6.81993484e-01,
         1.00249636e+00, -4.36776400e-01, -4.47448529e-02],
       [ 1.69412475e-02, -8.58557343e-01,  2.49442533e-02,
         3.94822836e-01, -1.73879182e+00, -2.66072005e-02,
         8.12150717e-01,  6.34853125e-01, -1.28348440e-01,
        -3.25576127e-01,  2.03703165e+00, -2.71821972e-02],
       [-4.63495739e-02, -1.72504231e-01,  5.90745628e-01,
        -7.65760481e-01,  2.56953925e-01, -1.40728466e-02,
         4.99607831e-01,  5.97255051e-01,  4.27867234e-01,
         4.18422490e-01,  5.26850581e-01, -2.84428243e-02],
       [-3.10911424e-02, -2.49062121e-01,  9.21246409e-01,
        -1.90235242e-01, -6.00993454e-01, -3.53676304e-02,
         6.89912856e-01,  5.33078492e-01,  1.04215182e-02,
        -1.68027669e-01,  8.97661150e-01, -1.26463063e-02],
       [-4.67496999e-02,  1.26411617e+00,  4.67475764e-02,
        -1.31924450e-01,  1.31548464e+00,  9.83352866e-03,
         2.12217361e-01, -4.92544770e-02, -1.37988317e+00,
        -2.47566819e-01, -9.51159656e-01, -7.85092730e-03],
       [-4.38194536e-02,  1.13546646e+00, -8.82994533e-01,
         8.52355182e-01,  5.65087318e-01,  9.10024717e-03,
         1.30615339e-01,  8.86621978e-03,  1.38335139e-01,
        -9.22392011e-01, -1.40013385e+00,  3.01098195e-03],
       [-1.54390335e-02,  4.30081367e-01, -3.88434380e-01,
         5.59673667e-01, -3.62618193e-02, -3.35332565e-02,
         2.78206140e-01, -7.71492958e-01,  5.21359801e-01,
        -6.10510170e-01,  6.72238886e-01, -1.10986754e-02],
       [-2.20941380e-03,  1.05607307e+00, -6.80532977e-02,
         3.22030216e-01, -6.51027143e-01, -4.69640866e-02,
        -6.51499406e-02, -7.95759976e-01, -8.41532469e-01,
         9.04360712e-01,  7.60220662e-02, -3.43965143e-02],
       [-3.06176897e-02, -4.33739603e-01,  7.45511234e-01,
         6.04587376e-01,  1.08026028e+00,  1.10246092e-02,
        -4.74774331e-01,  2.12749973e-01, -4.35738742e-01,
         3.01104155e-03, -6.58393562e-01, -4.62682620e-02],
       [-5.51109873e-02, -1.67624980e-01,  2.28210524e-01,
         9.35904973e-05, -1.09567337e-01, -4.29825075e-02,
        -3.15752029e-01,  7.49028444e-01,  7.10725784e-02,
        -2.68605143e-01,  1.67624247e+00, -2.68270373e-02],
       [ 5.46461344e-03,  3.78042191e-01, -6.20200992e-01,
        -1.27132249e+00,  1.84527349e+00, -2.74201273e-03,
         1.06974447e+00,  7.43290260e-02, -6.39835775e-01,
        -4.74426359e-01, -5.00381827e-01, -2.77683139e-02],
       [ 2.44536251e-03,  1.21096909e+00, -2.08148777e-01,
         4.82073218e-01,  2.82149285e-01, -3.98429744e-02,
        -2.36464128e-01,  8.96317363e-02, -6.97171807e-01,
         3.10239643e-01, -6.62220418e-01,  2.93401945e-02],
       [ 6.96420670e-03,  8.74952018e-01, -2.12505266e-01,
         1.10427964e+00,  5.54582596e-01, -4.31027496e-03,
         5.92731476e-01, -4.42377687e-01, -1.20813370e-01,
        -1.17499757e+00, -4.84767705e-01, -6.19070306e-02],
       [ 3.38118151e-03,  2.09109202e-01, -7.42262781e-01,
         6.83239043e-01,  6.04510963e-01,  3.87815200e-02,
        -3.25016640e-02, -7.08884835e-01,  1.12441385e+00,
        -8.83528352e-01,  1.09767348e-01,  3.82208405e-03],
       [-3.14214118e-02, -3.55128236e-02,  1.89126030e-01,
         3.06711316e-01,  4.58116442e-01, -3.54669094e-02,
        -4.58804876e-01, -9.38289523e-01,  3.88744235e-01,
         9.19751585e-01, -2.91233182e-01,  1.27660239e-03],
       [ 2.23349780e-04, -1.49688041e+00,  3.31605971e-02,
         1.42003283e-01,  7.21971452e-01,  3.36774476e-02,
         4.30646718e-01, -4.71978337e-01,  7.83568919e-01,
         9.34640884e-01, -6.17760599e-01, -2.51627844e-02],
       [-1.17038935e-02, -9.21801209e-01,  1.41770482e+00,
         1.33414447e-01,  1.72734642e+00,  7.33766821e-04,
        -7.37711608e-01,  9.11174059e-01, -7.77718067e-01,
         4.34716463e-01, -4.06650364e-01, -2.38520447e-02],
       [-4.93620150e-02, -1.70370543e+00, -4.79399949e-01,
         2.56119043e-01,  9.72354233e-01, -1.52644590e-02,
         4.61969137e-01, -1.17748775e-01,  6.33841977e-02,
         7.82991350e-01,  3.62120509e-01, -2.04437897e-02],
       [-2.18915697e-02, -9.25239995e-02,  1.74216390e-01,
         6.44328117e-01,  2.84450412e-01, -3.74004468e-02,
        -8.88581634e-01, -1.20769119e+00, -2.67935425e-01,
         7.95986772e-01, -1.29905891e+00,  2.32915231e-03],
       [-7.00897444e-03,  1.31309018e-01, -6.15884304e-01,
         1.28586650e+00,  5.38408458e-01, -9.85556934e-03,
         5.58280572e-02, -5.87243617e-01,  7.64548779e-01,
        -1.10774338e+00, -5.65355182e-01, -4.57794592e-02],
       [-1.66063420e-02, -3.25148642e-01, -3.18958610e-01,
         6.89550161e-01,  3.17534149e-01, -3.49201038e-02,
        -7.91540325e-01, -4.58123535e-01,  1.06623864e+00,
        -6.26756847e-01, -1.41980141e-01, -2.94086672e-02],
       [-9.81763750e-03,  8.65144014e-01,  7.38457814e-02,
         2.01852784e-01, -9.56879318e-01,  2.14915611e-02,
        -8.42484474e-01, -9.17794526e-01,  1.43931746e-01,
         1.34389794e+00, -2.20291745e-02, -3.40001695e-02],
       [-2.62711290e-02,  1.13705091e-01,  7.16026425e-01,
        -6.71456814e-01,  8.39668214e-01, -5.97209856e-03,
         1.01385295e+00,  3.14425677e-01, -6.67321682e-01,
         8.79713714e-01,  1.59434110e-01, -3.74456607e-02],
       [-2.14480218e-02,  9.80372950e-02,  7.12802261e-02,
        -4.50624563e-02,  3.40823121e-02, -1.27841458e-02,
        -1.87929794e-01,  1.45307910e+00, -1.20248723e+00,
         5.72566271e-01,  3.17410409e-01,  5.69258351e-03],
       [-2.37136483e-02, -8.77862751e-01,  9.48156595e-01,
         8.75009656e-01,  5.36682606e-01,  1.94677233e-03,
        -2.71990120e-01,  4.63168055e-01, -4.69459713e-01,
         1.35605991e+00,  5.79412840e-02,  2.12869663e-02],
       [-3.67084742e-02,  1.21697438e+00,  1.71518862e-01,
         1.06480074e+00, -6.50139809e-01,  8.65699071e-03,
        -7.77462840e-01, -6.41949356e-01, -1.99126601e-01,
        -1.92996487e-01,  3.19299877e-01, -1.42403897e-02],
       [-4.71087471e-02,  1.39409149e+00, -3.46462429e-01,
         6.73609138e-01, -4.30288389e-02,  1.16127497e-02,
        -2.46103436e-01, -2.73912102e-01,  4.55645323e-01,
        -1.56367648e+00, -2.19309732e-01, -1.59677491e-02],
       [-4.05989066e-02,  6.90328479e-02, -8.11451852e-01,
         6.43214524e-01,  5.34856925e-04, -1.66262556e-02,
        -6.41196847e-01, -1.48550138e-01,  9.29249585e-01,
        -6.46162510e-01, -7.54618198e-02, -3.41944285e-02],
       [-3.86085026e-02,  6.79596484e-01,  9.08992961e-02,
         5.61005063e-02, -1.08530164e+00, -8.66985973e-03,
         4.19011652e-01, -4.02216494e-01, -4.89443272e-01,
         1.01557302e+00, -1.58097938e-01,  2.39819810e-02],
       [-4.86156233e-02, -1.37006342e+00, -3.71346176e-01,
        -3.40600640e-01, -2.19282120e-01, -1.47206560e-02,
         1.30001104e+00,  1.32896399e+00, -4.22284454e-01,
         1.20130050e+00,  5.18857062e-01, -1.75824277e-02],
       [-7.11496472e-02,  5.85349858e-01,  1.65982258e+00,
        -7.96470225e-01,  1.30032182e-01,  2.46656984e-02,
         1.48364693e-01,  9.85638857e-01, -4.59060997e-01,
         6.36099558e-03,  4.54604447e-01, -4.03133966e-02],
       [-2.82886513e-02, -1.01405084e+00, -4.39482123e-01,
         1.07089031e+00, -1.11383998e+00, -2.74733622e-02,
        -2.04565618e-02,  3.12683225e-01, -1.46542981e-01,
         1.72596562e+00,  2.14200541e-01, -3.39019448e-02],
       [-2.89650913e-02,  5.63431621e-01,  1.41535687e+00,
         6.54469967e-01, -8.94051731e-01, -4.29833047e-02,
        -1.19583711e-01, -3.12565953e-01, -2.84391493e-01,
         2.64791846e-01, -1.15320015e+00,  9.65588726e-03],
       [ 1.93849467e-02,  1.70923829e+00, -4.38816026e-02,
         5.58046699e-01, -1.70859516e-01, -2.67877672e-02,
         2.33996853e-01, -5.94948649e-01,  3.96100789e-01,
        -1.82391095e+00, -5.11363387e-01, -2.89634764e-02],
       [ 2.42648274e-03, -3.31246346e-01, -9.33171153e-01,
         1.42672196e-01,  2.20230415e-01, -1.13028713e-04,
         1.40378940e+00, -5.93731165e-01,  3.25313181e-01,
        -4.15253639e-01,  2.75139302e-01,  2.53086556e-02],
       [ 1.35774408e-02, -3.17875385e-01, -8.83529425e-01,
         1.10115695e+00, -1.37871706e+00, -7.74787143e-02,
         2.32432857e-02,  1.14308810e+00,  5.16964138e-01,
         1.00159085e+00, -1.06037103e-01, -4.75703105e-02],
       [-7.61344284e-03,  2.82708496e-01,  8.22555840e-01,
        -1.28850782e+00, -7.25968182e-01,  3.11029665e-02,
         1.69207525e+00, -5.47707975e-01,  4.93411630e-01,
         6.98258042e-01, -2.85182387e-01,  1.67589337e-02],
       [-7.43239671e-02,  1.45425212e+00,  1.49980104e+00,
        -1.37345529e+00, -8.86355639e-01,  1.22775761e-02,
        -2.40240097e-01, -2.93943584e-01,  7.96165317e-02,
        -3.05317730e-01, -1.89073477e-02, -2.07259301e-02],
       [ 3.85459401e-02,  3.90370458e-01,  6.73201859e-01,
        -1.28007674e+00, -8.41394842e-01, -5.33763394e-02,
         1.05185747e+00, -4.89676505e-01,  9.69341546e-02,
         7.71299183e-01, -2.04587784e-02,  3.03073209e-02],
       [-4.71990183e-03, -4.51484859e-01, -1.42738506e-01,
         1.02769899e+00, -1.62006164e+00,  1.88089069e-02,
        -1.48810074e-01,  3.79644096e-01,  8.11142325e-01,
         6.22781515e-01, -2.08476231e-01, -4.01703082e-03],
       [ 3.04843895e-02,  1.04611933e+00, -7.30301380e-01,
         5.88468388e-02, -6.63076222e-01, -9.74933710e-03,
         9.07532573e-01, -5.39688289e-01,  1.51130855e-01,
        -7.75841117e-01,  3.58664483e-01, -1.08960215e-02],
       [-4.14694771e-02, -4.78206128e-01, -1.89076173e+00,
         8.03186774e-01,  1.25156894e-01, -5.73454797e-02,
         6.87502027e-01, -6.50843084e-01, -6.42856658e-02,
         7.87654102e-01,  9.46267426e-01,  3.57216247e-03],
       [ 1.75508689e-02,  1.43435621e+00, -1.26540148e+00,
        -6.23333514e-01,  4.09254581e-02, -5.55472448e-03,
        -7.74290323e-01,  3.88025761e-01, -1.39469787e-01,
         1.22963190e+00,  1.23736812e-02,  2.06664833e-03],
       [-5.05420528e-02,  2.86546677e-01, -1.05709977e-01,
        -1.07288241e+00,  7.36958265e-01, -7.24321008e-02,
        -1.83225977e+00,  1.24286103e+00,  1.30550265e+00,
         4.27322626e-01, -2.44301066e-01, -5.28725199e-02],
       [-7.10413679e-02,  8.16160262e-01,  1.27740157e+00,
        -1.04341626e+00, -1.22712746e-01, -4.31332625e-02,
        -4.06650335e-01,  1.51208031e+00,  1.72084853e-01,
        -2.45945305e-01, -1.48100898e-01, -2.17875391e-02],
       [-7.08384514e-02,  6.86532212e-03,  1.13871291e-01,
        -5.32009780e-01, -4.03609961e-01, -3.77766080e-02,
        -5.75302124e-01,  9.40481544e-01,  1.26262975e+00,
         4.85248625e-01, -3.42266828e-01, -4.85004224e-02],
       [-3.29303965e-02,  8.94749343e-01, -7.11978436e-01,
        -9.44440126e-01,  2.64435172e-01, -1.98149085e-02,
         3.50747168e-01,  9.82920706e-01,  4.02311474e-01,
         6.35207534e-01,  4.97904211e-01, -2.11736672e-02],
       [-5.42161614e-03,  9.49602485e-01, -1.77956736e+00,
         4.41751868e-01, -5.07380843e-01, -4.63115685e-02,
         6.80175722e-01, -1.27952084e-01, -7.22498357e-01,
         5.38365006e-01,  1.10378981e+00, -3.56093533e-02]], dtype=float32), array([-0.03062245, -0.11593222,  0.7477669 ,  0.8222513 ,  0.58242464,
       -0.0509075 , -0.18966186,  1.7323679 ,  0.2813696 , -0.49682948,
        1.4462854 , -0.04511724], dtype=float32), array([[-1.96483862e-02, -4.20914143e-02, -3.15004587e-02,
         6.04669424e-03, -4.65185978e-02, -3.53417546e-03,
         2.13500597e-02, -4.93091531e-04, -1.43523840e-02,
        -2.58472320e-02,  1.92160048e-02, -5.89354988e-03,
         7.71414116e-03, -3.29169743e-02, -1.13990642e-02,
         6.84614331e-02],
       [-1.66734815e-01,  4.38446403e-01, -5.97599149e-01,
        -1.35949284e-01, -2.54525137e+00, -4.46343392e-01,
        -6.99829698e-01, -2.48820662e+00, -2.67564344e+00,
         7.22315669e-01,  1.45007059e-01, -1.38135448e-01,
        -1.29735780e+00, -5.99378467e-01,  4.49594975e-01,
         1.88372761e-01],
       [-1.77686334e+00, -1.77121341e+00, -1.62935805e+00,
        -1.45754766e+00, -2.93393791e-01,  1.13472328e-01,
        -1.57757092e+00,  4.55599546e-01,  6.50008380e-01,
        -2.56793571e+00,  1.39243305e+00,  1.08366346e+00,
        -1.52390528e+00, -2.25293756e+00,  4.56421822e-01,
        -3.24462056e-01],
       [-1.63152182e+00, -3.63650560e-01,  3.44088495e-01,
         3.79529595e-02, -1.49097130e-01, -3.99481952e-01,
         4.86533970e-01,  2.21695036e-01, -2.14174724e+00,
        -3.11498016e-01, -2.41126761e-01, -4.96785343e-01,
         2.81043112e-01, -1.16948402e+00, -5.00667512e-01,
        -3.84470606e+00],
       [-2.52223039e+00,  1.10199881e+00, -6.24300420e-01,
        -6.96217775e-01,  7.19855547e-01, -2.94376445e+00,
        -5.79865217e-01, -4.38549310e-01, -2.01033726e-01,
        -1.97966099e+00, -7.91740298e-01, -1.07720435e+00,
        -2.16976190e+00,  2.55312294e-01, -2.08462209e-01,
         5.94249725e-01],
       [-4.35407609e-02,  1.14128375e-02, -4.17971686e-02,
        -4.97075506e-02, -3.92977288e-03,  3.00812162e-02,
        -5.48222698e-02,  1.67802777e-02, -1.40711141e-03,
        -7.32588097e-02,  2.65974365e-03,  1.07790604e-02,
         1.50552473e-03,  1.30591844e-03,  8.00570101e-03,
        -4.07753931e-03],
       [-2.67803639e-01,  3.57902274e-02, -9.01257992e-02,
        -1.08821464e+00,  1.02170095e-01,  6.97253764e-01,
        -4.44395572e-01, -1.68376422e+00,  3.06933999e-01,
        -1.14005722e-01,  2.98682018e-03, -4.57128584e-01,
        -3.04042667e-01,  3.95454019e-01, -2.20412421e+00,
        -2.38255334e+00],
       [-2.35591292e+00, -1.57530141e+00, -2.94272399e+00,
         1.02078092e+00, -2.97224450e+00, -6.67058945e-01,
        -2.69080377e+00,  3.07254106e-01, -3.09758663e-01,
        -2.99268556e+00, -3.71510601e+00,  3.59818786e-01,
         3.36490482e-01,  1.01756585e+00, -2.78416705e+00,
         1.00527652e-01],
       [ 4.45643693e-01, -1.30078483e+00, -6.81959689e-02,
         7.94249296e-01,  3.28497410e-01,  4.99750614e-01,
        -7.90626168e-01,  1.42534459e-02, -9.13010165e-02,
        -1.97316393e-01, -2.08595419e+00, -2.06257105e+00,
        -1.76240528e+00, -1.58092499e+00,  4.49931145e-01,
        -1.81300342e-01],
       [ 5.40855944e-01, -1.82238817e+00, -2.06213236e+00,
        -1.62532747e+00, -4.09694552e-01, -1.37369072e+00,
         7.59719491e-01,  3.42580006e-02,  1.07727170e-01,
        -1.31987572e-01,  1.89348638e-01, -1.57648814e+00,
         2.24340856e-01,  5.58189988e-01, -1.14861012e-01,
         7.30638653e-02],
       [ 1.00518441e+00, -8.95844698e-01,  1.85220504e+00,
        -1.00921333e+00, -2.03308272e+00, -3.32032204e+00,
        -2.22229457e+00, -3.77110457e+00, -1.44424409e-01,
        -2.32021427e+00, -2.49011922e+00,  7.94973731e-01,
         9.14913476e-01, -3.92738342e+00, -3.45026898e+00,
         1.75563395e-01],
       [ 2.89265364e-02, -2.30939966e-03, -1.39836511e-02,
        -2.45516878e-02,  3.08437757e-02, -3.78652662e-02,
        -2.28688549e-02,  3.50439139e-02, -6.59201620e-03,
         1.52084343e-02, -3.70164886e-02,  3.13023664e-02,
         1.51440930e-02, -5.98798469e-02,  2.63922866e-02,
         2.09322926e-02]], dtype=float32), array([-0.13755177,  0.01157362, -0.42312175,  0.07584109,  0.16909248,
       -0.7924937 , -0.8961438 ,  0.05781807, -1.260896  , -1.0600015 ,
       -0.09255167,  0.74218243, -0.2790899 , -0.3985371 , -0.8206669 ,
       -0.05040469], dtype=float32)]

Model[5]
[array([[-3.25879827e-02, -1.93713784e-01, -1.97448097e-02,
        -2.19931990e-01, -6.73935592e-01, -6.06134068e-04,
         1.73518574e+00, -1.91190213e-01, -7.36432254e-01,
        -5.89501485e-02,  7.23660946e-01, -2.90256962e-02],
       [ 1.07286349e-02, -1.26812518e+00, -4.39813316e-01,
        -7.49299049e-01, -3.70538235e-02, -3.55187990e-02,
         1.68308294e+00, -6.70360148e-01,  1.32355019e-01,
         7.83597648e-01, -1.45920083e-01, -9.00875852e-02],
       [ 3.56041081e-02, -1.47293603e+00,  9.11282897e-01,
         2.89430737e-01,  3.17676991e-01,  2.63562403e-03,
         1.08503424e-01,  4.57021058e-01,  1.15295327e+00,
        -1.75978675e-01, -1.22670329e+00, -3.21406778e-03],
       [ 6.28864951e-03, -1.40014970e+00,  6.09804392e-01,
        -1.01911075e-01,  7.44687915e-01, -9.89946909e-03,
        -4.38154161e-01,  2.72522062e-01,  1.34668171e+00,
         5.82234085e-01, -1.01912320e+00, -4.13337015e-02],
       [ 1.16761699e-02, -1.40788412e+00,  4.97325987e-01,
         4.10817921e-01, -2.22743303e-02, -3.82793918e-02,
         3.96264017e-01,  9.04256999e-01,  9.32577789e-01,
         2.47834116e-01, -1.05188179e+00, -8.61440897e-02],
       [-2.70245317e-02, -1.25168478e+00,  9.74019170e-02,
         3.50978702e-01,  8.05405751e-02, -1.55537501e-02,
         1.17619073e+00, -6.20493516e-02,  3.93914461e-01,
         3.96995068e-01, -1.48532808e+00, -6.75641373e-02],
       [-4.07449529e-02, -5.76988421e-02, -6.66887224e-01,
         2.01460660e-01, -2.35076070e-01, -2.94394791e-02,
         1.63225877e+00, -2.97486454e-01, -1.62298965e+00,
        -7.42434680e-01, -3.60332876e-01, -6.38224259e-02],
       [ 4.98201139e-02, -6.54960394e-01,  1.79107487e-01,
         7.28477538e-03, -4.74566519e-01,  5.53348428e-03,
         1.51922655e+00, -1.19908941e+00,  2.95580924e-01,
         2.38024980e-01,  1.73869833e-01, -1.04573639e-02],
       [-3.20800319e-02, -7.43160024e-02,  5.62878251e-01,
         9.86614227e-01, -2.07194400e+00, -2.61177309e-02,
        -6.96059108e-01, -3.88543643e-02,  2.47266561e-01,
         1.95939243e-01,  9.30510998e-01, -1.76227409e-02],
       [-5.45123778e-02,  1.43248618e-01,  8.99030089e-01,
        -7.17504740e-01,  2.33205214e-01,  2.00948827e-02,
        -6.57910645e-01, -9.78406072e-02,  5.99245369e-01,
        -6.72724470e-02,  4.76348907e-01, -1.42566646e-02],
       [ 3.61138582e-03, -1.15601281e-02,  4.45136756e-01,
        -9.60386753e-01,  1.42932832e+00, -1.40941115e-02,
        -5.28250813e-01, -3.50528985e-01,  3.91072154e-01,
         1.20509791e+00,  4.83240038e-01,  1.68398507e-02],
       [ 4.97466363e-02, -5.99763589e-03,  6.78731561e-01,
        -5.33497274e-01,  5.53033531e-01, -2.76870131e-02,
        -4.93087560e-01, -2.32397333e-01,  3.51813942e-01,
         4.19195145e-01,  5.89128077e-01, -2.46148594e-02],
       [-9.17775556e-03,  9.23963487e-01,  1.00927092e-02,
        -4.67832595e-01, -1.51317394e+00, -5.22099100e-02,
         6.69409752e-01,  1.00791419e+00, -8.80396128e-01,
        -5.47298312e-01, -3.60314995e-01, -3.69404033e-02],
       [-1.40556321e-02, -1.14430189e+00, -1.69564426e-01,
         5.25773942e-01,  3.21151577e-02, -3.21151279e-02,
         1.21469009e+00, -4.46492612e-01, -6.47120178e-01,
         1.90814763e-01, -1.06974733e+00, -1.68285016e-02],
       [-4.97642532e-02,  4.57112283e-01, -8.51956785e-01,
         4.34486896e-01, -4.62063141e-02, -4.34409305e-02,
         6.37864828e-01, -9.32541132e-01,  1.04310739e+00,
        -5.33798300e-02, -1.37040004e-01, -6.00279272e-02],
       [-5.82314618e-02,  1.61897278e+00, -1.53117985e-01,
        -2.96613663e-01,  7.82612920e-01, -4.60767411e-02,
        -9.01840746e-01, -1.36982882e+00, -6.26336932e-01,
         7.44687378e-01, -2.99762547e-01, -4.47448529e-02],
       [ 1.69412475e-02, -2.37769186e-01,  3.02294642e-02,
         7.86434412e-01, -1.55994880e+00, -2.66072005e-02,
         4.62227464e-01,  8.07034671e-01, -1.06083021e-01,
        -2.59687990e-01,  1.46588266e+00, -2.71821972e-02],
       [-4.63495739e-02, -2.10090786e-01,  4.98901486e-01,
        -9.43450153e-01,  5.00321269e-01, -1.40728466e-02,
        -4.43883380e-03,  1.01944305e-01,  1.58720136e-01,
         6.01240456e-01,  6.49002135e-01, -2.84428243e-02],
       [-3.10911424e-02,  1.06227845e-01,  7.93742716e-01,
         2.35228598e-01, -4.54719424e-01, -3.53676304e-02,
         4.73400265e-01,  5.47048986e-01, -4.88493741e-01,
         2.50906616e-01,  3.98684323e-01, -1.26463063e-02],
       [-4.67496999e-02,  1.05633366e+00,  2.03182027e-01,
