Model[0]
[array([[-0.00600236,  0.16790144, -0.23378213, ..., -0.01078271,
         0.18110952,  0.30865848],
       [ 0.08611936, -0.11855357, -0.3140313 , ..., -0.04865651,
         0.00115766,  0.10188135],
       [ 0.05975632, -0.20573047,  0.26901105, ..., -0.11526442,
        -0.28663042, -0.1937946 ],
       ...,
       [ 0.09926742, -0.28008932, -0.04576555, ..., -0.23002239,
         0.15868884, -0.34359047],
       [ 0.01867511, -0.36217308, -0.4001507 , ..., -0.17504497,
         0.3802204 , -0.13093112],
       [ 0.09412888,  0.29091534, -0.08864204, ..., -0.09232684,
         0.22618319,  0.33764827]], dtype=float32), array([ 8.89001340e-02, -1.97896250e-02,  1.21738106e-01, -1.31726891e-01,
        1.91542268e-01,  9.91955847e-02,  1.41387969e-01, -6.03824854e-03,
       -9.04459797e-04,  3.18423957e-02,  7.59624019e-02, -2.24716961e-02,
        2.18725409e-02, -9.30986851e-02,  2.82132588e-02, -1.08374823e-02,
        4.90191244e-02, -1.15890890e-01, -4.49703000e-02, -1.74128458e-01,
        5.50401881e-02,  6.70079216e-02,  4.44903485e-02,  1.73429716e-02,
       -1.19799249e-01, -2.63755918e-02,  2.39857718e-01, -8.75891820e-02,
        9.21723023e-02,  3.93786877e-02, -8.95247683e-02, -1.66727994e-02,
        5.60522713e-02,  1.05375163e-01,  2.06468806e-01,  1.04258530e-01,
       -2.10168675e-01,  1.57724977e-01, -8.82428363e-02,  1.95292130e-01,
        1.89107023e-02, -1.03885144e-01,  6.91372752e-02,  2.49070153e-02,
        3.94657776e-02, -1.67288780e-02, -1.85554937e-01,  5.78976162e-02,
        1.21832952e-01,  1.24875568e-01,  1.26375005e-01,  3.64050232e-02,
       -1.42716646e-01,  4.41787057e-02, -8.01253244e-02,  1.05869412e-01,
        5.97058609e-02, -5.32969907e-02, -1.78091023e-02,  4.29459512e-02,
        3.06550413e-03,  1.44849017e-01, -6.69803470e-02,  1.23806074e-02,
        3.21749672e-02, -3.92834768e-02,  1.57176077e-01,  3.17311883e-02,
        2.19820634e-01,  8.46451819e-02,  1.77932084e-01,  1.07321121e-01,
       -2.37286352e-02,  1.24341264e-01,  7.84570649e-02,  3.38889509e-02,
        9.46940556e-02,  1.66783541e-01, -4.21224609e-02,  1.56213669e-02,
        1.89452112e-01, -5.26451804e-02,  1.47314116e-01,  2.79339813e-02,
       -1.37746498e-01, -3.42959873e-02,  2.48887520e-02,  2.40462506e-03,
        1.39563739e-01, -1.47447875e-02,  1.19991735e-01,  3.38676199e-02,
        1.41070917e-01,  6.31876439e-02,  2.87531130e-02,  1.04456238e-01,
        2.14133989e-02,  7.60752195e-03, -5.95481768e-02, -4.32175957e-02,
       -2.58106794e-02,  4.17436361e-02,  3.35240327e-02,  1.79792643e-01,
       -1.26138180e-01, -3.81062590e-02, -2.68689524e-02,  2.04884291e-01,
        2.41100527e-02, -1.18277535e-01, -4.24628481e-02, -1.62133407e-02,
        2.77328938e-01, -1.92898378e-01,  2.57318169e-02,  1.28784359e-01,
       -2.47689504e-02, -1.24043906e-02, -2.13050190e-02,  4.60737385e-03,
       -2.52519045e-02, -1.31723255e-01,  1.40224412e-01,  1.30242556e-01,
       -3.57444473e-02, -1.39065459e-01, -4.85540293e-02,  1.60972662e-02,
        7.58485943e-02, -5.96406534e-02, -5.86617403e-02, -1.36209801e-02,
       -2.82227322e-02,  1.62847519e-01, -9.28902924e-02,  6.83029415e-04,
       -2.16519479e-02,  5.01772668e-03,  3.09606791e-02, -3.11315916e-02,
        4.30337638e-02, -5.12349941e-02,  9.98848453e-02,  6.46382496e-02,
       -1.53541222e-01,  1.38330638e-01, -1.70635611e-01, -3.24657224e-02,
        1.46493586e-02,  1.41419560e-01,  2.31627852e-01,  3.95053923e-02,
       -1.55654634e-04,  5.04063144e-02,  1.97998025e-02,  3.80507521e-02,
        8.25675670e-03, -1.68161951e-02,  1.70375541e-01,  2.27863938e-02],
      dtype=float32), array([[ 0.06856909, -0.03925778,  0.06652239, ..., -0.1982021 ,
        -0.18674846, -0.18822195],
       [ 0.04419404,  0.06410313,  0.01655163, ..., -0.34014964,
         0.04239206, -0.2607457 ],
       [-0.34023383, -0.070632  ,  0.07349707, ..., -0.15958633,
         0.04564093,  0.02917985],
       ...,
       [-0.18212865, -0.0612773 , -0.01556097, ..., -0.1923565 ,
         0.02364226, -0.03310699],
       [ 0.08726798, -0.21550733,  0.10469824, ...,  0.02600037,
        -0.22137664,  0.09972709],
       [ 0.0235812 ,  0.04395759, -0.03827441, ..., -0.05877445,
        -0.07825029, -0.26095197]], dtype=float32), array([-0.04131836, -0.03911253, -0.04156001, -0.03055098, -0.0261121 ,
       -0.03071682, -0.04291674, -0.02564588, -0.04477023, -0.03766621,
       -0.02335835, -0.02877898, -0.03460867, -0.03443216, -0.03390303,
       -0.03479857], dtype=float32)]

Model[1]
[array([[-0.03197568,  0.21615532, -0.65630454, ..., -0.24616957,
         0.3012454 ,  0.40971595],
       [ 0.31269485, -0.3690526 , -0.67708516, ..., -0.20768109,
        -0.02061492, -0.21203922],
       [-0.09205008, -0.46247268,  0.5827846 , ..., -0.42767006,
        -0.05223893, -0.25494888],
       ...,
       [ 0.09755458, -0.56194437, -0.06869477, ..., -0.44593742,
         0.4828312 , -0.5465187 ],
       [ 0.09469845, -0.76818407, -0.55824375, ..., -0.16118237,
         0.49035183, -0.38239053],
       [ 0.58667314,  0.6638923 ,  0.03081214, ..., -0.3010261 ,
         0.24468547,  0.7284476 ]], dtype=float32), array([ 0.10565071, -0.19062084,  0.17304054, -0.5117485 ,  0.39435714,
        0.03593045,  0.44613463, -0.02550825,  0.00398378,  0.08605833,
        0.1260967 , -0.31446046, -0.07187226, -0.3417838 ,  0.02368984,
        0.06105787,  0.22276103, -0.2784905 , -0.13818915, -0.3922656 ,
        0.11943056,  0.24324593,  0.22676206,  0.01730234, -0.45041713,
       -0.2876698 ,  0.53790694, -0.3672674 ,  0.14595953, -0.14643885,
       -0.32295755, -0.12041996,  0.00130782,  0.10599615,  0.59405047,
        0.05167894, -0.69242275,  0.42564124, -0.21025676,  0.4812648 ,
        0.04189033, -0.17008105,  0.38809916, -0.09542026,  0.01664462,
       -0.11899465, -0.4689018 , -0.00389505,  0.21258253,  0.0592611 ,
        0.24739985,  0.36176714, -0.38493425,  0.21762389, -0.3714629 ,
        0.3427597 , -0.00954416, -0.05556554, -0.03269225, -0.03343745,
       -0.1515979 ,  0.4554282 , -0.08105413, -0.10894359,  0.10269754,
       -0.30001038,  0.3794208 ,  0.12971827,  0.62792563,  0.01301295,
        0.27772892,  0.39693153, -0.14691171,  0.27912083,  0.3124177 ,
        0.13555469,  0.26943016,  0.4610811 ,  0.09801018, -0.07829076,
        0.5225007 , -0.16898416,  0.1859507 ,  0.18137966, -0.35752323,
       -0.24519736,  0.10812453,  0.1834632 ,  0.25174192,  0.09780135,
        0.30867273,  0.07078797,  0.4252702 ,  0.07829539, -0.12919198,
        0.2146874 , -0.0838549 ,  0.10494522, -0.21313688, -0.3059433 ,
       -0.0341753 ,  0.1928198 ,  0.3233575 ,  0.5297728 , -0.24427535,
       -0.180996  , -0.11326645,  0.53684956,  0.0784735 , -0.17361848,
        0.04718096,  0.08442748,  0.6730447 , -0.49319673,  0.06372081,
        0.46183974,  0.16343331,  0.12320293, -0.21919562,  0.24953483,
        0.02174622, -0.51297444,  0.18359467,  0.44736418, -0.12032789,
       -0.343919  , -0.05955627,  0.22092205,  0.07833637, -0.1481924 ,
       -0.16149421, -0.03382712,  0.01081859,  0.40756845, -0.20547387,
       -0.16020463, -0.17199902, -0.0593679 ,  0.19339815, -0.11389236,
        0.22814508, -0.24995133,  0.2742963 ,  0.03094986, -0.30600467,
        0.4326723 , -0.47632867, -0.21191452, -0.06647491,  0.3715595 ,
        0.42203295,  0.22272813,  0.24830294,  0.30162784,  0.10781503,
        0.22716679,  0.11310682, -0.15020688,  0.4154084 ,  0.11352586],
      dtype=float32), array([[ 0.2452284 , -0.07014855,  0.15522303, ..., -0.8770298 ,
        -0.9049625 , -1.1140095 ],
       [ 0.16461356,  0.17534353,  0.06832789, ..., -1.3848401 ,
         0.17298165, -1.2524097 ],
       [-1.5079553 , -0.22458325,  0.2463517 , ..., -0.9396747 ,
         0.3166328 ,  0.2738574 ],
       ...,
       [-0.936273  , -0.18755369,  0.12843598, ..., -0.97145134,
         0.2708672 ,  0.12444207],
       [ 0.49240938, -0.7715752 ,  0.4867872 , ...,  0.3226835 ,
        -1.1267104 ,  0.21944705],
       [ 0.11545743,  0.20614833, -0.13839367, ..., -0.07629216,
         0.02775799, -1.2403336 ]], dtype=float32), array([-0.03184856, -0.0024639 , -0.06306972, -0.01972874, -0.01986648,
       -0.01558503, -0.05371141, -0.00595298, -0.06607108, -0.04895497,
       -0.0055656 ,  0.00331552, -0.0651467 ,  0.01928176, -0.00370916,
       -0.00165022], dtype=float32)]

Model[2]
[array([[ 0.01634982,  0.24922676, -0.7420255 , ..., -0.3126859 ,
         0.258804  ,  0.47263154],
       [ 0.48579875, -0.45914724, -0.8278017 , ..., -0.26175845,
        -0.106666  , -0.25474396],
       [-0.12532534, -0.5146067 ,  0.63970953, ..., -0.39854455,
        -0.15605147, -0.22967124],
       ...,
       [ 0.15407653, -0.64127415, -0.0907981 , ..., -0.5403035 ,
         0.5232653 , -0.58882505],
       [ 0.10172275, -0.90693134, -0.5620055 , ..., -0.18223493,
         0.5311919 , -0.2679667 ],
       [ 0.591495  ,  0.7811324 , -0.21517184, ..., -0.12849653,
         0.3836524 ,  0.7048803 ]], dtype=float32), array([ 0.10699578, -0.25618175,  0.23600177, -0.6428692 ,  0.5577536 ,
        0.04918035,  0.45968035, -0.0764455 , -0.01396722,  0.04777375,
        0.1864396 , -0.39766762, -0.15263991, -0.36444324,  0.02922477,
       -0.02601065,  0.23561084, -0.33158836, -0.25714666, -0.5430784 ,
        0.02910654,  0.18549998,  0.2028695 , -0.03313307, -0.52845937,
       -0.3839646 ,  0.6673446 , -0.4501852 ,  0.20700616, -0.15077378,
       -0.37351984, -0.23316498, -0.06359804,  0.07024511,  0.7131554 ,
        0.12269378, -0.8667115 ,  0.45598778, -0.341877  ,  0.5314335 ,
        0.02721624, -0.31754425,  0.43774065, -0.0668202 ,  0.02676746,
       -0.13146043, -0.64954054, -0.05069856,  0.2621747 ,  0.04679607,
        0.32636556,  0.36829102, -0.4497469 ,  0.16581354, -0.40476415,
        0.38509604, -0.00106198, -0.06501042, -0.03005588, -0.08244579,
       -0.21685447,  0.4346365 , -0.12476192, -0.1219417 ,  0.06411817,
       -0.35549152,  0.38025764,  0.12217405,  0.70817876,  0.04143377,
        0.3107813 ,  0.42406574, -0.17810401,  0.32728493,  0.30410153,
        0.11798064,  0.25105238,  0.47641358,  0.0229482 , -0.06102273,
        0.5481211 , -0.25190586,  0.17080592,  0.21654123, -0.48809335,
       -0.34050795,  0.13704346,  0.18257645,  0.2545103 ,  0.03170031,
        0.43766403,  0.07993781,  0.47615913,  0.1546828 , -0.20387787,
        0.22211896, -0.18689778,  0.10472608, -0.29650024, -0.39304194,
       -0.03493019,  0.13709661,  0.33835194,  0.6164586 , -0.36911184,
       -0.29330105, -0.11838651,  0.53807443,  0.03402022, -0.19763604,
        0.03747369,  0.08986861,  0.7594429 , -0.6734381 ,  0.04113774,
        0.4504575 ,  0.14757212,  0.10451851, -0.28988382,  0.2306716 ,
        0.0089008 , -0.6140887 ,  0.08946619,  0.4474105 , -0.1824992 ,
       -0.3795286 , -0.17171204,  0.17746367,  0.05947708, -0.20934498,
       -0.1575264 , -0.09110161,  0.03548148,  0.44202024, -0.3199893 ,
       -0.21448728, -0.16425389, -0.05247146,  0.2527875 , -0.15580726,
        0.22203943, -0.28161255,  0.24863006, -0.04118013, -0.56007206,
        0.474195  , -0.62070346, -0.26503754, -0.08140779,  0.38133246,
        0.501627  ,  0.2753245 ,  0.24940214,  0.28719354,  0.08983115,
        0.20065954,  0.08997185, -0.14975071,  0.44678718,  0.09319419],
      dtype=float32), array([[ 0.26925993, -0.15266232,  0.20148896, ..., -1.2110413 ,
        -1.1193403 , -1.5854081 ],
       [ 0.17754716,  0.18975286,  0.12365   , ..., -1.7396168 ,
         0.2856841 , -1.8437756 ],
       [-1.8760101 , -0.33490604,  0.30046996, ..., -1.1851771 ,
         0.38382083,  0.37448445],
       ...,
       [-1.1209502 , -0.25479987,  0.16958754, ..., -1.4001116 ,
         0.33399957,  0.21418846],
       [ 0.6734275 , -0.9366184 ,  0.6140889 , ...,  0.5231885 ,
        -1.2644691 ,  0.22105263],
       [ 0.12749134,  0.20907317, -0.11205338, ..., -0.08939178,
         0.11788668, -1.542204  ]], dtype=float32), array([-0.02640386, -0.0263659 , -0.03034037,  0.01132057, -0.00292771,
       -0.04788901, -0.07544792,  0.00835339, -0.09345578, -0.06431965,
       -0.00672932, -0.02085848, -0.00344968,  0.00235499,  0.00429564,
        0.01834401], dtype=float32)]

Model[3]
[array([[-0.01445235,  0.26944762, -0.9596381 , ..., -0.30502877,
         0.19385348,  0.40804604],
       [ 0.42327103, -0.5077155 , -0.9195543 , ..., -0.38147214,
         0.01399437, -0.3829465 ],
       [-0.11307441, -0.49764165,  0.57914424, ..., -0.48843607,
        -0.12534627, -0.39942303],
       ...,
       [ 0.2515679 , -0.52707636, -0.19169058, ..., -0.7393618 ,
         0.6021338 , -0.73088217],
       [ 0.08866902, -0.93373924, -0.43473163, ..., -0.23348096,
         0.7279823 , -0.3352206 ],
       [ 0.669901  ,  0.66023135, -0.19215432, ..., -0.0420277 ,
         0.26345602,  0.73158175]], dtype=float32), array([ 0.04989754, -0.26934153,  0.13805474, -0.89451855,  0.5290646 ,
        0.03116771,  0.47380495, -0.07583263, -0.074884  ,  0.0271254 ,
        0.11501055, -0.43926877, -0.13734874, -0.4680127 , -0.06416997,
        0.11745451,  0.22717397, -0.4571114 , -0.39466092, -0.73955494,
        0.05433169,  0.27044678,  0.19503054, -0.12523958, -0.65971804,
       -0.5324995 ,  0.66747606, -0.58686006,  0.25370833, -0.2833436 ,
       -0.5624085 , -0.3485595 , -0.17723064,  0.11373273,  0.8356142 ,
        0.10314878, -1.0519441 ,  0.48796734, -0.4997592 ,  0.5263635 ,
       -0.05197095, -0.4284256 ,  0.41803572, -0.16341515, -0.01932296,
       -0.28475803, -0.6448785 , -0.15299687,  0.24200071,  0.0317819 ,
        0.2887863 ,  0.44000405, -0.6407788 ,  0.17118385, -0.49658972,
        0.42366013, -0.06783394, -0.23916776, -0.0590243 , -0.10114066,
       -0.3097113 ,  0.4787938 , -0.19156247, -0.2883829 ,  0.01109051,
       -0.44019   ,  0.5059745 ,  0.12740766,  0.7716482 , -0.11033227,
        0.26464686,  0.47572586, -0.20509665,  0.3501717 ,  0.3201927 ,
        0.09033447,  0.21095078,  0.50357723,  0.0564005 , -0.15985718,
        0.5055285 , -0.349791  ,  0.19940189,  0.17069896, -0.50571054,
       -0.49588653,  0.17155388,  0.11185476,  0.2891345 ,  0.05806406,
        0.41271982, -0.00806632,  0.5677286 ,  0.17038575, -0.25240508,
        0.22508565, -0.19189022,  0.21444614, -0.31615826, -0.4436819 ,
       -0.06719858,  0.18337855,  0.346007  ,  0.7092483 , -0.37997386,
       -0.40089267, -0.17835616,  0.6484607 ,  0.04927449, -0.22461942,
        0.04600748,  0.01183218,  0.83163965, -0.76813847,  0.07041845,
        0.50549847,  0.12231811,  0.02870296, -0.42223123,  0.20143285,
        0.01312367, -0.72874755,  0.09430657,  0.530649  , -0.26842833,
       -0.5756271 , -0.23002972,  0.18325962,  0.0387324 , -0.22247708,
       -0.26972336, -0.16315474,  0.03246401,  0.44681722, -0.32986194,
       -0.20906106, -0.14887206, -0.10428833,  0.29901135, -0.26851872,
        0.22426035, -0.36601275,  0.29760653, -0.01662127, -0.6565691 ,
        0.55240905, -0.82015216, -0.34505913, -0.12267795,  0.40260717,
        0.52893627,  0.31837264,  0.29220876,  0.3032203 ,  0.13833946,
        0.2000673 , -0.00421479, -0.2634458 ,  0.4189631 ,  0.06663599],
      dtype=float32), array([[ 0.33910796, -0.18743381,  0.21914852, ..., -1.2336392 ,
        -1.2282696 , -1.4408514 ],
       [ 0.24209265,  0.22833742,  0.14448325, ..., -1.8975087 ,
         0.28612077, -2.0492253 ],
       [-2.095582  , -0.4389208 ,  0.23173067, ..., -1.2549987 ,
         0.36986563,  0.44350222],
       ...,
       [-1.1439799 , -0.2653054 ,  0.17925414, ..., -1.5806191 ,
         0.27245364,  0.23056577],
       [ 0.7986729 , -0.9750091 ,  0.65811527, ...,  0.49007356,
        -1.2482765 ,  0.2616773 ],
       [ 0.20628135,  0.25069556, -0.10517079, ..., -0.10295442,
         0.02517948, -1.7363616 ]], dtype=float32), array([-0.00554447, -0.0183105 , -0.0339228 ,  0.05103574, -0.00452394,
        0.0013387 , -0.06844634,  0.0380679 , -0.08384456, -0.114434  ,
       -0.00186263, -0.00255779, -0.03121191,  0.03835477, -0.01892241,
        0.03005554], dtype=float32)]

Model[4]
[array([[ 0.1345803 ,  0.18514782, -1.0358323 , ..., -0.24355136,
         0.31810403,  0.41828033],
       [ 0.48598084, -0.41879833, -0.8192475 , ..., -0.31729063,
        -0.10040631, -0.5782082 ],
       [ 0.02391909, -0.5167623 ,  0.5125366 , ..., -0.6916755 ,
        -0.25677252, -0.4807515 ],
       ...,
       [ 0.3234635 , -0.82264465, -0.22438936, ..., -0.79712   ,
         0.59048104, -0.7260547 ],
       [-0.12902372, -1.1156828 , -0.30054623, ..., -0.2532036 ,
         0.7232436 , -0.43226948],
       [ 0.7834118 ,  0.4237677 , -0.14601082, ..., -0.16656265,
         0.25431696,  0.93031824]], dtype=float32), array([ 5.32908924e-02, -4.19795036e-01,  1.03889585e-01, -1.24748373e+00,
        6.14151359e-01,  5.53568676e-02,  5.15960157e-01, -1.99250922e-01,
       -1.28735453e-01,  2.02081930e-02,  2.50491221e-02, -7.05639720e-01,
       -2.73815900e-01, -6.59736931e-01, -5.54753467e-04,  7.90897533e-02,
        2.98784077e-01, -7.84078598e-01, -6.15485013e-01, -1.17081380e+00,
       -2.08520852e-02,  2.24307179e-01,  1.25492230e-01, -2.93673605e-01,
       -8.95279229e-01, -6.71354890e-01,  7.96367168e-01, -6.53718352e-01,
        1.92676291e-01, -4.61249918e-01, -7.90643513e-01, -4.47665364e-01,
       -2.52234936e-01,  1.94596857e-01,  7.17806518e-01, -3.94794047e-02,
       -1.49043310e+00,  5.50832927e-01, -6.62412822e-01,  6.30265594e-01,
       -1.02913164e-01, -7.80213058e-01,  5.10050058e-01, -1.20575771e-01,
       -1.68915719e-01, -4.07882392e-01, -1.08398509e+00, -2.38476723e-01,
        3.24611962e-01, -8.55990201e-02,  3.64349663e-01,  4.68209445e-01,
       -9.37991977e-01,  6.25669211e-02, -6.51162922e-01,  4.05674994e-01,
       -2.44083181e-01, -3.37008148e-01, -7.70433545e-02,  3.20865884e-02,
       -5.84185839e-01,  6.55450046e-01, -2.91305840e-01, -2.44083002e-01,
        1.82356276e-02, -6.53730750e-01,  6.82982385e-01,  1.80657148e-01,
        8.58264744e-01, -1.64304584e-01,  4.37790781e-01,  6.86440289e-01,
       -3.10284674e-01,  3.82053047e-01,  3.13114196e-01,  3.54020186e-02,
        2.84488469e-01,  5.62374055e-01,  9.81131792e-02, -2.21584752e-01,
        6.11244500e-01, -4.61884081e-01,  3.42678189e-01, -3.63440886e-02,
       -8.01061332e-01, -8.19634378e-01,  1.43243790e-01, -1.10492840e-01,
        1.92769006e-01, -9.26930364e-03,  2.86103189e-01,  1.30712539e-02,
        6.40557826e-01,  1.12109333e-02, -4.37258959e-01,  9.60379988e-02,
       -3.89872730e-01,  2.23557368e-01, -4.04536813e-01, -6.61399007e-01,
       -6.10011183e-02,  3.23421538e-01,  3.61696184e-01,  7.79176235e-01,
       -4.18329000e-01, -6.01704717e-01, -2.77905732e-01,  7.52452672e-01,
       -5.53728081e-02, -3.50529134e-01, -1.90405175e-02, -1.85844094e-01,
        1.00867832e+00, -9.61377025e-01, -1.17083922e-01,  5.76775849e-01,
        1.07333846e-02,  2.35630926e-02, -4.94972497e-01,  5.31103089e-02,
       -2.79202852e-02, -8.85259569e-01,  1.20233402e-01,  6.96520805e-01,
       -5.02720714e-01, -9.88441825e-01, -3.89632583e-01,  2.22278357e-01,
       -1.62164737e-02, -3.85170668e-01, -3.13859820e-01, -4.74163234e-01,
       -7.77712977e-03,  5.41230500e-01, -4.47376013e-01, -4.04164046e-01,
       -4.26168144e-01, -2.00516969e-01,  2.66874671e-01, -4.84678000e-01,
        3.08994263e-01, -4.57373768e-01,  2.85642684e-01, -1.48761347e-02,
       -8.80886555e-01,  5.81122756e-01, -1.28229308e+00, -6.59257412e-01,
       -2.27003008e-01,  4.42760140e-01,  5.79088390e-01,  3.80642384e-01,
        3.27589452e-01,  3.05396140e-01,  5.32151610e-02,  2.36074880e-01,
       -4.08200398e-02, -4.00862485e-01,  5.87172508e-01,  7.30694607e-02],
      dtype=float32), array([[ 0.34235   , -0.22108062,  0.2275894 , ..., -1.4500808 ,
        -1.353802  , -1.4083799 ],
       [ 0.2609508 ,  0.33092937,  0.02695693, ..., -2.132565  ,
         0.34817675, -2.0980425 ],
       [-2.1794717 , -0.40244558,  0.3533944 , ..., -1.4024352 ,
         0.4956606 ,  0.43599027],
       ...,
       [-1.1810112 , -0.31871393,  0.23212352, ..., -1.5659701 ,
         0.31796345,  0.34559998],
       [ 0.89839923, -1.0729612 ,  0.74334466, ...,  0.5414495 ,
        -1.2119259 ,  0.24728468],
       [ 0.22932723,  0.21407647, -0.09837864, ..., -0.19103044,
        -0.0757081 , -1.8367792 ]], dtype=float32), array([-0.01089488,  0.03637164,  0.00671365,  0.08287662,  0.01213371,
        0.00217103, -0.04362935,  0.08291423, -0.07552633, -0.0702912 ,
        0.05362307,  0.02995547,  0.08372372,  0.03501474,  0.02272946,
        0.07536948], dtype=float32)]

Model[5]
[array([[ 0.24352312,  0.16079809, -1.2992525 , ..., -0.05995215,
         0.10665227,  0.6547733 ],
       [ 0.40511644, -0.42850578, -1.2549887 , ..., -0.39742652,
         0.10104951, -0.37911108],
       [ 0.08762152, -0.44562265,  0.5857011 , ..., -0.7485917 ,
        -0.27101627, -0.37005448],
       ...,
       [ 0.3256631 , -0.830756  , -0.14402959, ..., -0.63955647,
         0.4407486 , -1.1535821 ],
       [-0.2506774 , -1.2000307 , -0.3958605 , ...,  0.04880069,
         0.5861226 , -0.2677962 ],
       [ 0.76374984,  0.69267046, -0.22449812, ..., -0.11086628,
         0.3667311 ,  0.74083966]], dtype=float32), array([ 1.90617684e-02, -5.33392608e-01,  2.22330198e-01, -1.64909422e+00,
        7.15089977e-01,  4.25965264e-02,  6.76422417e-01, -3.10260862e-01,
        2.05520745e-02,  7.07688853e-02,  1.05285428e-01, -9.04049337e-01,
       -3.75446707e-01, -8.89317572e-01,  1.61356851e-01,  5.77979349e-02,
        3.34705174e-01, -8.56869221e-01, -8.18931401e-01, -1.19814026e+00,
       -2.21818127e-02,  3.14755172e-01, -1.37188961e-03, -5.16826868e-01,
       -1.07961786e+00, -8.44368279e-01,  9.11057591e-01, -5.86766839e-01,
        1.21878996e-01, -5.78483880e-01, -1.10087240e+00, -4.94597137e-01,
       -5.12225151e-01,  2.03523442e-01,  8.93201649e-01, -9.45901275e-02,
       -1.52511346e+00,  5.18728256e-01, -7.53600419e-01,  7.15292156e-01,
       -9.24575925e-02, -8.23891580e-01,  6.10239327e-01, -1.55818880e-01,
       -1.18840255e-01, -5.67239940e-01, -1.68718696e+00, -4.36301202e-01,
        3.29882503e-01, -1.87837914e-01,  3.36264312e-01,  7.81832218e-01,
       -1.21449244e+00, -8.29715803e-02, -8.39558125e-01,  4.23504412e-01,
       -3.45584631e-01, -4.73311633e-01, -1.88859761e-01, -8.69775787e-02,
       -4.76078391e-01,  5.82466185e-01, -7.07021773e-01, -3.71659726e-01,
        1.65066317e-01, -7.85453439e-01,  6.69314504e-01,  1.08333342e-01,
        9.87729490e-01, -2.57026285e-01,  3.19684654e-01,  5.78364670e-01,
       -6.84577644e-01,  5.07006943e-01,  2.57723778e-01, -1.16465330e-01,
        3.10519964e-01,  6.85753405e-01, -7.24670961e-02, -2.40172848e-01,
        7.61046410e-01, -6.17760479e-01,  1.05036736e-01, -1.00913830e-01,
       -7.50204861e-01, -1.02334404e+00,  2.31341138e-01, -2.48284414e-01,
        2.01553553e-01, -6.15393221e-02,  3.32695484e-01, -2.11668327e-01,
        6.80886507e-01,  2.12976765e-02, -6.46287024e-01, -1.72544435e-01,
       -3.57551664e-01, -1.11798249e-01, -5.75388491e-01, -6.94783270e-01,
       -2.05695912e-01,  1.69159949e-01,  3.22462618e-01,  8.04810762e-01,
       -5.32692969e-01, -6.59692943e-01, -3.64403933e-01,  7.82100737e-01,
       -2.42747180e-02, -5.83301604e-01, -2.21864343e-01, -4.34997171e-01,
        1.18221855e+00, -1.37143731e+00, -5.64643502e-01,  6.14464223e-01,
        3.22472937e-02,  4.98182662e-02, -4.93428648e-01,  5.72079346e-02,
       -2.25578770e-01, -1.13363516e+00,  1.16978325e-01,  8.92217875e-01,
       -4.31960940e-01, -1.21951091e+00, -4.63372827e-01,  2.40889683e-01,
       -8.27128366e-02, -5.43660343e-01, -4.71577525e-01, -6.36576831e-01,
       -1.04974143e-01,  4.20828640e-01, -5.74130714e-01, -5.08360267e-01,
       -4.92942631e-01, -2.43265674e-01,  3.88486683e-01, -5.61499774e-01,
        2.30020136e-01, -6.05340898e-01,  2.84827858e-01,  8.09298456e-02,
       -1.37667477e+00,  5.29344857e-01, -1.66879904e+00, -8.68556678e-01,
       -3.42699200e-01,  6.47387087e-01,  6.44541860e-01,  2.99078852e-01,
        2.11554855e-01,  1.22406073e-01, -7.89688993e-03,  3.17477912e-01,
       -2.07040161e-02, -3.29984009e-01,  6.56897187e-01,  1.15066193e-01],
      dtype=float32), array([[ 0.581387  , -0.16811934,  0.2611137 , ..., -1.5880786 ,
        -1.3797625 , -1.2275622 ],
       [ 0.2743235 ,  0.33296645,  0.01516634, ..., -2.2808146 ,
         0.3797188 , -2.1828783 ],
       [-2.2639813 , -0.31072146,  0.5695811 , ..., -1.4267541 ,
         0.55733806,  0.5443852 ],
       ...,
       [-1.5999074 , -0.04462773,  0.0814372 , ..., -1.6428614 ,
         0.3431758 ,  0.43782735],
       [ 1.0648006 , -1.1708089 ,  0.8898252 , ...,  0.62782127,
        -1.2744855 ,  0.2828219 ],
       [ 0.33512664,  0.22322148, -0.03404939, ..., -0.07791995,
         0.02774122, -1.9335605 ]], dtype=float32), array([ 0.07871573,  0.11310081,  0.10028923,  0.15063316,  0.03372846,
        0.06067252,  0.05972017,  0.18784241, -0.03872867, -0.002547  ,
        0.08150683,  0.15444875,  0.10819341,  0.07950633,  0.09765736,
        0.13527273], dtype=float32)]

Model[6]
[array([[-0.02702072,  0.03144515, -1.4399636 , ..., -0.0197642 ,
         0.125868  ,  0.8292364 ],
       [ 0.09203172, -0.3426002 , -1.337389  , ..., -0.31421208,
         0.2335242 , -0.584443  ],
       [-0.07890405, -0.24813963,  0.57694405, ..., -0.748663  ,
        -0.29980713, -0.23304945],
       ...,
       [ 0.12699595, -0.4379859 , -0.33608463, ..., -0.50891745,
         0.4253669 , -0.8411496 ],
       [-0.34258458, -1.2301805 , -0.46811038, ..., -0.01152284,
         0.16157816, -0.25965422],
       [ 0.5749684 ,  1.2186307 , -0.19189087, ..., -0.13458647,
         0.6396683 ,  0.9996021 ]], dtype=float32), array([-0.4294817 , -0.63792455,  0.0502147 , -1.8750367 ,  0.64141655,
        0.13461582,  0.5513604 , -0.3018244 , -0.19378483, -0.37968996,
        0.06137865, -1.0022473 , -0.60411704, -0.8808346 ,  0.15416287,
       -0.01587877,  0.41723102, -1.0253268 , -0.7226228 , -1.50203   ,
       -0.27816674,  0.46195188, -0.03424777, -0.6574611 , -0.8282885 ,
       -1.0465662 ,  0.82296544, -0.6469095 ,  0.20941891, -0.75460696,
       -1.0334973 , -0.51613235, -0.6466897 ,  0.20853294,  0.9600083 ,
       -0.31764272, -1.9410894 ,  0.6467516 , -0.73202   ,  0.40098482,
       -0.16201699, -0.88268816,  0.67699677, -0.26781347, -0.29153782,
       -0.706678  , -1.269929  , -0.11038443,  0.2943586 ,  0.18173441,
        0.22093964,  0.73454666, -1.2702394 , -0.25501597, -1.0263906 ,
        0.3532288 , -0.24912451, -0.6377321 , -0.23889661, -0.20659554,
       -0.60563046,  0.7006066 , -0.77725005, -0.56830025, -0.11271106,
       -0.8850768 ,  0.5726788 ,  0.10437844,  1.1103469 , -0.22854438,
        0.41104445,  0.6567973 , -0.6113283 ,  0.36633652,  0.27489024,
       -0.15315057,  0.2064005 ,  0.4534967 , -0.14842805, -0.4498864 ,
        0.84976655, -0.36026552, -0.10832736,  0.2420307 , -0.89332193,
       -0.65048265,  0.13285978, -0.30333504,  0.2600378 ,  0.22865039,
        0.3938287 , -0.26108345,  0.8329382 , -0.15220638, -0.76530176,
        0.10459127, -0.34658602, -0.14842033, -0.6535619 , -1.0130601 ,
       -0.33576977,  0.22522067,  0.33073756,  0.71086633, -0.6212299 ,
       -0.8734393 , -0.47102806,  0.93782914,  0.03981335, -0.5305914 ,
       -0.13748303, -0.7196523 ,  1.3813746 , -1.5986657 , -0.375003  ,
        0.58202296,  0.1185407 , -0.15671085, -1.0775089 ,  0.15455154,
       -0.00266387, -0.97033936,  0.08480301,  1.0663136 , -0.6377324 ,
       -1.4969704 , -0.61060697,  0.30813047, -0.30490986, -0.26489478,
       -0.6926479 , -0.8874408 , -0.40559173,  0.378859  , -0.84188795,
       -0.8122321 , -0.74631184, -0.46987495,  0.05796485, -0.41451213,
        0.14390391, -0.6580044 ,  0.1930716 , -0.08265914, -1.3752015 ,
        0.2504803 , -1.7485539 , -0.98063266, -0.3233903 ,  0.5569819 ,
        0.65127534,  0.16072264,  0.30724934,  0.36963263,  0.01555593,
        0.3617581 , -0.25286776, -0.423435  ,  0.75068927,  0.4197261 ],
      dtype=float32), array([[ 0.67779446,  0.13884224,  0.2592806 , ..., -1.9036827 ,
        -1.4017441 , -1.2577788 ],
       [-0.00397149,  0.44769245, -0.14845756, ..., -2.1583505 ,
         0.5826912 , -2.2108963 ],
       [-2.2084637 , -0.21418561,  0.58720833, ..., -1.5692102 ,
         0.66617864,  0.52318615],
       ...,
       [-1.7203816 , -0.13821366, -0.09148456, ..., -1.5679246 ,
         0.14834663,  0.5682114 ],
       [ 1.0573606 , -1.1039467 ,  0.8419601 , ...,  0.73740375,
        -1.2002842 ,  0.22330806],
       [ 0.40318328,  0.2704472 ,  0.08947237, ..., -0.04297649,
         0.03971267, -1.8680873 ]], dtype=float32), array([0.15084985, 0.17091975, 0.20418146, 0.21199256, 0.14639512,
       0.10498071, 0.24162386, 0.27279   , 0.09496654, 0.07972768,
       0.21247704, 0.28959176, 0.2501371 , 0.12840699, 0.15866636,
       0.19364662], dtype=float32)]

Model[7]
[array([[ 0.3574569 , -0.2285285 , -1.5362091 , ...,  0.03188907,
        -0.1831625 ,  0.8660068 ],
       [-0.14368278, -1.0042483 , -0.74640673, ..., -0.19499868,
         0.15031292, -0.48780233],
       [ 0.02950183, -0.7502332 ,  0.6659095 , ..., -0.81671214,
        -0.52037674, -0.5807207 ],
       ...,
       [ 0.5547875 , -0.7992832 ,  0.10053386, ...,  0.00994484,
         0.45426747, -0.6391592 ],
       [-0.39936808, -1.529892  , -0.17366429, ...,  0.1452364 ,
        -0.07868495, -0.40835977],
       [ 0.43906206,  0.7792466 , -0.21928893, ...,  0.20219304,
         0.521191  ,  0.7272349 ]], dtype=float32), array([-2.11278081e-01, -1.10818064e+00,  3.68549041e-02, -2.43153024e+00,
        9.02778387e-01,  1.68195918e-01,  5.35970449e-01, -3.90313089e-01,
       -2.72729337e-01, -5.28950751e-01, -2.68590689e-01, -1.33898520e+00,
       -8.09552014e-01, -1.23610926e+00,  2.98185915e-01, -4.37077314e-01,
        3.05323899e-01, -1.48852420e+00, -9.95961785e-01, -1.56524706e+00,
       -3.44017032e-03,  4.19182271e-01, -2.06630915e-01, -7.26660609e-01,
       -1.01111591e+00, -1.29771328e+00,  9.17522728e-01, -7.30658293e-01,
        1.26761779e-01, -9.74644721e-01, -1.18810463e+00, -6.04293227e-01,
       -6.57940745e-01,  2.36786515e-01,  9.18217063e-01, -2.28129640e-01,
       -2.13090444e+00,  5.00845730e-01, -8.85247767e-01,  6.25233114e-01,
       -1.12164736e-01, -9.83075976e-01,  6.83257699e-01, -2.86847711e-01,
       -2.85388082e-01, -8.38494658e-01, -1.56242251e+00, -9.61244181e-02,
        1.98921919e-01, -2.77548078e-02,  3.24497938e-01,  4.86345530e-01,
       -1.56766498e+00, -5.15050530e-01, -1.37348390e+00,  2.56358981e-01,
       -2.31499776e-01, -5.69844544e-01, -5.56387365e-01, -4.97968942e-01,
       -6.46277487e-01,  6.87281609e-01, -1.21073961e+00, -4.45303679e-01,
       -1.49355412e-01, -6.79352105e-01,  5.97781777e-01,  2.90881209e-02,
        1.08288574e+00, -2.84804076e-01,  2.64782846e-01,  6.72417462e-01,
       -7.70187259e-01,  5.24207056e-01,  1.77657977e-01, -5.83753824e-01,
        5.07720709e-02,  6.60236180e-01,  2.68756822e-02, -7.41987824e-01,
        6.75188959e-01, -3.11058998e-01,  1.69964954e-01,  1.19506031e-01,
       -6.96321785e-01, -9.10959005e-01,  4.76665311e-02, -4.70247984e-01,
        4.70641622e-04,  3.23131055e-01,  1.07255690e-01, -5.56146465e-02,
        7.97736287e-01, -3.92131120e-01, -9.84605730e-01, -4.36034165e-02,
       -3.67214024e-01, -9.69180465e-02, -5.04656136e-01, -1.32109976e+00,
       -3.00605416e-01,  1.76772505e-01,  4.62358743e-01,  8.36728692e-01,
       -5.15015423e-01, -5.40094435e-01, -6.94499016e-01,  7.55764425e-01,
        7.53056854e-02, -4.40884382e-01, -4.92444545e-01, -8.87896359e-01,
        1.32839978e+00, -2.05625916e+00,  1.11725733e-01,  3.94095778e-01,
        7.43444823e-03, -1.82674438e-01, -1.03806853e+00,  3.52242798e-01,
       -1.04838103e-01, -1.13785899e+00,  7.74654821e-02,  1.40358710e+00,
       -7.10541904e-01, -1.51443136e+00, -6.37990475e-01, -8.32626130e-03,
       -3.93605649e-01, -2.67080724e-01, -7.93494403e-01, -7.42432535e-01,
       -4.44633156e-01,  4.71551150e-01, -1.19183886e+00, -7.71710455e-01,
       -9.45392609e-01, -7.79490829e-01,  1.03567868e-01, -6.06345892e-01,
        4.28801551e-02, -9.16037321e-01,  2.69628584e-01, -2.42180035e-01,
       -1.69313812e+00,  5.10253429e-01, -1.75999916e+00, -1.16870856e+00,
       -4.51227963e-01,  4.95417118e-01,  5.07026196e-01,  4.43958342e-02,
        6.48660839e-01,  3.67231488e-01, -2.30361279e-02,  6.07722700e-01,
       -3.55462283e-01, -5.29040635e-01,  4.93754148e-01,  2.30829790e-01],
      dtype=float32), array([[ 0.78541386,  0.22147292, -0.31723025, ..., -1.7526505 ,
        -1.747383  , -1.6878833 ],
       [ 0.13009937,  0.31148216, -0.31832978, ..., -2.3525095 ,
         0.6529229 , -1.8244692 ],
       [-1.9394678 , -0.70875955,  0.90256935, ..., -1.7915534 ,
         0.48899195,  0.04449363],
       ...,
       [-1.0822146 ,  0.17747703, -0.03061697, ..., -1.5330236 ,
         0.13335805,  0.6847814 ],
       [ 0.88466597, -0.59423345,  0.65393984, ...,  0.61894643,
        -1.4633838 , -0.07595602],
       [ 0.62595224,  0.39651403,  0.22679636, ...,  0.04269729,
         0.20463605, -1.7472093 ]], dtype=float32), array([0.3728266 , 0.29511702, 0.33562854, 0.3518005 , 0.21876717,
       0.18285145, 0.31447798, 0.28179654, 0.12315028, 0.16104957,
       0.3600079 , 0.4084821 , 0.34343344, 0.2014749 , 0.32335573,
       0.31807628], dtype=float32)]

Model[8]
[array([[ 0.28073254, -0.29514346, -1.4897661 , ..., -0.03093069,
         0.14113455,  1.3021008 ],
       [ 0.01511154, -0.6270257 , -0.923168  , ...,  0.11477704,
         0.3829461 , -0.58602804],
       [ 0.02664029, -0.48368657,  0.9103365 , ..., -0.7335366 ,
        -0.7857117 , -0.58197415],
       ...,
       [ 0.67383575, -0.852178  ,  0.36159503, ..., -0.3968707 ,
         0.5287675 , -0.6832159 ],
       [-0.8675576 , -1.739104  , -0.37899476, ...,  0.26912323,
        -0.51191115, -0.42041123],
       [ 0.01390842,  1.1334497 , -0.14251637, ..., -0.04405246,
         0.7753081 ,  1.1340423 ]], dtype=float32), array([-0.3286254 , -1.1982267 ,  0.10842793, -2.6237247 ,  0.8258522 ,
        0.03237488,  0.68471354, -0.53351456, -0.505727  , -0.9865216 ,
        0.12112029, -1.2973796 , -0.6768308 , -1.0307354 , -0.02500301,
       -0.25566122,  0.45753908, -1.4323964 , -1.192553  , -1.8558921 ,
       -0.15004556,  0.43189716, -0.07321326, -0.99066377, -1.0255433 ,
       -1.3885032 ,  0.742438  , -0.73268485,  0.38190916, -1.252387  ,
       -0.94600433, -0.93125457, -1.0053027 ,  0.07188024,  0.8360222 ,
        0.1045121 , -2.1432137 ,  0.5001875 , -0.84124386,  0.40787938,
       -0.38786125, -1.2221644 ,  0.48234895, -0.09569924, -0.29273862,
       -1.0251272 , -1.535829  , -0.19090386,  0.05601382, -0.0834235 ,
        0.13517113,  0.648554  , -1.775354  , -0.64870495, -1.6427003 ,
        0.06866325, -0.33585832, -0.878888  , -0.49493024, -0.44430542,
       -0.49668255,  0.48741478, -1.3709433 , -0.4206034 , -0.20440124,
       -0.43527174,  0.39366475, -0.29309273,  0.9424036 ,  0.03114033,
        0.04355589,  0.5365061 , -0.6699845 ,  0.25069097,  0.31205198,
       -0.62643504, -0.2868806 ,  0.3015801 , -0.07625025, -0.5272094 ,
        0.6172211 , -0.2335396 , -0.0284394 ,  0.13554922, -0.84061193,
       -1.123419  ,  0.04141725, -0.45149916, -0.02717323,  0.27491057,
        0.17491277,  0.04671785,  0.5969566 , -0.10589152, -1.1152842 ,
       -0.0994923 , -0.47475466,  0.06543915, -0.60200727, -1.3115435 ,
       -0.43741673,  0.07751087,  0.09164197,  0.87318385, -0.6199877 ,
       -0.98796546, -1.0466185 ,  0.56480753,  0.06729126, -0.48077822,
       -0.3385775 , -0.31505448,  1.3150874 , -2.365124  , -0.20009306,
        0.44184598, -0.06109079, -0.33078712, -1.2500293 ,  0.39893565,
       -0.29933518, -1.1327645 , -0.1643804 ,  1.2817631 , -0.9088868 ,
       -1.8594725 , -0.66751695,  0.08154412, -0.49859583, -0.4019304 ,
       -1.0760295 , -0.83384854, -0.8511428 ,  0.21496731, -1.0468724 ,
       -1.050107  , -1.062317  , -0.89174855,  0.29941198, -0.8172764 ,
       -0.25074127, -0.640187  ,  0.0800153 , -0.4918156 , -1.7246602 ,
        0.13537346, -1.67209   , -1.1195098 , -0.69241196,  0.60019934,
        0.37414682, -0.10411382,  0.40909114,  0.08795779,  0.0491402 ,
        0.5391973 , -0.46150982, -0.6932608 ,  0.40627623,  0.3192961 ],
      dtype=float32), array([[ 0.9623381 ,  0.5083461 , -1.1784562 , ..., -1.878253  ,
        -2.0022213 , -1.9969264 ],
       [ 0.1397634 , -0.02073347, -1.3193371 , ..., -2.626507  ,
        -0.01370966, -2.0827172 ],
       [-2.2558281 , -1.0244776 ,  0.65877914, ..., -2.2006176 ,
         0.20706709, -0.3012966 ],
       ...,
       [-1.533075  ,  0.466952  , -0.2820392 , ..., -1.7412121 ,
         0.15287006,  0.8270367 ],
       [ 0.58673745, -0.6052515 ,  0.467323  , ...,  0.32392883,
        -1.6280645 ,  0.59585404],
       [ 0.6442387 ,  0.5436359 ,  0.2684626 , ...,  0.17094752,
         0.40842935, -1.6102028 ]], dtype=float32), array([0.40456414, 0.45114917, 0.38110185, 0.46558657, 0.28773284,
       0.36688697, 0.45617577, 0.45719028, 0.26431668, 0.30662867,
       0.50684124, 0.5285018 , 0.46040714, 0.3509609 , 0.49287635,
       0.44988027], dtype=float32)]

Model[9]
[array([[ 0.22467378, -0.49720746, -1.6469232 , ...,  0.03037858,
         0.4686797 ,  1.2832956 ],
       [ 0.03160893, -1.3074132 , -0.64609325, ...,  0.22951011,
         0.2662469 , -0.7383608 ],
       [ 0.01236986, -0.34515387,  0.79981816, ..., -1.006493  ,
        -0.38715628, -0.6604619 ],
       ...,
       [ 0.83972865, -1.0177034 ,  0.41174278, ..., -0.25486046,
         0.82491   , -1.0586257 ],
       [-0.65199864, -1.3954605 , -0.9018291 , ...,  0.6211077 ,
        -0.3416343 , -0.16485965],
       [-0.3416106 ,  0.9966653 , -0.9166663 , ...,  0.3296391 ,
         0.32459185,  0.9758104 ]], dtype=float32), array([-0.48081082, -1.3218403 , -0.0793986 , -3.035289  ,  0.9417802 ,
        0.12835096,  0.76739097, -0.59526336, -0.54211   , -1.1604056 ,
       -0.00706266, -1.3155499 , -0.69726455, -1.2558333 , -0.29799998,
       -0.21394981,  0.2723248 , -1.7328238 , -1.2813042 , -1.8252754 ,
       -0.01099161,  0.63947654, -0.14778672, -1.2444088 , -0.88565415,
       -1.9381326 ,  0.8044248 , -0.88521165,  0.27105403, -1.4266479 ,
       -1.1760689 , -0.9706001 , -1.0029534 ,  0.32607612,  0.94967544,
       -0.08778388, -2.1992998 ,  0.42747235, -0.7725555 ,  0.26299253,
       -0.7590971 , -1.401726  ,  0.25091487, -0.2477952 , -0.4155287 ,
       -1.3270179 , -1.8323327 , -0.08105841,  0.01134662, -0.17263722,
       -0.09619676,  0.44720843, -2.0921946 , -0.8853672 , -1.9653388 ,
       -0.2725206 , -0.72389215, -1.1134114 , -0.8091379 , -0.83151543,
       -0.73656917,  0.7330698 , -1.7786974 , -0.29248443, -0.42611077,
       -0.25739983,  0.4673722 , -0.45380023,  0.64394563, -0.04485418,
       -0.06727086,  0.32852027, -0.9297125 ,  0.2592633 ,  0.01908893,
       -0.6421831 , -0.35254917,  0.13648076,  0.01910295, -0.8850072 ,
        0.409176  , -0.3107385 , -0.15941793,  0.2820565 , -0.6831452 ,
       -1.0029652 , -0.13270484, -0.6804228 ,  0.29687533,  0.22675672,
        0.1410098 ,  0.23542649,  0.47080624, -0.6524628 , -1.4170166 ,
       -0.12518296, -0.04846725, -0.23126018, -0.48070103, -1.3822097 ,
       -0.53532755,  0.06315379,  0.11297043,  0.9936932 , -0.8633584 ,
       -0.8573338 , -1.1561452 ,  0.44837004, -0.03070872, -0.4223866 ,
       -0.28459507, -0.4430402 ,  1.1710571 , -2.4378312 , -0.3616502 ,
        0.07324751, -0.02733136, -0.67650133, -1.5837175 ,  0.3322028 ,
       -0.12349108, -0.94166607, -0.5841314 ,  1.3583282 , -0.99206966,
       -1.9854883 , -0.616899  ,  0.10956496, -0.30018294, -0.7266763 ,
       -0.9589352 , -0.94530326, -0.8386451 ,  0.08266564, -0.9588305 ,
       -1.1137695 , -0.95555496, -1.0345421 ,  0.07035114, -1.0893803 ,
        0.12449881, -1.05352   , -0.01309856, -0.5312665 , -1.7483834 ,
        0.22556078, -1.8439834 , -1.4935261 , -0.65697646,  0.61939085,
        0.27016246, -0.45672727,  0.15823862,  0.14418635,  0.29956874,
        0.56516534, -0.6513854 , -0.85127074,  0.3514316 ,  0.17049888],
      dtype=float32), array([[ 0.9874408 ,  0.21019779, -1.58941   , ..., -1.9958    ,
        -1.8267881 , -2.5316646 ],
       [ 0.15078184, -0.54452044, -1.3536484 , ..., -2.9787242 ,
        -0.13427524, -2.1800964 ],
       [-2.2166314 , -0.9330907 , -0.15351789, ..., -2.790956  ,
        -0.30908623, -0.4083048 ],
       ...,
       [-1.6328858 ,  0.4525311 , -0.7825837 , ..., -1.6672416 ,
         0.12021782,  0.54235774],
       [ 0.6054493 , -0.8190893 ,  0.62980187, ..., -0.00326517,
        -1.6850231 ,  0.39203662],
       [ 0.78234434,  0.6320406 ,  0.4196028 , ...,  0.3215334 ,
         0.46311772, -1.5474281 ]], dtype=float32), array([0.52735525, 0.5415811 , 0.5288561 , 0.5365218 , 0.39762247,
       0.48551038, 0.57749707, 0.5366075 , 0.42473632, 0.50487375,
       0.47045997, 0.61162055, 0.5366563 , 0.5003373 , 0.55684465,
       0.522944  ], dtype=float32)]

