Model[0]
[array([[ 0.3331001 ,  0.35569954, -0.06268961, ..., -0.02300425,
         0.36165723,  0.21041635],
       [ 0.3525071 , -0.23666857, -0.00722569, ...,  0.01730654,
        -0.5082606 , -0.03118084],
       [ 0.2755222 ,  0.04691203, -0.05050788, ...,  0.23006392,
        -0.17636141, -0.04282225],
       ...,
       [ 0.1049151 ,  0.40164903,  0.02709589, ...,  0.21633995,
        -0.447744  , -0.14782308],
       [ 0.1047083 ,  0.46082366, -0.0139317 , ..., -0.1827866 ,
        -0.36896917,  0.10843167],
       [ 0.45534015,  0.29050863,  0.03148742, ..., -0.35882336,
         0.37740156,  0.17532848]], dtype=float32), array([ 0.11796585,  0.5702541 , -0.0136956 ,  0.        , -0.00553762,
        0.16476291,  0.13229088, -0.00990747,  0.19077435, -0.01651233,
        0.12209237,  0.14859395,  0.2188388 ,  0.21278809,  0.46253288,
        0.2206376 ], dtype=float32), array([[-1.66640520e-01, -9.09191817e-02, -1.12319924e-01,
        -7.62554929e-02, -2.65505537e-03,  7.07149133e-02,
         1.75189972e-02, -1.78437844e-01,  8.22237432e-02,
        -1.12672029e-02, -3.84954274e-01, -2.86315680e-01,
         6.23890124e-02,  1.84903681e-01, -3.72267425e-01,
        -3.64402980e-01],
       [-1.12502731e-01, -6.77583754e-01, -6.22618616e-01,
        -4.06976521e-01, -7.63872206e-01, -7.10473776e-01,
        -7.02477515e-01,  1.38477236e-01,  9.40570459e-02,
        -7.52359629e-01, -7.13754594e-01,  1.55086651e-01,
         1.05421647e-01, -1.50390035e-02, -6.72021687e-01,
         2.43110910e-01],
       [ 4.21992299e-04, -4.18647043e-02, -3.12893987e-02,
        -7.37214042e-03,  4.76214616e-03,  9.03474074e-03,
        -1.30384769e-02,  3.38449925e-02,  2.88908724e-02,
         3.51864584e-02, -5.31510711e-02,  2.05734707e-02,
        -2.52047442e-02,  1.86415259e-02,  7.50616845e-03,
         5.18418325e-04],
       [ 2.78108455e-02, -2.16142535e-02,  1.32569335e-02,
         2.87888385e-02, -3.51750739e-02,  4.97000255e-02,
        -3.74152660e-02,  2.76006386e-03, -1.71475038e-02,
        -3.63268852e-02, -3.13666239e-02,  4.08567078e-02,
         4.10139225e-02, -1.95736643e-02,  2.59902216e-02,
        -4.41304222e-02],
       [ 1.53356018e-02, -1.34953139e-02, -9.74699389e-03,
         5.77209983e-03, -2.76432969e-02,  2.51950920e-02,
         1.80850830e-02, -3.62884663e-02, -4.73337099e-02,
         2.37394422e-02,  3.55372503e-02, -3.24461795e-02,
        -1.00224493e-02, -3.36361676e-02, -1.40325567e-02,
        -4.21979241e-02],
       [-9.59386528e-02, -1.00011513e-01, -1.39177710e-01,
        -5.93795702e-02, -6.94299936e-02, -1.06122419e-01,
        -1.30639017e-01, -1.87265232e-01, -2.77163923e-01,
         2.31116079e-02,  1.38462363e-02, -2.70257592e-01,
        -2.64039934e-01, -1.19100273e-01,  1.33620445e-02,
        -2.27908298e-01],
       [-9.95848998e-02, -1.85575843e-01, -9.91827101e-02,
        -8.13921988e-02, -1.38207048e-01, -3.83265838e-02,
        -1.06726818e-01, -1.84294984e-01, -1.03498556e-01,
        -4.11028080e-02, -4.08304855e-02, -1.99363142e-01,
        -3.38943511e-01, -3.99639755e-02, -1.81474928e-02,
        -1.41843647e-01],
       [-3.42973247e-02, -3.22853611e-03, -1.38695566e-02,
         1.19585767e-02,  4.33508353e-03,  2.32531596e-02,
         3.34648527e-02,  7.30550243e-03, -1.22438874e-02,
        -3.12443636e-03,  3.57717536e-02, -2.62450427e-02,
        -2.81176735e-02,  1.47094242e-02, -1.24731883e-02,
         3.69802751e-02],
       [-1.38821211e-02, -2.15349436e-01, -2.33601123e-01,
        -1.20391093e-01, -1.01222061e-02, -1.19570181e-01,
         2.15133466e-02, -9.40368250e-02, -2.13727266e-01,
         3.37130693e-03,  2.52225101e-02, -2.99269617e-01,
        -3.25007200e-01, -1.07718453e-01, -1.04562446e-01,
        -1.45764753e-01],
       [ 3.27278413e-02,  1.46134449e-02, -3.87679860e-02,
         3.19919251e-02,  2.83929370e-02, -7.24157598e-03,
         2.73736883e-02, -1.10315885e-02,  1.84119120e-02,
        -5.01106717e-02,  9.93004814e-03, -1.99781600e-02,
        -1.00232242e-02,  2.63053104e-02,  2.06087921e-02,
        -1.27865216e-02],
       [-1.10133961e-01, -1.69041693e-01, -1.54582381e-01,
        -1.19900540e-01, -6.35627061e-02,  1.67406611e-02,
        -2.94471234e-02, -9.19068828e-02, -2.10804418e-02,
        -6.89281747e-02, -3.97894047e-02, -2.72975117e-01,
        -3.52480561e-01, -1.46126196e-01, -5.06794490e-02,
        -3.17400694e-01],
       [-1.22538572e-02, -2.30731651e-01, -9.52339247e-02,
        -9.50795785e-02, -5.53754717e-02, -2.03028888e-01,
        -1.63157694e-02, -1.79898635e-01, -1.23076394e-01,
        -8.02735239e-02, -1.48221031e-01, -1.21343337e-01,
        -1.63789839e-01, -2.36263767e-01,  5.48376627e-02,
        -5.93955182e-02],
       [ 4.45373915e-02, -1.79422617e-01, -2.49151915e-01,
        -9.58529953e-03, -3.96637917e-01, -1.42179604e-03,
        -1.66623935e-01, -8.17917213e-02, -2.61366725e-01,
         2.03202926e-02, -5.23216426e-02, -2.82490432e-01,
        -3.16789836e-01, -2.16281697e-01,  8.63326043e-02,
        -5.48585095e-02],
       [-1.18025176e-01, -1.88407362e-01, -2.86901563e-01,
        -1.76008407e-03, -1.25069737e-01,  4.75802459e-02,
        -1.41158387e-01,  5.95000088e-02, -6.61359876e-02,
        -1.57069400e-01,  6.12946507e-03, -1.49136186e-01,
        -3.33775878e-01, -2.07375482e-01, -7.27336705e-02,
        -1.80686533e-01],
       [-8.73858213e-01,  2.67700642e-01,  3.34903419e-01,
        -1.02043651e-01, -5.43474704e-02, -4.18162614e-01,
        -2.39644319e-01, -9.23689604e-01, -9.07787800e-01,
        -9.31641638e-01, -8.84601653e-01,  1.27243400e-01,
         1.34341925e-01, -9.52681303e-01, -8.33806872e-01,
        -9.02855933e-01],
       [-3.14577669e-01,  3.10491007e-02, -4.50832248e-02,
        -3.83333564e-01,  6.17021248e-02, -2.19264358e-01,
         7.99326524e-02, -3.78963083e-01,  9.83685441e-03,
        -2.63337307e-02, -7.68208504e-02, -1.07694425e-01,
        -1.42834306e-01, -3.98572423e-02, -1.94110200e-01,
         4.52213921e-02]], dtype=float32), array([-0.06913311, -0.11345016, -0.12485627, -0.02686295, -0.0545583 ,
       -0.08287641, -0.11450885, -0.03314153, -0.166049  , -0.13890569,
       -0.02025216, -0.07836578, -0.11620506, -0.09808993, -0.11019607,
       -0.03674212], dtype=float32)]

Model[1]
[array([[ 0.59877455,  0.41472852, -0.06268961, ...,  0.05675777,
         0.5728212 ,  0.51772094],
       [ 1.0239885 , -0.01886246, -0.00722569, ...,  0.19949883,
        -0.8033328 ,  0.13748533],
       [ 0.4294517 , -0.15129292, -0.05050788, ...,  1.0727488 ,
         0.0485332 , -0.34152022],
       ...,
       [ 0.5751201 ,  0.5560806 ,  0.02709589, ...,  0.17810757,
        -0.58836156, -0.491516  ],
       [ 0.7136781 ,  0.8747001 , -0.0139317 , ..., -1.0641962 ,
        -0.70928484,  0.2287668 ],
       [ 1.0868046 ,  0.39120248,  0.01165882, ..., -1.3501183 ,
         0.5167329 ,  0.2493386 ]], dtype=float32), array([ 0.01724049,  0.87611806, -0.03352421,  0.308857  ,  0.4873779 ,
        0.17534281,  0.2793016 ,  0.63177824,  0.1805327 ,  0.27775118,
        0.08690388,  0.27226585,  0.23589149,  0.57746524,  1.0268112 ,
        0.20762089], dtype=float32), array([[ 8.36695582e-02, -1.11831829e-01,  4.26456705e-02,
        -1.42541111e-01,  6.26431182e-02,  4.64329541e-01,
         1.66732594e-01, -2.62365192e-01,  2.05317974e-01,
         2.10195109e-01, -1.33275974e+00, -9.87279654e-01,
         5.65624356e-01,  6.28183067e-01, -1.41695321e+00,
        -1.53665614e+00],
       [ 3.09803277e-01, -1.96408331e+00, -1.81663156e+00,
        -1.61361849e+00, -2.20178485e+00, -1.51453543e+00,
        -1.38696730e+00,  3.70323986e-01,  1.88995272e-01,
        -2.18867922e+00, -3.31002831e-01,  3.94734979e-01,
         3.26738894e-01,  1.53434232e-01, -1.44116521e+00,
         4.69338208e-01],
       [-1.88996382e-02, -5.95653355e-02, -5.00076152e-02,
        -2.62600575e-02, -1.13546550e-02, -6.06553163e-03,
        -3.10957190e-02,  1.42180957e-02,  9.12064221e-03,
         2.63830572e-02, -5.75870089e-02,  7.38216739e-04,
        -5.35348384e-03, -1.09979848e-03, -7.59752234e-04,
        -1.90903880e-02],
       [-5.75401485e-01, -1.11164260e+00,  6.53255641e-01,
         4.34791744e-01,  4.06415015e-01,  4.80466127e-01,
        -9.70135748e-01,  2.68121243e-01,  4.72583175e-02,
        -4.73574221e-01, -1.47149408e+00,  5.72758496e-01,
        -6.07763350e-01, -1.12215912e+00,  4.98728901e-01,
        -7.43089020e-01],
       [ 5.20592391e-01, -1.24558818e+00, -6.92045093e-01,
         9.20595765e-01,  1.75470725e-01, -4.68807846e-01,
        -1.47788972e-01, -9.44225550e-01,  1.58648506e-01,
        -1.03011882e+00, -1.28285396e+00, -7.29199529e-01,
        -9.47993755e-01,  3.61692041e-01, -4.30661201e-01,
         9.19471502e-01],
       [-2.09756926e-01,  1.79916516e-01, -2.41078496e-01,
        -5.74944802e-02, -7.14662373e-02, -2.62107223e-01,
        -6.43795729e-01, -3.63124102e-01, -1.25104654e+00,
         4.00612712e-01,  5.00708260e-02, -8.16799760e-01,
        -1.49516928e+00,  2.61229724e-01,  1.75359011e-01,
        -2.21796513e-01],
       [-2.68881500e-01, -3.26901317e-01,  2.45007768e-01,
        -2.92114407e-01, -1.52540758e-01,  1.28858179e-01,
        -1.42507207e+00, -1.16816700e+00,  5.54313650e-03,
         2.48644724e-01,  2.03637213e-01,  4.50556397e-01,
        -1.39853513e+00,  2.61062801e-01, -7.26433797e-03,
        -4.33872230e-02],
       [-1.47780406e+00,  8.31277370e-01, -1.06387234e+00,
         2.97737956e-01,  7.13035047e-01, -1.29072893e+00,
        -9.91014183e-01,  9.23722565e-01, -7.41739988e-01,
        -1.18719697e+00, -1.69945204e+00, -1.07961607e+00,
        -1.75005805e+00, -3.11097860e-01, -3.03331167e-02,
         1.04726994e+00],
       [ 3.81329298e-01, -3.91568363e-01, -3.03213090e-01,
        -1.00541747e+00,  9.29569304e-02, -1.33094385e-01,
         2.84644991e-01,  1.56684354e-01, -9.44248378e-01,
         3.75882350e-02,  2.90774703e-01, -6.34499371e-01,
        -9.66427386e-01,  9.55822468e-02, -6.51893437e-01,
        -3.62879306e-01],
       [-1.07155132e+00,  6.02716506e-01, -1.39470291e+00,
         2.32187822e-01,  1.53674722e-01, -3.82233679e-01,
         3.17751437e-01,  6.14905953e-01,  2.75313854e-01,
        -4.00240004e-01,  4.43996578e-01, -1.39318657e+00,
         6.60236120e-01,  5.13843358e-01,  6.77423701e-02,
        -1.06858242e+00],
       [-2.73745861e-02, -5.52465141e-01,  1.34422347e-01,
        -7.68994093e-01,  2.07177401e-01,  4.03002411e-01,
         6.17562197e-02,  1.41042441e-01,  4.73336309e-01,
        -4.53860462e-01,  3.87566656e-01, -4.59564716e-01,
        -7.87141383e-01, -6.63739443e-01, -1.19227424e-01,
        -1.06526458e+00],
       [ 3.47914338e-01, -1.44736767e+00,  3.06037992e-01,
         2.64915735e-01, -1.92591310e-01, -1.60634387e+00,
         4.24430549e-01, -9.80516911e-01,  1.61694326e-02,
        -2.41040245e-01, -6.50874972e-01, -2.65720308e-01,
         1.65459737e-01, -1.75424016e+00,  6.35315537e-01,
         2.18152747e-01],
       [ 2.75153786e-01,  1.38414145e-01, -3.78791809e-01,
         3.15901116e-02, -1.89581680e+00,  1.19043671e-01,
        -5.53514399e-02,  4.85513248e-02, -1.21784902e+00,
         2.53010452e-01, -3.03724051e-01, -7.81955123e-01,
        -1.80828750e-01, -7.47321904e-01,  3.41438264e-01,
        -1.01993926e-01],
       [-9.49123800e-01, -6.51854813e-01, -1.33336627e+00,
         8.16202685e-02,  2.95342237e-01,  3.94303948e-01,
        -5.82536638e-01,  4.80010569e-01,  2.23487392e-01,
        -1.32835031e+00,  4.85224724e-01,  6.16066396e-01,
        -1.41961288e+00, -8.08616519e-01,  6.43813908e-02,
        -3.30482751e-01],
       [-1.83953094e+00,  4.19601917e-01,  5.89875042e-01,
         4.10164535e-01, -2.63668150e-01, -7.29508281e-01,
        -5.24237454e-01, -2.07953906e+00, -2.16886997e+00,
        -1.50708246e+00, -1.73596644e+00,  4.77243453e-01,
         3.22008133e-01, -1.73656631e+00, -2.19776940e+00,
        -1.92322040e+00],
       [-1.42877436e+00,  1.92608669e-01,  8.66571590e-02,
        -1.82354057e+00,  1.96769506e-01, -6.06580198e-01,
         2.32562885e-01, -1.21247947e+00,  2.31300890e-01,
         2.06607625e-01,  3.16777796e-01,  3.57371010e-02,
        -2.61302054e-01,  1.65338591e-01, -3.44389111e-01,
         4.21631664e-01]], dtype=float32), array([ 0.10759821, -0.04535432, -0.1252611 ,  0.04288672, -0.02448571,
       -0.09213546, -0.15272197,  0.1033604 , -0.44434926, -0.30454573,
        0.08494724,  0.12311709,  0.01162482, -0.0776222 , -0.24762534,
        0.01323186], dtype=float32)]

Model[2]
[array([[ 0.6520394 ,  0.4036961 , -0.06268961, ...,  0.03843   ,
         0.6543893 ,  0.61280966],
       [ 0.95439976,  0.02520358, -0.00722569, ...,  0.21824951,
        -0.90317   ,  0.07333665],
       [ 0.53012836, -0.2550483 , -0.05050788, ...,  1.0604036 ,
        -0.1751413 , -0.316989  ],
       ...,
       [ 0.53103167,  0.4549426 ,  0.02709589, ...,  0.14789648,
        -0.7514372 , -0.5186837 ],
       [ 0.46993953,  0.96349937, -0.0139317 , ..., -0.9266901 ,
        -0.69974357,  0.33978346],
       [ 1.4433692 ,  0.23356253,  0.01165882, ..., -1.6607734 ,
         0.5120067 ,  0.20965306]], dtype=float32), array([-0.07988691,  0.9107668 , -0.03352421,  0.36690843,  0.51032305,
        0.12584615,  0.2472835 ,  0.6964463 ,  0.1329585 ,  0.21869071,
        0.10398648,  0.32569268,  0.17656662,  0.64049435,  1.1436692 ,
        0.210027  ], dtype=float32), array([[ 1.37217879e-01, -1.09059341e-01,  1.17814168e-01,
        -7.30080605e-02,  1.16066430e-02,  6.03447139e-01,
         1.58086672e-01, -1.64684251e-01,  1.58329636e-01,
         2.24654466e-01, -1.42982721e+00, -1.10258460e+00,
         7.18764186e-01,  6.30975544e-01, -1.62858534e+00,
        -1.84979367e+00],
       [ 4.96995658e-01, -2.08300257e+00, -2.19299626e+00,
        -1.92569304e+00, -2.93138623e+00, -1.87251282e+00,
        -1.47309732e+00,  5.09206831e-01,  1.55184790e-01,
        -2.43929434e+00, -3.41754198e-01,  5.03419101e-01,
         4.81595486e-01,  2.79201090e-01, -1.68678737e+00,
         5.34090579e-01],
       [-1.88996382e-02, -5.95653355e-02, -5.00076152e-02,
        -2.62600575e-02, -1.13546550e-02, -6.06553163e-03,
        -3.10957190e-02,  1.42180957e-02,  9.12064221e-03,
         2.63830572e-02, -5.75870089e-02,  7.38216739e-04,
        -5.35348384e-03, -1.09979848e-03, -7.59752234e-04,
        -1.90903880e-02],
       [-7.35143125e-01, -1.57017875e+00,  7.56638706e-01,
         5.54977834e-01,  5.03032863e-01,  6.72336221e-01,
        -1.29820061e+00,  4.71681744e-01, -8.51063803e-02,
        -4.85961825e-01, -1.60138917e+00,  6.57651842e-01,
        -5.76069355e-01, -1.22622359e+00,  4.92998481e-01,
        -1.06085253e+00],
       [ 8.01905930e-01, -1.42608821e+00, -6.24842286e-01,
         1.16613448e+00,  7.30694979e-02, -4.23930436e-01,
         6.70461208e-02, -1.34510088e+00,  2.88758367e-01,
        -1.28073323e+00, -1.50868344e+00, -8.78778875e-01,
        -1.18759131e+00,  4.85031486e-01, -5.13008773e-01,
         1.32829082e+00],
       [-2.07047343e-01,  2.05859095e-01, -2.74829090e-01,
         4.67441231e-02, -1.75495036e-02, -4.04962748e-01,
        -9.34002399e-01, -2.72666901e-01, -1.39033997e+00,
         4.37502921e-01,  5.93123958e-02, -1.21007848e+00,
        -1.58547211e+00,  2.92936325e-01,  1.06008247e-01,
        -3.47753108e-01],
       [-2.91373283e-01, -3.17061126e-01,  2.23630890e-01,
        -1.63037539e-01, -2.31563404e-01,  2.01890796e-01,
        -1.98188591e+00, -1.41552532e+00, -1.36398777e-01,
         2.48108044e-01,  2.62577742e-01,  5.72517157e-01,
        -1.41104460e+00,  2.48951256e-01, -1.51625440e-01,
        -1.40452474e-01],
       [-1.96551836e+00,  1.11934519e+00, -1.30864727e+00,
         3.76825511e-01,  8.47961903e-01, -1.68827617e+00,
        -1.23856485e+00,  1.13492954e+00, -6.29231751e-01,
        -1.47799027e+00, -2.31595778e+00, -1.40387583e+00,
        -2.08621168e+00, -3.41912419e-01, -4.36396375e-02,
         1.35325897e+00],
       [ 4.91514772e-01, -5.67925811e-01, -2.99138695e-01,
        -1.12089980e+00,  2.05830440e-01, -2.62309164e-01,
         4.76900041e-01,  3.30050290e-01, -1.44363260e+00,
         7.17557818e-02,  4.74892944e-01, -6.93367600e-01,
        -1.30534410e+00,  1.15350410e-02, -9.14978087e-01,
        -4.65703934e-01],
       [-1.05118883e+00,  7.00882614e-01, -1.65483391e+00,
         3.40289444e-01,  1.27079651e-01, -4.01770473e-01,
         4.16279167e-01,  7.12607324e-01,  4.35319781e-01,
        -4.08329457e-01,  4.30623710e-01, -1.44136310e+00,
         7.99342275e-01,  5.06780624e-01,  1.14881590e-01,
        -1.22026849e+00],
       [ 1.30479690e-02, -5.57696402e-01,  1.92582026e-01,
        -8.58595610e-01,  2.26866931e-01,  5.70231557e-01,
         1.79101989e-01,  1.47766739e-01,  5.22447407e-01,
        -5.40789187e-01,  4.63370562e-01, -4.48695451e-01,
        -9.43384469e-01, -8.73849630e-01, -1.29007742e-01,
        -1.46401620e+00],
       [ 4.79146212e-01, -1.71646309e+00,  5.01244903e-01,
         3.45951408e-01, -2.53842652e-01, -1.96915495e+00,
         5.07871866e-01, -9.32197094e-01, -5.11240587e-02,
        -2.38880172e-01, -6.54650271e-01, -2.38782167e-01,
         2.88513511e-01, -1.86245131e+00,  6.49555087e-01,
         2.69783616e-01],
       [ 3.82348359e-01,  2.08919346e-01, -4.13025469e-01,
         7.37078488e-02, -2.11105800e+00,  1.55405685e-01,
        -1.76269189e-02,  1.68939367e-01, -1.26902509e+00,
         2.39771500e-01, -4.54770058e-01, -7.26976395e-01,
         7.75471777e-02, -8.77491117e-01,  2.99907714e-01,
        -5.91691472e-02],
       [-1.46696055e+00, -9.91978228e-01, -2.05159974e+00,
         2.08144158e-01,  3.45830798e-01,  5.43325365e-01,
        -5.89107573e-01,  5.45199454e-01,  2.62577325e-01,
        -1.48957801e+00,  5.16930759e-01,  7.56730437e-01,
        -1.45795166e+00, -1.00911510e+00, -1.44736347e-04,
        -4.03375179e-01],
       [-1.63184977e+00,  5.90335488e-01,  7.76973069e-01,
         5.84639668e-01, -2.40206018e-01, -7.89861381e-01,
        -6.67761683e-01, -2.25156212e+00, -2.66198397e+00,
        -1.58222628e+00, -2.29692793e+00,  6.25343561e-01,
         4.07911956e-01, -1.75579810e+00, -2.73196793e+00,
        -2.34181046e+00],
       [-1.61045265e+00,  2.92284548e-01,  1.19515635e-01,
        -1.95587826e+00,  1.59014359e-01, -5.90487540e-01,
         3.60520273e-01, -1.42486835e+00,  1.25928536e-01,
         2.34751180e-01,  3.68260384e-01,  1.37784511e-01,
        -2.32402265e-01,  1.89371035e-01, -4.37746078e-01,
         4.38204288e-01]], dtype=float32), array([ 0.20002955,  0.00370973, -0.12743999,  0.12275238, -0.06564769,
       -0.1556685 , -0.29469484,  0.21047136, -0.7151123 , -0.40741038,
        0.06568163,  0.24867952,  0.08410877, -0.18222897, -0.44870147,
        0.03330137], dtype=float32)]

Model[3]
[array([[ 0.74251014,  0.39315608, -0.06268961, ..., -0.06733543,
         0.6401465 ,  0.5806088 ],
       [ 1.0188034 ,  0.28086329, -0.02904936, ...,  0.35600632,
        -1.0127721 ,  0.05088939],
       [ 0.7791768 , -0.43359062, -0.05050788, ...,  1.0146087 ,
        -0.24407868, -0.54057103],
       ...,
       [ 0.7875596 ,  0.34179938,  0.02709589, ...,  0.17139028,
        -0.75629336, -0.6427978 ],
       [ 0.34120297,  0.8444882 , -0.0139317 , ..., -0.89994055,
        -0.8783651 ,  0.23165344],
       [ 1.2412885 ,  0.09902502,  0.01165882, ..., -1.9512095 ,
         0.6137391 ,  0.41763234]], dtype=float32), array([-0.09895749,  1.051449  , -0.05534787,  0.36901772,  0.5049834 ,
        0.05670924,  0.1652461 ,  0.81499547,  0.08156239,  0.17457291,
        0.0400844 ,  0.25431627,  0.25439185,  0.6141387 ,  1.2334112 ,
        0.11209401], dtype=float32), array([[ 1.80102047e-02, -1.99651703e-01,  1.80233747e-01,
        -1.20759994e-01,  5.77378646e-02,  6.09792590e-01,
         1.16612561e-01, -1.22350186e-01,  2.64156938e-01,
         1.74793974e-01, -1.43119609e+00, -1.38330555e+00,
         8.22251558e-01,  7.79208601e-01, -1.67236829e+00,
        -1.96726310e+00],
       [ 3.60595584e-01, -2.71476793e+00, -2.49407792e+00,
        -2.34842324e+00, -3.45405674e+00, -2.48102546e+00,
        -1.90846539e+00,  7.75137961e-01,  7.65562803e-02,
        -2.54905987e+00, -4.66112614e-01,  6.29168212e-01,
         6.43027723e-01,  2.92494774e-01, -1.78084028e+00,
         3.92166913e-01],
       [-1.88996382e-02, -5.95653355e-02, -5.00076152e-02,
        -2.62600575e-02, -1.13546550e-02, -6.06553163e-03,
        -3.10957190e-02,  1.42180957e-02, -1.91741046e-02,
         2.63830572e-02, -5.75870089e-02,  2.75878329e-03,
        -5.52195683e-03, -1.09979848e-03, -7.59752234e-04,
        -1.90903880e-02],
       [-1.12196720e+00, -1.85120344e+00,  1.06427014e+00,
         6.23143315e-01,  4.73495990e-01,  6.14301264e-01,
        -1.30619645e+00,  5.86942971e-01, -9.69431251e-02,
        -3.63334715e-01, -1.80870330e+00,  4.96409625e-01,
        -6.02758169e-01, -1.04885781e+00,  3.40650052e-01,
        -1.00886166e+00],
       [ 7.69542694e-01, -1.73004138e+00, -8.09701383e-01,
         1.40227747e+00,  1.53058302e-02, -5.05951285e-01,
         5.09659946e-02, -1.63664639e+00,  3.40055317e-01,
        -1.86168838e+00, -1.99074769e+00, -9.18287277e-01,
        -1.50553155e+00,  6.52890086e-01, -6.94541276e-01,
         1.53279316e+00],
       [-5.84740452e-02,  1.78739384e-01, -2.72144169e-01,
         2.78880820e-02,  1.76567271e-01, -4.79793251e-01,
        -1.18548679e+00, -3.64654779e-01, -1.42522895e+00,
         4.37686652e-01,  6.89257383e-02, -1.23206997e+00,
        -1.74548376e+00,  3.75554800e-01,  1.55896619e-01,
        -2.85092980e-01],
       [-1.79706246e-01, -3.71641129e-01,  2.86921769e-01,
        -1.91944167e-01, -3.23871195e-01,  1.82663605e-01,
        -2.10799551e+00, -1.59377372e+00, -7.99883995e-03,
         2.04666555e-01,  2.69878566e-01,  6.68797433e-01,
        -1.38899469e+00,  3.00912917e-01, -2.26990759e-01,
        -1.43488869e-01],
       [-2.29535556e+00,  1.33976138e+00, -1.19639051e+00,
         4.82829392e-01,  1.07764637e+00, -1.98404634e+00,
        -1.25882018e+00,  1.16621339e+00, -6.62325680e-01,
        -1.70261848e+00, -2.73828244e+00, -1.68508554e+00,
        -2.59025693e+00, -3.95573914e-01, -1.39653742e-01,
         1.61524189e+00],
       [ 4.39042300e-01, -7.48136938e-01, -3.62765342e-01,
        -1.42600572e+00,  4.33872074e-01, -1.80136248e-01,
         5.06548941e-01,  5.44732511e-01, -1.90059519e+00,
         4.66413349e-02,  6.95949793e-01, -9.92355704e-01,
        -1.27509737e+00,  4.55248728e-02, -1.00169396e+00,
        -3.38219196e-01],
       [-1.29658067e+00,  7.17561245e-01, -1.82347202e+00,
         3.24534923e-01,  1.30606130e-01, -4.37744856e-01,
         3.89377922e-01,  6.68922722e-01,  4.51596856e-01,
        -4.92603302e-01,  3.54624063e-01, -1.51852024e+00,
         8.93882096e-01,  6.27505660e-01,  2.84759253e-01,
        -1.24008274e+00],
       [ 5.58570661e-02, -4.01102185e-01,  2.65503526e-01,
        -1.02174032e+00,  1.30769178e-01,  6.72782481e-01,
         2.28066087e-01,  1.96115792e-01,  5.22670448e-01,
        -7.29738355e-01,  4.52381551e-01, -6.39108717e-01,
        -1.02735472e+00, -1.03347397e+00, -3.88096198e-02,
        -1.44982600e+00],
       [ 3.59466672e-01, -1.59484327e+00,  5.70841372e-01,
         2.18040735e-01, -2.33137563e-01, -1.98218822e+00,
         5.37521243e-01, -9.38046157e-01, -4.40117605e-02,
        -2.13962749e-01, -7.33193278e-01, -1.99131817e-01,
         2.67700732e-01, -1.87773645e+00,  8.22216272e-01,
         2.37876907e-01],
       [ 3.54519993e-01,  1.66829526e-01, -5.22293150e-01,
        -7.22113764e-03, -2.19941902e+00,  2.48670369e-01,
        -3.43388766e-02,  1.18383586e-01, -1.41070676e+00,
         2.12797239e-01, -6.12523854e-01, -6.05195105e-01,
        -5.38911065e-03, -1.02856553e+00,  3.96711856e-01,
         4.89687314e-03],
       [-2.58944917e+00, -1.34721923e+00, -2.55145454e+00,
         3.53342652e-01,  4.61664274e-02,  5.28801501e-01,
        -6.33809268e-01,  4.32117015e-01,  2.28334799e-01,
        -1.85128629e+00,  5.93543291e-01,  8.73983622e-01,
        -1.37501192e+00, -1.06736445e+00, -1.01994216e-01,
        -4.28205550e-01],
       [-1.64007473e+00,  7.39904821e-01,  8.00014734e-01,
         5.83430946e-01, -5.82036853e-01, -1.06202602e+00,
        -7.97701776e-01, -2.47531390e+00, -2.75683570e+00,
        -2.00528669e+00, -2.45988178e+00,  8.66419077e-01,
         4.54137743e-01, -1.91587543e+00, -3.41759324e+00,
        -2.47523165e+00],
       [-1.70605469e+00,  4.11287040e-01,  1.03486940e-01,
        -2.06528974e+00,  1.71098202e-01, -5.89926004e-01,
         4.07964826e-01, -1.49567139e+00,  1.34099603e-01,
         1.50849059e-01,  3.04371327e-01,  3.13353032e-01,
        -1.35294184e-01,  1.36643827e-01, -3.36748987e-01,
         4.12859261e-01]], dtype=float32), array([ 0.08303663,  0.02820353, -0.13797045,  0.10335784, -0.12699635,
       -0.21904702, -0.40853155,  0.25387058, -0.8885795 , -0.630058  ,
       -0.05906688,  0.3902209 ,  0.16461317, -0.22439608, -0.5553445 ,
       -0.01819015], dtype=float32)]

Model[4]
[array([[ 0.81373966,  0.31130338, -0.06268961, ..., -0.07811315,
         0.63748795,  0.49016568],
       [ 0.78779364,  0.15242147, -0.02904936, ...,  0.3894549 ,
        -0.8799625 ,  0.05885975],
       [ 0.623436  , -0.53030384, -0.05050788, ...,  1.2331127 ,
        -0.11594668, -0.4114967 ],
       ...,
       [ 0.71497816,  0.43368116,  0.02709589, ...,  0.09614703,
        -1.082112  , -0.65390074],
       [ 0.49116027,  0.96662873, -0.0139317 , ..., -0.5619177 ,
        -0.5858076 ,  0.12049475],
       [ 1.0150242 ,  0.5796971 ,  0.01165882, ..., -1.2520487 ,
         0.39257282,  0.56042   ]], dtype=float32), array([-0.2227874 ,  1.2188903 , -0.05534787,  0.4265651 ,  0.5092991 ,
        0.01021142,  0.1044306 ,  0.9725329 ,  0.03821872, -0.12037469,
       -0.2969481 ,  0.1513945 ,  0.21616252,  0.632186  ,  1.3758805 ,
        0.00448058], dtype=float32), array([[ 6.31269664e-02, -4.32911128e-01,  2.44396299e-01,
         1.70426611e-02,  1.19500132e-02,  5.58163941e-01,
         2.53075391e-01, -1.81625500e-01,  2.58994371e-01,
         3.71008843e-01, -1.60464025e+00, -1.23655236e+00,
         8.64462376e-01,  7.42867708e-01, -1.61005652e+00,
        -1.83623552e+00],
       [ 6.91324830e-01, -3.23778510e+00, -2.68888569e+00,
        -2.67332339e+00, -3.44995928e+00, -2.45911169e+00,
        -2.25954819e+00,  8.78878951e-01,  1.33672088e-01,
        -2.92437840e+00, -2.68782616e-01,  6.98595643e-01,
         8.05659950e-01,  3.12798411e-01, -1.89760554e+00,
         4.59953666e-01],
       [-1.88996382e-02, -5.95653355e-02, -5.00076152e-02,
        -2.62600575e-02, -1.13546550e-02, -6.06553163e-03,
        -3.10957190e-02,  1.42180957e-02, -1.91741046e-02,
         2.63830572e-02, -5.75870089e-02,  2.75878329e-03,
        -5.52195683e-03, -1.09979848e-03, -7.59752234e-04,
        -1.90903880e-02],
       [-1.54965866e+00, -2.17261863e+00,  1.03686035e+00,
         6.34293318e-01,  6.25288606e-01,  4.02486742e-01,
        -1.30601335e+00,  6.71434939e-01, -3.77200425e-01,
        -1.09792411e-01, -2.43599868e+00,  6.95454895e-01,
        -6.59293950e-01, -1.56894362e+00,  4.93347347e-01,
        -9.33863878e-01],
       [ 7.91390181e-01, -1.97431338e+00, -7.15053201e-01,
         1.67361832e+00,  1.06182747e-01, -3.05013955e-01,
         1.88479200e-01, -1.74963236e+00,  2.98859878e-03,
        -2.20382929e+00, -2.00135899e+00, -8.91541362e-01,
        -1.92837489e+00,  6.87545955e-01, -6.89871132e-01,
         1.65361083e+00],
       [-7.01567978e-02,  2.78963685e-01, -3.75539124e-01,
         1.37519479e-01,  1.76141098e-01, -8.67853343e-01,
        -1.12963533e+00, -4.50813264e-01, -1.60718620e+00,
         5.00183463e-01,  1.11375794e-01, -1.46267903e+00,
        -1.73312938e+00,  4.34041917e-01,  2.11160466e-01,
        -6.80156469e-01],
       [-4.90289405e-02, -1.82967111e-01,  2.49560013e-01,
        -2.30141394e-02, -5.16432047e-01,  1.10547647e-01,
        -2.06213379e+00, -1.77203786e+00,  1.62087262e-01,
         3.06412101e-01,  4.08781469e-01,  5.35866201e-01,
        -1.39239049e+00,  2.47116521e-01, -2.99790114e-01,
        -7.72932768e-02],
       [-2.47188663e+00,  1.50211763e+00, -1.26308966e+00,
         2.85957813e-01,  9.40946519e-01, -1.90297544e+00,
        -1.47653198e+00,  1.50372756e+00, -6.96138263e-01,
        -2.17725921e+00, -3.37295389e+00, -2.08610630e+00,
        -2.64882731e+00, -5.23726642e-01, -2.24922106e-01,
         1.84614575e+00],
       [ 5.57435155e-01, -1.08736825e+00, -4.85152602e-01,
        -1.45041645e+00,  3.57565373e-01, -4.48704034e-01,
         8.05868089e-01,  5.61820388e-01, -2.48625088e+00,
         1.20677523e-01,  7.45080054e-01, -5.99577963e-01,
        -1.31264210e+00, -4.47601713e-02, -1.13099813e+00,
        -8.65946233e-01],
       [-1.48194969e+00,  6.56593263e-01, -2.14876676e+00,
         3.68640780e-01,  1.51449323e-01, -5.26744187e-01,
         4.48959917e-01,  7.42098093e-01,  3.91715676e-01,
        -5.08446932e-01,  3.64751637e-01, -1.30530369e+00,
         8.99810851e-01,  6.66352451e-01,  3.40473235e-01,
        -1.60337758e+00],
       [ 3.13003242e-01, -8.38871449e-02,  3.92249435e-01,
        -9.42953825e-01,  2.44369328e-01,  7.02121854e-01,
         2.63735831e-01, -3.24710831e-02,  6.83109641e-01,
        -6.66898906e-01,  5.32039464e-01, -8.67083371e-01,
        -9.94324565e-01, -1.29064727e+00, -2.34433621e-01,
        -1.28069210e+00],
       [ 4.17570472e-01, -1.63882208e+00,  4.98819917e-01,
         8.56773108e-02, -1.87104151e-01, -2.06811786e+00,
         4.73487020e-01, -8.26093316e-01,  2.83590220e-02,
        -1.98547423e-01, -7.52302468e-01, -2.30310410e-01,
         3.30333680e-01, -1.93218601e+00,  1.02325630e+00,
         3.06221724e-01],
       [ 3.11345458e-01,  3.65134001e-01, -5.58603108e-01,
        -2.16292795e-02, -2.33843803e+00,  3.86945635e-01,
         1.46936271e-02,  9.65337455e-02, -1.18878973e+00,
         1.95946515e-01, -5.82611918e-01, -7.01329589e-01,
        -7.88779557e-02, -1.00730801e+00,  4.62508410e-01,
        -1.36625543e-01],
       [-2.94238377e+00, -1.53887129e+00, -2.76234365e+00,
         5.00800192e-01,  2.32740670e-01,  6.56952441e-01,
        -4.39201176e-01,  5.72062731e-01,  2.49348119e-01,
        -2.05841112e+00,  7.23982811e-01,  9.63916242e-01,
        -1.82045984e+00, -1.19451106e+00, -2.39906386e-01,
        -5.42738616e-01],
       [-2.14549470e+00,  7.84620047e-01,  7.69523442e-01,
         6.48113012e-01, -4.72929120e-01, -1.41645646e+00,
        -6.79368079e-01, -2.30225039e+00, -3.23747039e+00,
        -2.33715057e+00, -2.94990659e+00,  9.15343821e-01,
         4.34176832e-01, -2.24806547e+00, -3.37929225e+00,
        -2.55769563e+00],
       [-1.80040634e+00,  5.04980385e-01,  8.85862187e-02,
        -2.14099216e+00,  9.51861963e-03, -2.90518254e-01,
         5.31837225e-01, -1.48985350e+00,  1.38459340e-01,
         1.54087255e-02,  2.28240520e-01,  2.73820996e-01,
        -1.01805381e-01,  1.25708193e-01, -3.32504809e-01,
         6.43385530e-01]], dtype=float32), array([ 0.13902576,  0.16965178, -0.17014338,  0.15697078, -0.1635872 ,
       -0.23097648, -0.4287461 ,  0.30356807, -1.0750568 , -0.776961  ,
       -0.06697655,  0.5692077 ,  0.20376751, -0.310147  , -0.6455932 ,
        0.08872488], dtype=float32)]

Model[5]
[array([[ 0.92589843,  0.13324778, -0.06268961, ..., -0.2920147 ,
         0.76462376,  0.35055655],
       [ 0.465688  ,  0.10137613, -0.02904936, ...,  0.67612225,
        -0.828416  , -0.09006628],
       [ 0.7085801 , -0.68468547, -0.05050788, ...,  1.0817425 ,
        -0.25346678, -0.5017647 ],
       ...,
       [ 0.8867653 ,  0.05612215,  0.02709589, ...,  0.03696381,
        -0.62887335, -0.9743089 ],
       [ 0.82173866,  0.7516055 , -0.0139317 , ..., -0.54981726,
        -0.7493063 ,  0.3732892 ],
       [ 1.1278156 ,  0.0682231 ,  0.01165882, ..., -1.5207819 ,
         0.43580177,  0.6584047 ]], dtype=float32), array([-4.3366379e-01,  1.3723880e+00, -5.5347875e-02,  4.6251234e-01,
        3.3431330e-01,  3.0106073e-03, -1.1424065e-01,  1.0306225e+00,
        2.1072406e-02, -1.9415621e-01, -4.8867777e-01,  4.0215880e-05,
       -2.3562301e-02,  5.8420980e-01,  1.6974065e+00, -4.0087050e-01],
      dtype=float32), array([[-2.54437119e-01, -4.44957435e-01,  2.45159954e-01,
        -5.18253967e-02, -1.82673275e-01,  4.23091561e-01,
         1.73078686e-01, -4.28064130e-02,  3.64327669e-01,
         3.71930212e-01, -1.66779208e+00, -1.09737551e+00,
         7.47602224e-01,  5.25414228e-01, -1.79073727e+00,
        -1.87786841e+00],
       [ 5.49425840e-01, -3.64569712e+00, -2.48100114e+00,
        -3.27809954e+00, -3.47591782e+00, -3.24256253e+00,
        -2.52917886e+00,  8.23000371e-01,  8.57855454e-02,
        -2.68378663e+00, -6.61953628e-01,  7.51427710e-01,
         9.10754323e-01, -3.99953499e-02, -1.71434867e+00,
         4.33964282e-01],
       [-1.88996382e-02, -5.95653355e-02, -5.00076152e-02,
        -2.62600575e-02, -1.13546550e-02, -6.06553163e-03,
        -3.10957190e-02,  1.42180957e-02, -1.91741046e-02,
         2.63830572e-02, -5.75870089e-02,  2.75878329e-03,
        -5.52195683e-03, -1.09979848e-03, -7.59752234e-04,
        -1.90903880e-02],
       [-1.86109793e+00, -2.68714094e+00,  8.69167030e-01,
         3.75674278e-01,  9.13407445e-01,  2.19535559e-01,
        -1.34201157e+00,  3.51896971e-01, -4.03333724e-01,
        -1.65045276e-01, -3.18453312e+00,  6.35217845e-01,
        -5.47248125e-01, -2.05840349e+00,  3.24631155e-01,
        -7.64618456e-01],
       [ 8.18296552e-01, -1.77152789e+00, -1.06271219e+00,
         1.52616775e+00, -3.38632554e-01, -8.77845645e-01,
         2.73478329e-01, -1.59072721e+00, -2.01532319e-02,
        -2.81187940e+00, -2.34880280e+00, -9.24140334e-01,
        -1.81957912e+00,  7.07915366e-01, -4.28201288e-01,
         1.60762000e+00],
       [ 2.35274713e-02,  1.93964079e-01, -5.80775261e-01,
         7.31870830e-02,  3.55615467e-01, -7.42980659e-01,
        -1.28393507e+00, -6.46002829e-01, -1.95238554e+00,
         4.08020765e-01,  1.26157388e-01, -1.47170150e+00,
        -2.78769422e+00,  3.76019448e-01,  4.19501573e-01,
        -4.66126293e-01],
       [-4.42145228e-01, -2.64648378e-01,  2.29793675e-02,
        -1.13052934e-01, -8.19041848e-01,  7.87264034e-02,
        -2.42256689e+00, -2.00909615e+00,  4.57461357e-01,
         4.63279068e-01,  5.15643716e-01,  4.38643545e-01,
        -1.43052447e+00,  2.78568894e-01, -8.18100423e-02,
         2.44474839e-02],
       [-2.94927645e+00,  1.62173486e+00, -8.46130610e-01,
         1.61350697e-01,  7.34530389e-01, -2.08928013e+00,
        -1.37760806e+00,  1.76403797e+00, -6.76610231e-01,
        -2.43503523e+00, -3.49636912e+00, -2.59685636e+00,
        -3.31070065e+00, -1.18387949e+00, -8.25078607e-01,
         2.40206838e+00],
       [ 5.06201088e-01, -1.25254810e+00, -5.66695631e-01,
        -1.40380204e+00,  2.72553116e-01, -7.98231304e-01,
         5.94904006e-01,  3.93762916e-01, -2.57555604e+00,
         1.03722610e-01,  5.73463142e-01, -4.56494480e-01,
        -1.35491145e+00, -1.45298317e-01, -1.26331687e+00,
        -9.78973925e-01],
       [-2.18062234e+00,  6.39002442e-01, -2.45656562e+00,
         3.23652297e-01, -1.40591532e-01, -5.26870430e-01,
         1.29949406e-01,  7.19587028e-01,  3.28091621e-01,
        -6.56732202e-01,  1.47146389e-01, -1.35125029e+00,
         7.63865888e-01,  6.03730440e-01,  7.89155960e-01,
        -1.66787386e+00],
       [ 2.95205832e-01,  1.06417090e-01,  3.31412524e-01,
        -1.03435826e+00,  3.75242084e-02,  5.73589623e-01,
         3.30878720e-02, -9.74313989e-02,  8.37331593e-01,
        -9.03701127e-01,  3.31154227e-01, -7.70040214e-01,
        -1.25175834e+00, -1.50159705e+00, -3.70853603e-01,
        -1.42038143e+00],
       [ 4.50845122e-01, -1.88519025e+00,  5.48618853e-01,
        -6.42409995e-02, -3.88530582e-01, -2.23684859e+00,
         2.70913333e-01, -1.13372016e+00,  1.85206875e-01,
        -2.21257463e-01, -6.44594848e-01, -3.17090034e-01,
         2.18462393e-01, -1.85585105e+00,  8.56071472e-01,
         1.32585108e-01],
       [ 2.95072407e-01,  1.03044741e-01, -5.52303672e-01,
        -2.29449585e-01, -2.30632758e+00,  2.62788475e-01,
        -4.13446903e-01,  2.99570829e-01, -1.60948527e+00,
         2.05235645e-01, -7.76442349e-01, -6.95609212e-01,
        -2.14819685e-01, -1.34649062e+00,  4.77323741e-01,
         1.79387614e-01],
       [-3.03669024e+00, -2.01424456e+00, -3.14260268e+00,
         3.68750125e-01, -1.21045403e-01,  4.48433310e-01,
        -7.49161959e-01,  6.18199527e-01,  2.83134490e-01,
        -2.50657082e+00,  5.40745258e-01,  5.88490307e-01,
        -1.68424392e+00, -1.19326186e+00, -1.40321851e-01,
        -2.84413695e-01],
       [-2.48356819e+00,  6.15146756e-01,  5.48798621e-01,
         6.58624351e-01, -3.70085299e-01, -1.88561010e+00,
        -8.46791208e-01, -2.40811706e+00, -3.17615461e+00,
        -2.85739160e+00, -2.83633494e+00,  7.53405750e-01,
         4.79616672e-01, -2.48735189e+00, -3.71214414e+00,
        -2.95568085e+00],
       [-1.67380905e+00,  5.36261857e-01,  1.18385822e-01,
        -2.12192488e+00, -1.15683265e-01, -3.14332038e-01,
         3.49640816e-01, -1.40061128e+00,  2.18364492e-01,
         2.20065847e-01,  1.73386306e-01, -1.66011769e-02,
        -5.29892668e-02, -7.20149204e-02, -1.87271461e-01,
         6.98369861e-01]], dtype=float32), array([ 0.07038248,  0.13488583, -0.24701206,  0.22148626, -0.2576624 ,
       -0.48091018, -0.7437202 ,  0.36857224, -1.2790451 , -0.9176445 ,
       -0.19984882,  0.68489295,  0.18196148, -0.5476058 , -0.7587159 ,
        0.2580612 ], dtype=float32)]

Model[6]
[array([[ 0.67876256,  0.02883478, -0.06268961, ..., -0.46186984,
         0.54215276,  0.6493363 ],
       [ 0.29838803, -0.38579074, -0.02904936, ...,  0.2630701 ,
        -0.41117328,  0.25687292],
       [ 0.2819959 , -0.39275056, -0.05050788, ...,  1.1643335 ,
        -0.28372222, -0.47382858],
       ...,
       [ 0.691527  ,  0.21982042,  0.02709589, ..., -0.01707745,
        -0.6746547 , -1.0472167 ],
       [ 0.72445357,  0.5324245 , -0.0139317 , ..., -0.09988886,
        -0.57801723,  0.00651401],
       [ 0.8812476 , -0.0912355 ,  0.01165882, ..., -1.3352945 ,
         0.5992153 ,  0.75363314]], dtype=float32), array([-0.8186608 ,  1.2879213 , -0.05534787,  0.29640388,  0.27171874,
       -0.16447863, -0.4470498 ,  0.76662225, -0.1765302 , -0.5231687 ,
       -0.7628129 , -0.08939248, -0.0685248 ,  0.5085972 ,  1.6601967 ,
       -0.5771397 ], dtype=float32), array([[-3.97818804e-01, -4.64606047e-01,  4.38066185e-01,
        -4.48783517e-01, -3.55349988e-01,  4.78700340e-01,
        -2.30153635e-01,  6.07798249e-02,  1.46601781e-01,
         2.71222770e-01, -1.86132729e+00, -9.34055328e-01,
         2.98045158e-01,  3.78689796e-01, -2.08352208e+00,
        -1.91155708e+00],
       [ 6.06668830e-01, -4.11200571e+00, -2.62984467e+00,
        -3.99892354e+00, -4.77602291e+00, -3.50160742e+00,
        -2.27849936e+00,  6.49241209e-01,  6.27349392e-02,
        -3.17392302e+00, -9.90338206e-01,  3.25611800e-01,
         1.01090634e+00, -1.17618434e-01, -2.02795696e+00,
         1.27639279e-01],
       [-1.88996382e-02, -5.95653355e-02, -5.00076152e-02,
        -2.62600575e-02, -1.13546550e-02, -6.06553163e-03,
        -3.10957190e-02,  1.42180957e-02, -1.91741046e-02,
         2.63830572e-02, -5.75870089e-02,  2.75878329e-03,
        -5.52195683e-03, -1.09979848e-03, -7.59752234e-04,
        -1.90903880e-02],
       [-1.70099592e+00, -2.35556817e+00,  3.51180911e-01,
         2.69972444e-01,  6.46598637e-01,  5.79089403e-01,
        -2.20436454e+00,  3.65498215e-01, -8.99845183e-01,
        -5.57119370e-01, -3.86689496e+00,  3.47520828e-01,
        -1.28289890e+00, -1.98344421e+00,  1.53162420e-01,
        -1.24189365e+00],
       [ 7.69420564e-02, -2.10641074e+00, -1.63638341e+00,
         1.07552099e+00,  1.53900102e-01, -6.80476189e-01,
         1.30046561e-01, -1.55793965e+00, -1.11308120e-01,
        -2.51785350e+00, -3.26028061e+00, -8.29502463e-01,
        -2.62626266e+00,  7.13728726e-01, -1.93949059e-01,
         1.69896054e+00],
       [ 1.58069164e-01,  1.65251806e-01, -1.97096691e-01,
         6.67834580e-02,  2.58661687e-01, -4.29667920e-01,
        -1.39699364e+00, -7.95873106e-01, -2.14233065e+00,
         2.91071832e-01, -4.32177335e-01, -1.86675024e+00,
        -2.57300282e+00,  5.82731478e-02,  4.03685309e-02,
        -7.60308206e-01],
       [-3.58113587e-01, -1.92070648e-01, -1.31980171e-02,
        -4.23535824e-01, -1.38151228e+00,  5.91796041e-02,
        -2.43695235e+00, -1.83604395e+00,  4.12479728e-01,
         4.63526160e-01,  5.26438773e-01,  2.46649697e-01,
        -1.44118059e+00,  2.23279059e-01, -6.25419617e-02,
        -2.66849756e-01],
       [-3.44254446e+00,  1.58591866e+00, -9.89687026e-01,
        -2.15602174e-01,  3.41207653e-01, -2.73519874e+00,
        -1.46010351e+00,  1.49517131e+00, -9.02422190e-01,
        -3.15304875e+00, -3.85707021e+00, -2.62560940e+00,
        -3.79723310e+00, -1.45180190e+00, -1.72013128e+00,
         1.78878558e+00],
       [ 3.41877550e-01, -2.24510670e+00, -8.24421227e-01,
        -1.35728133e+00,  1.41118824e-01, -8.13278675e-01,
         7.02350914e-01,  2.66214073e-01, -2.56567001e+00,
        -5.36223613e-02,  3.97508860e-01, -1.87765613e-01,
        -1.28639019e+00, -2.55389810e-01, -1.63042760e+00,
        -8.62568200e-01],
       [-2.54927492e+00,  2.65151680e-01, -2.77538252e+00,
         2.30620638e-01, -3.20138842e-01, -6.88220739e-01,
         3.41510296e-01,  4.37549680e-01,  2.82165438e-01,
        -8.61466110e-01, -4.60326821e-01, -1.15109086e+00,
         6.50067091e-01,  6.65547013e-01,  6.99591398e-01,
        -1.74780250e+00],
       [ 3.97637725e-01,  2.06362948e-01,  1.01200588e-01,
        -6.85419559e-01, -1.15257762e-02,  5.94177425e-01,
        -8.47414732e-02, -3.76933396e-01,  8.57983530e-01,
        -4.97120380e-01,  8.76766443e-02, -9.34395611e-01,
        -1.16750860e+00, -1.58800089e+00, -5.31795800e-01,
        -1.47015142e+00],
       [ 3.83473337e-01, -2.12817335e+00,  2.77781039e-01,
         3.45187299e-02,  7.06394091e-02, -2.76903391e+00,
         3.24689031e-01, -1.05178416e+00, -1.88794453e-03,
        -3.88421118e-01, -6.00298405e-01, -6.73229873e-01,
         3.79698873e-01, -2.08814311e+00,  6.52729869e-01,
         2.21874505e-01],
       [ 2.52152178e-02, -5.57483494e-01, -3.58233988e-01,
        -1.33820042e-01, -2.50907922e+00, -4.76274528e-02,
        -3.37356061e-01, -4.18626238e-03, -2.03687429e+00,
         6.06458299e-02, -5.90438247e-01, -7.85619438e-01,
         6.57324027e-03, -1.73457694e+00,  2.13003159e-01,
        -9.55449976e-03],
       [-4.48657274e+00, -1.90129101e+00, -3.18090820e+00,
         4.83338982e-01, -3.54006171e-01,  8.70467052e-02,
        -1.35730994e+00,  5.61864257e-01, -1.75903812e-02,
        -2.80554914e+00,  4.35681224e-01,  3.16527426e-01,
        -2.03225803e+00, -1.22309911e+00, -2.84921199e-01,
        -3.89069796e-01],
       [-3.13770247e+00,  3.41604739e-01,  3.09424281e-01,
         4.81879294e-01, -7.64830291e-01, -1.70436156e+00,
        -1.06129229e+00, -2.59598947e+00, -3.14977646e+00,
        -3.61873937e+00, -3.21995306e+00,  8.42384398e-01,
         1.58336252e-01, -3.23428750e+00, -4.29932737e+00,
        -2.91534543e+00],
       [-1.59025109e+00,  5.00070035e-01, -2.70711631e-01,
        -1.83663023e+00,  1.00092366e-01, -6.45663917e-01,
         2.78821111e-01, -1.59122145e+00, -1.53838750e-02,
         9.05974358e-02,  8.42906535e-02,  6.93487227e-02,
         1.55101260e-02, -2.10885964e-02, -4.78427231e-01,
         3.42720032e-01]], dtype=float32), array([-0.05888286,  0.13785607, -0.49315128,  0.33867794, -0.37416306,
       -0.46181086, -0.94895416,  0.30400935, -1.8673362 , -1.2300135 ,
       -0.38895947,  0.85887104,  0.18416244, -0.9055964 , -1.2507272 ,
        0.30479702], dtype=float32)]

Model[7]
[array([[ 8.44145477e-01,  1.28747404e-01, -6.26896098e-02, ...,
        -5.32493889e-01,  2.72037446e-01, -1.00326724e-01],
       [-4.33091633e-02, -7.73800313e-02, -2.90493593e-02, ...,
        -1.33197068e-03, -6.35969698e-01,  6.00033522e-01],
       [ 6.74331069e-01, -1.65336475e-01, -5.05078807e-02, ...,
         4.68742609e-01, -1.13017641e-01, -3.55042696e-01],
       ...,
       [ 6.90097809e-01,  3.80515128e-01,  2.70958915e-02, ...,
         5.47402278e-02, -6.31546319e-01, -1.50141013e+00],
       [ 4.42361861e-01,  5.92860043e-01, -1.39316963e-02, ...,
        -3.72531563e-01, -7.02019453e-01, -4.22677875e-01],
       [ 1.05226493e+00,  3.23046178e-01,  1.16588175e-02, ...,
        -1.20027423e+00, -1.94648549e-01,  2.65885383e-01]], dtype=float32), array([-0.9643583 ,  1.0968044 , -0.05534787,  0.2850431 ,  0.17502475,
       -0.35968912, -0.57484365,  0.9379461 , -0.31583515, -0.66358495,
       -1.0403489 , -0.2862987 , -0.32113615,  0.3340212 ,  1.6206235 ,
       -0.757061  ], dtype=float32), array([[-2.82646775e-01, -3.08402747e-01,  2.13714138e-01,
        -1.65082395e-01, -4.84850764e-01,  1.16478398e-01,
        -6.70008063e-02, -1.21470511e-01,  2.99468432e-02,
         6.26524910e-02, -2.43870091e+00, -1.21381056e+00,
         3.72254360e-03, -1.82249442e-01, -2.87758875e+00,
        -1.93992984e+00],
       [ 3.67641032e-01, -3.95693111e+00, -3.97052312e+00,
        -3.84874988e+00, -6.65036631e+00, -5.11127901e+00,
        -4.75980186e+00,  4.56264704e-01, -1.61983818e-01,
        -5.01897717e+00, -1.20744622e+00,  9.93324295e-02,
         4.99317884e-01, -5.84107488e-02, -3.10733485e+00,
         2.98237890e-01],
       [-1.88996382e-02, -5.95653355e-02, -5.00076152e-02,
        -2.62600575e-02, -1.13546550e-02, -6.06553163e-03,
        -3.10957190e-02,  1.42180957e-02, -1.91741046e-02,
         2.63830572e-02, -5.75870089e-02,  2.75878329e-03,
        -5.52195683e-03, -1.09979848e-03, -7.59752234e-04,
        -1.90903880e-02],
       [-3.39268398e+00, -3.86410904e+00, -6.90170288e-01,
         4.12342340e-01,  5.39414346e-01,  6.23260617e-01,
        -2.31754017e+00, -1.74143404e-01, -1.57016754e+00,
        -8.12993407e-01, -4.56921196e+00,  2.67145306e-01,
        -8.73569071e-01, -3.74693489e+00,  5.79930127e-01,
        -1.66809845e+00],
       [-1.82759508e-01, -2.45095587e+00, -1.33144665e+00,
         1.24459410e+00, -1.91214204e-01, -1.31320488e+00,
        -8.28479528e-01, -2.20004654e+00,  2.82940939e-02,
        -3.88797331e+00, -4.58011436e+00, -2.02014232e+00,
        -3.07880592e+00,  1.14042234e+00, -2.67653704e-01,
         1.91052496e+00],
       [-2.78333366e-01, -6.90044686e-02, -1.61159083e-01,
         7.22675994e-02,  1.96932763e-01, -2.79643148e-01,
        -1.20577431e+00, -7.86224723e-01, -2.64963031e+00,
         1.89413071e-01, -3.11399251e-01, -2.04473472e+00,
        -3.36979723e+00,  1.32805752e-02,  2.76727438e-01,
        -1.32212424e+00],
       [-1.10674107e+00, -7.74483860e-01, -1.62696898e-01,
        -3.81246209e-01, -1.55805755e+00, -2.13022567e-02,
        -3.11700320e+00, -2.00200438e+00, -4.60347414e-01,
         4.58949119e-01,  5.35948217e-01,  5.66091001e-01,
        -1.36978865e+00,  4.53124614e-03, -7.20798910e-01,
        -4.46598321e-01],
       [-3.93724680e+00,  1.43395376e+00, -1.41991842e+00,
        -6.21554792e-01,  1.49178088e-01, -3.22723413e+00,
        -1.88446808e+00,  1.80660367e+00, -9.11588848e-01,
        -3.43733597e+00, -4.14624929e+00, -2.86465979e+00,
        -4.15958929e+00, -1.79619110e+00, -2.08121967e+00,
         1.73967278e+00],
       [ 7.57072389e-01, -1.86558664e+00, -2.22279644e+00,
        -2.17583609e+00, -2.33488381e-02, -7.67518699e-01,
         5.68679810e-01,  2.71033466e-01, -3.33234739e+00,
        -3.59327011e-02,  3.83547664e-01, -2.08643174e+00,
        -1.34092271e+00, -4.04744670e-02, -2.12384558e+00,
        -1.01322234e+00],
       [-3.00968981e+00,  1.24270029e-01, -3.91943693e+00,
        -1.13926463e-01, -7.42027819e-01, -1.27857602e+00,
         3.82052273e-01,  2.20802993e-01,  2.34659001e-01,
        -1.49786711e+00, -3.64910364e-01, -8.91094208e-01,
         7.34141886e-01,  7.53254950e-01,  8.17026079e-01,
        -1.96255016e+00],
       [ 2.43231967e-01,  6.16878808e-01, -9.43361521e-02,
        -1.70851898e+00,  4.49445061e-02,  7.19538033e-01,
        -3.71620893e-01, -5.63868165e-01,  8.75355721e-01,
        -6.46914721e-01, -1.58750430e-01, -1.69791317e+00,
        -7.19122350e-01, -1.69804406e+00, -5.65809429e-01,
        -1.12551320e+00],
       [ 3.82011980e-01, -3.05309105e+00,  1.00576594e-01,
         2.57265233e-02, -3.99474978e-01, -3.53048253e+00,
         2.88383633e-01, -1.80826056e+00,  1.05030820e-01,
        -2.25542948e-01, -6.55093670e-01, -8.47145319e-01,
         5.87150037e-01, -1.77280784e+00,  2.93061823e-01,
         3.88404936e-01],
       [-1.21731520e-01, -2.98781723e-01, -7.29710996e-01,
        -2.98590332e-01, -3.61457872e+00,  2.77626254e-02,
        -3.71928692e-01, -2.14996070e-01, -2.24153829e+00,
         7.09585249e-02, -4.30074871e-01, -1.31439507e+00,
        -6.81015968e-01, -1.36353338e+00,  3.57108444e-01,
         2.56428838e-01],
       [-5.23730183e+00, -3.23873758e+00, -4.40645647e+00,
        -2.35759709e-02,  2.58131810e-02,  1.64954022e-01,
        -1.14450431e+00, -1.27807856e-01,  5.67648590e-01,
        -2.51970983e+00,  5.65100610e-01,  2.34874897e-02,
        -1.99746919e+00, -1.22722197e+00, -2.25795642e-01,
        -8.96442868e-03],
       [-3.27105665e+00,  5.29451311e-01,  8.42797697e-01,
        -2.13089809e-02, -1.03072524e+00, -2.44251895e+00,
        -8.78873646e-01, -3.45722723e+00, -2.97786760e+00,
        -4.67005014e+00, -4.02840710e+00,  9.06359494e-01,
        -3.40906411e-01, -4.56383705e+00, -5.71913099e+00,
        -3.25639415e+00],
       [-1.37452328e+00,  1.17128544e-01, -1.31059945e-01,
        -1.84012365e+00,  1.26915395e-01, -1.07346809e+00,
         7.11905807e-02, -1.90566599e+00,  2.13786870e-01,
        -6.87205717e-02,  2.93077409e-01, -3.43525829e-03,
        -4.25368279e-01, -2.07753688e-01, -4.53985125e-01,
        -2.64914483e-01]], dtype=float32), array([-0.14603955,  0.0163459 , -0.82026726,  0.05371004, -0.33005786,
       -0.6534067 , -0.95707697,  0.03418757, -1.9909306 , -1.2443737 ,
       -0.22998057,  0.8658536 , -0.02922995, -1.0703223 , -1.2244622 ,
        0.47055605], dtype=float32)]

Model[8]
[array([[ 0.5704104 ,  0.14625622, -0.06268961, ..., -0.28384367,
         0.40562993,  0.47753322],
       [ 0.22734824, -0.00221743, -0.02904936, ...,  0.39478523,
        -0.6783182 ,  0.34770432],
       [ 0.65178055, -0.11418602, -0.05050788, ...,  0.52800435,
        -0.24356833, -0.14464316],
       ...,
       [ 0.35753825,  0.27025145,  0.02709589, ...,  0.33407214,
        -0.6275648 , -1.5055709 ],
       [ 0.23774578,  0.6496569 , -0.0139317 , ..., -0.03392653,
        -0.74822706, -0.3653575 ],
       [ 1.0232728 ,  0.3826799 ,  0.01165882, ..., -1.5294122 ,
        -0.30149314, -0.00887298]], dtype=float32), array([-1.2716144e+00,  1.0865259e+00, -5.5347875e-02,  1.2862381e-01,
       -1.5886039e-04, -5.9920251e-01, -6.2113732e-01,  9.3104935e-01,
       -5.8904475e-01, -9.2128247e-01, -1.3836139e+00, -6.8867910e-01,
       -7.3640281e-01,  3.0614960e-01,  1.4305756e+00, -1.1029190e+00],
      dtype=float32), array([[-5.67720056e-01, -3.88416648e-01, -1.04524255e-01,
        -3.00131142e-01, -6.31837368e-01, -1.58409715e-01,
        -1.07459210e-01, -8.96396577e-01, -4.93266955e-02,
         8.07609130e-03, -2.93025208e+00, -1.24526823e+00,
        -5.08027911e-01,  7.27812126e-02, -2.83842039e+00,
        -1.45014071e+00],
       [ 5.23729715e-03, -4.81627178e+00, -5.58318043e+00,
        -4.95492029e+00, -7.29479074e+00, -5.67665958e+00,
        -5.09051466e+00, -1.25101656e-01,  6.18076265e-01,
        -7.06831169e+00, -1.62870288e+00,  2.78364927e-01,
         5.80276966e-01, -1.64212778e-01, -3.03335500e+00,
         5.49789071e-01],
       [-1.88996382e-02, -5.95653355e-02, -5.00076152e-02,
        -2.62600575e-02, -1.13546550e-02, -6.06553163e-03,
        -3.10957190e-02,  1.42180957e-02, -1.91741046e-02,
         2.63830572e-02, -5.75870089e-02,  2.75878329e-03,
        -5.52195683e-03, -1.09979848e-03, -7.59752234e-04,
        -1.90903880e-02],
       [-3.94498301e+00, -4.86370707e+00, -1.12338090e+00,
         4.40165877e-01,  1.05769217e+00,  3.25511336e-01,
        -2.14776993e+00,  1.82835937e-01, -2.28359389e+00,
        -1.79224420e+00, -4.61345577e+00, -3.71550351e-01,
        -1.84260082e+00, -4.60992241e+00,  4.81772870e-01,
        -2.96131086e+00],
       [-6.58545613e-01, -2.70164847e+00, -1.69687486e+00,
         1.24063230e+00, -4.39813793e-01, -1.65256286e+00,
        -8.50048959e-01, -2.35318923e+00, -5.37557185e-01,
        -4.03329992e+00, -4.85411596e+00, -2.41219664e+00,
        -3.17320418e+00,  1.05351686e+00, -6.71534836e-01,
         1.42068458e+00],
       [-3.54538292e-01,  1.67374253e-01,  1.32586539e-01,
        -9.71478075e-02, -4.44955647e-01, -1.52730078e-01,
        -1.31897187e+00, -1.85173726e+00, -3.12184215e+00,
         1.95148364e-01, -1.15505204e-01, -2.45950079e+00,
        -4.10632563e+00,  4.46039401e-02, -4.13506329e-01,
        -1.57978368e+00],
       [-1.07076848e+00, -1.78522503e+00, -1.13313448e+00,
        -1.06152701e+00, -2.51559353e+00, -5.73990941e-01,
        -4.43856812e+00, -2.73040009e+00, -9.37683403e-01,
         4.12451699e-02,  8.87032032e-01,  5.70554256e-01,
        -1.93969333e+00, -5.17332017e-01, -1.14353681e+00,
        -6.91808105e-01],
       [-4.86318588e+00,  1.44314158e+00, -1.74772823e+00,
        -1.48951721e+00,  2.88313895e-01, -4.27275372e+00,
        -2.87604213e+00,  1.54080200e+00, -1.43990362e+00,
        -4.57434464e+00, -4.76759338e+00, -3.51808190e+00,
        -4.57504749e+00, -2.11911488e+00, -2.76599431e+00,
         1.37929797e+00],
       [ 4.93843526e-01, -3.15286803e+00, -2.49420071e+00,
        -2.17138481e+00,  5.26947737e-01, -7.77153671e-01,
         2.86053419e-01,  3.94317880e-02, -3.84975123e+00,
        -5.49621522e-01,  5.04554808e-01, -2.99734235e+00,
        -2.97243714e+00, -2.02612147e-01, -3.10176563e+00,
        -1.53025734e+00],
       [-3.65980244e+00, -1.81451902e-01, -5.21091270e+00,
         5.79622507e-01, -1.65785611e+00, -2.21948791e+00,
        -3.27155739e-03,  2.42667079e-01,  4.73040223e-01,
        -1.95117486e+00, -1.51874387e+00, -1.33263040e+00,
         5.20072222e-01,  4.13304597e-01,  1.06697714e+00,
        -2.04299474e+00],
       [-4.47063208e-01, -4.85851914e-01, -1.18270256e-01,
        -2.61652684e+00,  3.51426750e-01,  6.18479550e-01,
        -5.16258955e-01, -1.10282755e+00,  6.16471171e-01,
        -8.90941143e-01, -7.46467173e-01, -2.19037843e+00,
        -1.69943941e+00, -1.88207686e+00, -3.69794607e-01,
        -1.09115791e+00],
       [ 3.78613532e-01, -3.30865526e+00,  2.28952602e-01,
         6.98564723e-02, -4.86824542e-01, -3.67518020e+00,
        -2.56659061e-01, -2.80459619e+00, -6.53312862e-01,
        -5.21875620e-01, -1.01380920e+00, -1.47819316e+00,
        -1.14985332e-01, -2.51249409e+00,  4.57041591e-01,
        -4.55050021e-01],
       [-8.15563127e-02, -4.06700283e-01, -9.19040024e-01,
        -4.24079418e-01, -3.64833212e+00, -1.14254571e-01,
        -6.11217618e-01, -5.69737434e-01, -2.86039662e+00,
         2.25748137e-01, -5.91900349e-01, -1.43322957e+00,
        -8.29516351e-01, -3.13031626e+00,  4.49410498e-01,
        -4.11696397e-02],
       [-5.71782732e+00, -4.87595844e+00, -5.85783863e+00,
        -3.40845495e-01, -4.57998037e-01,  2.96256453e-01,
        -1.30051243e+00,  9.64266732e-02,  6.50556147e-01,
        -2.81489325e+00, -3.16390349e-03, -6.83732688e-01,
        -2.66047978e+00, -1.75843406e+00, -2.41319299e-01,
        -1.40165269e+00],
       [-3.82265329e+00,  3.35732192e-01,  7.16186166e-01,
        -5.20444214e-01, -1.76310849e+00, -2.87139034e+00,
        -1.27944934e+00, -4.72351027e+00, -4.32369232e+00,
        -5.70628738e+00, -4.73080778e+00,  5.03047287e-01,
         8.99158895e-01, -5.38570595e+00, -6.52997446e+00,
        -3.35842252e+00],
       [-1.65207183e+00, -2.37739742e-01, -5.04109748e-02,
        -1.49418366e+00, -2.38856837e-01, -1.02622378e+00,
         1.02182701e-01, -1.56835198e+00, -1.84041679e-01,
        -4.20108467e-01, -1.01079755e-01, -5.00828445e-01,
        -5.11512756e-01, -7.63527900e-02, -4.21794027e-01,
        -5.84106922e-01]], dtype=float32), array([-0.27182257, -0.9382326 , -1.017404  , -0.5292945 , -0.8774769 ,
       -1.0650775 , -1.0983346 , -0.13198143, -2.3782616 , -1.8378851 ,
       -0.96842426,  0.04186552, -0.6391748 , -1.5140787 , -1.3513348 ,
       -0.04023888], dtype=float32)]

Model[9]
[array([[ 0.62740684,  0.106158  , -0.06268961, ..., -0.6083736 ,
         0.5207691 ,  0.09545818],
       [-0.30150387, -0.04597763, -0.02904936, ...,  0.22428143,
        -0.8741823 ,  0.46190232],
       [ 0.22127445, -0.12217753, -0.05050788, ...,  0.7481625 ,
        -0.17574699, -0.29430535],
       ...,
       [ 0.35635674,  0.39357743,  0.02709589, ..., -0.05685846,
        -0.6036109 , -0.951601  ],
       [ 0.0835757 ,  0.2642142 , -0.0139317 , ..., -0.42604256,
        -0.60325474, -0.7669657 ],
       [ 0.962189  ,  0.26601666,  0.01165882, ..., -1.6400774 ,
        -0.23251067, -0.10102365]], dtype=float32), array([-1.3702909 ,  0.83973336, -0.05534787,  0.02261324,  0.00509375,
       -0.8639037 , -0.7053434 ,  0.82913685, -0.74789184, -1.0641631 ,
       -1.4363661 , -0.93330437, -1.0069231 ,  0.09499846,  1.3816195 ,
       -1.3297309 ], dtype=float32), array([[-5.42344391e-01,  1.05502941e-01,  2.46156249e-02,
        -8.45919788e-01, -8.20349753e-01, -8.92933533e-02,
        -5.20088851e-01, -1.28484213e+00, -5.41341364e-01,
        -4.08258170e-01, -3.08906078e+00, -1.31692231e+00,
        -3.03113610e-01,  2.97961056e-01, -2.96165204e+00,
        -1.99258566e+00],
       [-6.26726031e-01, -5.42837572e+00, -7.24379301e+00,
        -5.03528214e+00, -7.91767693e+00, -6.59710503e+00,
        -6.12841749e+00, -1.26723856e-01,  8.66742909e-01,
        -7.57507753e+00, -1.69976950e+00,  9.06390324e-02,
        -9.55952927e-02, -1.72495708e-01, -4.63292599e+00,
         3.96062702e-01],
       [-1.88996382e-02, -5.95653355e-02, -5.00076152e-02,
        -2.62600575e-02, -1.13546550e-02, -6.06553163e-03,
        -3.10957190e-02,  1.42180957e-02, -1.91741046e-02,
         2.63830572e-02, -5.75870089e-02,  2.75878329e-03,
        -5.52195683e-03, -1.09979848e-03, -7.59752234e-04,
        -1.90903880e-02],
       [-5.92832088e+00, -5.54487038e+00, -2.74644566e+00,
        -9.17903557e-02,  2.22688541e-01, -2.48886779e-01,
        -3.21787214e+00,  5.58554888e-01, -3.26543546e+00,
        -2.42167664e+00, -4.99692917e+00, -1.11091065e+00,
        -1.88837671e+00, -5.37835789e+00,  1.89700410e-01,
        -3.86909628e+00],
       [-1.56867921e+00, -3.62550235e+00, -2.82086039e+00,
         1.13623969e-01, -1.71644127e+00, -2.49735832e+00,
        -2.01520538e+00, -2.96836996e+00, -8.02383959e-01,
        -4.92224360e+00, -6.24805927e+00, -2.87460780e+00,
        -4.52142334e+00,  1.22820604e+00, -7.95602202e-01,
         1.50417244e+00],
       [-3.08952987e-01, -4.60263379e-02, -5.29983580e-01,
         5.06481566e-02, -1.42768100e-01, -2.79353470e-01,
        -1.68003798e+00, -2.08807707e+00, -5.53736544e+00,
         4.81732219e-01, -1.97984204e-01, -4.21846962e+00,
        -5.13808489e+00, -1.54474646e-01, -2.33686641e-01,
        -2.08728147e+00],
       [-1.20644963e+00, -2.01292944e+00, -1.31556928e+00,
        -2.24543619e+00, -4.30033970e+00, -1.18822992e+00,
        -6.19524908e+00, -3.41344786e+00, -1.51697671e+00,
        -9.23767015e-02,  1.16832483e+00,  5.74482739e-01,
        -2.43567657e+00, -1.68367147e+00, -1.68424678e+00,
        -7.92841494e-01],
       [-5.87494373e+00,  1.43645620e+00, -3.15728498e+00,
        -2.23542523e+00, -3.31910014e-01, -4.93450785e+00,
        -3.43077135e+00,  1.60698760e+00, -2.60369420e+00,
        -5.09990835e+00, -5.99655867e+00, -4.04303503e+00,
        -5.22210598e+00, -3.41383147e+00, -3.40008402e+00,
         8.80754054e-01],
       [ 8.40889513e-01, -4.28055763e+00, -3.54135132e+00,
        -3.35516429e+00,  3.70986938e-01, -1.09282732e+00,
         1.61855310e-01, -9.75851893e-01, -4.67523384e+00,
        -1.73030525e-01, -2.29152963e-01, -4.12349510e+00,
        -3.11866236e+00, -5.47226250e-01, -3.56909585e+00,
        -1.97616243e+00],
       [-3.97275019e+00, -1.40121841e+00, -6.30446911e+00,
        -4.31759330e-03, -1.81597304e+00, -2.77129245e+00,
        -4.30967659e-01,  1.71255544e-01,  4.18237627e-01,
        -3.03770566e+00, -2.30246711e+00, -1.65442204e+00,
         1.08842447e-01,  3.97422314e-01,  6.72445834e-01,
        -3.38057399e+00],
       [-7.38516867e-01, -1.36358666e+00, -1.42770195e-02,
        -3.51785135e+00, -1.45647511e-01,  6.66149676e-01,
        -7.72120357e-01, -1.49727476e+00,  4.79925662e-01,
        -1.76002240e+00, -7.88003445e-01, -2.88592839e+00,
        -2.66289544e+00, -2.62103891e+00, -8.85176539e-01,
        -8.24416757e-01],
       [-6.75226450e-02, -4.03588963e+00, -7.19225764e-01,
         1.79596677e-01, -2.92677015e-01, -3.71291590e+00,
        -1.11517596e+00, -3.03148985e+00, -1.29583919e+00,
        -7.02060282e-01, -1.01477063e+00, -2.19437122e+00,
        -2.82540411e-01, -3.43926215e+00,  7.05060959e-02,
        -8.76338840e-01],
       [-2.75200516e-01, -1.57312346e+00, -2.08322763e+00,
        -4.25665081e-01, -4.60668850e+00, -5.61369002e-01,
        -1.05104232e+00, -1.71012235e+00, -3.76658797e+00,
         2.06154943e-01, -1.40371883e+00, -2.16569138e+00,
        -1.53437865e+00, -3.70586133e+00,  7.39758611e-01,
        -9.46449339e-01],
       [-6.29268456e+00, -6.62951565e+00, -6.81774855e+00,
        -1.21608533e-01, -1.22172356e+00, -4.72838998e-01,
        -1.60675240e+00, -1.22321986e-01,  1.10174751e+00,
        -2.94047642e+00,  2.05102786e-01, -6.25754416e-01,
        -3.84740996e+00, -2.71682763e+00, -8.06298077e-01,
        -1.92656112e+00],
       [-4.46577692e+00, -8.58268738e-02,  7.12188721e-01,
        -7.92062581e-02, -3.03578210e+00, -4.03423595e+00,
        -2.13565779e+00, -5.38535166e+00, -4.96308470e+00,
        -6.65058994e+00, -4.85043669e+00,  4.24536318e-01,
         6.46096885e-01, -6.17461824e+00, -7.23082685e+00,
        -3.45822167e+00],
       [-1.82894647e+00, -4.49702948e-01, -3.57621461e-01,
        -9.15823996e-01,  1.73117369e-02, -1.09631109e+00,
         1.99266989e-02, -1.73006749e+00,  1.33027688e-01,
        -1.75596103e-01, -2.44200185e-01, -4.58180815e-01,
        -6.14525855e-01, -5.96159458e-01, -6.44560814e-01,
        -6.59042120e-01]], dtype=float32), array([-0.9486849 , -1.7290736 , -1.8148786 , -1.1346886 , -1.6902399 ,
       -1.3713254 , -1.6907933 , -0.90993726, -2.8468103 , -2.0536199 ,
       -1.2841077 , -0.9450287 , -1.2507082 , -2.3333855 , -1.1809297 ,
       -0.92939156], dtype=float32)]

